#mdl#2#3447
#rdr#158/23/0
12:u00:%x[-4,0],
12:u01:%x[-3,0],
12:u02:%x[-2,0],
12:u03:%x[-1,0],
11:u04:%x[0,0],
11:u05:%x[1,0],
11:u06:%x[2,0],
11:u07:%x[3,0],
11:u08:%x[4,0],
11:u09:%x[5,0],
20:u0A:%x[-1,0]/%x[0,0],
19:u0B:%x[0,0]/%x[1,0],
19:u0C:%x[1,0]/%x[2,0],
21:u0D:%x[-2,0]/%x[-1,0],
12:u10:%x[-2,1],
12:u11:%x[-1,1],
11:u12:%x[0,1],
11:u13:%x[1,1],
11:u14:%x[2,1],
11:u20:%x[0,2],
11:u21:%x[0,3],
11:u22:%x[0,4],
11:u23:%x[0,5],
11:u30:%x[0,6],
11:u31:%x[0,7],
11:u32:%x[0,8],
11:u33:%x[0,9],
13:u40:%x[-1,10],
12:u41:%x[0,10],
12:u42:%x[1,10],
13:u50:%x[-2,11],
13:u51:%x[-1,11],
12:u52:%x[0,11],
12:u53:%x[1,11],
12:u54:%x[2,11],
13:u60:%x[-1,12],
12:u61:%x[0,12],
12:u62:%x[1,12],
13:u70:%x[-1,13],
12:u71:%x[0,13],
12:u72:%x[1,13],
13:u80:%x[-1,14],
12:u81:%x[0,14],
12:u82:%x[1,14],
13:u90:%x[-1,15],
12:u91:%x[0,15],
12:u92:%x[1,15],
13:uA0:%x[-1,16],
12:uA1:%x[0,16],
12:uA2:%x[1,16],
12:uB0:%x[0,17],
12:uB1:%x[1,17],
13:uB2:%x[-1,17],
21:uB3:%x[0,17]/%x[1,17],
22:uB4:%x[-1,17]/%x[0,17],
12:uC0:%x[0,18],
13:uC1:%x[-1,18],
12:uC2:%x[1,18],
12:uD0:%x[0,19],
13:uD1:%x[-1,19],
12:uD2:%x[1,19],
12:uF0:%x[0,20],
13:uF1:%x[-1,20],
13:uF2:%x[-2,20],
12:uF3:%x[1,20],
12:uF4:%x[2,20],
13:uG0:%x[-1,21],
12:uG1:%x[0,21],
12:uG2:%x[1,21],
13:uH0:%x[-1,22],
12:uH1:%x[0,22],
12:uH2:%x[1,22],
13:uI0:%x[-2,23],
13:uI1:%x[-1,23],
12:uI2:%x[0,23],
12:uI3:%x[1,23],
12:uI4:%x[2,23],
12:uI5:%x[3,23],
1:b,
12:u00:%x[-4,0],
12:u01:%x[-3,0],
12:u02:%x[-2,0],
12:u03:%x[-1,0],
11:u04:%x[0,0],
11:u05:%x[1,0],
11:u06:%x[2,0],
11:u07:%x[3,0],
11:u08:%x[4,0],
11:u09:%x[5,0],
20:u0A:%x[-1,0]/%x[0,0],
19:u0B:%x[0,0]/%x[1,0],
19:u0C:%x[1,0]/%x[2,0],
21:u0D:%x[-2,0]/%x[-1,0],
12:u10:%x[-2,1],
12:u11:%x[-1,1],
11:u12:%x[0,1],
11:u13:%x[1,1],
11:u14:%x[2,1],
11:u20:%x[0,2],
11:u21:%x[0,3],
11:u22:%x[0,4],
11:u23:%x[0,5],
11:u30:%x[0,6],
11:u31:%x[0,7],
11:u32:%x[0,8],
11:u33:%x[0,9],
13:u40:%x[-1,10],
12:u41:%x[0,10],
12:u42:%x[1,10],
13:u50:%x[-2,11],
13:u51:%x[-1,11],
12:u52:%x[0,11],
12:u53:%x[1,11],
12:u54:%x[2,11],
13:u60:%x[-1,12],
12:u61:%x[0,12],
12:u62:%x[1,12],
13:u70:%x[-1,13],
12:u71:%x[0,13],
12:u72:%x[1,13],
13:u80:%x[-1,14],
12:u81:%x[0,14],
12:u82:%x[1,14],
13:u90:%x[-1,15],
12:u91:%x[0,15],
12:u92:%x[1,15],
13:uA0:%x[-1,16],
12:uA1:%x[0,16],
12:uA2:%x[1,16],
12:uB0:%x[0,17],
12:uB1:%x[1,17],
13:uB2:%x[-1,17],
21:uB3:%x[0,17]/%x[1,17],
22:uB4:%x[-1,17]/%x[0,17],
12:uC0:%x[0,18],
13:uC1:%x[-1,18],
12:uC2:%x[1,18],
12:uD0:%x[0,19],
13:uD1:%x[-1,19],
12:uD2:%x[1,19],
12:uF0:%x[0,20],
13:uF1:%x[-1,20],
13:uF2:%x[-2,20],
12:uF3:%x[1,20],
12:uF4:%x[2,20],
13:uG0:%x[-1,21],
12:uG1:%x[0,21],
12:uG2:%x[1,21],
13:uH0:%x[-1,22],
12:uH1:%x[0,22],
12:uH2:%x[1,22],
13:uI0:%x[-2,23],
13:uI1:%x[-1,23],
12:uI2:%x[0,23],
12:uI3:%x[1,23],
12:uI4:%x[2,23],
12:uI5:%x[3,23],
1:b,
#qrk#22
11:I-<section>,
13:I-<paragraph>,
11:<paragraph>,
19:I-<citation_marker>,
17:<citation_marker>,
9:<section>,
16:I-<table_marker>,
14:<table_marker>,
17:I-<figure_marker>,
15:<figure_marker>,
9:I-<table>,
7:<table>,
10:I-<figure>,
8:<figure>,
12:I-<equation>,
10:<equation>,
18:I-<equation_label>,
16:<equation_label>,
19:I-<equation_marker>,
17:<equation_marker>,
9:I-<other>,
7:<other>,
#qrk#1252
7:u06:the,
6:u08:of,
7:u14:the,
5:u20:B,
5:u30:d,
6:u31:nd,
7:u32:und,
14:u41:BLOCKSTART,
14:u42:BLOCKSTART,
13:u52:LINESTART,
13:u53:LINESTART,
10:u54:LINEIN,
15:u61:ALIGNEDLEFT,
15:u62:ALIGNEDLEFT,
11:u71:NEWFONT,
11:u72:NEWFONT,
14:u81:HIGHERFONT,
13:u82:LOWERFONT,
5:u91:0,
5:u92:0,
5:uA1:0,
5:uA2:0,
11:uB0:INITCAP,
11:uB1:INITCAP,
19:uB3:INITCAP/INITCAP,
11:uC0:NODIGIT,
11:uC2:NODIGIT,
5:uD0:0,
5:uD2:0,
11:uF0:NOPUNCT,
11:uF3:NOPUNCT,
11:uF4:NOPUNCT,
5:uG1:0,
5:uG2:0,
5:uH1:8,
5:uH2:8,
5:uI2:0,
5:uI3:0,
5:uI4:0,
5:uI5:0,
1:b,
7:u05:the,
6:u07:of,
7:u13:the,
5:u20:D,
6:u21:De,
5:u30:e,
14:u40:BLOCKSTART,
11:u42:BLOCKIN,
13:u51:LINESTART,
10:u53:LINEIN,
15:u60:ALIGNEDLEFT,
11:u70:NEWFONT,
12:u72:SAMEFONT,
14:u80:HIGHERFONT,
13:u81:LOWERFONT,
16:u82:SAMEFONTSIZE,
5:u90:0,
5:uA0:0,
10:uB1:NOCAPS,
11:uB2:INITCAP,
18:uB3:INITCAP/NOCAPS,
19:uB4:INITCAP/INITCAP,
11:uC1:NODIGIT,
5:uD1:0,
11:uF1:NOPUNCT,
5:uG0:0,
5:uH0:8,
5:uI1:0,
7:u04:the,
6:u06:of,
7:u12:the,
6:u14:of,
5:u20:t,
6:u21:th,
7:u22:the,
7:u23:the,
6:u31:he,
7:u32:the,
7:u33:the,
11:u41:BLOCKIN,
13:u50:LINESTART,
10:u52:LINEIN,
12:u71:SAMEFONT,
13:u80:LOWERFONT,
16:u81:SAMEFONTSIZE,
10:uB0:NOCAPS,
17:uB3:NOCAPS/NOCAPS,
18:uB4:INITCAP/NOCAPS,
11:uF2:NOPUNCT,
5:uI0:0,
7:u03:the,
6:u05:of,
5:u09:,,
7:u11:the,
6:u13:of,
5:u20:a,
11:u40:BLOCKIN,
10:u51:LINEIN,
12:u70:SAMEFONT,
16:u80:SAMEFONTSIZE,
10:uB2:NOCAPS,
17:uB4:NOCAPS/NOCAPS,
7:u02:the,
6:u04:of,
5:u08:,,
7:u10:the,
6:u12:of,
5:u20:o,
6:u21:of,
6:u22:of,
6:u23:of,
5:u30:f,
6:u31:of,
6:u32:of,
6:u33:of,
10:u50:LINEIN,
7:u01:the,
6:u03:of,
5:u07:,,
6:u11:of,
5:u30:n,
6:u02:of,
5:u06:,,
6:u10:of,
5:u14:,,
5:u20:e,
9:uF4:COMMA,
6:u01:of,
5:u05:,,
5:u13:,,
11:u54:LINEEND,
10:uB1:ALLCAP,
17:uB3:NOCAPS/ALLCAP,
5:uD2:1,
9:uF3:COMMA,
6:u00:of,
5:u04:,,
5:u09:(,
5:u12:,,
5:u20:,,
5:u21:,,
5:u22:,,
5:u23:,,
5:u30:,,
5:u31:,,
5:u32:,,
5:u33:,,
11:u53:LINEEND,
13:u54:LINESTART,
10:uB0:ALLCAP,
17:uB3:ALLCAP/NOCAPS,
17:uB4:NOCAPS/ALLCAP,
5:uD0:1,
9:uF0:COMMA,
5:u03:,,
5:u08:(,
5:u11:,,
5:u20:c,
11:u52:LINEEND,
10:uB2:ALLCAP,
17:uB4:ALLCAP/NOCAPS,
5:uD1:1,
9:uF1:COMMA,
5:u02:,,
5:u07:(,
5:u09:),
5:u10:,,
5:u30:s,
11:u51:LINEEND,
9:uF2:COMMA,
5:u01:,,
5:u06:(,
5:u08:),
5:u14:(,
11:u50:LINEEND,
15:uF4:OPENBRACKET,
5:u00:,,
5:u07:),
6:u31:us,
15:uF3:OPENBRACKET,
5:u04:(,
5:u06:),
5:u12:(,
5:u14:),
5:u20:(,
5:u21:(,
5:u22:(,
5:u23:(,
5:u30:(,
5:u31:(,
5:u32:(,
5:u33:(,
17:uB3:ALLCAP/ALLCAP,
15:uF0:OPENBRACKET,
14:uF4:ENDBRACKET,
5:u03:(,
5:u05:),
5:u11:(,
5:u13:),
5:u30:V,
17:uB4:ALLCAP/ALLCAP,
15:uF1:OPENBRACKET,
14:uF3:ENDBRACKET,
5:u02:(,
5:u04:),
5:u10:(,
5:u12:),
5:u20:),
5:u21:),
5:u22:),
5:u23:),
5:u30:),
5:u31:),
5:u32:),
5:u33:),
14:uF0:ENDBRACKET,
15:uF2:OPENBRACKET,
5:u01:(,
5:u03:),
6:u09:of,
5:u11:),
5:u20:i,
6:u21:in,
6:u31:on,
7:u32:ion,
8:u33:tion,
14:uF1:ENDBRACKET,
5:u00:(,
5:u02:),
5:u10:),
5:u20:r,
14:uF2:ENDBRACKET,
5:u01:),
5:u00:),
5:u30:t,
5:u30:r,
6:u31:er,
6:u09:in,
6:u08:in,
6:u07:in,
6:u06:in,
6:u14:in,
6:u05:in,
6:u13:in,
6:u04:in,
6:u12:in,
6:u22:in,
6:u23:in,
6:u31:in,
6:u32:in,
6:u33:in,
5:uH2:9,
6:u03:in,
6:u11:in,
5:u20:p,
5:uH1:9,
6:u02:in,
5:u09:-,
6:u10:in,
18:uB3:NOCAPS/INITCAP,
5:uH0:9,
6:u01:in,
5:u08:-,
5:u20:E,
6:u31:st,
18:uB4:NOCAPS/INITCAP,
6:u00:in,
5:u07:-,
5:u20:A,
5:u06:-,
5:u14:-,
10:uF4:HYPHEN,
5:u05:-,
5:u09:1,
5:u13:-,
5:u20:S,
5:u30:b,
18:uB3:INITCAP/ALLCAP,
10:uF3:HYPHEN,
5:u04:-,
5:u12:-,
5:u20:-,
5:u21:-,
5:u22:-,
5:u23:-,
5:u30:-,
5:u31:-,
5:u32:-,
5:u33:-,
18:uB3:ALLCAP/INITCAP,
18:uB4:INITCAP/ALLCAP,
10:uF0:HYPHEN,
5:u03:-,
5:u06:[,
5:u07:1,
5:u08:],
5:u09:.,
5:u11:-,
5:u14:[,
18:uB4:ALLCAP/INITCAP,
10:uF1:HYPHEN,
5:u02:-,
5:u06:1,
5:u08:.,
6:u09:In,
5:u10:-,
5:u14:1,
10:uF2:HYPHEN,
5:u01:-,
5:u04:[,
5:u05:1,
5:u06:],
5:u07:.,
6:u08:In,
5:u12:[,
5:u13:1,
5:u14:],
5:u20:[,
5:u21:[,
5:u22:[,
5:u23:[,
5:u30:[,
5:u31:[,
5:u32:[,
5:u33:[,
12:uC2:ALLDIGIT,
5:u00:-,
5:u03:[,
5:u04:1,
5:u05:],
5:u06:.,
6:u07:In,
5:u11:[,
5:u12:1,
5:u13:],
5:u14:.,
5:u20:1,
5:u21:1,
5:u22:1,
5:u23:1,
5:u30:1,
5:u31:1,
5:u32:1,
5:u33:1,
12:uC0:ALLDIGIT,
7:uF4:DOT,
5:u02:[,
5:u03:1,
5:u04:],
5:u05:.,
5:u10:[,
5:u11:1,
5:u12:],
5:u13:.,
5:u20:],
5:u21:],
5:u22:],
5:u23:],
5:u30:],
5:u31:],
5:u32:],
5:u33:],
12:uC1:ALLDIGIT,
7:uF3:DOT,
5:u01:[,
5:u02:1,
5:u03:],
5:u04:.,
5:u10:1,
5:u11:],
5:u12:.,
5:u20:.,
5:u21:.,
5:u22:.,
5:u23:.,
5:u30:.,
5:u31:.,
5:u32:.,
5:u33:.,
7:uF0:DOT,
5:u01:1,
5:u03:.,
6:u04:In,
5:u11:.,
5:u20:I,
6:u21:In,
6:u22:In,
6:u23:In,
6:u31:In,
6:u32:In,
6:u33:In,
7:uF1:DOT,
5:u00:1,
5:u02:.,
6:u03:In,
5:u10:.,
5:u30:l,
6:u31:al,
7:uF2:DOT,
5:u01:.,
6:u02:In,
5:u20:d,
5:u00:.,
6:u01:In,
6:u00:In,
7:u09:the,
7:u08:the,
7:u07:the,
5:u20:s,
5:u30:m,
6:u31:re,
5:u20:m,
6:u21:mo,
5:u20:f,
7:u03:for,
7:u11:for,
12:u42:BLOCKEND,
12:u41:BLOCKEND,
12:u40:BLOCKEND,
5:u30:g,
6:u31:ng,
6:u09:at,
6:u08:at,
6:u07:at,
6:u06:at,
6:u14:at,
5:u20:u,
6:u21:us,
6:u31:ts,
5:u30:h,
5:u05:7,
5:u13:7,
5:u04:7,
5:u12:7,
5:u20:7,
5:u21:7,
5:u22:7,
5:u23:7,
5:u30:7,
5:u31:7,
5:u32:7,
5:u33:7,
5:u03:7,
5:u05:8,
5:u09:/,
5:u11:7,
5:u13:8,
5:u02:7,
5:u04:8,
5:u08:/,
5:u10:7,
5:u12:8,
5:u20:8,
5:u21:8,
5:u22:8,
5:u23:8,
5:u30:8,
5:u31:8,
5:u32:8,
5:u33:8,
5:u01:7,
5:u03:8,
5:u07:/,
5:u11:8,
5:u06:/,
5:u14:/,
14:u82:HIGHERFONT,
5:u05:/,
5:u13:/,
5:u04:/,
5:u12:/,
5:u20:/,
5:u21:/,
5:u22:/,
5:u23:/,
5:u30:/,
5:u31:/,
5:u32:/,
5:u33:/,
5:u03:/,
5:u11:/,
5:u02:/,
5:u10:/,
5:u01:/,
5:u00:/,
6:u31:rs,
6:u31:en,
6:u21:de,
6:u31:es,
6:u09:to,
5:u20:w,
7:u32:ves,
5:u30:i,
5:u20:T,
6:u21:Th,
7:u22:The,
5:u08:a,
5:u06:a,
5:u12:a,
5:u30:p,
5:u01:a,
5:u00:a,
5:u30:w,
6:u31:ow,
5:u04:2,
5:u12:2,
5:u20:2,
5:u21:2,
5:u22:2,
5:u23:2,
5:u30:2,
5:u31:2,
5:u32:2,
5:u33:2,
5:u03:2,
5:u11:2,
5:u02:2,
5:u10:2,
5:u01:2,
5:u20:M,
5:u20:n,
10:u0C:of/the,
10:u0B:of/the,
10:u0A:of/the,
10:u0D:of/the,
5:uH2:1,
5:uH1:1,
5:uH0:1,
5:uH2:2,
5:uH1:2,
5:uH0:2,
5:u20:3,
5:u30:3,
6:u21:en,
6:u21:so,
5:u09:4,
5:u08:4,
5:u07:4,
5:u30:4,
14:u62:LINEINDENT,
5:uH2:3,
14:u61:LINEINDENT,
5:uH1:3,
14:u60:LINEINDENT,
5:uH0:3,
6:u31:as,
7:u22:use,
8:u14:test,
6:u31:de,
5:uG2:1,
5:uG1:1,
5:uG0:1,
5:uH2:4,
5:uH1:4,
5:uH0:4,
5:u30:5,
6:u31:le,
6:u21:wi,
6:u09:by,
5:uH2:5,
5:uH1:5,
5:uH0:5,
7:u32:ers,
6:u21:un,
7:u22:und,
6:u21:si,
5:uH2:6,
5:uH1:6,
5:uH0:6,
5:uH2:7,
5:uH1:7,
5:uH0:7,
6:u21:sh,
7:u0C:1/.,
6:u21:Ta,
7:u22:Tab,
7:u32:her,
5:uG2:2,
5:uG1:2,
5:uG0:2,
7:u22:sho,
7:u13:fig,
5:u20:F,
6:u21:Fi,
7:u22:Fig,
7:u11:fig,
7:u00:Fig,
5:u06:=,
5:u14:=,
5:u30:=,
5:u01:0,
6:u09:33,
6:u08:33,
6:u07:33,
6:u06:33,
6:u14:33,
6:u05:33,
6:u13:33,
6:u04:33,
6:u12:33,
6:u21:33,
6:u22:33,
6:u23:33,
6:u31:33,
6:u32:33,
6:u33:33,
6:u03:33,
6:u11:33,
6:u02:33,
6:u10:33,
6:u01:33,
6:u00:33,
7:u0B:2/.,
7:u0A:2/.,
7:u0D:2/.,
9:u0B:(/Fig,
5:u20:V,
10:u04:Figure,
12:u0A:./Figure,
10:u12:figure,
8:u23:Figu,
7:u32:ure,
8:u33:gure,
10:u03:Figure,
12:u0D:./Figure,
10:u11:figure,
10:u02:Figure,
10:u10:figure,
10:u01:Figure,
10:u00:Figure,
11:u07:similar,
5:uG2:3,
5:uG1:3,
5:uG0:3,
6:u31:14,
6:u21:fi,
5:u20:G,
6:u02:15,
6:u10:15,
5:u20:U,
6:u21:20,
5:u09:',
5:u08:',
5:u07:',
5:u06:',
5:u14:',
9:uF4:QUOTE,
5:u05:',
5:u13:',
9:uF3:QUOTE,
5:u04:',
5:u12:',
5:u20:',
5:u21:',
5:u22:',
5:u23:',
5:u30:',
5:u31:',
5:u32:',
5:u33:',
9:uF0:QUOTE,
9:uF1:QUOTE,
6:u31:it,
5:u20:N,
5:uG2:4,
5:uG1:4,
5:uG0:4,
7:u0A:./1,
7:u0D:./1,
6:u21:Al,
7:u0A:./2,
7:u0D:./2,
8:u33:ding,
9:uF4:PUNCT,
9:uF3:PUNCT,
9:uF0:PUNCT,
9:uF1:PUNCT,
9:uF2:PUNCT,
5:uG2:5,
5:uG1:5,
5:uG0:5,
7:u32:lle,
8:u33:elle,
5:uG2:6,
5:uG1:6,
5:uG0:6,
8:u0A:]/in,
5:u20:K,
8:u0D:15/],
6:u31:ol,
5:uG2:7,
5:uG1:7,
5:uG0:7,
6:u21:19,
5:uG2:8,
5:uG1:8,
5:uG0:8,
6:u21:da,
5:uG2:9,
5:uG1:9,
5:uG0:9,
7:u32:nal,
8:u33:onal,
5:u09::,
5:u08::,
5:u07::,
5:u06::,
5:u14::,
5:u05::,
5:u13::,
5:u04::,
5:u12::,
5:u20::,
5:u21::,
5:u22::,
5:u23::,
5:u30::,
5:u31::,
5:u32::,
5:u33::,
5:u03::,
5:u11::,
5:u02::,
5:u10::,
5:u01::,
5:u00::,
6:uG2:10,
6:uG1:10,
6:uG0:10,
6:u21:Mo,
6:u21:Ar,
7:u22:Arc,
8:u23:Arch,
6:u21:Ab,
7:u22:Abb,
6:uG2:11,
6:uG1:11,
6:uG0:11,
6:u21:St,
7:u22:sol,
7:u32:ind,
6:u21:Da,
9:u09:first,
9:u08:first,
9:u07:first,
9:u06:first,
13:u0C:the/first,
9:u14:first,
9:u05:first,
13:u0B:the/first,
9:u13:first,
9:u04:first,
13:u0A:the/first,
9:u12:first,
7:u22:fir,
8:u23:firs,
7:u32:rst,
8:u33:irst,
9:u03:first,
13:u0D:the/first,
9:u11:first,
9:u02:first,
9:u10:first,
9:u01:first,
9:u00:first,
7:u04:•,
7:u12:•,
7:u20:•,
7:u21:•,
7:u22:•,
7:u23:•,
7:u30:•,
7:u31:•,
7:u32:•,
7:u33:•,
7:u22:sin,
6:u21:Na,
7:u0C:1/:,
7:u0B:1/:,
7:u0A:1/:,
7:u0D:1/:,
7:u08:der,
7:u01:der,
6:u21:Gr,
5:u09:V,
5:u13:v,
5:u04:V,
5:u12:v,
5:u21:V,
5:u22:V,
5:u23:V,
5:u31:V,
5:u32:V,
5:u33:V,
5:u03:V,
5:u11:v,
5:u02:V,
5:u10:v,
7:u22:Gra,
7:u22:mov,
7:u32:eit,
8:u33:beit,
12:u0B:Figure/1,
12:u0A:Figure/1,
12:u0D:Figure/1,
7:u22:das,
9:u09:moves,
9:u08:moves,
9:u07:moves,
9:u06:moves,
9:u14:moves,
9:u05:moves,
9:u13:moves,
9:u04:moves,
9:u12:moves,
8:u23:move,
8:u33:oves,
9:u03:moves,
9:u11:moves,
9:u02:moves,
9:u10:moves,
9:u01:moves,
9:u00:moves,
7:u01:den,
7:u32:end,
7:u22:end,
7:u0B:(/V,
7:u0A:(/V,
7:u0D:(/V,
8:u05:http,
10:u0C:http/:,
8:u13:http,
6:u31:ie,
10:u14:repair,
7:u22:Str,
9:u09:start,
9:u08:start,
9:u07:start,
9:u06:start,
9:u14:start,
7:u08:end,
7:u06:end,
7:u14:end,
7:u05:end,
7:u13:end,
7:u04:end,
7:u12:end,
7:u23:end,
7:u33:end,
7:u03:end,
7:u11:end,
7:u02:end,
7:u10:end,
8:u06:uses,
8:u14:uses,
7:u32:sol,
7:u08:die,
7:u06:die,
7:u14:die,
7:u13:die,
7:u12:die,
7:u01:die,
7:u32:mus,
8:u23:user,
8:u03:user,
12:u0D:the/user,
8:u11:user,
8:u23:Stra,
8:u23:Tabe,
7:u08:ist,
7:u32:gie,
9:u00:leave,
6:u31:ph,
8:u33:sers,
8:u06:Test,
7:u32:rde,
9:u09:Tests,
10:u06:Repair,
11:u08:Problem,
10:u08:graphs,
7:u32:aph,
8:u33:raph,
7:u22:Alg,
8:u23:Algo,
9:u09:users,
9:u08:users,
9:u07:users,
9:u06:users,
9:u14:users,
9:u05:users,
9:u13:users,
9:u04:users,
9:u12:users,
9:u03:users,
13:u09:Parameter,
9:u14:graph,
9:u13:graph,
9:u12:graph,
9:u11:graph,
9:u10:graph,
6:u31:bb,
8:u10:page,
8:u23:Grap,
7:u13:pop,
7:u22:Nav,
8:u02:page,
8:u01:page,
8:u00:page,
8:u23:Navi,
7:u22:Das,
7:u22:Arb,
8:u23:Arbe,
6:u12:um,
11:u0C:,/users,
11:u0B:,/users,
11:u0A:,/users,
11:u0D:,/users,
7:u09:und,
7:u08:und,
7:u07:und,
7:u04:und,
7:u12:und,
7:u23:und,
7:u33:und,
7:u03:und,
7:u11:und,
7:u02:und,
7:u10:und,
7:u01:und,
7:u00:und,
11:u0C:users/',
11:u0B:users/',
11:u0A:users/',
16:u07:Navigational,
9:u08:Graph,
10:u0D:page/.,
16:u06:Navigational,
9:u07:Graph,
18:u0C::/Navigational,
16:u14:navigational,
16:u05:Navigational,
9:u06:Graph,
18:u0B::/Navigational,
22:u0C:Navigational/Graph,
16:u13:navigational,
16:u04:Navigational,
9:u05:Graph,
18:u0A::/Navigational,
22:u0B:Navigational/Graph,
12:u0C:Graph/of,
16:u12:navigational,
16:u03:Navigational,
9:u04:Graph,
22:u0A:Navigational/Graph,
12:u0B:Graph/of,
18:u0D::/Navigational,
16:u11:navigational,
16:u02:Navigational,
9:u03:Graph,
12:u0A:Graph/of,
22:u0D:Navigational/Graph,
16:u10:navigational,
16:u01:Navigational,
9:u02:Graph,
12:u0C:first/33,
12:u0D:Graph/of,
16:u00:Navigational,
9:u01:Graph,
12:u0B:first/33,
12:u0C:33/moves,
9:u00:Graph,
12:u0A:first/33,
12:u0B:33/moves,
11:u0C:moves/,,
12:u0A:33/moves,
11:u0B:moves/,,
12:u0D:first/33,
11:u0A:moves/,,
12:u0D:33/moves,
11:u0C:'/moves,
11:u0D:moves/,,
12:u09:Contents,
11:u0B:'/moves,
15:u0C:moves/start,
10:u0A:user/(,
13:u05:McEneaney,
15:u0B:./McEneaney,
18:u0C:McEneaney/uses,
13:u13:mceneaney,
7:u14:das,
7:u13:das,
7:u04:Das,
7:u12:das,
7:u23:Das,
7:u32:Das,
7:u33:Das,
7:u11:das,
7:u10:das,
7:u09:ein,
7:u09:das,
7:u08:das,
7:u07:das,
7:u06:das,
8:u07:eine,
7:u05:das,
7:u04:das,
7:u23:das,
7:u32:das,
7:u33:das,
7:u03:das,
7:u02:das,
7:u01:das,
7:u00:das,
11:u02:gegeben,
11:u10:gegeben,
8:u06:sind,
8:u14:sind,
8:u05:sind,
8:u13:sind,
8:u04:sind,
8:u12:sind,
8:u23:sind,
8:u33:sind,
9:u05:einen,
9:u13:einen,
10:u02:Knoten,
10:u10:knoten,
10:u01:Knoten,
10:u00:Knoten,
7:u09:wie,
7:u08:wie,
7:u07:wie,
8:u07:für,
7:u04:Abb,
9:u0B:Abb/.,
7:u12:abb,
7:u23:Abb,
7:u32:Abb,
7:u33:Abb,
7:u03:Abb,
6:u06:zu,
9:u0A:Abb/.,
7:u11:abb,
6:u14:zu,
7:u02:Abb,
9:u0D:Abb/.,
7:u10:abb,
7:u01:Abb,
7:u00:Abb,
6:u01:zu,
15:u04:Algorithmus,
15:u12:algorithmus,
8:u33:hmus,
15:u03:Algorithmus,
15:u11:algorithmus,
15:u02:Algorithmus,
15:u10:algorithmus,
15:u02:gespeichert,
15:u10:gespeichert,
9:u07:einem,
9:u06:einem,
9:u14:einem,
10:u06:Arbeit,
10:u14:arbeit,
9:u00:einem,
10:u04:Arbeit,
10:u12:arbeit,
8:u09:wird,
10:u01:Vektor,
17:u0D:gespeichert/.,
8:u06:wird,
8:u14:wird,
8:u05:wird,
8:u13:wird,
11:u01:Kapitel,
11:u00:Kapitel,
6:u04:Um,
8:u0A:./Um,
6:u21:Um,
6:u22:Um,
6:u23:Um,
6:u31:Um,
6:u32:Um,
6:u33:Um,
11:u00:genauer,
15:u00:ausgewählt,
8:u09:dass,
14:u07:bestimmten,
12:u0C:in/einem,
7:u05:hat,
7:u13:hat,
7:u00:hat,
9:u09:diese,
9:u08:diese,
8:u00:Wolf,
9:u07:wurde,
9:u06:wurde,
9:u14:wurde,
9:u05:wurde,
9:u13:wurde,
9:u04:wurde,
9:u12:wurde,
6:u21:wu,
7:u22:wur,
8:u23:wurd,
8:u33:urde,
9:u02:wurde,
9:u10:wurde,
11:u09:führen,
8:u05:kann,
8:u13:kann,
8:u01:dazu,
11:u0D:wurde/.,
18:u07:Lösungsarchiv,
10:u00:danach,
10:u00:Archiv,
12:u0C:wurde/in,
15:u01:miteinander,
14:u02:verglichen,
14:u10:verglichen,
8:u09:Trie,
8:u08:Trie,
7:u09:sol,
7:u08:sol,
7:u03:sol,
7:u11:sol,
7:u02:sol,
7:u10:sol,
7:u01:sol,
7:u00:sol,
9:u0C::/end,
9:u0B::/end,
9:u0A::/end,
9:u0D::/end,
7:u05:Pop,
9:u0C:Pop/-,
10:u05:diesem,
10:u13:diesem,
10:u0A:In/Abb,
10:u0D:In/Abb,
10:u05:seiner,
13:u0B:in/seiner,
17:u0C:seiner/Arbeit,
10:u13:seiner,
10:u03:seiner,
15:u08:Mechanismus,
14:u09:entwickelt,
17:u0A:seiner/Arbeit,
16:u0B:Arbeit/einen,
16:u0C:einen/Repair,
13:u0D:in/seiner,
10:u11:seiner,
11:u00:Auswahl,
9:u0C:)/und,
9:u0B:)/und,
10:u04:näher,
10:u12:näher,
7:u21:nä,
8:u22:näh,
9:u23:nähe,
9:u33:äher,
14:u08:Ergebnisse,
14:u07:Ergebnisse,
14:u06:Ergebnisse,
14:u14:ergebnisse,
13:u07:Vergleich,
12:u09:Bounding,
12:u08:Bounding,
13:u09:Strategie,
12:u07:Bounding,
13:u08:Strategie,
12:u06:Bounding,
13:u07:Strategie,
12:u14:bounding,
12:u05:Bounding,
13:u06:Strategie,
12:u13:bounding,
13:u14:strategie,
12:u04:Bounding,
13:u05:Strategie,
12:u12:bounding,
13:u13:strategie,
12:u03:Bounding,
13:u04:Strategie,
12:u11:bounding,
13:u12:strategie,
8:u33:egie,
12:u02:Bounding,
12:u10:bounding,
11:u01:nochmal,
8:u07:Wenn,
11:u00:gesetzt,
7:u06:zur,
7:u14:zur,
14:u05:betrachtet,
12:u0A:]/näher,
21:u0B:näher/betrachtet,
16:u0C:betrachtet/.,
14:u13:betrachtet,
14:u08:zufällige,
13:u09:Zuteilung,
9:u07:Folge,
11:u0B:Das/hat,
11:u0C:hat/zur,
11:u0B:Das/Pop,
13:u01:getroffen,
9:u0B:Um/in,
12:u0C:sind/die,
12:u0B:sind/die,
11:u07:Eingabe,
12:u00:gabewert,
11:u01:zurück,
13:u0D:gegeben/.,
11:u0C:kann/zu,
15:u02:untersuchen,
15:u10:untersuchen,
8:u09:elib,
10:u0B:1/http,
17:u0D:untersuchen/.,
11:u04:Tabelle,
11:u12:tabelle,
11:u03:Tabelle,
11:u11:tabelle,
11:u02:Tabelle,
11:u10:tabelle,
18:u0C:die/Ergebnisse,
14:u0C:Bounding/-,
14:u0B:Bounding/-,
15:u0C:-/Strategie,
14:u0A:Bounding/-,
15:u0B:-/Strategie,
15:u0A:-/Strategie,
14:u0D:Bounding/-,
14:u0B:Bei/diesem,
15:u0C:diesem/Test,
16:u0D:verglichen/.,
13:u0A:)/Tabelle,
12:u02:Tabellen,
9:u0A:7/und,
9:u0B:und/8,
10:u0C:8/sind,
14:u0D:Tabellen/7,
12:u10:tabellen,
12:u01:Tabellen,
9:u0A:und/8,
10:u0B:8/sind,
9:u0D:7/und,
12:u00:Tabellen,
10:u0A:8/sind,
9:u0D:und/8,
9:u01:VRVis,
2=0xf.827c5356eec1p-14
11=-0xa.1dd19e8a4eeb8p-18
13=-0xa.7fa7ca7182af8p-19
23=0xd.ec574eb390978p-11
24=-0xd.1247ae34a2df8p-14
31=0x8.ceb5b58d54a38p-17
35=-0xc.382a79f4f7a48p-21
46=0x8.01cb9eb7eabf8p-13
55=-0xf.84cbf2f9fac28p-17
57=-0xa.93fc6a2975f8p-19
67=-0xd.b1cf146fa8cbp-5
68=0xd.112b7e0fba0f8p-5
79=-0xa.626e9c9bcdab8p-26
89=0xe.ccc80fba7e8p-19
90=0xb.1f1f53e6ed35p-12
99=0x9.e3a341c8a7478p-11
101=-0xc.1b60f3180c9c8p-21
111=0xc.712bef3a87ap-13
112=-0x9.a72de1d9cc338p-14
121=0xe.76376762e415p-21
134=-0xa.ed3cb5ca5d5d8p-17
139=0xc.bdd3c582a0e9p-21
154=0xe.95bc715d115bp-5
155=0xe.d3141c7242d68p-5
156=-0xa.f6eefacb21ae8p-5
159=-0xd.bf3e9601dfc6p-7
162=0xe.5a1e0fd261048p-22
164=0xa.76f3f9338b32p-8
165=-0x9.8003d005daf8p-13
166=0xa.7d4c020eb9cbp-4
167=-0xb.6044971aa0358p-22
174=0xd.ed2c351a0ed3p-12
176=0xf.2bc7aa9946bbp-8
178=0xb.ab213659768bp-15
187=0xa.d11b73324b8e8p-5
189=0xa.3ed5ac14d7a8p-5
198=0xd.c67def476c1ep-2
199=0x9.a0df191c54af8p-3
200=-0x9.c0060d9616e48p-6
203=-0x9.ea538111e5d8p-3
205=-0x9.a51a00e951aap-11
207=-0xa.3a6cb98445e4p-22
208=0xb.cbc60b8c2fb9p-5
209=0xa.ab19f4eeb95bp-20
210=0xe.e4db361e04aep-18
211=-0xe.1ed3bc662505p-8
218=0xc.1e49fb93d2e98p-13
219=-0xa.71177c5bdfddp-10
220=0xc.393eda7cb005p-3
221=-0xc.00139176a4adp-4
222=0xa.239ab1583a5fp-7
225=0xa.0ca0079158ap-9
227=-0x8.c04a8eb2c13fp-10
231=0xc.7f67cfcf2ea7p-7
233=-0xa.57434c8a1a86p-8
243=0xa.a1360e4dae5c8p-11
244=0xd.75afddbd2e14p-7
245=-0x9.012482e40f3d8p-5
246=0x8.8f1866484de6p-10
247=-0xb.a77d72bc5c618p-15
248=0xf.450a0cc433cb8p-18
249=-0xc.3eb1ca07a2de8p-6
250=0xb.8ba34e07c5c5p-8
251=-0xd.26ab9e39eba8p-10
253=0xb.5f36bc94a6d98p-10
254=0xf.091ecdb04083p-9
255=0xa.49bd0c8c6ead8p-6
262=0xf.2f8133dda145p-18
263=-0xe.fb847ce37e6cp-9
265=-0xa.f8a324046e6a8p-3
266=0xc.615c08381b5fp-7
267=-0xa.5dc9e1c90dccp-7
268=-0x9.7c43230cc6b48p-12
269=-0xb.5bf7fb196928p-5
271=-0x8.96263a55d1d3p-7
272=0x8.22a8bbf20a17p-20
273=-0x9.f81f510aaa7fp-16
275=-0xa.74de3ee288b5p-12
276=-0xc.194e8d06f8778p-20
277=-0x9.cf92a0aacd0e8p-10
284=0xd.979b63fabf1dp-18
285=0x8.8fbe98556a28p-13
286=0x8.478e2db9a6388p-13
287=0x9.8c829b3c4cc1p-6
288=0xf.4e62140461048p-12
289=-0xd.b7cdfee9842ap-15
290=-0xc.0f3f3f232015p-10
291=-0x8.38fc3d209cb4p-18
293=-0xf.d6b892a20931p-11
294=0x8.1b61c68c1df48p-20
295=-0x8.c16165c8099ap-14
297=-0xd.6fea9d1a141ap-10
298=-0xc.2ab09c26f8e5p-20
299=-0x8.ec0b518253b38p-11
306=0xa.7793d1ea2c45p-18
307=0x8.1f245ca93fd4p-15
308=0x9.881f197e3f57p-12
309=0xa.57976a98fc2cp-7
310=-0xa.7a45420293bcp-12
312=-0xa.e60e3c6c1abcp-6
313=-0xa.b1d2c02c084c8p-2
319=0xa.622c431dac278p-8
321=0x8.a10ed012758ap-11
329=-0xb.fc7952eae7cf8p-19
331=-0x9.40910af12db5p-7
332=0x8.f66884129e27p-7
334=-0x9.bf407bceb59f8p-5
337=-0x8.37932e381d92p-10
339=-0xb.12e923e2c9e2p-6
341=0xb.45b3d1e0577f8p-9
343=0xb.d50ddf02bff4p-12
351=-0xb.080163b4dd608p-19
353=-0xe.725ab72d1f3fp-15
354=0x9.c778d6d54e398p-4
363=-0x8.12517c32ca2p-3
376=0x8.feac17c5813ap-7
385=0xc.db02d6eaa73ap-16
387=0xf.130b42c773f6p-10
396=0xc.a3697cc6e8578p-11
397=0x9.d74281098f0b8p-6
398=0xf.63b06b424dc2p-8
399=-0x8.cd0fc0944c1e8p-15
400=-0xc.1c356766b899p-11
401=-0x9.55ff0654cae98p-5
402=-0xe.c2010ef36ec3p-12
403=-0xe.4351f55f0643p-6
404=0xa.b83cb424d4c98p-17
405=-0x9.a04e73d6596fp-4
407=0x9.8a410de0b2898p-7
408=0xa.4b06afe75afep-18
409=-0x9.eef485174bd9p-8
416=0xc.368ffe1752dp-20
417=-0xa.5ec901ec74e08p-11
418=0xb.08b8b905839dp-11
419=0x8.4d9ca39de67f8p-9
420=0x8.2fc771f600758p-9
421=-0xc.77a22769cac08p-15
422=-0xe.7c9d8a219be9p-12
423=-0x9.67a30c81de2b8p-9
424=-0xe.c1e44556a7f9p-12
425=-0xc.486b72f44f3dp-6
426=0xa.b829d2610973p-17
427=-0xa.090c6851e8148p-4
429=0x8.d7a5af826ec3p-7
430=0xa.23f92f990d8ep-18
431=-0x9.3a0953bc65cp-8
438=0xc.386754fa14e4p-20
439=-0xa.d7ddea16fe178p-11
440=0x9.6e0ff5b199058p-10
441=0xb.2ed5217a6e698p-4
442=0xa.c539477e9438p-6
443=-0xb.5e3779882b228p-13
444=-0xf.1378e79b6d748p-11
445=-0xe.3caccacb5c6ap-6
446=-0xe.c2079d32a5f7p-12
447=-0xf.e37ebfcacb09p-9
448=-0xe.31820763123ap-12
449=-0xf.ea1f4f669a8dp-10
451=0x8.eef23c298bc38p-7
452=0xa.16509f3b8aea8p-18
453=0x8.577111121c228p-5
460=0xc.34da71f5034p-20
461=-0xb.a3dbbcf8f38fp-11
462=0x9.6e0ffa80d89ep-10
463=0x8.50650df507ae8p-9
464=0xa.cf26460efaee8p-6
465=-0xe.48faf8a23fc4p-18
466=-0xe.88d1ae64096p-11
467=-0xe.970c2c2596688p-10
468=-0xe.c1fe9ae8c13cp-12
469=-0xf.e37761b577ba8p-9
470=-0xe.942c8eaf6b4cp-12
471=-0xb.1f797d56e379p-14
473=0x9.22f0c0f6dd05p-7
474=0xa.168206ac99c68p-18
475=0x8.649391c905ecp-5
482=0xc.36c854f654ccp-20
483=0xf.25c96b5469bf8p-8
485=0xf.9f9d59cf592fp-5
486=-0x8.8eb794dcbe9p-6
490=0xb.b97af9b371e58p-7
492=0xe.d251830170388p-7
494=0xa.1e291816b68c8p-4
495=-0xe.c57dfa0968648p-7
496=0x9.ac0ac1237c7d8p-7
497=-0x8.33ce1376e7a18p-15
507=0x8.9915ec9087da8p-6
508=0xc.40217acfa49ap-7
510=-0xb.79cfde436f298p-8
511=0xe.f6e6f9ba683e8p-4
513=-0x8.552b4495e27fp-4
515=-0xe.2f74c3fccfddp-5
517=-0xb.8d491413a99c8p-7
519=0xb.c44ca47dfadp-14
529=0xc.cfdc6eb0bbec8p-13
530=0xa.b3c41f64aeeb8p-13
541=-0x9.815de2921ad2p-11
551=0xf.a8e24ef58b38p-5
552=0x8.70d115e1a2888p-5
553=0x9.af5c1e1ad3028p-17
554=-0x9.4adfc7c3f7d9p-8
556=0x8.800b5e4087a78p-8
557=-0xe.054a3231fcf08p-5
558=0xb.b5420f12ac74p-17
559=-0xd.2630b41b251fp-4
560=0xb.ca0b6d2414fc8p-8
561=0x8.1b340ca3e04a8p-8
562=0xc.59890f8dbe83p-18
563=0xb.4936658ba37a8p-8
571=0xe.91d830f79eb8p-13
573=0xc.a695cc1e2c9a8p-4
574=0x9.c3d2da6094be8p-7
575=-0x8.aa94c14c47108p-11
576=-0xd.e6618a19b64f8p-11
577=-0x8.b6deac2d28858p-9
578=-0xb.6104760721948p-18
579=-0xe.93d90212123a8p-8
581=-0x8.122a03a3c1808p-12
582=-0xc.d156925ee0a8p-5
583=0xb.491bb3ebd38b8p-8
585=0xc.9b8814ac9448p-8
592=0x9.21809469fa54p-16
593=-0x9.a09e50f0f9a8p-12
594=0x8.e634bc8f574d8p-17
595=0x8.37c658bd04548p-5
596=0xa.3e94cf86c08fp-7
598=0x9.dd4e0ac19b7p-8
599=-0x9.15960ff57d3p-14
600=0xc.c382d21dcef3p-9
601=-0x8.10f3cfd550178p-4
602=0x8.a47787e4f5c18p-17
603=-0xc.a66dbc7a763ap-4
605=0x8.cf225dd9187cp-8
606=0x8.073b18e0d9bfp-7
607=-0x8.5af37792aecdp-9
615=0xc.f49dd8a7b445p-9
617=0xc.6d9945d1d9018p-5
618=-0xb.ca997c97acfb8p-7
619=0xf.32370584e4ad8p-18
620=0xa.6fddf3c83e8d8p-8
621=0xb.bfa0d01ce015p-20
623=-0xd.f48697cf947ep-9
625=-0xc.3acfcf59983dp-8
627=0xc.06f6d824a7718p-8
629=0xb.81c42a2b5821p-10
636=0xe.bdf6ceceb6f4p-13
637=-0xa.aabc2736edc58p-12
638=0xb.53a03ad18516p-3
639=-0xc.00ba86549d97p-4
640=0x8.37988b1f9eefp-6
642=-0x8.f2f844101e7ep-4
643=0xb.a6b4584b35e28p-6
644=-0xb.32de4561bf618p-11
645=0xe.8123ff9d4e1a8p-11
646=-0xe.8fba69c8f9798p-12
647=-0x9.b8988bab2e43p-11
649=0x9.40f3cd02da538p-7
650=0x8.a65870926a848p-18
651=0xd.87a0d7396a45p-6
658=0xd.426087cdf76d8p-15
659=-0x8.f2b80513627ep-11
660=0xf.18a489e8c238p-15
662=0x8.630526940f5ap-7
663=0x9.07b3f47a60e68p-15
664=-0x8.551378be806e8p-3
665=0xd.2c57b3f1ec6e8p-6
666=-0xc.0e132cf60e79p-9
667=-0xd.2d1ae751d0bc8p-10
668=0x8.aee479b53a598p-16
669=-0x8.48be7fc661248p-3
670=0x9.d119d09a25078p-9
671=0xf.e290c0668ddb8p-8
672=-0xd.9f69c8d5af0c8p-21
673=-0x8.f1dfa53b29c18p-9
680=0xb.725296ab1936p-17
681=0xa.420ee43731f2p-7
682=0x9.9d80a1eed06a8p-4
683=0x8.53408337d6b7p-5
684=0xb.ef8d4221c4c48p-7
686=-0xc.218b00218872p-11
687=0xa.91ad814b0894p-6
688=0x8.724c6eeb53b2p-17
689=-0xf.d1ce93445a28p-11
690=-0xe.21715e5e8afc8p-10
691=-0x9.7328c3a944f6p-5
693=0x8.78b9cc09027d8p-7
694=0xe.616cbcb455018p-6
695=0xf.189fe02a30a18p-11
703=0xc.f53bb2e2d259p-7
705=-0xc.713d02ff19c3p-24
717=0x9.b3ec2330b651p-17
727=-0xc.710c11ddffe68p-24
739=0x9.b3f0029aa8018p-17
749=0xc.c568825176638p-6
750=-0xf.7ecc5f1a6e4ep-10
752=0xa.255769e07b3ep-7
759=0xd.a2dcda0e09648p-12
771=0xc.c55b67fc251c8p-6
772=-0x8.55a8c5833b018p-10
774=0xc.df2915784c82p-10
781=0xe.0279d1a314288p-9
792=0x9.6e0ff5b199058p-10
793=0x8.290cc9b5e188p-7
794=0xf.c8274a3106dap-8
796=-0xd.6e104a4610038p-11
797=-0xc.25cde2b031e78p-8
798=-0xe.8ef6bd093ff5p-12
799=-0xd.dd417a710a61p-8
800=-0xa.8f5963abdd398p-15
801=-0xf.02286edc14fep-10
803=0x9.2c31f287deb5p-7
804=0xa.16509f3b8aea8p-18
805=0x8.917e438c06db8p-5
812=0xc.34da71f5034p-20
813=-0xd.3b6bc6d12d478p-11
814=0x9.6e0ffa80d89ep-10
815=0xd.6171828c31328p-8
816=0xf.6ab96b639aa88p-8
818=-0x9.700bf4e08db6p-16
819=-0xa.fa580f92e00f8p-8
820=-0x8.5045cdfc4ce5p-9
821=-0xb.37f16e7362b08p-8
823=-0xc.03761754a437p-13
825=0x8.fe71a4c46f368p-7
826=0xa.168206ac99c68p-18
827=0x8.92d0087be4048p-5
834=0xc.36c854f654ccp-20
835=-0xf.6829f81385c9p-11
836=0x9.6e0ffa869fe8p-10
837=0x9.7f4b79910ba4p-8
838=0xf.b46cb3e79a43p-8
840=-0x8.fdc3cdd4ee06p-16
841=-0xb.44692a5bafe8p-9
842=-0xe.c1f8e99bf3dap-12
843=-0xb.7efeae2a2ee8p-8
844=0x9.cfaa0e79ec13p-14
845=-0xa.9e084b91016fp-9
847=0x8.da47e8ab55128p-7
848=0xa.16adb7e1dddcp-18
849=0x8.8a702e57b986p-5
856=0xc.37b0914ed554p-20
857=-0xf.4de84c4c8f07p-12
858=0x9.6e0ffa86ca29p-10
859=0x8.35d967ede2118p-7
860=0xf.b23976e0d6c9p-8
862=-0x8.54c09bd18d188p-16
863=-0xc.3d02cb65ab99p-9
864=-0xe.c1f8c53cae2cp-12
865=-0xb.80a5f37cd0f68p-8
866=0xb.b78f3d08eae98p-15
867=-0xa.9714f669813c8p-9
869=0x8.b1ecada8743f8p-7
870=0xa.16aedafca0dap-18
871=0x8.924c74e921cep-5
878=0xc.37c32f1747acp-20
879=-0xd.150aa9d16cb2p-12
885=0xb.c3183ba0aefc8p+0
904=0xb.322e1716ee91p-1
905=0xb.07b792792d99p-2
908=0xd.524c0eba00a08p-5
910=0x8.fb494791baep-3
924=-0xa.13cb889e134f8p-4
925=-0x9.b1700185d2a68p-2
926=0x8.7c11df47a382p-1
927=0x8.48432189f081p-3
930=0xa.c06f56d2097d8p-17
932=0x9.80f6ecd235fc8p-7
934=-0xa.220d37fdcaba8p-5
935=-0xf.949584e01facp-5
936=0xb.c7e707118bb2p-5
937=-0x8.9635fa6702a28p-5
944=0xa.fa301a7547ec8p-16
950=0x8.e4a60bd515908p+0
969=0x9.5e12bd48a3ddp-2
970=0x8.afe7ae4e3896p-4
972=0x8.897aabe3e112p+0
990=0x8.76e5325ce93bp-3
995=0xc.2a1bb1ea2d5a8p+0
1019=0x9.c1c50d652d188p+0
1035=0xc.40364b818696p-2
1041=0x9.d0a105e805998p+0
1065=0xa.beb6700a3be48p+0
1079=0xa.893779e03abdp-1
1087=0xa.e74818cb0f738p+0
1111=0xa.2c47ed4f8f758p-1
1122=-0xa.624deaad3ee8p-4
1123=-0xb.55e3930fc142p-3
1132=0xb.eed7e01ac71dp-6
1133=0xa.791c3afbd61fp-1
1135=-0xf.9ea54a645af88p-5
1157=0x9.9ef8733dc64c8p-1
1167=-0xd.8d4ad731c14f8p-4
1168=-0xe.587b303d564bp-4
1179=0xd.a8ad2a4bd785p-2
1341=0xe.f29c945dc27dp-1
1363=0xd.e727805207dp-1
1366=0xb.6a9bd6d62947p-14
1377=-0xc.7d3bdc3adce7p-20
1387=0x8.ba59942cba7cp-9
1399=-0xb.21a2a3fdd6928p-21
1410=0xd.3412f3e449p-19
1421=-0xc.b5e6b8116e0cp-20
1431=-0x8.f82aae0be7b78p-23
1432=0xa.21b3a63f0b168p-7
1453=0xa.eec842c72cdcp-14
1475=0x9.e2e25795fb1b8p-5
1476=0x9.d1b0c4391465p-15
1480=-0x9.2168ae9864378p-12
1482=0xc.5cf2d84497b38p-19
1484=0xf.1f3157020d01p-13
1485=-0xd.5c291b56d2b4p-12
1486=-0x9.88a390cdaa86p-21
1487=-0xd.bbddb8262f75p-16
1498=-0xb.3fa90c63c9ee8p-12
1501=0xe.93cdf6fe301fp-21
1505=0xb.973398208628p-11
1509=0x8.1be548cce8d3p-6
1518=-0x9.5feb9bbd7a8d8p-13
1519=0xe.77b6d739d60d8p-10
1520=0xe.7d09879a40d58p-10
1521=-0xb.91aed62c1ad6p-15
1522=-0xa.27d310cd51d1p-13
1523=-0xf.fce3633962d6p-11
1524=0xe.2222eb1fb3fep-12
1525=-0x8.db0ad9b1bc0cp-9
1526=0xa.4795528ce2cp-17
1527=-0xb.b6242823b271p-9
1528=0xe.44651d672998p-7
1529=0x9.a8baf65742588p-7
1530=0xe.47903273a3dcp-20
1531=-0xd.0e16b6df28cep-9
1538=0x8.0ca526bcd2c48p-16
1539=-0xc.62fb024dbcadp-11
1542=-0xb.c8cda97cd379p-8
1544=-0xa.f8ac3025e5bp-11
1545=-0x8.b5965f8e6d14p-18
1549=-0x8.a60bc6eca7ebp-7
1551=0xe.d1743145013e8p-7
1553=-0x9.fdbc3c621a23p-11
1562=-0xb.b27773dff4a18p-3
1563=0xc.979612b128b48p-5
1564=-0xc.ecf85f8c76ba8p-10
1565=-0xd.58369e27f0d6p-12
1566=-0xb.c80322543a668p-10
1567=-0x8.a693850b66ep-3
1568=0x8.bafcfa02ae4ap-7
1569=0xd.0a9610ed94d78p-8
1570=0xe.9087a8b526de8p-9
1571=0xb.2858016d9bfd8p-6
1572=0xe.21c6d4d111688p-6
1573=0xc.b8cc907eaab68p-8
1574=0xe.fc6b07bd54cap-18
1575=0x8.934dcfe5c69dp-6
1582=0x8.9ab44fb27b1ap-14
1583=-0x8.c63d8e7ed5578p-11
1584=0xd.10cd94d01074p-17
1585=0xd.995957a5fbc68p-3
1586=0x9.604e1e72fd0fp-8
1587=-0x8.466f631c84d28p-8
1588=-0xb.edfdb8fe605ap-12
1589=-0xc.c753d8f18c87p-9
1591=-0xa.34cd25e6d5958p-8
1593=-0xe.251f731b7c01p-17
1595=0xc.7990fe6a3434p-14
1596=-0xc.1d89469fc2908p-20
1597=-0xd.61d697226c72p-10
1604=0x8.1dab0740d26bp-17
1605=0xd.fc4bc5d6aa1ep-10
1608=0x8.082717b1e1e78p-8
1609=-0xb.e1e0518c15d18p-12
1611=-0xd.65579f03a406p-6
1617=0xb.e3c238ae8194p-8
1619=0xa.cb8aee0cc573p-12
1627=-0xb.9371ddfdd5f4p-19
1628=0x8.569ec80113b3p-14
1629=0xb.44f87e5587338p-8
1630=0x8.5d38a65451dap-12
1632=0xe.aec8da36b0cd8p-16
1633=-0xb.796adaa2d1198p-5
1634=0xa.76214b281995p-10
1635=-0xc.f0108e065bd58p-10
1636=0xb.dc28fa58df488p-20
1637=0x9.27b0069bd072p-9
1638=0xa.4162514ceb7d8p-6
1639=0xb.a6b96514e511p-7
1640=0xa.e1fd354ebf728p-17
1641=0xb.2aabde7f340d8p-11
1648=0xb.c7affde10ad6p-18
1649=-0xd.f81a7d94acabp-12
1652=0xe.2158d60cc212p-6
1661=0xb.16f7d2e3c357p-7
1663=-0xc.61e2e1cfb75ap-6
1673=-0x9.f5ee30a99adap-14
1674=0xc.03d7e88ac916p-9
1680=0x9.ceadbb1d5c958p-17
1683=0xa.9ae26ce0b9578p-16
1684=-0xf.f015dfe26567p-10
1692=0xe.d2f01f685283p-12
1693=-0xa.148a62eec4168p-20
1695=0xb.b0bfe50dc488p-5
1696=-0xe.1314b91e460cp-11
1697=-0xb.542da23961938p-13
1698=-0x9.38083df164f8p-10
1699=-0x8.6d1533a0800fp-8
1700=0xe.168b9454ac97p-14
1701=-0x8.6a21f3091a538p-5
1702=0xb.0bfe34f7050a8p-17
1703=-0xf.057cf0947b718p-13
1704=0xa.a2cc8ace6ab58p-9
1705=0xf.b66f4f9d7138p-8
1706=0x9.35c7ee9068ff8p-17
1707=-0xa.1bc945b30be5p-8
1715=0x8.029f9c3f2928p-21
1717=0x9.bd468b44667bp-12
1718=0xf.f95d33e4ec17p-8
1719=-0x8.34f622a96f28p-11
1720=-0xa.3c5b996cf69e8p-11
1721=-0xf.a33afd331a2fp-8
1722=0xd.68025d2014aa8p-9
1723=-0xb.7035518d55678p-7
1724=-0xf.c2930687d024p-8
1725=-0xc.400947422586p-14
1727=0x9.4a59cdf7a99fp-7
1728=0xa.07ebc24151p-18
1729=-0x9.8d0c52e53f9a8p-8
1736=0xc.372830bcb26p-20
1737=-0x9.9a9651d74d928p-10
1738=0x9.694c6b10156f8p-10
1739=0x8.17e9ef759bf3p-9
1740=0xa.ab36b68d62adp-6
1742=-0xb.98c5b4fdbb018p-13
1743=-0x9.4c237299547b8p-7
1744=-0xe.c204c18c4c64p-12
1745=-0xf.e37eb8d07c0bp-9
1746=0xa.b8307e00d418p-17
1747=-0xa.1d34dc902c6p-9
1749=0x8.cb65b1a3945p-7
1750=0xa.07bc2aad60978p-18
1751=0x8.6ce173bc91348p-5
1758=0xc.36b45ad72d44p-20
1759=-0xc.2005bfbdb0b1p-11
1761=-0xd.6b62cbf79bbc8p-11
1762=0x8.8e7cde136e6fp-9
1763=0xb.a16ba4945c038p-18
1764=0xe.d9e723b7479dp-7
1765=-0x9.949f512a5aa58p-5
1766=0xa.1852990e29dbp-6
1767=0xd.df29ed366ff1p-8
1768=-0xd.0e8a19f846c78p-6
1769=0x8.8229f183598b8p-4
1770=0x9.033c1adf913f8p-6
1771=0x9.7d899ad525db8p-8
1772=-0xd.340758fae2e58p-22
1773=0xc.05d193e220efp-11
1780=0xd.14f4fdf423c18p-15
1781=0x8.ec12a6a856adp-9
1782=-0xa.b605a7018b718p-14
1784=-0xe.655f3be4d8378p-8
1785=0x9.a6eeefd7353c8p-6
1787=-0x8.de14ece2e64f8p-4
1789=0x8.c6b1709eab14p-4
1790=0xc.253ffbce71aap-20
1791=0x9.9f55c38ee7e2p-7
1793=-0xb.5777e8d47e5ap-9
1795=0x8.57e064e92f3p-9
1805=0x8.6b4d5249d44ep-10
1806=-0x9.a4e6ebb086c68p-7
1810=0xe.e583e4226e8ap-6
1812=0xe.0403d545a7fe8p-19
1814=0x9.3c4966350d948p-3
1815=-0xf.42fad91ee38fp-5
1816=-0x8.1b88dead369dp-22
1817=0xd.91661615391e8p-10
1826=-0xd.f37ebe798a938p-15
1827=0xc.af4b120d412cp-4
1828=0xf.358daf7016998p-7
1834=0xc.7af345663a47p-17
1839=-0x8.1b02f44e0c148p-18
1848=-0xc.35132ac9961b8p-6
1849=-0xc.2a631cb2003e8p-4
1850=0xe.21c0f4f506cep-7
1852=-0x8.e2fb9d059d608p-7
1853=-0x9.06f6636c7bb5p-4
1854=-0xe.28955bc04e9dp-12
1855=-0x8.8c8db0bc96548p-12
1856=0xb.500f5f6d2ce3p-17
1857=0xe.918fb887cd7cp-13
1859=0x9.07f1bd936b4d8p-8
1860=0x8.c5c9dc1190d58p-17
1861=0xd.6cce70af3ee3p-8
1868=0xd.749be9eb365d8p-6
1869=-0xd.418fdd13b4ddp-12
1870=-0xa.ff66ed602b4a8p-14
1871=-0x8.4c4f9fe898f58p-13
1872=0xd.e41f63c6f143p-7
1873=0x8.90472f06c3558p-8
1874=0xb.ea43f89f85ff8p-8
1875=-0x9.5a6546596d9cp-2
1876=0x9.fbbfda5d746a8p-17
1877=0xb.7e595f5344e78p-14
1878=0x9.76db3c871f7a8p-15
1881=0x8.3c8e07456076p-10
1882=0xc.618e6a52bf0b8p-10
1883=-0xe.b08e28499f4p-11
1893=-0xb.c3729ea1a94f8p-4
1894=0xd.8a47aab3ff6c8p-6
1895=-0xd.87bb6063eba58p-5
1896=-0x8.9cd46fa6c564p-8
1897=0x8.52957783388f8p-9
1898=0x8.e2f621f980d68p-17
1899=-0xe.c58da5468d3fp-11
1900=0xd.0a2b421646e58p-17
1901=-0x9.02a623019b53p-4
1903=0xc.bbe17f089d8cp-8
1905=0x9.7dd6a78e14828p-5
1913=0xa.54522a1a91968p-7
1916=0xd.c45a4988a10e8p-11
1927=0x9.b4b6964323f5p-17
1937=0xe.36979d8ac7c3p-10
1938=-0x8.897282aeba8c8p-9
1940=0xd.f078f30d16608p-7
1947=-0x8.eea45d2f7298p-19
1956=0x8.f5c986995067p-15
1957=-0xb.573f35a58f5bp-10
1958=0x9.694c6b10156f8p-10
1959=0x8.17eb0ac78f768p-9
1960=0x8.22c67482ae95p-7
1962=-0xe.134d0fa581ddp-12
1963=-0xe.fb3c5e0454e08p-8
1964=-0x9.51d8e85d74b1p-11
1965=-0xd.0daf8ec84283p-8
1966=-0xa.8f2a4544e8218p-15
1967=-0x9.a8b3c0a81d518p-9
1969=0x9.1844aadfe6cb8p-7
1970=0xa.07bc2aad60978p-18
1971=0x8.95d622604452p-5
1978=0xc.36b45ad72d44p-20
1979=-0xd.68b286823ea9p-11
1982=0xc.93ecbf9a52b9p-16
1993=-0xc.4c722637088d8p-14
2004=0x9.268c5d194f77p-20
2015=-0xa.b7333b4048e38p-21
2026=0xd.bf178ab0791fp-17
2037=-0x8.bc5c5ee3eca7p-14
2048=0x9.269f3bf43ac68p-20
2059=-0xa.b89ea858ddfcp-21
2070=0x9.c5205eab52128p-17
2079=-0xb.2a93daafac828p-14
2092=0xe.a194a417a105p-13
2101=-0xc.e8a216f186a98p-16
2103=-0xf.a71602c2ec21p-19
2114=0xd.602c0e41bcd28p-13
2123=-0x9.52808bf0ab23p-16
2125=-0xb.f08d5e116f9bp-20
2136=0xc.93ecbf9a52b9p-16
2147=-0xc.4c722637088d8p-14
2158=0x8.5bc021cf8d7fp-14
2169=-0x8.389b063645998p-14
2180=0xc.93ecbf9a52b9p-16
2191=-0xc.3ba24b5f8fd58p-14
2202=0xc.93ecbf9a52b9p-16
2213=-0xc.4c722637088d8p-14
2222=-0xc.7f07a1678597p-15
2223=-0xd.b626e646475bp-7
2224=0xa.35b4d26c6be58p-6
2225=0x8.21b3490286fcp-16
2226=-0x9.930cb876eac3p-15
2227=0x9.08757304539p-12
2228=0xd.4528d7cfaa688p-8
2229=-0xb.103ff86217afp-9
2230=-0xf.ff491d5c5869p-14
2232=-0x8.82c0c78b8f468p-5
2233=0xe.f549641682efp-7
2235=-0x8.cb600ceb58068p-8
2245=0x9.e703e0614e628p-4
2246=-0xb.09e036e3a7fp-6
2249=-0xa.0df713f01789p-5
2253=-0xc.11d795738a6fp-17
2255=0xb.fe0ab80c1733p-7
2257=-0xd.8651d563bead8p-19
2267=-0xf.08fcfcdf8d3d8p-4
2268=0x8.adc3976352978p-6
2269=0x9.0611a00a3afb8p-17
2270=-0xc.bf4bdb2a26de8p-9
2272=0xf.deff1b0d1c28p-6
2273=0x8.e0627de7e4d68p-9
2274=0x9.f587eb7e6cp-21
2275=0xe.ca91eaca541cp-7
2277=0xb.43d9c893f30b8p-7
2279=0x9.8645fc16017cp-6
2287=0xb.8803afa6e4878p-9
2288=-0xc.1a83f948b444p-16
2289=0x8.256fd4f42abb8p-7
2290=0xe.e043ea07a4d4p-7
2292=-0xb.49da183becb1p-11
2293=0xc.f861c653e1378p-7
2294=0xd.3336f7a6ef638p-8
2295=-0xc.e8587e155c9b8p-8
2296=0xd.de5daf29dcc3p-10
2297=-0xb.9006e7244221p-13
2298=0x9.595290cba2ep-9
2299=0x9.da76ab1d5ead8p-7
2300=0xe.407c67d66782p-8
2301=0x8.a590f4d2dff4p-5
2308=0xa.ccb38597caeap-18
2309=-0xd.4a8b86a500808p-13
2312=0xc.99f6bd0b99bcp-15
2319=0xf.ead58cfac3a3p-18
2321=0x8.bf0ca5add7578p-4
2333=0xe.b618605c5d7ep-7
2334=0xb.1953344e8377p-13
2335=-0xe.f768dc6d15988p-4
2336=-0xe.56c4ee474fdp-12
2337=-0x8.0967f262d1038p-10
2339=-0xb.e2e31c984fabp-8
2340=-0xb.15977da9460d8p-4
2342=0xa.7c0511ce1a31p-7
2343=0x8.8fa3a3b822e4p-7
2344=0xe.82a58713ce49p-17
2345=0x9.0df0ffaa9133p-5
2353=0xa.f703b29f3295p-12
2355=-0x9.8ba629d5ce6a8p-8
2356=0xa.b3616a786a758p-6
2358=-0xa.28c7434b68de8p-11
2361=0xc.b9cdcef42ce1p-9
2363=-0xc.3dea52473c068p-16
2365=0x8.6a703b464b888p-8
2367=-0x9.07f4beb558f5p-8
2374=0xb.feb8c52703e98p-13
2375=0x9.f3efc6b7cad18p-9
2377=-0x8.135b9d1f73bep-4
2378=0xf.44994efcba78p-8
2380=-0x9.22029efacb5ap-7
2381=-0xd.9d47dbf61ede8p-10
2383=0x8.8326a1f916ad8p-10
2385=0xd.14b1a7c4f82c8p-19
2387=0xa.f4c364e6dfe68p-8
2389=0x8.3dddb9b8401b8p-7
2396=0xe.0662f2d03cae8p-12
2397=-0xc.22804a9ac7abp-13
2400=-0xa.95677693af6ap-10
2405=0xe.798c7f3acd878p-8
2407=0xc.67275f8374cfp-19
2409=-0x9.8a02b5dd7b868p-9
2411=0xe.22b765f256b88p-8
2420=0xc.964dc2d423ebp-7
2421=-0xa.9c04497d69108p-7
2422=0xb.6bdeaffcfe918p-6
2423=0x8.a0c90ba6fbfep-17
2424=-0xd.904e46dee3f7p-18
2425=-0xf.c2973c3816dep-7
2426=0xa.3f69ebb0cbefp-18
2427=-0xb.50c6f40ed149p-9
2428=-0xc.07ecd8dcb0e4p-10
2429=-0xe.f8cefa1f62d5p-15
2430=0xa.c559be77a123p-11
2431=0xa.84ef1e88264cp-8
2432=0x8.ec09869b44d68p-18
2433=-0xe.98b2c503b0c6p-13
2440=0xf.ace576404fd5p-18
2441=-0x8.7bf5795817718p-11
2442=0x9.695810f7f037p-10
2443=0x8.12d605c410238p-9
2444=0x8.0d121d5a89b68p-7
2446=-0xd.7628657826c6p-11
2447=-0xa.85e3c1310c76p-8
2448=-0x9.3aaee86c138e8p-11
2449=-0xc.bea73adfafa8p-8
2450=-0xa.8f07a8d052278p-15
2451=-0xf.6344ceb58a638p-16
2453=0x9.1098c4067a57p-7
2454=0xa.079daea2d3a18p-18
2455=0x8.99b11c92c9048p-5
2462=0xc.36dac0b9cbacp-20
2463=-0xa.cf671bbb2786p-11
2466=0x9.8d5d9376728cp-16
2477=-0xf.26675ffd50ecp-21
2488=0xa.e31c3c3fc36a8p-20
2499=-0x9.4d094d24d8058p-21
2510=0x9.83abc0ea5db5p-9
2519=-0x8.05a101f791bb8p-13
2521=-0xd.1e5c9efa1883p-18
2532=0xa.d56bfadae5ea8p-14
2543=-0xf.33cc944f88b3p-21
2554=0xa.e32ac18b63bp-20
2565=-0x9.4e99c22b5e628p-21
2576=-0x9.e7b321fb5ef08p-10
2585=-0x8.2be3340d0fecp-14
2596=-0xb.24395905335cp-5
2597=-0x9.0b6aaf4d2be88p-3
2598=0xf.91f008ede8158p-6
2600=-0xe.fd7ce29bc92ep-11
2601=-0x9.9b3108b867e88p-8
2602=0xd.f61babafb6b88p-7
2603=-0xc.7997503fb9ed8p-10
2605=-0xa.dc22e289fee4p-12
2606=-0xd.96e56b67a83dp-7
2607=0x8.0a8188fb7f828p-6
2609=-0xa.f8480e7d33dp-8
2617=-0x8.e6267cc462b28p-9
2619=0x8.eb33ac51a8548p-4
2620=0xd.72538688f74a8p-7
2621=0x8.9ad3a360deb18p-17
2622=0xc.400f5d85f84bp-13
2623=-0xc.d24f8a494e38p-9
2624=0xb.41f345804ab6p-9
2625=-0xc.5d821e7601e4p-11
2627=0xe.5a2f8464e7dbp-14
2629=0xb.5009c500b311p-7
2631=0xb.0a30014716e7p-6
2639=0xf.ded68f548bd58p-14
2640=0xb.3407d912c78d8p-10
2641=0x9.eb2f386368c7p-7
2642=-0x8.cd6ab897b7ef8p-7
2643=0xb.182f764966858p-17
2644=-0xe.0a12a6a7c4478p-11
2645=-0xf.2be02caef4558p-7
2646=-0xa.1bb5d7069aefp-10
2647=-0xd.e211400fd6f8p-11
2648=0xa.550c56209f87p-17
2649=-0xb.80869dd33d8c8p-6
2651=0x8.7462a7eacd2e8p-7
2652=0xa.397cdfc067138p-17
2653=-0xb.dc6c2cac26d1p-8
2660=0xc.160dead7a0cp-18
2661=-0xe.246485456bcb8p-14
2663=0xc.780458a82914p-9
2664=0xa.6a11ec9f207c8p-8
2665=-0x8.b1cda6f8f30cp-16
2666=-0xe.f1a354c53d368p-11
2667=-0xa.e6e7ba9597dfp-7
2668=-0x9.0a83260cb8728p-11
2669=-0xa.b92f794516d78p-8
2670=-0xc.f81eee97f96dp-6
2671=-0x9.74f1bafa18fp-11
2673=0x8.e674da2ca7c5p-7
2674=0x8.e357b787c75e8p-17
2675=-0x9.ec8e6e3421638p-9
2682=0x8.98594829597d8p-17
2683=-0xe.c56933618d8cp-12
2685=-0xa.3ced62efbd0fp-10
2686=0xa.b87280825aa28p-6
2688=-0xe.47d4bd92138f8p-5
2689=-0x8.2a615003990b8p-12
2690=0x9.1026cf07c03fp-17
2691=-0x9.db851f7170388p-4
2692=0xe.c8991d57ae0cp-6
2693=-0xb.2d253195c0d5p-8
2695=0xb.39b7472950cf8p-11
2697=0xd.1c6df1b755108p-13
2705=0x8.4a96ba4698d5p-7
2707=0xa.51cdf33726608p-4
2708=0x9.2641ffe271b68p-6
2713=0xc.f50b3c02446bp-12
2717=0xd.7c67b30509338p-9
2719=0xe.ac09227a56ebp-8
2736=0xc.ba8b5bb5f40cp-17
2741=-0xc.040a35a31268p-21
2752=0x8.62cc4a3401188p-19
2763=-0x8.fe9d73b78dc9p-21
2773=0x8.222dfa123d46p-9
2774=0xf.375a87786ca9p-16
2785=-0xe.c60b7bd80a1ap-18
2796=0xb.e8d54816f48ep-20
2802=0xc.b909c557e566p-17
2807=-0xc.137d683f3e2fp-21
2818=0x8.630604016ee1p-19
2829=-0x9.004647337aa7p-21
2840=0xd.2fdcdb6bb234p-16
2851=-0xd.7d9f2df967cd8p-20
2862=0x8.6ef57ff66495p-19
2873=-0x8.fec06578e24e8p-21
2884=0x8.62cc4a3401188p-19
2895=-0x8.fe9d73b78dc9p-21
2906=0x8.62cc4a3401188p-19
2917=-0x8.fe9d73b78dc9p-21
2928=0xa.b13c442a80ff8p-21
2939=-0xc.17c24abeb626p-21
2950=0x8.62cc1fc6c447p-19
2961=-0x8.fea336be68ab8p-21
2972=0x8.62cc4a3401188p-19
2983=-0x8.fe9d73b78dc9p-21
2994=0x8.62cc4a3401188p-19
3005=-0x8.fe9d73b78dc9p-21
3015=0xc.d711d48f1617p-8
3016=0xc.d89d13fe3d228p-7
3018=0xb.081e4185df0c8p-14
3019=-0x9.b6840d11d93bp-8
3020=-0xa.278d55bf28c18p-7
3021=-0x8.86140cf645108p-13
3023=-0x8.ce0b75177916p-10
3024=0xb.8967a72d4ae7p-5
3025=0xa.f2e7372344c58p-7
3026=0xc.41928993e4868p-18
3027=0x8.616a24232818p-6
3034=0x9.dfeb6f9521e9p-17
3035=-0xf.ae2ae1e185f48p-7
3045=0xc.b5a24611dee38p-6
3060=0x8.aa6b36da894bp-19
3081=-0xa.d1c3f069af568p-6
3082=0xa.5a2a259b230a8p-10
3093=-0xb.eb9604dcffb6p-18
3104=0x8.aaa9b57e73338p-19
3115=-0x8.b1bb57bd6f1ap-21
3125=0xa.2e4c90388acp-7
3126=0xa.3e15a9bc7e36p-5
3135=-0xa.df203b1e454fp-7
3137=0xb.61c259d383b9p-13
3148=0x9.674aabe18f9b8p-17
3159=-0x8.ec87f93978728p-21
3170=0xc.f6e0a47c55cep-13
3179=0x8.099fa128a368p-17
3181=-0x8.b91dd6be5fe7p-17
3192=0x9.5f25ce95e38dp-17
3203=-0x8.ec89e06709bp-21
3214=0xc.f6e0a47c55cep-13
3223=0x8.099fa128a368p-17
3225=-0x8.b91dd6be5fe7p-17
3236=-0xa.6aeaf9454d148p-11
3245=0x9.4a94e688c3b68p-18
3258=0xc.f6e0a47c55cep-13
3267=0x8.099fa128a368p-17
3269=-0x8.b91dd6be5fe7p-17
3280=-0xa.c5c5a2e2ecdap-15
3291=-0xc.03690618b6e38p-21
3301=-0xa.9147a8e6707a8p-21
3302=0xe.6964814dfda8p-15
3313=-0xe.9d70243543748p-19
3323=-0xa.9147a8e6707a8p-21
3324=0xe.6964814dfda8p-15
3335=-0xe.9d70243543748p-19
3346=-0xb.add1ce29f4b5p-7
3355=-0x8.1fd9ba034afa8p-8
3357=0x8.af6f58e35bc2p-17
3367=0x8.143514ccbc2e8p-9
3368=0xf.f19534d64db5p-13
3370=-0xc.b17c144085228p-6
3373=-0xd.a64eb435e4768p-10
3375=-0x8.2ac3207f16148p-4
3377=-0xa.9081481036d9p-11
3378=0xa.8560c015e3688p-5
3379=-0xe.fe376df511fa8p-8
3387=-0x9.3860668b5901p-19
3390=0xe.f2594b54d85a8p-7
3392=-0xb.d26672e9bdbbp-7
3395=-0x9.024b9e050206p-17
3397=-0xd.0be8d65d8385p-5
3399=-0xf.be4acb0c5f2ap-11
3409=0x8.fa3b064335208p-11
3411=-0xc.7c7865c574ef8p-6
3412=0xe.c3a875ed602f8p-7
3414=-0xb.2f645c946076p-8
3415=-0xb.b39adf7ab88e8p-12
3416=0xe.5a4bc3d0f1128p-8
3417=-0x8.8d846ebc17408p-3
3418=-0xe.e8de3e6d5113p-4
3420=0xf.2b1b1d4f0028p-15
3421=-0xc.9986bab5d2d1p-6
3422=0x9.606abf4609c4p-17
3423=-0x9.aca58796ec66p-9
3431=-0xf.f7fcd530c338p-18
3433=-0xa.9147a8e6707a8p-21
3434=0xe.6964814dfda8p-15
3445=-0xe.9d70243543748p-19
3467=0xe.ea9630aac5198p-19
3478=0x8.3ed78cd1a668p-9
3487=0x9.a8ec90f37df8p-18
3489=-0xa.74801c60da0ep-19
3509=0x9.9220bbd72dc58p-16
3522=0x8.3ed78cd1a668p-9
3531=0x9.a8ec90f37df8p-18
3533=-0xa.74801c60da0ep-19
3544=0x8.3ed78cd1a668p-9
3553=0x9.a8ec90f37df8p-18
3555=-0xa.74801c60da0ep-19
3566=0x8.3ed78cd1a668p-9
3575=0x9.a8ec90f37df8p-18
3577=-0xa.74801c60da0ep-19
3588=0x8.3ed78cd1a668p-9
3597=0x9.a8ec90f37df8p-18
3599=-0xa.74801c60da0ep-19
3610=0x8.3ed78cd1a668p-9
3619=0x9.a8ec90f37df8p-18
3621=-0xa.74801c60da0ep-19
3632=0x8.3ed78cd1a668p-9
3641=0x9.a8ec90f37df8p-18
3643=-0xa.74801c60da0ep-19
3654=0x8.3ed78cd1a668p-9
3663=0x9.a8ec90f37df8p-18
3665=-0xa.74801c60da0ep-19
3676=0x8.3ed78cd1a668p-9
3685=0x9.a8ec90f37df8p-18
3687=-0xa.74801c60da0ep-19
3698=0x8.3ed78cd1a668p-9
3707=0x9.a8ec90f37df8p-18
3709=-0xa.74801c60da0ep-19
3720=0xb.b0f1b58d6bap-8
3729=-0xf.bf8740496498p-7
3731=-0xb.6f6b658a59fap-22
3742=-0xb.4b4bfac92dfp-7
3745=0xe.088da34463ef8p-21
3747=-0x9.580c5ef201e9p-11
3751=0xa.062f83b16ce2p-8
3753=0xe.e74a400730fp-10
3762=0xe.315c9ecebfb6p-19
3763=0x8.504cd2270988p-10
3764=0xe.3db9688c6e528p-10
3766=-0xa.c5fbc57854a6p-12
3769=-0xf.e81f7ebe5af6p-6
3773=-0x9.faefcd72db68p-7
3775=-0x8.58575e4f99a2p-8
3783=0x8.8d94873ba356p-10
3786=-0x8.2ccfad4f2616p-6
3787=0x8.4bda2274e2ccp-15
3788=0x8.abeb81a3219a8p-4
3791=-0x9.ef2aa8f91665p-18
3793=-0xc.ed6c19d21b9dp-18
3795=0xa.abf1c906aee48p-6
3797=-0xe.0f8cceff248bp-12
3807=-0x9.7e8466db1ecap-8
3808=0xb.e8cb871dabb4p-8
3810=0xf.a77f1d7721638p-10
3813=-0x8.784dfb7dac37p-7
3815=-0xe.b1f20204db128p-16
3817=-0x9.e40345009594p-7
3819=0x9.ea1a428014f7p-14
3829=-0xd.2a38a6a91238p-18
3830=-0xe.32c90df1c2188p-7
3831=-0xa.0b2306cb9ac5p-6
3832=-0x8.7cdc30d406dp-8
3833=-0x8.d9aef2b081038p-2
3835=0xc.ab0c62ea9b168p-11
3837=0xb.a4a3af873c248p-10
3839=-0x8.12bfd6682f348p-10
3841=0xb.a2ff8ebc2f4ep-12
3848=0x9.bd199238fc05p-17
3849=-0xa.850dcc7b7f108p-11
3852=0x8.3ed78cd1a668p-9
3861=0x9.a8ec90f37df8p-18
3863=-0xa.74801c60da0ep-19
3874=0xc.e3929e84d47ep-10
3885=-0x9.00a6b61aa61b8p-19
3896=0xf.8c431e400e55p-18
3905=0xc.63d1fda38302p-16
3918=0xc.e3929e84d47ep-10
3929=-0x9.00a6b61aa61b8p-19
3949=0x9.ae6544b1a7fb8p-7
3962=0xa.7a866a1ed1d38p-6
3965=0x9.9edb41a40369p-20
3967=-0xd.06af305e30b7p-4
3969=-0xa.fc8ebddc7a15p-17
3971=0xd.e700b045345ap-13
3973=-0x9.4ae4988f9b7e8p-9
3983=-0x8.ab8fe1cf94ap-6
3984=-0xe.949324c878118p-8
3986=-0x8.3183d3aee3c98p-8
3987=0xe.db217ed4ea108p-21
3989=-0xc.265964c7bc628p-8
3990=-0xa.be8b221f737ep-17
3991=-0xb.237be0b8743cp-8
3992=0x8.34f5f628c2dc8p-9
3993=-0xe.fa15e5b1d2598p-8
3995=-0xa.a0acc5cab7eap-8
4002=0x9.e12eb895a36ap-13
4003=-0xd.cee6dfa4f9e7p-9
4005=-0x8.0c4683f1cf12p-5
4006=0xb.97640697ad218p-9
4008=-0x9.1937900cf206p-9
4009=0xd.480d1a1a7fba8p-8
4011=-0xc.3f2bedab0b96p-17
4015=0xa.d76d1a8b0daep-9
4017=-0xe.afba13dd10ccp-9
4024=0x8.ac17a0b3c0cfp-13
4025=-0x8.d27b3b278fabp-16
4026=0xc.41de35da4f1ap-8
4027=0xb.f8662b7b1831p-10
4028=-0x8.d0a1ccc1ed338p-9
4030=-0xe.742d13ebbd448p-8
4031=-0xb.7fd83a8e45c3p-9
4033=-0x9.4e63bd050509p-6
4034=-0xd.5eafab2e4299p-14
4035=-0x9.308b4692d1e78p-4
4037=0xe.67d77482190fp-8
4039=0xe.c4151676ea4d8p-13
4046=0x8.9df2abc77b808p-13
4047=-0xe.e9df30a485ccp-13
4050=0xc.e3929e84d47ep-10
4061=-0x9.00a6b61aa61b8p-19
4072=0x8.d6a05321eac1p-12
4083=-0xf.51b7d9a4f1388p-20
4094=0x8.9fb7e8689f1cp-21
4116=0xf.986e45e2ecf08p-10
4138=0x8.d6a05321eac1p-12
4149=-0xf.51b7d9a4f1388p-20
4159=0xf.f3684b2a8c268p-6
4160=-0xc.acfb4c5ae2a3p-12
4168=0x8.cb8cf25db973p-5
4169=-0xb.db363e8a41f4p-8
4171=-0x9.be70c281686d8p-13
4180=0xc.15c9dc4556288p-6
4181=-0xa.e13b05262c7ap-5
4182=-0xe.e88be7e18f5fp-8
4187=-0xa.67d32ba8d3e1p-11
4188=-0x9.cca14100e5c1p-9
4189=-0xa.2ca120ef1a18p-22
4190=0xf.87cbd7b531498p-9
4191=-0xb.35f282b0f4dbp-6
4192=0x8.72309ed01afdp-4
4193=-0xb.7123cddb9bfd8p-7
4200=0xc.1d73eb75b31bp-13
4201=-0x8.7f562dc701e48p-10
4204=0x8.d6a05321eac1p-12
4215=-0xf.51b7d9a4f1388p-20
4226=0xc.c68aebc1c15dp-19
4234=0xf.22f4354fb0e5p-14
4235=-0xd.7afc522fdb89p-11
4237=-0xb.87295e37ac0d8p-20
4247=-0x8.51c47919b035p-14
4257=0xc.c1d3f72dfaa68p-17
4270=0xd.ac6388f35d1dp-13
4279=0x9.2181d5d6a5338p-16
4291=-0x8.51c47919b035p-14
4301=0xc.c1d3f72dfaa68p-17
4313=-0x9.348f21eae2f98p-14
4314=0xd.a11d5c96fd1f8p-7
4321=-0xa.b24bf6e25a438p-15
4323=0xd.8e4c61742e7e8p-14
4325=-0xe.be28f3a6f8a5p-20
4336=0xb.f5ad68807b698p-17
4345=0xe.053dee8c432cp-14
4358=-0xb.310a1b9452c4p-14
4365=-0x9.c6b658ae69a5p-17
4367=-0xb.2d91ebf81e9cp-16
4369=-0x8.870531023b758p-21
4380=-0xb.053d24bab7738p-17
4389=0xa.361062475725p-16
4406=0xe.99ad70a122898p-6
4410=0x8.d438e7b9122p-5
4411=-0x9.db6d9561f6088p-13
4424=-0x8.e73a3e551c2f8p-10
4426=-0x8.64ea5362d358p-5
4433=0xb.0dd156f5db4ap-13
4446=0xf.99dfb0d43013p-22
4452=0xd.28fb25fa15f6p-8
4455=0xb.18a9b28b36128p-16
4468=-0x9.bd8697e0b575p-9
4477=0x8.dae2db3f0c8ep-16
4490=0xf.99dfb0d43013p-22
4496=0xd.28fb25fa15f6p-8
4499=0xb.18a9b28b36128p-16
4512=-0x9.bd8697e0b575p-9
4521=0x8.dae2db3f0c8ep-16
4534=0xf.99dfb0d43013p-22
4540=0xd.28fb25fa15f6p-8
4543=0xb.18a9b28b36128p-16
4556=0xf.99dfb0d43013p-22
4562=0xd.28fb25fa15f6p-8
4565=0xb.18a9b28b36128p-16
4578=0xf.99dfb0d43013p-22
4584=0xd.28fb25fa15f6p-8
4587=0xb.18a9b28b36128p-16
4600=0xf.99dfb0d43013p-22
4606=0xd.28fb25fa15f6p-8
4609=0xb.18a9b28b36128p-16
4622=0xf.99dfb0d43013p-22
4628=0xd.28fb25fa15f6p-8
4631=0xb.18a9b28b36128p-16
4644=0xf.99dfb0d43013p-22
4650=0xd.28fb25fa15f6p-8
4653=0xb.18a9b28b36128p-16
4666=0xf.99dfb0d43013p-22
4672=0xd.28fb25fa15f6p-8
4675=0xb.18a9b28b36128p-16
4688=0xf.99dfb0d43013p-22
4694=0xd.28fb25fa15f6p-8
4697=0xb.18a9b28b36128p-16
4710=0xd.7040d6ad94c98p-8
4712=-0x8.6ee6543c0efc8p-20
4721=-0x8.5fa35e592d2ep-19
4729=-0xc.8f361a8a3dbp-22
4732=-0xa.7c4a871e9a588p-6
4733=0xc.62681391d6fbp-2
4734=-0xe.bd0ad2d02ba9p-4
4738=0xc.528d9580096bp-12
4741=0xc.c84ff2b974c18p-10
4754=-0xf.b7f4f3de6778p-8
4755=0xb.41f8a0b8bafc8p-16
4763=0xe.ae4e12444f268p-12
4776=0x8.6d4738cfa2cdp-17
4782=-0xd.4984ad723879p-7
4785=0x8.62e5249d97ac8p-16
4798=0xa.1830734a4fb18p-17
4800=-0xf.80ab106d558p-17
4807=0xa.d356077cc44ap-16
4820=0x8.6d4738cfa2cdp-17
4826=-0xd.4984ad723879p-7
4829=0x8.62e5249d97ac8p-16
4842=0xa.1830734a4fb18p-17
4844=-0xf.80ab106d558p-17
4851=0xa.d356077cc44ap-16
4864=0xa.7fc166d817b38p-12
4885=0xc.53847dbcbb38p-14
4886=0xd.48224248af338p-9
4888=-0xe.1a2cdb305c03p-22
4893=-0x9.7d1aa642974ap-7
4895=0xa.fa2e450446778p-14
4897=-0xd.34ad7bbcdab4p-20
4905=-0x9.3ec9a18a49b48p-21
4908=-0xd.fc9be397af58p-9
4910=-0x9.52dcc2170251p-10
4914=-0x8.28c9e25c696p-8
4917=0x9.5615b98fc795p-13
4930=-0xb.738c3816f5688p-12
4932=-0xc.9a9633ef8dca8p-5
4939=0xb.e6078798c096p-12
4952=-0xc.bda98b448c32p-17
4954=-0xa.1cd614cace23p-15
4959=-0x8.d168aff4c96cp-17
4961=0xa.0abe527c1702p-16
4974=-0xf.aef0dac6f39d8p-11
4983=0x9.5646e3faa471p-16
4996=-0xc.bda98b448c32p-17
4998=-0xa.1cd614cace23p-15
5003=-0x8.d168aff4c96cp-17
5005=0xa.0abe527c1702p-16
5018=-0xf.aef0dac6f39d8p-11
5027=0x9.5646e3faa471p-16
5040=-0xf.aef0dac6f39d8p-11
5049=0x9.5646e3faa471p-16
5062=-0xf.aef0dac6f39d8p-11
5071=0x9.5646e3faa471p-16
5084=-0xf.aef0dac6f39d8p-11
5093=0x9.5646e3faa471p-16
5106=-0xf.aef0dac6f39d8p-11
5115=0x9.5646e3faa471p-16
5128=-0xf.aef0dac6f39d8p-11
5137=0x9.5646e3faa471p-16
5150=-0xf.aef0dac6f39d8p-11
5159=0x9.5646e3faa471p-16
5172=-0xf.aef0dac6f39d8p-11
5181=0x9.5646e3faa471p-16
5194=-0xf.aef0dac6f39d8p-11
5203=0x9.5646e3faa471p-16
5216=-0x8.d458edc9d75b8p-6
5218=0x9.19964ffe99dp-4
5225=0xa.a51a10e55df98p-14
5238=-0xc.e6d94241ca7dp-12
5240=0xb.bd24d0022d4cp-4
5245=-0x8.e8d369959a52p-17
5247=0x8.f01e9356ce28p-11
5260=-0x9.0f5af84f1a9ep-14
5269=0xa.4074b5a912c38p-16
5281=0xc.2913c4788098p-7
5282=-0xb.413b0080916d8p-14
5289=-0x9.dff4d680db51p-17
5291=-0xa.367ab6b729aap-6
5310=0xa.d7dbcde9a5ddp-17
5314=-0xa.d8046cc859dc8p-19
5325=0xc.2913c4788098p-7
5326=-0xb.413b0080916d8p-14
5333=-0x9.dff4d680db51p-17
5335=-0xa.367ab6b729aap-6
5348=0x8.7034a597a70fp-10
5369=-0xa.101477418417p-20
5370=0xd.3942793d5274p-11
5392=-0xc.733623102a76p-14
5403=0xc.ade0504da6b9p-14
5414=-0x8.e682c7afe8858p-13
5425=0xf.604e230e6a7f8p-10
5436=-0xf.c4a13b6f9ca3p-14
5447=0x8.5d25c89eff6c8p-9
5457=0x8.93fdee1b2169p-3
5458=0xa.2157331f17f8p-11
5460=-0x9.b211331dccd28p-1
5465=-0x9.e10495c6018ep-17
5467=-0xb.a854fafba9e48p-19
5480=-0xb.2c1f8ad2bb278p-10
5487=0xc.0c21eefe74d3p-3
5489=0xa.0232639333cd8p-16
5502=0x8.b5b2682e1a708p-13
5524=0x8.b5b2682e1a708p-13
5555=0xe.d67942cd03a7p-9
5568=0xf.54db5e4d5bb78p-11
5577=0xa.d48ec8d74f538p-16
5590=0xb.7dd93db77d55p-20
5599=0xd.b31eb839e3f5p-17
5621=0xd.b0de269bc2adp-17
5633=0xc.08296cdcb65cp-7
5634=0x8.5ffea8aeac118p-17
5645=-0xa.8cdaa4be1bb88p-16
5655=-0xc.285480407a06p-12
5656=0xe.ea8c59f0806f8p-15
5665=0xd.f017ba527e7fp-16
5677=-0xf.934957bafba7p-13
5678=0xe.430f4ecb49e98p-5
5687=0x8.dd5786632b2ep-10
5700=0xf.2f6e62e77d3a8p-20
5711=-0x9.348c93c4a28ap-20
5722=0xe.85de372114aa8p-19
5733=-0x9.63e094fe6da6p-20
5744=0xc.e7282fb694ec8p-20
5755=-0x8.6073717c76258p-20
5766=0xa.2a9c8de25c508p-15
5777=-0x8.45e52b0dbcf58p-20
5788=-0x8.3788d21bbc898p-11
5809=0xe.46745edaab158p-7
5810=-0x8.04c0ddf426918p-8
5831=0x8.f12ac139a1f78p-12
5832=-0xf.8236a3664c9bp-7
5853=-0x9.eb244c643b91p-20
5854=0xe.ef44195ca376p-17
5876=0xc.0107a3b5b9c4p-12
5887=-0xd.ce524faf07228p-20
5897=-0x9.eb244c643b91p-20
5898=0xe.ef44195ca376p-17
5919=-0x9.eb244c643b91p-20
5920=0xe.ef44195ca376p-17
5941=-0x9.dbe9b3b4d4a8p-20
5963=-0x9.eb244c643b91p-20
5964=0xe.ef44195ca376p-17
5985=-0x9.eb244c643b91p-20
5986=0xe.ef44195ca376p-17
6007=0x8.3b0a0f46043e8p-5
6008=-0xf.1b48fed1dc6ep-9
6013=-0xf.8030e24baf588p-16
6015=-0x9.982daac9d083p-16
6017=-0x8.1afd4d15810ap-10
6019=0x8.8a5e217b88598p-9
6026=0xf.c11eb26a7814p-16
6027=0x9.da427be65038p-9
6030=-0xa.c390374cfd68p-15
6034=0x8.f052a8893e19p-18
6052=-0xa.43224731b484p-8
6056=0x8.3437b4b8551c8p-3
6058=0xe.d6c7a60c94c48p-4
6074=-0x8.e720822a663b8p-9
6095=0xb.70165258fd7bp-9
6096=-0xd.88816ff7a2da8p-9
6101=-0xf.a6c9aa0ad977p-16
6103=-0x9.c74ea96683078p-16
6105=-0x9.fb21b8e027f48p-8
6107=0xa.56501fc916828p-8
6114=0x9.37e732040f19p-13
6115=0xd.c57d0308cb73p-8
6117=-0x9.933c65a1a458p-23
6118=-0x8.be9dbbb1682bp-17
6123=0x8.efba0437fc5b8p-18
6139=0x8.cf640be688338p-14
6140=-0xb.3bf74fc143c08p-7
6149=0xb.fa45b08c4d1d8p-8
6151=-0xb.8724dc82deb3p-19
6161=-0x9.adf82badf7e88p-23
6167=0x9.dfd5a83aafdfp-17
6169=0x8.5c6955f577bdp-15
6184=0x8.b8ed19da695b8p-4
6187=0xd.3b7c34613f578p-5
6193=-0xb.999ca3bb24a4p-6
6195=0xd.708f030f3628p-17
6204=0xf.b934be321b06p-13
6205=-0x9.af7f1f975bbdp-6
6206=0xe.0e123c28da75p-15
6211=-0xf.a59d229c4f18p-16
6213=-0x9.c7b96d0add3p-16
6215=0x8.52f1ac80c25a8p-12
6217=0xb.51170931cad8p-8
6225=0x9.ce9ea2b936c9p-6
6227=0xa.67dfa045fc6fp-15
6228=-0xd.00e769a1e0f4p-15
6250=0xa.e675ad5b22e7p-17
6261=-0x9.420d546217ccp-20
6270=0xe.5d8fda6d4357p-17
6293=0xe.f0dfe16d2f1ep-23
6294=0x9.ec7768ed6e5e8p-21
6305=-0xa.831901433964p-19
6315=-0xd.d297e85cc1ecp-15
6316=0x9.b1e74166a9a88p-18
6320=0xc.8f96046e4c948p-16
6325=-0x8.0d506cd24f21p-7
6327=-0x9.5608c261532cp-18
6337=-0x9.ffe550f080cbp-10
6338=0xe.bf0b168da35e8p-7
6360=0xd.9008d3bb9e2b8p-15
6371=-0xe.9327670fd29c8p-20
6381=-0x9.af58dec026758p-7
6382=-0x8.897962623e8cp-11
6386=0xd.672118cbfdb2p-5
6388=0xa.b345e4b1f30e8p-20
6390=0x9.2785cab1efd8p-8
6391=-0x9.9c1e9a0329fp-14
6392=0xb.0b708d7aeef5p-7
6403=-0xc.be444696d7a68p-10
6404=0x8.0866d9da429f8p-11
6415=-0xb.00e649a101208p-20
6425=-0xc.be444696d7a68p-10
6426=0x8.0866d9da429f8p-11
6437=-0xb.00e649a101208p-20
6447=-0xc.be444696d7a68p-10
6448=0x8.0866d9da429f8p-11
6459=-0xb.00e649a101208p-20
6470=0x8.7fb590bcfb568p-17
6481=-0xb.d3324e22eaab8p-20
6492=-0xc.cb135d53b0a9p-18
6503=0x8.460d0744fca38p-20
6514=0x8.7fb590bcfb568p-17
6525=-0xb.d3324e22eaab8p-20
6536=0xc.19ef1268449b8p-20
6558=-0x9.1b3da136f6b1p-8
6564=0xb.181283c7ffbe8p-7
6568=0xb.0ca5464c74938p-7
6580=-0x8.805a245a326a8p-9
6582=-0xf.da9628dea52ep-15
6586=0xc.48ba94f17215p-14
6587=0xd.6db1e98b660a8p-8
6591=-0x8.68b5103cb162p-18
6602=0x8.7fb590bcfb568p-17
6613=-0xb.d3324e22eaab8p-20
6624=0xd.c7f9b949d362p-21
6635=-0x9.514c69a40e7ap-19
6646=0xd.c7f9b949d362p-21
6657=-0x9.514c69a40e7ap-19
6668=0xd.c7f9b949d362p-21
6679=-0x9.514c69a40e7ap-19
6690=0xd.c7f9b949d362p-21
6701=-0x9.514c69a40e7ap-19
6712=0xd.c7f9b949d362p-21
6723=-0x9.514c69a40e7ap-19
6734=0xd.c7f9b949d362p-21
6745=-0x9.514c69a40e7ap-19
6756=0xd.c7f9b949d362p-21
6767=-0x9.514c69a40e7ap-19
6778=0xd.c7f9b949d362p-21
6789=-0x9.514c69a40e7ap-19
6800=0xd.c7f9b949d362p-21
6811=-0x9.514c69a40e7ap-19
6822=0xd.c7f9b949d362p-21
6833=-0x9.514c69a40e7ap-19
6844=0xa.26db064caa498p-5
6851=-0xa.39509666fa7p-5
6853=-0xd.d1279e12a5258p-7
6867=0xa.b80708455c3bp-19
6868=-0xe.165c016e4b58p-7
6873=0x8.930c7f6f975d8p-7
6877=-0x9.a0d5b4b7dbe68p-16
6888=0xd.c7f9b949d362p-21
6899=-0x9.514c69a40e7ap-19
6910=0xa.e0b2a79a85948p-12
6921=-0xc.a941c3358a77p-20
6932=-0x8.16c2f5f6115fp-16
6963=-0x9.773b6c2dad88p-5
6976=-0xb.f8813235040cp-14
6998=-0x9.9425b9763f038p-9
7000=-0xf.f7f4e1fe1c0a8p-12
7004=0xd.262a671727288p-13
7007=0xa.b3274f3c007b8p-16
7020=0xa.e0b2a79a85948p-12
7031=-0xc.a941c3358a77p-20
7042=-0x8.16c2f5f6115fp-16
7063=0xa.cfe31c9eefdp-8
7064=-0xa.217710d2f1898p-6
7072=0xd.635106244f29p-11
7073=-0xa.53d21f84c2b28p-9
7074=0x8.d7c14e140073p-6
7075=-0xc.206e2b01d7a28p-17
7086=0xa.e0b2a79a85948p-12
7097=-0xc.a941c3358a77p-20
7108=0xa.0a5e912502e3p-18
7119=-0xe.2b4fee339c8ap-20
7130=-0xd.b1495a39e81cp-19
7152=-0x9.02c832d1bffd8p-9
7161=-0xc.893b3a3fc7cc8p-8
7174=-0xe.29fb1943650ap-17
7196=0xa.0a5e912502e3p-18
7207=-0xe.2b4fee339c8ap-20
7218=-0xd.b1495a39e81cp-19
7240=0xa.0a5e912502e3p-18
7251=-0xe.2b4fee339c8ap-20
7273=-0xd.4333f6e3916fp-20
7284=-0xb.0fc3652cfe9d8p-10
7285=0x8.4869d529fbb3p-6
7293=0xa.b189931bc0d7p-15
7306=-0x9.ca77ec1569188p-19
7312=0xd.f54952c24fa58p-19
7316=-0x8.27068b90ae6ap-30
7328=-0xe.3ab4b7c2c756p-16
7337=0xa.93e90938e2d38p-15
7350=-0xf.d5d968d272d38p-8
7354=0xe.36e658e2bbb38p-20
7372=-0xe.e71d248c1ab2p-19
7394=-0xb.0fc3652cfe9d8p-10
7395=0x8.4869d529fbb3p-6
7403=0xa.b189931bc0d7p-15
7416=-0x9.ca77ec1569188p-19
7422=0xd.f54952c24fa58p-19
7426=-0x8.27068b90ae6ap-30
7438=-0xe.3ab4b7c2c756p-16
7447=0xa.93e90938e2d38p-15
7460=-0xb.0fc3652cfe9d8p-10
7461=0x8.4869d529fbb3p-6
7469=0xa.b189931bc0d7p-15
7482=-0xb.0fc3652cfe9d8p-10
7483=0x8.4869d529fbb3p-6
7491=0xa.b189931bc0d7p-15
7504=-0xb.0fc3652cfe9d8p-10
7505=0x8.4869d529fbb3p-6
7513=0xa.b189931bc0d7p-15
7526=-0xb.0fc3652cfe9d8p-10
7527=0x8.4869d529fbb3p-6
7535=0xa.b189931bc0d7p-15
7548=-0xb.0fc3652cfe9d8p-10
7549=0x8.4869d529fbb3p-6
7557=0xa.b189931bc0d7p-15
7570=-0xb.0fc3652cfe9d8p-10
7571=0x8.4869d529fbb3p-6
7579=0xa.b189931bc0d7p-15
7592=-0xb.0fc3652cfe9d8p-10
7593=0x8.4869d529fbb3p-6
7601=0xa.b189931bc0d7p-15
7614=-0xb.0fc3652cfe9d8p-10
7615=0x8.4869d529fbb3p-6
7623=0xa.b189931bc0d7p-15
7636=-0xa.14ce74d6213cp-8
7637=0xf.a1be27d621088p-17
7638=-0xc.1327d42712dd8p-7
7639=-0xf.4c74288c0cc6p-18
7640=0xf.8c053b4c5e358p-6
7642=0xc.ccc689663d3bp-20
7643=-0xf.25ad3e3b5be4p-6
7644=0x9.fd22d181130e8p-4
7645=-0xe.829ac92fba3ep-7
7646=-0xf.e0f04988628f8p-25
7647=0xd.5796322f97c98p-15
7669=-0xf.b046896907efp-18
7680=-0xc.228db439c1adp-5
7689=0xa.7f4e77d6164b8p-15
7702=0x9.e10a7680c3f18p-21
7709=0xe.37321a4674138p-20
7720=0xe.e7d796e837cd8p-12
7721=-0x8.b61571a58ec68p-13
7724=-0x8.25149e65e5578p-18
7726=0xd.a665df0eb9d98p-18
7733=0xa.8806996bda3bp-15
7746=0xe.733616fe74bf8p-7
7768=-0xb.fb62a39be9bdp-19
7790=-0xc.228db439c1adp-5
7799=0xa.7f4e77d6164b8p-15
7812=0x9.e10a7680c3f18p-21
7819=0xe.37321a4674138p-20
7830=0xe.e7d796e837cd8p-12
7831=-0x8.b61571a58ec68p-13
7834=-0x8.25149e65e5578p-18
7836=0xd.a665df0eb9d98p-18
7843=0xa.8806996bda3bp-15
7856=0xe.733616fe74bf8p-7
7878=-0xa.3de9f6474784p-5
7880=0x9.46db293a1082p-18
7885=0xa.17b1ee5695b6p-7
7889=-0xd.839cc03ccf6c8p-23
7896=0xe.d4d145b5ea6fp-12
7897=-0x8.35e41acca0218p-11
7900=0x9.e10a7680c3f18p-21
7907=0xe.37321a4674138p-20
7918=0xe.e7d796e837cd8p-12
7919=-0x8.b61571a58ec68p-13
7922=0x9.e10a7680c3f18p-21
7929=0xe.37321a4674138p-20
7940=0xe.e7d796e837cd8p-12
7941=-0x8.b61571a58ec68p-13
7944=0x9.e10a7680c3f18p-21
7951=0xe.37321a4674138p-20
7962=0xe.e7d796e837cd8p-12
7963=-0x8.b61571a58ec68p-13
7966=0xd.361813d3b6c1p-20
7973=0xb.0b5afdc0c0748p-23
7975=-0x9.1635d7c64b36p-9
7984=0xe.c92326cfd60fp-12
7985=-0xa.68e7cb96508cp-12
7988=0x9.e10a7680c3f18p-21
7995=0xe.37321a4674138p-20
8006=0xe.e7d796e837cd8p-12
8007=-0x8.b61571a58ec68p-13
8010=0x9.e10a7680c3f18p-21
8017=0xe.37321a4674138p-20
8028=0xe.e7d796e837cd8p-12
8029=-0x8.b61571a58ec68p-13
8032=0x9.e10a7680c3f18p-21
8039=0xe.37321a4674138p-20
8050=0xe.e7d796e837cd8p-12
8051=-0x8.b61571a58ec68p-13
8053=-0xf.ff7dd258816p-13
8054=-0x8.4a0e0997616b8p-4
8056=0xc.1dbb50e08d388p-6
8059=0xa.b9586b86d26p-12
8061=-0xb.8aa688830292p-20
8063=0xc.78233fe642c3p-7
8065=0x9.0f023ad7f84d8p-9
8072=0xc.714b55af2684p-13
8073=-0x8.4d11ced842778p-7
8076=0xe.733616fe74bf8p-7
8100=0xe.24922396d9cp-18
8107=0xa.89b9c6a36f1ap-15
8119=0xd.3a94bb320ca4p-9
8120=0xd.5a10fb1dd3f78p-20
8131=-0x9.48834802cadfp-21
8142=-0x8.2422727371dd8p-18
8144=0x9.881f8c1c68788p-5
8164=-0xc.50ec15c09a1e8p-14
8166=-0xc.135f87199a1a8p-22
8169=-0xd.7fba1ac895468p-18
8170=0xd.1d68db71650dp-5
8171=0x8.11626553af748p-9
8188=0xe.24922396d9cp-18
8195=0xa.89b9c6a36f1ap-15
8207=0xd.3a94bb320ca4p-9
8208=0xd.5a10fb1dd3f78p-20
8219=-0x9.48834802cadfp-21
8230=-0x8.2422727371dd8p-18
8232=0x9.881f8c1c68788p-5
8252=-0xc.50ec15c09a1e8p-14
8254=-0xc.135f87199a1a8p-22
8257=-0xd.7fba1ac895468p-18
8258=0xd.1d68db71650dp-5
8259=0x8.11626553af748p-9
8274=-0x8.2422727371dd8p-18
8276=0x9.881f8c1c68788p-5
8296=-0x8.2422727371dd8p-18
8298=0x9.881f8c1c68788p-5
8318=-0x8.2422727371dd8p-18
8320=0x9.881f8c1c68788p-5
8340=-0x8.2422727371dd8p-18
8342=0x9.881f8c1c68788p-5
8362=-0x8.2422727371dd8p-18
8364=0x9.881f8c1c68788p-5
8384=-0x8.2422727371dd8p-18
8386=0x9.881f8c1c68788p-5
8406=-0x8.2422727371dd8p-18
8408=0x9.881f8c1c68788p-5
8428=-0x8.2422727371dd8p-18
8430=0x9.881f8c1c68788p-5
8449=0xb.a50dae3860c08p-3
8450=-0x8.1b67fedfda8f8p-4
8452=0xb.0549e031ce5dp-7
8453=-0xb.7a116f91308cp-12
8457=-0xd.5f940e66a41ep-4
8459=0xc.f27a2893249ep-8
8461=0xd.c7abd7bf31c6p-9
8469=-0xd.798b08856d5e8p-16
8472=-0xc.50ec15c09a1e8p-14
8474=-0xc.135f87199a1a8p-22
8477=-0xd.7fba1ac895468p-18
8478=0xd.1d68db71650dp-5
8479=0x8.11626553af748p-9
8493=0xb.3623c9c8c263p-3
8494=0x8.a72cf1ac269p-19
8496=-0x9.2af9744efd808p-8
8515=0xa.28ba58c8c2ee8p-11
8516=0xc.991b0b9c54d6p-12
8525=-0xf.0a51574117bcp-20
8527=-0xa.f126f568a514p-21
8537=0xb.3eaa4d48e055p-8
8538=-0x9.cc67d01f6849p-14
8540=-0xd.0f54787b560c8p-8
8559=0xa.34e4ed2129bep-9
8560=0xa.26d47af28df18p-7
8565=-0xc.af2c7cf04e26p-11
8567=-0xb.7c56556a3ccp-8
8571=0xd.96bd5e176c49p-12
8581=0xa.28ba58c8c2ee8p-11
8582=0xc.991b0b9c54d6p-12
8591=-0xf.0a51574117bcp-20
8593=-0xa.f126f568a514p-21
8603=0xb.3eaa4d48e055p-8
8604=-0x9.cc67d01f6849p-14
8606=-0xd.0f54787b560c8p-8
8625=0xa.34e4ed2129bep-9
8626=0xa.26d47af28df18p-7
8631=-0xc.af2c7cf04e26p-11
8633=-0xb.7c56556a3ccp-8
8637=0xd.96bd5e176c49p-12
8647=0xa.34e4ed2129bep-9
8648=0xa.26d47af28df18p-7
8653=-0xc.af2c7cf04e26p-11
8655=-0xb.7c56556a3ccp-8
8659=0xd.96bd5e176c49p-12
8669=0xa.34e4ed2129bep-9
8670=0xa.26d47af28df18p-7
8675=-0xc.af2c7cf04e26p-11
8677=-0xb.7c56556a3ccp-8
8681=0xd.96bd5e176c49p-12
8691=0xa.34e4ed2129bep-9
8692=0xa.26d47af28df18p-7
8697=-0xc.af2c7cf04e26p-11
8699=-0xb.7c56556a3ccp-8
8703=0xd.96bd5e176c49p-12
8713=0xa.34e4ed2129bep-9
8714=0xa.26d47af28df18p-7
8719=-0xc.af2c7cf04e26p-11
8721=-0xb.7c56556a3ccp-8
8725=0xd.96bd5e176c49p-12
8735=0xa.34e4ed2129bep-9
8736=0xa.26d47af28df18p-7
8741=-0xc.af2c7cf04e26p-11
8743=-0xb.7c56556a3ccp-8
8747=0xd.96bd5e176c49p-12
8757=0xa.34e4ed2129bep-9
8758=0xa.26d47af28df18p-7
8763=-0xc.af2c7cf04e26p-11
8765=-0xb.7c56556a3ccp-8
8769=0xd.96bd5e176c49p-12
8779=0xa.34e4ed2129bep-9
8780=0xa.26d47af28df18p-7
8785=-0xc.af2c7cf04e26p-11
8787=-0xb.7c56556a3ccp-8
8791=0xd.96bd5e176c49p-12
8801=0xa.34e4ed2129bep-9
8802=0xa.26d47af28df18p-7
8807=-0xc.af2c7cf04e26p-11
8809=-0xb.7c56556a3ccp-8
8813=0xd.96bd5e176c49p-12
8823=0xa.34e4ed2129bep-9
8824=0xa.26d47af28df18p-7
8829=-0xc.af2c7cf04e26p-11
8831=-0xb.7c56556a3ccp-8
8835=0xd.96bd5e176c49p-12
8846=0x9.c2f8dc391b298p-8
8857=-0x8.3c27545729898p-23
8867=0xe.af2b85efc3808p-5
8868=-0xb.8dcfc9fe4a828p-7
8873=-0xf.ead6e6977113p-17
8874=0x9.63da69f1e54b8p-20
8875=0xd.4f73ede7a779p-10
8878=0xd.7291f215302p-15
8886=0xd.f5f5b4b6cd5c8p-12
8889=0xd.176a43cf5e1d8p-7
8911=0xe.af2b85efc3808p-5
8912=-0xb.8dcfc9fe4a828p-7
8917=-0xf.ead6e6977113p-17
8918=0x9.63da69f1e54b8p-20
8919=0xd.4f73ede7a779p-10
8922=0xd.7291f215302p-15
8930=0xd.f5f5b4b6cd5c8p-12
8933=0xc.266c5fb15731p-12
8955=0x8.bc5fd6bcd3138p-9
8977=0xd.176a43cf5e1d8p-7
8999=0xd.176a43cf5e1d8p-7
9021=0xd.162047301a3bp-7
9043=0xd.176a43cf5e1d8p-7
9065=0xd.176a43cf5e1d8p-7
9087=0xe.af2b85efc3808p-5
9088=-0xb.8dcfc9fe4a828p-7
9093=-0xf.ead6e6977113p-17
9094=0x9.63da69f1e54b8p-20
9095=0xd.4f73ede7a779p-10
9098=0xd.7291f215302p-15
9106=0xd.f5f5b4b6cd5c8p-12
9110=0xf.acc8c0e62b038p-19
9121=-0x8.639176fbbe038p-24
9132=-0xa.8db9d5aa5572p-9
9135=0xb.3f2dc2f7e35d8p-7
9137=-0x9.c2220a085558p-23
9139=0xc.92b82c9296d4p-23
9141=-0xa.99284dae0898p-14
9143=0xa.b54481c20198p-11
9160=0x8.4c1cbf116b4d8p-10
9176=-0xa.8db9d5aa5572p-9
9179=0xb.3f2dc2f7e35d8p-7
9181=-0x9.c2220a085558p-23
9183=0xc.92b82c9296d4p-23
9185=-0xa.99284dae0898p-14
9187=0xa.b54481c20198p-11
9198=0x8.fbec254d7bf9p-20
9209=-0xe.36c423c5bf17p-19
9220=0xc.26e0573a14318p-19
9231=-0xb.8adafd33af848p-19
9242=-0xa.8db9d5aa5572p-9
9245=0xb.3f2dc2f7e35d8p-7
9247=-0x9.c2220a085558p-23
9249=0xc.92b82c9296d4p-23
9251=-0xa.99284dae0898p-14
9253=0xa.b54481c20198p-11
9263=0x8.898d3b9e5256p-17
9264=-0xa.bb4905fec44fp-8
9266=-0x9.942662cf73718p-15
9267=0x8.d67de510cef88p-5
9269=-0xc.f2d6f873efafp-18
9273=-0x9.bdcf002a8783p-9
9275=0xa.fd75ea4b7dff8p-13
9286=-0xf.60a1e0da90ee8p-9
9293=0xf.0fef74e0c686p-17
9308=-0xe.9677f521fc1ep-13
9317=0x8.8f80e2d01c628p-7
9319=-0xf.ae2a443226608p-19
9329=-0xe.759e57d1d70cp-7
9330=-0xa.d12388d86e418p-7
9333=0xf.861d0a7d28b8p-5
9341=0xc.b95649afde1ep-10
9352=-0xe.99ce8970c4f48p-9
9359=0xe.df3b0434eb93p-17
9374=-0x9.9919746c10168p-7
9379=0xf.06d379c6541bp-9
9403=0x8.42ee614c172fp-16
9405=-0xa.afa630dab89f8p-18
9407=-0xd.fcace9098d62p-19
9417=0xa.b9645c72de89p-19
9427=-0x9.1340c8075247p-16
9429=-0xc.97d10c5f1057p-19
9439=0x9.0738c1d6f1b1p-12
9440=0xa.f1739335d60ep-19
9449=-0xd.f33a5e58db36p-17
9451=-0xb.67b5c2f83a03p-19
9461=0xe.54df8655aad4p-15
9462=-0x8.c09a4a647e7bp-12
9471=0xe.4988592dfdb68p-16
9483=0xd.df88eeebd9cfp-5
9484=-0x8.5a5b8e2509bbp-5
9512=0xf.16bc8671e4638p-19
9527=-0xa.bc8ab79ad22a8p-20
9528=0xb.b8afa4ab62478p-12
9539=-0xe.b18aa73d3a28p-18
9549=-0x9.33011dfb0a9a8p-22
9550=0x9.cbfa47d23b2dp-18
9561=-0xa.0c0815afe13e8p-19
9572=0x9.b6f1fab22c05p-16
9583=-0xd.13ca3c171979p-20
9603=-0x8.ce86fb703092p-16
9625=-0xf.d132fbdb603bp-16
9638=-0xd.f13bafdf58f3p-15
9647=0x8.c6a7212fa0bep-5
9649=0xb.7874157c4d838p-5
9660=0xb.7960994868ecp-4
9663=0xb.db8c4fab163fp-24
9669=0xe.6d8eccf901f2p-4
9680=0x9.6788a346ac5b8p-4
9681=0xc.8850b644ed1a8p-3
9682=-0xa.80b4110291a88p-4
9688=0xe.5dfa1466735c8p-22
9690=0xa.7700f113b4c58p-8
9691=-0xd.84e683c263288p-12
9692=0xa.0cc00a6439dep-3
9693=-0x8.eead0d4e337fp-22
9700=0xd.ed38e06408858p-12
9704=-0xc.da668b82cda9p-10
9711=0xb.7a257610a2a8p-5
9715=0x8.a5c544cf3853p-12
9726=-0x8.f63bead2852ap-13
9735=-0xf.40f9430bd4d98p-16
9737=0xa.df46afa49bc88p-12
9748=0x9.faced7d47cb68p-21
9770=0xc.61646ec816c88p-22
9792=0xa.2856c84de915p-22
9814=0x8.981a4af63a5ep-23
9836=0x8.981a4af63a5ep-23
9858=0xe.d050cf01925bp-21
9863=0xe.cd8296b09083p-21
9869=-0xd.caba154085cep-20
9880=0x9.3c9708276c49p-21
9902=0xf.4574fd64e224p-23
9924=0xf.65159d0cda398p-15
9935=-0x8.13653b9fbf8c8p-18
9946=-0xa.0e70bc152f578p-19
9950=0xd.0be6ad1187b4p-20
9968=-0xa.0e70bc152f578p-19
9972=0xd.0be6ad1187b4p-20
9990=-0xf.c06d014c68abp-20
10012=-0xf.c06d014c68abp-20
10034=-0xf.d50bf3cbfa9p-20
10056=-0xf.c06d014c68abp-20
10078=-0xf.c06d014c68abp-20
10100=-0xf.c06d014c68abp-20
10122=-0x8.edf0447420358p-19
10144=-0xf.c06d014c68abp-20
10166=-0xf.c06d014c68abp-20
10188=-0xf.c06d014c68abp-20
10210=-0xf.44c7146d0743p-20
10237=0xe.32049b75f584p-23
10254=-0xb.6be28126febf8p-16
10273=0x9.5d6eadc500efp-15
10276=-0xf.44c7146d0743p-20
10303=0xe.32049b75f584p-23
10325=0xa.b92fc7ff4ec78p-20
10342=-0xc.3dcf296831ep-13
10347=0x8.5bf0fb1611398p-19
10364=-0xb.a4f6301f55cfp-16
10382=0xe.65801b5c3e268p-15
10383=-0x8.9c80f37d4248p-18
10391=0xa.b92fc7ff4ec78p-20
10408=-0xc.3dcf296831ep-13
10413=0x8.5bf0fb1611398p-19
10430=-0xd.5104820809528p-10
10435=0x8.5a46f6c732f8p-19
10452=-0xc.3dcf296831ep-13
10457=0x8.5bf0fb1611398p-19
10474=-0xc.3dcf296831ep-13
10479=0x8.5bf0fb1611398p-19
10496=-0xc.3dcf296831ep-13
10501=0x8.5bf0fb1611398p-19
10518=-0x9.bc09240f2b0bp-15
10523=0x8.5b1432e1d3aep-19
10540=-0xc.3dcf296831ep-13
10545=0x8.5bf0fb1611398p-19
10562=-0xc.3dcf296831ep-13
10567=0x8.5bf0fb1611398p-19
10584=-0xc.3dcf296831ep-13
10589=0x8.5bf0fb1611398p-19
10605=0xb.7affe4e81418p-20
10606=-0xc.448f0495162a8p-19
10627=0x9.f26bd12988a18p-8
10628=-0xc.833a7ac2f484p-11
10650=-0x8.d95e518ee4ed8p-14
10668=0xb.8114b81fba7ep-12
10671=0x9.f26bd12988a18p-8
10672=-0xc.833a7ac2f484p-11
10694=-0x9.f6f1306cc3fc8p-11
10713=0xe.1141f02742a7p-11
10716=-0x9.f6f1306cc3fc8p-11
10735=0xe.1141f02742a7p-11
10737=-0xf.ebe852380c6fp-20
10738=0xb.a3876962669p-7
10747=0x8.ff027f19fbbd8p-3
10749=0xe.b5f754bc5485p-4
10756=0xe.d7aa1d5c6f74p-12
10757=-0xe.bf93bba37ddfp-16
10760=-0x9.d72b0dd71aca8p-11
10779=0xb.ca39c5fd6bef8p-14
10782=-0x9.d72b0dd71aca8p-11
10801=0xb.ca39c5fd6bef8p-14
10804=-0x9.d9a56ec42938p-11
10823=0xb.9cc3cc4b8ed9p-14
10826=-0x9.d9a56ec42938p-11
10845=0xb.9cc3cc4b8ed9p-14
10848=-0x9.d9a56ec42938p-11
10867=0xb.9cc3cc4b8ed9p-14
10870=-0x9.d9a56ec42938p-11
10889=0xb.9cc3cc4b8ed9p-14
10892=-0x9.d9a56ec42938p-11
10911=0xb.9cc3cc4b8ed9p-14
10914=-0x9.d9a56ec42938p-11
10933=0xb.9cc3cc4b8ed9p-14
10936=-0x9.d9a56ec42938p-11
10955=0xb.9cc3cc4b8ed9p-14
10958=-0x9.d9a56ec42938p-11
10977=0xb.9cc3cc4b8ed9p-14
10980=-0x9.d9a56ec42938p-11
10999=0xb.9cc3cc4b8ed9p-14
11002=-0x9.d9a56ec42938p-11
11021=0xb.9cc3cc4b8ed9p-14
11024=-0x9.dfc3b8d6e5138p-11
11043=0xc.c8103a35ec47p-14
11046=-0x9.dfc3b8d6e5138p-11
11065=0xc.c8103a35ec47p-14
11068=-0xb.edc518a46068p-14
11087=0x8.1ed837e974eep-13
11090=-0xb.edc518a46068p-14
11109=0x8.1ed837e974eep-13
11112=-0xb.f4ea595a0dd3p-14
11131=0x9.eb11a9aadf2a8p-14
11134=-0x9.2ba7052ef8d7p-14
11153=0xa.7e5b95197bb3p-14
11156=0xf.d6c626821ef68p-22
11178=-0xa.ff99c93395178p-9
11187=-0xc.8e0162380e7cp-8
11209=0xd.1b0634a3817ep-18
11221=-0x9.38c7d11a804c8p-20
11222=0x9.54058cd7d7f2p-13
11233=-0xb.5b6359ab89248p-19
11243=0xd.586f0a418afep-5
11244=-0xe.11f0d98eabca8p-7
11265=0xf.bf1af40e76548p-4
11266=-0xf.6525df5df1778p-8
11287=-0x8.d61b6ca95c09p-22
11288=0x9.4c741a55ec91p-18
11299=-0xa.0b6bafd511e98p-19
11310=0xb.c304b7928b44p-8
11332=-0xb.94cd8863bf138p-9
11336=0xa.92a7306d1b738p-15
11340=0xc.3bfe281a5a9bp-3
11341=-0xa.8af1c66c73d6p-17
11354=-0xc.8775d94ec2b58p-12
11376=-0x9.3439d71690dap-10
11398=-0x9.8c9565a27241p-11
11419=0xa.a5c21b065f86p-8
11420=-0xb.d0b638099a288p-12
11442=-0xe.016d82a16d51p-21
11464=-0x9.e988ba50eb72p-7
11492=0xa.cec19a1f46ac8p-17
11496=-0xa.d8d14be827bfp-19
11515=0xb.526dc4e7ad3dp-17
11519=-0xa.1c99b39b1c468p-21
11530=-0x9.429f65b6c65cp-17
11563=0xc.c8ae53612ea28p-13
11574=0x9.ce62795b7ba3p-15
11596=0x9.ce62795b7ba3p-15
11618=0xb.b0edba525227p-22
11640=0x9.ce62795b7ba3p-15
11662=0x9.ce62795b7ba3p-15
11684=0x9.ce62795b7ba3p-15
11706=0xd.1e8ceb924bafp-18
11728=0x9.ce62795b7ba3p-15
11750=0x9.ce62795b7ba3p-15
11772=0x9.ce62795b7ba3p-15
11794=0x9.a77cd85a1f7e8p-14
11816=0x9.a77cd85a1f7e8p-14
11838=0x8.2afca7341ee1p-16
11860=0x8.2afca7341ee1p-16
11881=-0x8.ee11b17c976bp-18
11882=0x8.8b261b5c413bp-13
11904=-0xc.a9cdbc74a906p-7
11925=-0xa.0a5c5015f7308p-6
11926=0xb.9533f82ebb2a8p-8
11935=0xb.cd35b39dbd58p-17
11948=0xc.f78ba9f986978p-19
11959=-0xa.fe87f5c58d95p-19
11981=-0xa.e1c6c42859b78p-19
12003=-0xa.aac04bde3eb38p-19
12014=0xd.088266620ab6p-22
12025=-0xa.84b7ec0e8e4fp-19
12035=-0xd.710f104e4f53p-11
12036=0xb.5830bdb2854f8p-10
12039=0xd.3ffd993115c68p-15
12041=-0xf.053513c2ecbc8p-10
12044=0xd.b0eadc9090b2p-8
12045=0x9.a88c2f1a2907p-12
12047=-0xb.9969c27c017a8p-13
12057=-0xa.c5bd57f55bc78p-9
12058=0xf.91a66c9d5ec4p-10
12061=0xb.9dbef1f2fbc1p-16
12063=-0xc.40dca29234fd8p-10
12066=0xb.7175f11fe1e7p-8
12067=0xb.499b816e56808p-11
12069=-0xb.f49fd5200cccp-10
12080=-0xd.db275652485bp-6
12083=0xb.f0f5bc056613p-16
12085=-0xc.3400f1afa29fp-10
12089=0xb.11b4485c641d8p-11
12091=-0xc.379088643df08p-10
12102=-0x8.9a4329dd52c6p-12
12111=0xd.2629af63f971p-10
12124=-0x9.b768b5dc3eb28p-11
12133=0xa.e41b13b20151p-11
12146=-0x8.0e1df7557cdap-10
12152=0xc.edafdabc26168p-19
12155=0x8.7c0ddaa4a4b98p-10
12168=0xd.afd783cdbb7dp-19
12177=0x9.8ede3a90365bp-13
12179=-0xa.adf0522a95ep-19
12190=0xc.ce5b5a0531acp-19
12201=-0xa.ad44a8030cc7p-19
12221=0x8.09c6e2f64359p-19
12234=-0x8.41b4c648551e8p-16
12243=0xa.0bdb96a6b147p-14
12256=-0xf.9280119ece3p-20
12278=-0xe.3b48bde3e23bp-20
12300=-0x9.eb5ada128c6e8p-20
12322=-0xb.b530948ee4ffp-18
12342=-0xd.2b5b8955826e8p-16
12343=0xd.6660d6f4f2528p-4
12344=0x9.02f940c182248p-7
12345=0x8.16bd8d9c316dp-18
12346=-0xb.4cc9f1d5a5f78p-5
12347=-0xa.0a7bf1d48068p-4
12348=0xd.594c3f4423dd8p-19
12349=0xc.e000095071b38p-9
12351=-0x8.0de7f04f8809p-10
12352=0xc.fcd7f28f0b468p-9
12353=0xf.a3a81bad7541p-9
12355=-0xb.9ceafa7bf064p-14
12363=-0x9.74f4e5a118bfp-12
12365=0xc.feeebacbf274p-8
12366=-0x8.b8064b49d4538p-8
12371=0xf.a1fae22f19558p-12
12375=0xe.d3112f98d0f5p-9
12377=0xa.b788c86f7d968p-17
12386=0xe.dd038128c0aep-27
12387=0xb.6ec865b5b5ba8p-3
12388=0x9.eb245da51b2d8p-13
12389=0x8.1625556d049c8p-18
12390=0xe.2678dcd7dc68p-12
12391=-0x8.183e02702c74p-11
12392=0x8.26801ee9e76ep-18
12393=0xf.d7698795a8a4p-8
12395=-0x9.985363158ec2p-14
12396=0x9.b29428ac1e88p-9
12397=0xe.f35348b11bafp-12
12399=0xb.9fc3cda36955p-12
12407=-0xa.43f602c60dbf8p-12
12409=0xf.e4214e2776dep-15
12410=-0xe.038d567b36f4p-11
12413=-0xc.5906dba29e658p-12
12415=0xe.9649ad187a5ap-12
12419=0x8.c6410878ce758p-8
12421=0xc.c6632567feebp-14
12431=-0x8.4224b858d70e8p-2
12432=0xa.f1841d628534p-7
12433=0x9.2d18639c91c38p-18
12434=0xc.1843d1de4e5bp-13
12435=-0x8.1582360849b38p-11
12436=0x8.2651662763ce8p-18
12437=0x8.1dd3ff785571p-7
12439=-0xe.e347944647bf8p-11
12441=0xa.9789a98fd9bap-10
12443=0x8.288c5c110adc8p-12
12451=-0xe.7bda8ecff952p-9
12454=-0xf.d63174798c7f8p-10
12459=0xe.476fe27e0311p-14
12463=0x9.9ac1bda4a8408p-9
12465=0xd.d2e291eaaedap-10
12475=0xe.8755fb3b0a468p-7
12476=-0xc.db52a6d77beb8p-5
12487=-0xb.f9573701d726p-20
12498=0xd.7412d02d332c8p-22
12519=-0xa.e1b641c1b0978p-8
12520=0xe.0dea68467927p-8
12542=0xc.853c6fb3de318p-17
12563=0x8.43ff65a6a84cp-5
12564=0x8.3fab022dbf05p-9
12566=0xf.7fafa9b87c8ap-15
12569=-0xc.f817cd1ad87ep-22
12573=0xa.734d7cb5d6558p-11
12575=0x9.833608918db4p-16
12585=-0xc.89649d8c3bc9p-13
12586=0xb.1c4b4abd1308p-11
12588=0xa.28df34f505f08p-12
12591=-0xc.f81a0123cf1cp-22
12595=0xa.732adf6afcefp-11
12597=0x9.8337f628e47e8p-16
12607=-0xc.89647e0a8a1f8p-13
12608=0x8.c6351d0cdb688p-10
12610=0xf.b26adab66795p-9
12613=-0xc.f8366723ac4ep-22
12617=0xa.73707dbde4f98p-11
12619=0x9.833da333094ep-16
12628=0x8.c919b8a79e028p-15
12629=-0xe.510795e2f5ffp-22
12630=0xa.a1716c90826c8p-13
12637=-0xb.2710768949c3p-9
12641=0x8.d5b6a20516ep-7
12663=0xe.05a91b04c4e6p-8
12673=0x8.2f2a9e74f07bp-6
12674=-0xb.e8044de3f6abp-8
12685=0xa.d5f2b6bdfea1p-7
12705=0x8.4b97e9568501p-15
12718=-0x8.34758a0c3b77p-15
12722=-0xd.26ff3ebbb6f2p-13
12726=0x8.ed93273aa9458p-9
12740=-0xd.0618940484f3p-18
12762=-0xd.51c403ddb1988p-5
12783=0xe.eec4fa6dfde98p-7
12784=-0xc.b7b081d9ab04p-19
12793=0xe.751d6a0cf1d38p-9
12805=0x8.f35c3dfe1d2c8p-6
12813=-0xf.7090dc37be0fp-11
12815=0xf.c2ab10399484p-13
12817=-0xe.5d03b64f6abc8p-23
12828=0x9.1d34b90749d5p-8
12837=-0x8.67999fafcb8ap-16
12850=0xa.bad0d56138818p-21
12877=0xe.cfafb71218b9p-21
12894=-0xf.6fd6cfd3f5p-25
12899=0xf.1b796fb1a68ap-21
12915=0xe.c291aa6d3d52p-15
12916=-0xc.70050a2d4cb8p-18
12937=-0xb.d8fff34f64d2p-12
12938=0xf.594b6af0be38p-9
12940=-0xb.e2e4f5a748f88p-13
12942=0x9.5231c29d2192p-19
12944=0x9.855a9d17adb4p-16
12945=-0xd.7862f48608618p-17
12947=-0xe.e3cc984dbce3p-9
12948=-0xc.aa0f276a1a5e8p-26
12949=0xc.6253e156fe8e8p-8
12957=-0xf.63f2ae790ff7p-19
12959=-0xc.7b57e09b098p-10
12960=0x9.8ed1412478208p-10
12962=-0xf.18d581f58425p-14
12964=0x9.390453d138c48p-19
12966=0x9.923b2c5462798p-16
12967=-0xd.fcd18696825dp-17
12969=-0x8.8f7036db31f5p-8
12970=-0xc.84c4486d5f2e8p-26
12971=0xd.346b3e21a0ba8p-8
12979=-0x8.8ea95e669bbe8p-18
12981=0xf.399a123a5f91p-7
12982=-0xb.0ee6113145d2p-7
12984=-0xf.83f2247fb82a8p-13
12987=0xb.026b78ec3f4fp-17
12989=-0xb.0f46e74085798p-17
12991=-0xb.2e3a402a9a8dp-9
12993=0xe.171bea8e8d6ep-8
13001=-0x9.6db597c7750fp-18
13003=-0x8.822a4b1642818p-16
13004=-0xe.ccb629223b5f8p-11
13009=0xa.06edaf19db19p-6
13011=0x9.5866a426a44c8p-8
13013=0xe.139d0886ac06p-14
13023=-0x9.8814cfca782c8p-18
13025=0x8.d4807b816085p-7
13026=-0xc.851bbec4b4de8p-13
13033=0xa.16c33fc486f88p-8
13035=0xd.ea201d84029c8p-8
13045=-0x8.ac91e2008e46p-18
13047=0xa.88fb2da40c72p-12
13048=0x8.9ae5035fd9308p-10
13051=-0xa.4c7f551b1a16p-15
13055=0x9.f0bdfc10316fp-12
13057=0xa.a9a6ea2c197cp-8
13067=-0xf.99b80236d1c8p-19
13081=0x8.64b93ac0e0e58p-13
13092=-0x8.da10f35950368p-19
13114=-0x9.e97459f91e1cp-15
13118=0xf.194250f98dc38p-2
13122=0x8.ece35ece9b67p-9
13123=-0xa.79e819dae3c58p-18
13136=-0x9.e97459f91e1cp-15
13140=0xa.9c10b723621f8p-15
13144=0x8.ece35ece9b67p-9
13145=-0xa.79e819dae3c58p-18
13157=-0x8.3465ad2e70f4p-7
13158=0xe.95d480760259p-6
13179=-0xe.f562baa3757b8p-7
13180=-0xa.bf0503a14a0ep-8
13183=0xb.000041afb19dp-10
13187=0xf.9fb2a9c3f265p-14
13189=-0xa.57cf136c9fefp-10
13191=-0xd.e9fef6b229eep-9
13201=-0xa.b2e693024318p-5
13202=-0xb.be4de753c9c8p-8
13205=0xb.000041ebdbf3p-10
13209=0xf.9fb28b345dfa8p-14
13211=-0xa.57d24c3a15788p-10
13213=-0x8.92a99f1e3d7c8p-10
13223=-0xa.b2e698e265508p-5
13224=-0xb.f38f3522bbec8p-8
13227=0xb.000041d7c89p-10
13231=0xa.656609feef74p-11
13233=-0xa.57d57628b1dap-10
13235=-0x9.693532c3018d8p-10
13257=0x8.5a8bad9e72a9p-13
13274=0xb.e554f3df9bed8p-8
13296=0xb.52c048b152748p-17
13297=0xf.dd0b295b25d1p-4
13300=-0xa.9a0645f0a36ap-24
13318=0x8.e7f3e40b55898p-6
13340=0xb.6e51e54d57a38p-4
13341=0xd.73c06dd9e318p-7
13363=0xe.67586df886758p-4
13377=0xa.a1c61766e1cf8p-7
13400=0x9.767fedd937ebp-9
13422=0x9.767fedd937ebp-9
13444=0xa.790d4e16f81dp-8
13466=0x8.2c9a7ca3226a8p-7
13488=0x8.269b6930a1ee8p-18
13499=-0xa.f59afab5118ep-19
13510=0xf.edb9390dd1c1p-19
13521=-0xa.99c1ccbd2732p-19
13532=0xd.dffb171753c6p-19
13543=-0xa.7c378a1bed73p-19
13554=0xd.8b301e319b7dp-19
13565=-0xa.444bc5630c61p-19
13576=0xd.8b301e319b7dp-19
13587=-0xa.444bc5630c61p-19
13598=0xd.4164e1ef32d08p-19
13609=-0xa.1b5b36364647p-19
13620=0xd.4164e1ef32d08p-19
13631=-0xa.1b5b36364647p-19
13642=0xd.23d05ac558c6p-19
13653=-0xa.06f8c7394cb4p-19
13664=0xd.23d05ac558c6p-19
13675=-0xa.06f8c7394cb4p-19
13686=0xd.23be315bd253p-19
13697=-0xa.06fc7e6f2f26p-19
13708=0xd.23d05ac558c6p-19
13719=-0xa.06f8c7394cb4p-19
13730=0xd.23d05ac558c6p-19
13741=-0xa.06f8c7394cb4p-19
13752=0xd.2397eded76738p-19
13763=-0xa.06fc0e4cfdce8p-19
13774=0xd.23d05ac558c6p-19
13785=-0xa.06f8c7394cb4p-19
13796=0xd.23d05ac558c6p-19
13807=-0xa.06f8c7394cb4p-19
13818=0xc.c1bdd91f049f8p-19
13840=0xc.c1bdd91f049f8p-19
13862=0xb.92a3a655ce72p-22
13884=0xb.92a3a655ce72p-22
13906=0xe.cc1e4005dec6p-23
13928=0xa.61beb0b3d0048p-23
13950=0xe.bb7e95bdcbbfp-19
13972=0x9.1095e3b59d8e8p-8
13994=0xb.cfd3272815afp-15
14022=0xc.fe07b81b2fd8p-17
14038=0xb.ef76427ce737p-12
14066=0xf.1dbf52449e94p-19
14088=0xf.1dbf52449e94p-19
14110=-0x9.56b99c28fd02p-9
14132=0x9.c90ab073ae17p-9
14154=0x8.9e24a77d46e78p-20
14176=0xf.1dbf52449e94p-19
14199=0xe.35842095051cp-19
14203=-0x8.dc9740a392a9p-21
14221=0xe.35842095051cp-19
14225=-0x8.dc9740a392a9p-21
14243=0xb.3e908fb53645p-5
14247=-0x8.dc9740a392a9p-21
14257=0xc.118b6ed5f313p-19
14269=-0xd.fbc9a92a4f488p-22
14279=0xc.118b6ed5f313p-19
14291=-0xd.fbc9a92a4f488p-22
14302=0xe.e4bb4fc48728p-20
14313=-0xc.fab22513c3cap-22
14324=0xe.106eb0af55d48p-20
14335=-0xa.1401df3c1fd4p-22
14345=0x9.c9e834e94527p-9
14367=0x9.3d172456e54p-9
14368=0x8.5c88ad8ee932p-11
14377=-0xe.53f2187eb852p-10
14389=0x8.04fe56f0d52p-6
14390=0x8.231af6d3a0fc8p-10
14399=-0xe.53f041e50564p-10
14411=0x9.3cf26295546cp-9
14412=0x9.9f4e740593f2p-10
14421=-0xe.53ee7c39d7598p-10
14434=-0xc.f0b0bc3b3e15p-19
14456=0xd.ecb359564c6p-19
14467=-0xa.1c85706de5bd8p-19
14478=0xe.5552788f192cp-14
14489=-0xe.7d8d181b9a068p-20
14499=-0xa.8d206682f059p-6
14500=0xd.52e4e7229dba8p-6
14521=-0xa.8d206682f059p-6
14522=0xd.52e4e7229dba8p-6
14543=0x8.d7cd5611081c8p-13
14544=-0xc.4f8c4d86bb38p-7
14568=0x9.a7a9c91aac2d8p-4
14588=0xd.24b747b458798p-19
14599=-0xa.1c5679f4f409p-19
14610=0xc.f001456869ee8p-19
14621=-0xa.076746fa62038p-19
14632=0xc.293f60429c518p-19
14654=0xc.38379e3c9255p-22
14676=0xc.38379e3c9255p-22
14698=0xd.77ff08a0a1878p-17
14720=0x8.0ca04d0b7dc88p-22
14742=0x8.0ca04d0b7dc88p-22
14764=0xd.c0e2a7164dccp-18
14786=0xb.c40ecf7bbdc28p-23
14808=0xb.c40ecf7bbdc28p-23
14830=0xb.c40ecf7bbdc28p-23
14852=0xb.c40ecf7bbdc28p-23
14874=0xb.c40ecf7bbdc28p-23
14896=0xb.c40ecf7bbdc28p-23
14918=0xb.c40ecf7bbdc28p-23
14940=0xb.c40ecf7bbdc28p-23
14962=0xb.c40ecf7bbdc28p-23
14984=0xb.c40ecf7bbdc28p-23
15006=0xd.6731897cb9e4p-18
15028=0xa.bb9be94d37dep-18
15049=-0x8.844e2a2857bbp-23
15050=0x9.3177acc2caf7p-20
15072=0xf.9942da8ee2178p-19
15083=-0xb.67d75a4c19fap-19
15093=0xf.7e98d427f7ef8p-5
15094=0x8.a9ce6e982e14p-15
15103=0xa.07238f81c1cep-10
15115=0xf.876f7a112d2b8p-7
15116=0x9.2a17efa22b268p-8
15125=0xa.07098f86d9138p-10
15137=0xa.7f5ca90cdebdp-6
15138=0xc.8e2b6aa3517p-8
15147=0xa.06d9055303088p-10
15178=0xf.096dadf76784p-12
15182=0xa.229da4b7b1acp-20
15204=-0x8.34b91c1ff2bdp-7
15208=0xe.944d5a4b0dff8p-5
15212=0x8.d439df61d30c8p-5
15213=-0xf.b8398302faef8p-16
15226=0x8.3d16801c68f8p-23
15248=0xa.c0389b4138858p-18
15270=0xd.9e56ad67b1a1p-21
15281=-0x8.3ef8b0398cdep-21
15298=0xf.0f0cde402b03p-19
15299=-0x9.f94e26f1cbbe8p-20
15300=0x8.045771bcdc8p-12
15302=-0x9.c7dd417f05498p-25
15310=0xe.c30d86c0a831p-12
15321=0xf.16d748eb4ec28p-26
15323=0xc.ac16e1ff8e4b8p-8
15325=0x9.dae8783b67998p-16
15347=0xa.26657ba66791p-16
15357=0xf.c5acc8bbeab7p-5
15358=-0x9.247e4eff32ef8p-5
15367=0x8.71567c313744p-7
15369=0xa.5d1b10f186ddp-16
15380=-0x9.e28927ae9bcf8p-5
15389=0xc.a2fe4f4220fd8p-8
15391=0xe.7261d1001f6ap-13
15402=-0xd.0b245edf99a9p-10
15413=0x9.b7d96b911271p-16
15423=0x9.45acf718b021p-8
15424=-0xe.c78683dff87e8p-10
15435=0x9.b7cba82363afp-16
15445=0xe.07b5cc96a2ddp-9
15446=-0xe.caf04ecea54b8p-10
15457=0x9.b75f866d29258p-16
15468=-0x9.b2cfc7b50e6bp-18
15472=0xc.0d9a1161d241p-17
15476=0x8.ed986a096b658p-9
15477=-0xc.d4946161a9318p-9
15490=-0xa.f249e0fd96d8p-18
15494=0xc.0db0d867949p-17
15498=0x8.ed987abb632d8p-9
15499=-0x9.4e47c5a989548p-10
15512=-0x9.9ec52e79b37c8p-9
15514=-0xe.9a0ecc977353p-21
15517=0x8.ffc36989b374p-8
15521=0xb.f868ee8d50d08p-10
15523=0x9.868c7f0bf45ep-10
15534=-0xa.041702be2b93p-9
15536=-0xe.9a0e595d0e52p-21
15539=0x8.ffc36fda0f038p-8
15543=0xc.71d37ed897578p-10
15545=0x9.2d4e11f6fa41p-10
15556=-0xd.1d2f85ce41328p-9
15558=-0xe.9a0edd6e53ee8p-21
15561=0x8.ffc37153edc2p-8
15565=0xc.fe5a78d9fb66p-10
15567=0xf.0615ad1ea402p-11
15577=-0x9.d9fb5dc5d64b8p-20
15578=0x9.da0f70b7e4828p-20
15598=0xc.686a6b935d0cp-21
15600=0xe.fc04b76595e78p-23
15609=-0xc.3c7a1e8052c1p-24
15621=-0xa.8cb69fb98cb1p-6
15622=0xd.53ba9b4e56da8p-6
15653=0xc.5bd9d3ea1e78p-20
15665=0x8.1857628bcad98p-10
15666=-0xc.e2a029731b5b8p-10
15668=-0xb.65f1921e1ee68p-12
15672=0x9.a42839f81264p-17
15673=0xd.18d499037f008p-20
15675=-0x8.683222a45d2bp-10
15676=-0xc.cc8aabe9be1bp-24
15684=0x9.91ab33c380bb8p-16
15685=0xc.cf429a59b5328p-7
15688=-0xc.c61c06e1fe96p-10
15690=-0xb.6826da19fc3e8p-12
15694=0x9.a4234a141c77p-17
15695=0xd.18d3b57b4602p-20
15697=-0x9.0929d6c6ace28p-10
15698=-0xc.cadf6e8d5dc2p-24
15706=0x9.91abf35732488p-16
15707=0xc.cf428c0c88628p-7
15710=-0xc.d895a20a2305p-10
15712=-0xb.6826eb0d3dd6p-12
15716=0x9.a42321178f2b8p-17
15717=0xd.18c949796781p-20
15719=-0xb.99d26abeda408p-10
15720=-0xc.cad05d7abad1p-24
15728=0x9.91ae45e5dfb18p-16
15729=0xc.cf429cfdd077p-7
15741=0x9.f07d435277f9p-8
15757=-0xb.95380d75f2608p-11
15761=0x8.54111f20550cp-5
15763=0xf.3541a9c9ff15p-11
15776=-0xb.92c885108cb2p-9
15779=-0xb.9538170cbd0a8p-11
15783=-0x9.58553b085e588p-15
15785=0xe.d087a5da97118p-11
15798=-0xa.2c88fabfcc1e8p-9
15801=-0xb.9538212418728p-11
15805=-0x9.585cb33da7b68p-15
15807=0xe.d46671674505p-11
15820=0xd.f1adb22c6c03p-21
15831=-0xb.08a480c638238p-20
15841=-0xc.6f4cab0f72518p-8
15842=0xa.6fdd5b94526ep-12
15847=-0x8.24e4d2b392bc8p-14
15851=-0xd.e4b1ca59a9ad8p-17
15853=-0x8.83262fc0f877p-17
15863=-0xa.ce47487b732fp-15
15864=0xa.6f95619faf36p-12
15869=-0x8.24e4d5f81fbe8p-14
15873=-0x9.57434a5b33c6p-12
15875=-0x8.73bac1121d77p-17
15885=-0x9.74347a912daap-16
15886=0xa.6f523243a08c8p-12
15891=-0x8.24e4d0b1d0f3p-14
15895=-0xe.3e0a98575d09p-12
15897=-0x8.6590e5d55facp-17
15908=0x8.8cb6a2c278ad8p-18
15919=-0xa.f5a82ffab9c5p-19
15930=0x8.8cb4f2d48b3ep-18
15941=-0xa.f5a6cdf783fc8p-19
15952=-0x8.9472fd94ea18p-17
15961=0xb.2d80e4b5c701p-17
15974=-0xa.27d96bbefcfap-21
15982=0xe.dc1dce8fbb008p-9
16002=-0x8.a1d515f431078p-20
16005=0xe.ad34f1b4b3eep-9
16006=0xa.f4daf053eb078p-11
16024=0xf.0f102d118881p-19
16025=-0x9.f90fcbe9d59fp-20
16026=0x8.008c51a7d60ep-4
16028=-0x9.c787a1d3e19b8p-25
16036=0xe.c49a74e315bc8p-12
16046=0xf.0f102d118881p-19
16047=-0x9.f90fcbe9d59fp-20
16048=0x8.008c51a7d60ep-4
16050=-0x9.c787a1d3e19b8p-25
16058=0xe.c49a74e315bc8p-12
16062=-0x9.cbc58a84f9f4p-22
16069=-0xd.f18d66097d9bp-9
16071=0xe.f5e6b47f54e18p-18
16073=0x9.bd4e83008123p-14
16084=-0x9.cbc58a84f9f4p-22
16091=-0xd.f18d66097d9bp-9
16093=0xe.f5e6b47f54e18p-18
16095=0x9.bd4e83008123p-14
16117=0x8.e6d83e4364fc8p-15
16139=0x8.e6d83e4364fc8p-15
16161=0x8.e6d83e4364fc8p-15
16183=0x8.e6d83e4364fc8p-15
16205=0x8.e6d83e4364fc8p-15
16227=0x8.e6d83e4364fc8p-15
16249=0x8.e6d83e4364fc8p-15
16271=0x8.e6d83e4364fc8p-15
16293=0x8.e6d83e4364fc8p-15
16315=0x8.e6d83e4364fc8p-15
16326=-0xd.23b2e55422e58p-6
16335=0xe.917c50fa317fp-8
16337=0x9.cfb4af97d2a08p-11
16348=-0xd.23b2e55422e58p-6
16357=0xe.917c50fa317fp-8
16359=0x9.cfb4af97d2a08p-11
16370=-0xd.f58108a25d4bp-6
16379=0xe.da26b00165678p-9
16381=0xf.eee14f7eaa298p-9
16392=-0xd.f58108a25d4bp-6
16401=0xe.da26b00165678p-9
16403=0xf.eee14f7eaa298p-9
16414=-0xe.88269422caca8p-7
16423=-0xc.a6c7ce7efcecp-10
16425=0xa.4452f90528278p-14
16436=-0x9.6dd8cf5eda418p-7
16438=-0xf.266fc517dd1fp-13
16447=0x8.cebc39b6fa418p-10
16457=0xa.a140612d033a8p-19
16458=-0xd.f731a71df2cdp-8
16460=-0x8.25303327f1ap-15
16462=0xd.67021f0c990e8p-19
16463=0xd.49c9b63638c58p-10
16467=-0xd.8ba5babf19e88p-10
16469=-0xe.86c3125fb742p-13
16479=0xa.a13595e197268p-19
16480=-0xd.0e0b2cec17b1p-8
16482=-0x8.5365b3f5728ap-15
16484=0xd.67021d1a03b1p-19
16485=0xd.49c9b69629f18p-10
16489=-0xa.282ef4adb7e8p-11
16491=-0xe.a25b95849f688p-13
16501=0xa.a05ea401cefp-19
16502=-0xd.787584c1798ep-8
16504=-0x8.5365acabf061p-15
16506=0xd.67035f42bae18p-19
16507=0xd.49c9bad7054f8p-10
16511=-0xf.e7879c7adb5ep-12
16513=-0xf.153a92d1cf0f8p-13
16524=-0xf.7b9bc59e099p-18
16545=-0x8.14e2a9b263b2p-23
16546=0xd.0bdef99ac078p-17
16555=0x8.5ed072630d8cp-18
16577=0x9.73b0144e5be8p-18
16599=0x9.73b0144e5be8p-18
16612=-0x8.338137d6078a8p-16
16618=0xd.5ad0673f64f5p-7
16622=0xb.0c7e6ce1b35b8p-7
16634=-0xc.08181d885fdfp-16
16640=0xd.5a99021d9f98p-7
16644=0xb.0cad8836a673p-7
16655=0xe.3c050822115a8p-7
16656=-0xe.064722040dcdp-11
16661=-0xb.319f55787ecdp-15
16665=0x8.895d03fa590fp-10
16675=-0xd.42db44f4700dp-14
16678=-0xb.81f068681d89p-13
16683=-0xb.31abb7056bc28p-15
16687=0xf.7f020531b3d7p-11
16697=-0xd.42dd45003f5ap-14
16700=-0xf.a480f3610ade8p-11
16705=-0xb.31abb52af48dp-15
16709=0xe.70d4f24215e58p-11
16719=-0xd.42dd43f847848p-14
16722=0x8.14adca459f6f8p-20
16744=-0xb.443c7620f21ap-16
16753=0xd.aa4f13f609e98p-16
16765=0xe.c986b679e1cbp-15
16766=-0xd.2c9da76fdfabp-18
16788=0xf.2fa51757b7ce8p-8
16809=0xf.e866bf8944abp-18
16821=-0xb.14764b807276p-19
16832=0x8.272a7cedcb82p-18
16843=-0xa.f5fc8f3d41c2p-19
16854=0xf.f302e361e15ep-19
16865=-0xa.9aad6c29ddd1p-19
16876=0xd.e93b23d45c4b8p-19
16887=-0xa.80964aeccf91p-19
16898=0xd.dffd3ca80a27p-19
16909=-0xa.7c37400173ca8p-19
16920=0xd.e949fc1b41d58p-19
16931=-0xa.8097e965dd188p-19
16942=0xd.05b20d5c5d1ep-19
16953=-0xa.4451489aa9d6p-19
16964=0xd.8b328cb6aaa2p-19
16975=-0xa.444bcfb8ee52p-19
16986=0xd.05d6dee3db9dp-19
16997=-0xa.4458211a60e7p-19
17008=0xd.42b0038641fe8p-19
17019=-0xa.1b5c70abc84cp-19
17030=0xd.42a00b3c752e8p-19
17041=-0xa.1b589e252cdc8p-19
17052=0xd.45541734fc308p-19
17063=-0xa.1b644911181p-19
17074=0xd.42bac431d95a8p-19
17085=-0xa.1b5cd265fc2fp-19
17096=0xd.42b0038641fe8p-19
17107=-0xa.1b5c70abc84cp-19
17118=0xd.e722fb1e73e1p-19
17129=-0xa.1b70396c8259p-19
17140=0xd.45541734fc308p-19
17151=-0xa.1b644911181p-19
17162=0xd.24b2bb97e5a9p-19
17173=-0xa.06f9094d80e88p-19
17184=0xd.24a2ef5a14b9p-19
17195=-0xa.06f5cf4935c58p-19
17206=0xd.24ef0388e0e28p-19
17217=-0xa.0700f0c6c415p-19
17228=0xc.c35313cde0bcp-19
17250=0xc.c37f16c1c13p-19
17272=0xb.9a6bef793ac88p-22
17294=0xe.d92f6bc1d277p-23
17315=0x8.6725f35245bep-5
17337=0x8.6725f35245bep-5
17359=0x8.6725f35245bep-5
17381=0x8.6725f35245bep-5
17403=0x8.6725f35245bep-5
17425=0x8.6725f35245bep-5
17447=0x8.6725f35245bep-5
17469=0x8.6725f35245bep-5
17491=0x8.6725f35245bep-5
17513=0x8.6725f35245bep-5
17535=0xe.c8613b737fd18p-15
17536=-0xd.24f3b8bfdfdfp-18
17558=0x8.2751f514042ep-18
17569=-0xa.f66ba91df056p-19
17586=0xf.1d0748ea17b18p-19
17609=0xc.3e37143885508p-19
17623=0xa.13c40fb1b1958p-19
17646=0xa.de238ae34824p-20
17668=0xb.d255ce6f592fp-19
17676=0xb.dedac2a626cbp-11
17701=-0xa.5638138ffc448p-22
17712=0xd.dca6918b4b4f8p-19
17723=-0x8.68cb89ce7711p-19
17734=0x9.71c8e1bc9575p-13
17756=0x8.7f144ca49933p-13
17778=0xa.a1fbcf22010cp-12
17800=0xa.fd88d50723fd8p-12
17822=0xa.a1fbcf22010cp-12
17844=0xa.a1fbcf22010cp-12
17866=0xa.a1fbcf22010cp-12
17888=0xa.a1fbcf22010cp-12
17910=0xa.a1fbcf22010cp-12
17932=0xa.a1fbcf22010cp-12
17954=0xc.b71e72184469p-12
17976=0xc.9eef8f5c6d4ep-12
17998=0xa.1ffa76190dc1p-12
18020=0xa.38f5a5cf6e62p-12
18042=0x8.015f71c973008p-18
18053=-0xa.a859a986dc368p-19
18063=-0x9.31343860bfdap-22
18064=0xa.4c033cc14764p-18
18075=-0xa.0b50e710fadap-19
18085=-0x8.793752584748p-23
18086=0x8.49071f1c65bd8p-24
18107=-0xd.00953e485e928p-24
18108=0xd.bff8ddecb58e8p-24
18136=0xf.1dbf52449e94p-19
18159=0xe.35842095051cp-19
18163=-0x8.dc9740a392a9p-21
18173=0xc.118b6ed5f313p-19
18185=-0xd.fbc9a92a4f488p-22
18196=0xe.ed7233b5f39dp-20
18207=-0xa.c5e15f0cb841p-20
18218=0xe.8b62fcb66455p-13
18229=-0xd.c8a157db4665p-18
18240=0xd.0343f9835354p-14
18251=-0x9.4b5a648943548p-17
18262=0x8.b038bd3ccdd88p-14
18273=-0x8.b093d56e9e1ep-17
18284=0xd.76d3dce603e18p-15
18295=-0xd.20da748ff33d8p-18
18306=0xd.76d3dce603e18p-15
18317=-0xd.20da748ff33d8p-18
18328=0x9.fdc688ad4cef8p-15
18339=-0xb.b87c2d609847p-18
18350=0x9.fdc688ad4cef8p-15
18361=-0xb.b87c2d609847p-18
18371=-0x8.d507ec438b65p-22
18372=0xa.4bfa5896c5ff8p-18
18383=-0xa.0b50a1d644b8p-19
18393=-0x8.d507ec438b65p-22
18394=0xa.4bfa5896c5ff8p-18
18405=-0xa.0b50a1d644b8p-19
18415=-0x9.31343860bfdap-22
18416=0xa.4c033cc14764p-18
18427=-0xa.0b50e710fadap-19
18437=-0x8.d507ec438b65p-22
18438=0xa.4bfa5896c5ff8p-18
18449=-0xa.0b50a1d644b8p-19
18460=0xc.771d2c429477p-19
18471=-0x8.bbf5a0eb20e38p-19
18482=0xc.771d2c429477p-19
18493=-0x8.bbf5a0eb20e38p-19
18504=0xa.de5200f43c7e8p-19
18515=-0xf.a6a974e81b07p-20
18526=0xa.de5200f43c7e8p-19
18537=-0xf.a6a974e81b07p-20
18548=0xa.55e011421b03p-19
18559=-0xe.4e5de85b8753p-20
18576=0xc.d23c4813d9fcp-17
18581=-0xc.f4086c0524b28p-20
18597=0xb.27303645759e8p-21
18623=0xd.f061dfdebd8cp-20
18645=0x9.1b459cfdc2598p-19
18658=0x9.efc7aeace9828p-23
18680=0x8.73bd7ad5912e8p-27
18702=0x8.b1ac3b57c30c8p-25
18742=0xf.099cef9788b1p-12
18764=0xf.099cef9788b1p-12
18786=0xf.099cef9788b1p-12
18789=-0xc.e2ccf6044d4ap-22
18790=0x8.fa54bf16363d8p-17
18801=-0x8.3c60596ec5edp-20
18811=-0xc.ebef921f85d2p-24
18812=0xd.0efcb1c11233p-24
18834=0x8.4017932cfbe28p-21
18856=0xc.c32b522e9593p-19
18878=0xb.98a8c0250fb3p-22
18900=0xe.d7f9824c0ffep-23
18922=0xa.6da47ce730688p-23
18944=0xa.6da47ce730688p-23
18975=0xf.e31ce7fe7e96p-23
18997=0xa.d32be0aa1681p-20
19019=0xa.d32be0aa1681p-20
19041=0xa.7bc5c67025fd8p-20
19063=0xa.7bc5c67025fd8p-20
19085=0x9.1b459cfdc2598p-19
19107=0x9.1b459cfdc2598p-19
19129=0x9.1b459cfdc2598p-19
19151=0x9.1b459cfdc2598p-19
19173=0x9.1bd524f508d1p-19
19195=0x9.1bd524f508d1p-19
19217=-0xd.65b7d072b716p-13
19239=-0xd.65b7d072b716p-13
19251=0x9.c9e83a4430f4p-9
19273=0x9.c9e83a4430f4p-9
19305=0xc.88a9d36605418p-20
19317=-0xe.3796f0fa40fd8p-21
19323=0xd.301a52d05ce9p-9
19345=0xb.3d7d33abe6f98p-9
19367=0x8.5cac2744c511p-16
19383=0x9.4dbd444ccaf88p-10
19406=0xd.ece2c3c2faa18p-21
19428=0xb.91b9adbfa5c7p-26
19450=-0x9.68012de312cfp-5
19454=0xe.99a143f868078p-6
19458=0x8.d43911992d4ep-5
19459=-0xf.d39285daeb3a8p-16
19472=0x9.492f273a5f338p-22
19500=0xc.fd3448342bcp-17
19522=0xc.fddb004a8a12p-17
19544=0xc.fd33e604be72p-17
19560=0x8.3ffe49796332p-21
19582=-0xb.7ac5c1dbd648p-15
19586=0xd.85320f2aca01p-15
19590=0x8.ed0fb7b78e52p-9
19591=-0x8.18fa62212d49p-10
19603=-0xa.4673758178828p-9
19604=0xf.c11041a7de0ap-8
19626=0x8.20006df6b8cep-21
19654=0xa.c6343ac32833p-17
19658=-0xa.d697fa908b9bp-19
19670=0xf.f69acc9e58098p-19
19681=-0xa.9d3f35a4644dp-19
19692=0xf.345eade42006p-23
19713=-0xa.e115a65c4fd2p-8
19714=0xe.0e9ac9570e4dp-8
19736=0xe.08af464ac7bd8p-18
19757=0x8.1369f5f72c828p-19
19758=-0xf.c0962680be1p-16
19779=-0xc.ebef921f85d2p-24
19780=0xd.0efcb1c11233p-24
19801=0x8.c74624585f878p-19
19802=-0xb.0f81bee352fep-21
19823=0x9.c9e32bbdb194p-9
19846=0xf.f6970c886f5p-19
19857=-0xa.9d3eb0028953p-19
19868=0xf.f6970c886f5p-19
19879=-0xa.9d3eb0028953p-19
19890=-0x8.312369719d98p-7
19894=0xe.944d709219cb8p-5
19898=0x8.d43a085f8aa8p-5
19899=-0xf.b830497049bbp-16
19912=-0x8.312369719d98p-7
19916=0xe.944d709219cb8p-5
19920=0x8.d43a085f8aa8p-5
19921=-0xf.b830497049bbp-16
19934=0xd.90e03d539f8a8p-19
19945=-0xa.446592702646p-19
19956=0xd.46b060161b218p-19
19967=-0xa.1c50af9d85678p-19
19978=0xd.3b7b03424256p-19
19989=-0xa.070a3a39f2d58p-19
20000=0xc.c5d5a6f3fa2bp-19
20022=0xc.c15e6ce5e3f9p-19
20044=0xb.b27acfbb58fep-22
20066=0xb.71e1f66e03fb8p-22
20088=0xf.03e30b42bbd4p-23
20110=0xf.345eade42006p-23
20132=0xa.b08930d2505ap-23
20153=-0xa.e13ce9a7b8efp-8
20154=0xa.5c1b8095bde1p-7
20175=0xf.d9b1f7245d0bp-18
20187=-0xb.15dfe45a7307p-19
20198=0x8.2796f91af8828p-18
20209=-0xa.f753e14513a28p-19
20220=0xf.f5ee4df791158p-19
20231=-0xa.9cb1d3860447p-19
20242=0xd.eb2253018c348p-19
20253=-0xa.811f887b26818p-19
20264=0xe.b0a4ce7fa4b68p-19
20275=-0xa.460e99be6ddb8p-19
20286=-0x9.69e6959767578p-11
20292=0xd.5a9901d338cd8p-7
20296=0xb.0cadb2e7afa18p-7
20314=0xa.c6343a768874p-17
20318=-0xa.d697fb5383f28p-19
20330=0xf.f72183fe0941p-19
20341=-0xa.9cc98bcdfb98p-19
20351=-0x8.a8e1861558c4p-8
20352=0x9.e241a89d39ed8p-11
20374=0x8.26a69b41c763p-18
20385=-0xa.f59a98004cf68p-19
20402=0xa.c6343a768874p-17
20406=-0xa.d697fb5383f28p-19
20425=0x8.cff179fb2c27p-17
20429=-0xb.7573a3fcce39p-19
20439=0xf.e886a723c4c2p-18
20451=-0xb.143bff584972p-19
20462=0x8.26a69b41c763p-18
20473=-0xa.f59a98004cf68p-19
20483=0xb.3ca92e3887128p-9
20505=-0xd.0390f23552258p-24
20506=0xd.fb8a62c5a5abp-24
20527=-0xd.0390f23552258p-24
20528=0xd.fb8a62c5a5abp-24
20549=0x9.99740bceea91p-13
20550=-0x9.8c65c24de462p-13
20572=0xc.c3460740cecc8p-19
20594=0xb.99a5bd5e49668p-22
20616=0xe.d91e92db83d88p-23
20638=0xa.6ebeaf6e5b108p-23
20660=0xc.92f4309f28cp-22
20682=0xc.a1c6685fd7658p-20
20704=0xa.68a062dda69cp-16
20726=-0xa.ee50c99d21p-27
20731=0xf.1bba18e1ba828p-21
20748=-0xa.ee50c99d21p-27
20753=0xf.1bba18e1ba828p-21
20770=-0xa.ee50c99d21p-27
20775=0xf.1bba18e1ba828p-21
20792=-0xa.ee50c99d21p-27
20797=0xf.1bba18e1ba828p-21
20819=0xf.842b17ff8603p-21
20841=0xf.842b17ff8603p-21
20857=0xb.a63a8b6ce182p-21
20879=0xb.a63a8b6ce182p-21
20902=0x8.e16a6981a3c08p-22
20923=-0xb.d49e8d721797p-8
20924=0x8.aeeafba076cep-5
20946=0xb.9d8d9b767ce3p-22
20968=0xe.e505fa122eaa8p-23
20990=0xa.8d1420351f478p-23
21018=0xa.c6343ac32833p-17
21022=-0xa.d697fa908b9bp-19
21040=0xa.c6752b4701c88p-17
21044=-0xa.d6c08d4262bf8p-19
21062=0xa.c6343ac32833p-17
21066=-0xa.d697fa908b9bp-19
21085=0x8.cff179b68f63p-17
21089=-0xb.7573535d08e8p-19
21107=0x8.d00a54509b37p-17
21111=-0xb.7703648b49128p-19
21129=0x8.cff179b68f63p-17
21133=-0xb.7573535d08e8p-19
21151=0x8.cff176adc2e9p-17
21155=-0xb.757362d134ab8p-19
21165=0xf.e887c15896efp-18
21177=-0xb.143b8d8da90b8p-19
21187=0xf.d9b5f2d82682p-18
21199=-0xb.15d6d2902a848p-19
21209=0xf.e887c15896efp-18
21221=-0xb.143b8d8da90b8p-19
21231=0xf.e887c15896efp-18
21243=-0xb.143b8d8da90b8p-19
21253=0xf.e8874d7eeefep-18
21265=-0xb.143b96c1ea64p-19
21276=0x8.26a69b41c763p-18
21287=-0xa.f59a98004cf68p-19
21298=0x8.278bbadfe1f18p-18
21309=-0xa.f748179ed4aap-19
21320=0x8.26a69b41c763p-18
21331=-0xa.f59a98004cf68p-19
21342=0x8.26a69b41c763p-18
21353=-0xa.f59a98004cf68p-19
21364=0x8.26a69b41c763p-18
21375=-0xa.f59a98004cf68p-19
21386=0x8.26a77d64d7108p-18
21397=-0xa.f59aa85471cf8p-19
21408=0xf.edbac3af4e15p-19
21419=-0xa.99c1898aee4cp-19
21430=0xf.f5c555e3f142p-19
21441=-0xa.9ca1208cf56d8p-19
21452=0xf.edbac3af4e15p-19
21463=-0xa.99c1898aee4cp-19
21474=0xf.edbac3af4e15p-19
21485=-0xa.99c1898aee4cp-19
21496=0xf.edbac3af4e15p-19
21507=-0xa.99c1898aee4cp-19
21518=0xf.edbd04880732p-19
21529=-0xa.99c1a164ee498p-19
21540=0xd.dffbf83309aa8p-19
21551=-0xa.7c36d5b58ff6p-19
21562=0xd.eafe7cad3cf48p-19
21573=-0xa.8105cd6ff7ce8p-19
21584=0xd.dffbf83309aa8p-19
21595=-0xa.7c36d5b58ff6p-19
21606=0xd.dffbf83309aa8p-19
21617=-0xa.7c36d5b58ff6p-19
21628=0xd.e0034c1f2da88p-19
21639=-0xa.7c371ca2e38d8p-19
21650=0xd.8b310169fcdbp-19
21661=-0xa.444b80a8c0798p-19
21672=0xe.b06ad6e083dd8p-19
21683=-0xa.45e4adc59347p-19
21694=0xd.8b310169fcdbp-19
21705=-0xa.444b80a8c0798p-19
21716=0xd.8b310169fcdbp-19
21727=-0xa.444b80a8c0798p-19
21738=0xd.429ea0e2d2a38p-19
21749=-0xa.1b585f8b683d8p-19
21760=0xd.a35a0be7bcaf8p-19
21771=-0xa.1d86629aad1p-19
21782=0xd.429ea0e2d2a38p-19
21793=-0xa.1b585f8b683d8p-19
21804=0xd.429ea0e2d2a38p-19
21815=-0xa.1b585f8b683d8p-19
21826=0xd.8ee8fd251963p-19
21837=-0xa.119e91148918p-19
21848=0xd.24a25dc774ddp-19
21859=-0xa.06f599587ac28p-19
21870=0xd.24a25dc774ddp-19
21881=-0xa.06f599587ac28p-19
21892=0xd.24a25dc774ddp-19
21903=-0xa.06f599587ac28p-19
21914=0xc.c32b522e9593p-19
21936=0xc.c32b522e9593p-19
21958=0xc.c32b522e9593p-19
21980=0xb.98a8c0250fb3p-22
22002=0xb.98a8c0250fb3p-22
22024=0xe.d7f9824c0ffep-23
22046=0xe.d7f9824c0ffep-23
22068=0xf.0513924bcc118p-23
22090=0xa.6da47ce730688p-23
22112=0xa.6da47ce730688p-23
22140=0xc.fe07b81b2fd8p-17
22155=0x9.c9e83a4430f4p-9
22177=0x9.c9e83a4430f4p-9
22199=0x9.c9e83a4430f4p-9
22221=0x9.c9e83a4430f4p-9
22244=0xc.8a65661571178p-20
22255=-0x9.ce20b97dd9b2p-20
22266=0xc.5d93f3af041dp-20
22277=-0xa.0c93c1398d6f8p-20
22287=0xb.3d2333247691p-9
22309=0xb.379ae2d4b196p-9
22310=0xb.cc01483d6c27p-20
22321=-0xb.e5eab13fd369p-20
22331=0xb.3d2333247691p-9
22353=0xb.3d2333247691p-9
22375=0xb.3d2333247691p-9
22398=0x8.4472d2d87e998p-19
22409=-0xd.36ed03bb5744p-20
22420=0x8.e5dc3edda9a9p-19
22431=-0xe.fcabc559cea8p-20
22441=-0xf.88cacfae0c898p-7
22442=0xb.3caa67fc7e098p-7
22464=0xa.c564f9c3a8c98p-20
22475=-0xc.c6f49975e99bp-21
22486=0xc.7d34a3ede7358p-21
22497=-0xe.4a38985ec6cep-21
22508=0x9.adf31fc672a7p-21
22519=-0x9.ae79b65ad8178p-20
22530=0x8.b243d4d64ebfp-20
22541=-0xa.2bdaf3f03e53p-20
22551=-0x8.1573edf096188p-6
22552=0x8.f1ff9877b93fp-3
22574=0x8.bca8a4eac8738p-20
22585=-0xa.63d02935d07c8p-20
22596=0xd.099b02f8ce828p-20
22607=-0xa.b8109a86a7e3p-20
22618=0xd.099b02f8ce828p-20
22629=-0xa.b8109a86a7e3p-20
22640=0xd.099b02f8ce828p-20
22651=-0xa.b8109a86a7e3p-20
22662=0xd.099b02f8ce828p-20
22673=-0xa.b8109a86a7e3p-20
22684=0xe.f40d4d67514c8p-20
22695=-0xc.172ba87ba8b9p-20
22706=0x8.30e919ea0fce8p-19
22717=-0xd.f2e99c806be9p-20
22728=0x9.738f3367a3bd8p-19
22739=-0x8.40067dd426bap-20
22750=0xc.f1ff61bb648cp-20
22761=-0xf.a44998cd60ecp-23
22771=0x8.6b79e61878e9p-8
22772=-0x8.6adfeee78bffp-8
22793=0x8.6b79b99cff84p-8
22794=-0x8.6adefec0ee7ep-8
22821=0xb.e22ac43731d18p-20
22843=0xb.e22ac43731d18p-20
22860=-0xc.aeb04301664fp-18
22865=0x8.f67903e8e7458p-16
22882=-0xc.aeb04301664fp-18
22887=0x8.f67903e8e7458p-16
22903=0xe.c9cdb1055f2ep-15
22904=-0xd.3467bf808c78p-18
22925=0xe.c9cdb1055f2ep-15
22926=-0xd.3467bf808c78p-18
22947=0xe.c9cdb1055f2ep-15
22948=-0xd.3467bf808c78p-18
22969=0xe.c9cdb1055f2ep-15
22970=-0xd.3467bf808c78p-18
