#mdl#2#4257
#rdr#162/28/0
12:u00:%x[-4,0],
12:u01:%x[-3,0],
12:u02:%x[-2,0],
12:u03:%x[-1,0],
11:u04:%x[0,0],
11:u05:%x[1,0],
11:u06:%x[2,0],
11:u07:%x[3,0],
11:u08:%x[4,0],
20:u09:%x[-1,0]/%x[0,0],
19:u0A:%x[0,0]/%x[1,0],
20:u0D:%x[0,0]/%x[-1,0],
19:u0E:%x[0,0]/%x[1,0],
12:u10:%x[-3,1],
12:u11:%x[-2,1],
12:u12:%x[-1,1],
11:u13:%x[0,1],
11:u14:%x[1,1],
11:u15:%x[2,1],
11:u16:%x[3,1],
11:u17:%x[4,1],
11:u20:%x[0,2],
11:u21:%x[0,3],
11:u22:%x[0,4],
11:u23:%x[0,5],
11:u30:%x[0,6],
11:u31:%x[0,7],
11:u32:%x[0,8],
11:u33:%x[0,9],
13:u40:%x[-1,10],
12:u41:%x[0,10],
12:u42:%x[1,10],
12:u50:%x[0,11],
12:u51:%x[1,11],
13:u52:%x[-1,11],
21:u53:%x[0,11]/%x[1,11],
22:u54:%x[-1,11]/%x[0,11],
12:u60:%x[0,12],
13:u61:%x[-1,12],
12:u62:%x[1,12],
12:u70:%x[0,13],
13:u71:%x[-1,13],
12:u72:%x[1,13],
12:u80:%x[0,14],
12:u81:%x[0,15],
12:u82:%x[0,16],
12:u83:%x[0,17],
12:u84:%x[0,18],
12:u85:%x[0,19],
12:u86:%x[0,20],
12:u87:%x[0,21],
12:u88:%x[0,22],
12:u8K:%x[1,14],
12:u8L:%x[1,15],
12:u8M:%x[1,16],
12:u8N:%x[1,17],
12:u8O:%x[1,18],
12:u8P:%x[1,19],
12:u8Q:%x[1,20],
12:u8R:%x[1,21],
12:u8S:%x[1,22],
12:u90:%x[0,23],
13:u91:%x[-1,23],
12:u92:%x[1,23],
12:uA0:%x[0,24],
13:uA1:%x[-1,24],
12:uA2:%x[1,24],
12:uB0:%x[0,25],
13:uB1:%x[-1,25],
12:uB2:%x[1,25],
12:uB0:%x[0,26],
13:uB1:%x[-1,26],
12:uB2:%x[1,26],
12:uC0:%x[0,27],
13:uC1:%x[-1,27],
13:uC2:%x[-2,27],
12:uC3:%x[1,27],
12:uC4:%x[2,27],
12:uC0:%x[0,28],
13:uC1:%x[-1,28],
1:b,
12:u00:%x[-4,0],
12:u01:%x[-3,0],
12:u02:%x[-2,0],
12:u03:%x[-1,0],
11:u04:%x[0,0],
11:u05:%x[1,0],
11:u06:%x[2,0],
11:u07:%x[3,0],
11:u08:%x[4,0],
20:u09:%x[-1,0]/%x[0,0],
19:u0A:%x[0,0]/%x[1,0],
20:u0D:%x[0,0]/%x[-1,0],
19:u0E:%x[0,0]/%x[1,0],
12:u10:%x[-3,1],
12:u11:%x[-2,1],
12:u12:%x[-1,1],
11:u13:%x[0,1],
11:u14:%x[1,1],
11:u15:%x[2,1],
11:u16:%x[3,1],
11:u17:%x[4,1],
11:u20:%x[0,2],
11:u21:%x[0,3],
11:u22:%x[0,4],
11:u23:%x[0,5],
11:u30:%x[0,6],
11:u31:%x[0,7],
11:u32:%x[0,8],
11:u33:%x[0,9],
13:u40:%x[-1,10],
12:u41:%x[0,10],
12:u42:%x[1,10],
12:u50:%x[0,11],
12:u51:%x[1,11],
13:u52:%x[-1,11],
21:u53:%x[0,11]/%x[1,11],
22:u54:%x[-1,11]/%x[0,11],
12:u60:%x[0,12],
13:u61:%x[-1,12],
12:u62:%x[1,12],
12:u70:%x[0,13],
13:u71:%x[-1,13],
12:u72:%x[1,13],
12:u80:%x[0,14],
12:u81:%x[0,15],
12:u82:%x[0,16],
12:u83:%x[0,17],
12:u84:%x[0,18],
12:u85:%x[0,19],
12:u86:%x[0,20],
12:u87:%x[0,21],
12:u88:%x[0,22],
12:u8K:%x[1,14],
12:u8L:%x[1,15],
12:u8M:%x[1,16],
12:u8N:%x[1,17],
12:u8O:%x[1,18],
12:u8P:%x[1,19],
12:u8Q:%x[1,20],
12:u8R:%x[1,21],
12:u8S:%x[1,22],
12:u90:%x[0,23],
13:u91:%x[-1,23],
12:u92:%x[1,23],
12:uA0:%x[0,24],
13:uA1:%x[-1,24],
12:uA2:%x[1,24],
12:uB0:%x[0,25],
13:uB1:%x[-1,25],
12:uB2:%x[1,25],
12:uB0:%x[0,26],
13:uB1:%x[-1,26],
12:uB2:%x[1,26],
12:uC0:%x[0,27],
13:uC1:%x[-1,27],
13:uC2:%x[-2,27],
12:uC3:%x[1,27],
12:uC4:%x[2,27],
12:uC0:%x[0,28],
13:uC1:%x[-1,28],
1:b,
#qrk#36
10:I-<author>,
8:<author>,
9:I-<other>,
9:I-<title>,
7:<title>,
7:<other>,
13:I-<booktitle>,
11:<booktitle>,
10:I-<volume>,
10:I-<editor>,
8:<editor>,
13:I-<publisher>,
11:<publisher>,
12:I-<location>,
10:<location>,
8:I-<date>,
11:I-<journal>,
9:I-<pages>,
9:<journal>,
8:I-<note>,
8:I-<tech>,
6:<tech>,
15:I-<institution>,
13:<institution>,
7:<pages>,
6:<date>,
6:<note>,
10:I-<pubnum>,
8:<pubnum>,
9:I-<issue>,
17:I-<collaboration>,
15:<collaboration>,
8:<volume>,
7:I-<web>,
5:<web>,
7:<issue>,
#qrk#1289
5:u05:.,
5:u07:.,
5:u14:.,
5:u16:.,
5:u20:I,
10:u42:LINEIN,
10:u50:ALLCAP,
10:u51:ALLCAP,
17:u53:ALLCAP/ALLCAP,
11:u60:NODIGIT,
11:u62:NODIGIT,
5:u70:1,
5:u72:1,
5:u80:0,
5:u81:0,
5:u82:0,
5:u83:0,
5:u84:1,
5:u85:0,
5:u86:0,
5:u87:0,
5:u88:0,
5:u8K:0,
5:u8L:0,
5:u8M:0,
5:u8N:0,
5:u8O:0,
5:u8P:0,
5:u8Q:0,
5:u8R:0,
5:u8S:0,
5:u90:0,
5:u92:0,
5:uA0:0,
5:uA2:0,
5:uB0:0,
8:uB1:_x-1,
5:uB2:0,
11:uC0:NOPUNCT,
8:uC1:_x-1,
7:uC3:DOT,
11:uC4:NOPUNCT,
5:uC0:0,
1:b,
5:u04:.,
5:u06:.,
5:u13:.,
5:u15:.,
5:u20:.,
5:u21:.,
5:u22:.,
5:u23:.,
5:u30:.,
5:u31:.,
5:u32:.,
5:u33:.,
10:u41:LINEIN,
10:u52:ALLCAP,
17:u54:ALLCAP/ALLCAP,
11:u61:NODIGIT,
5:u71:1,
5:u72:0,
5:u84:0,
5:u8K:1,
5:u8M:1,
5:u8N:1,
5:u8O:1,
5:u91:0,
5:uA1:0,
5:uB1:0,
7:uC0:DOT,
11:uC1:NOPUNCT,
11:uC3:NOPUNCT,
7:uC4:DOT,
5:uC1:0,
8:u00:_x-2,
8:u01:_x-1,
5:u03:.,
5:u08:.,
8:u10:_x-1,
5:u12:.,
5:u17:.,
10:u40:LINEIN,
5:u70:0,
5:u80:1,
5:u82:1,
5:u83:1,
7:uC1:DOT,
11:uC2:NOPUNCT,
8:u00:_x-1,
5:u02:.,
5:u11:.,
11:u51:INITCAP,
18:u53:ALLCAP/INITCAP,
5:u71:0,
7:uC2:DOT,
5:uC0:1,
5:u01:.,
5:u10:.,
5:u20:D,
6:u21:Di,
5:u30:e,
11:u50:INITCAP,
10:u51:NOCAPS,
18:u53:INITCAP/NOCAPS,
18:u54:ALLCAP/INITCAP,
5:uC1:1,
5:u00:.,
5:u20:a,
5:u30:s,
10:u50:NOCAPS,
11:u52:INITCAP,
17:u53:NOCAPS/ALLCAP,
18:u54:INITCAP/NOCAPS,
5:uC0:2,
10:u52:NOCAPS,
17:u54:NOCAPS/ALLCAP,
5:uC1:2,
19:u53:INITCAP/INITCAP,
5:uC0:3,
5:u20:T,
19:u54:INITCAP/INITCAP,
5:uC1:3,
5:uC0:4,
5:uC1:4,
5:u30:l,
18:u53:INITCAP/ALLCAP,
5:u08::,
5:u17::,
17:u53:ALLCAP/NOCAPS,
18:u54:INITCAP/ALLCAP,
12:u62:ALLDIGIT,
5:uC0:5,
5:u07::,
5:u16::,
5:u30:1,
17:u54:ALLCAP/NOCAPS,
12:u60:ALLDIGIT,
5:uC1:5,
5:u06::,
5:u15::,
5:u16:a,
12:u61:ALLDIGIT,
9:uC4:PUNCT,
5:u05::,
5:u14::,
5:u30:r,
9:uC3:PUNCT,
5:uC0:6,
5:u04::,
5:u13::,
5:u20::,
5:u21::,
5:u22::,
5:u23::,
5:u30::,
5:u31::,
5:u32::,
5:u33::,
5:u8L:1,
9:uC0:PUNCT,
5:uC0:7,
5:uC1:6,
5:u03::,
5:u04:A,
5:u12::,
5:u13:a,
5:u20:A,
5:u21:A,
5:u22:A,
5:u23:A,
5:u30:A,
5:u31:A,
5:u32:A,
5:u33:A,
5:u81:1,
9:uC1:PUNCT,
5:uC1:7,
5:u02::,
5:u03:A,
5:u11::,
5:u12:a,
9:uC2:PUNCT,
5:u01::,
5:u08:,,
5:u10::,
5:u17:,,
5:uC0:8,
5:u00::,
5:u07:,,
5:u16:,,
5:uB2:1,
5:uC1:8,
5:u06:,,
5:u15:,,
5:u30:c,
6:u31:ic,
5:uB0:1,
9:uC4:COMMA,
5:u05:,,
5:u14:,,
5:u20:P,
6:u21:Pr,
7:u22:Pre,
5:uB1:1,
9:uC3:COMMA,
5:uC0:9,
5:u04:,,
5:u13:,,
5:u20:,,
5:u21:,,
5:u22:,,
5:u23:,,
5:u30:,,
5:u31:,,
5:u32:,,
5:u33:,,
9:uC0:COMMA,
5:uC1:9,
5:u03:,,
5:u12:,,
5:u30:w,
9:uC1:COMMA,
6:uC0:10,
5:u02:,,
8:u08:_x+1,
5:u11:,,
8:u17:_x+1,
9:uC2:COMMA,
6:uC1:10,
5:u01:,,
8:u07:_x+1,
8:u08:_x+2,
5:u10:,,
8:u16:_x+1,
8:u17:_x+2,
5:u8P:1,
6:uC0:11,
5:u00:,,
8:u06:_x+1,
8:u07:_x+2,
8:u08:_x+3,
8:u15:_x+1,
8:u16:_x+2,
8:u17:_x+3,
5:u20:1,
6:u21:19,
11:u42:LINEEND,
5:u85:1,
8:uC4:_x+1,
6:uC1:11,
10:u0A:./_x+1,
10:u0E:./_x+1,
15:u53:ALLCAP/_x+1,
8:uB2:_x+1,
5:u20:J,
5:u03:J,
5:u07:G,
7:u09:J/.,
7:u0D:./J,
5:u12:j,
5:u16:g,
5:u02:J,
5:u11:j,
5:u20:G,
5:u20:H,
5:u20:R,
5:u20:e,
5:u30:t,
5:u20:C,
5:u08:(,
5:u17:(,
5:u07:(,
5:u16:(,
5:u30:R,
5:u01:C,
5:u06:(,
5:u08:),
5:u10:c,
5:u15:(,
5:u17:),
5:u92:1,
15:uC4:OPENBRACKET,
5:u05:(,
5:u07:),
5:u14:(,
5:u16:),
5:u90:1,
15:uC3:OPENBRACKET,
5:u04:(,
5:u06:),
5:u13:(,
5:u15:),
5:u20:(,
5:u21:(,
5:u22:(,
5:u23:(,
5:u30:(,
5:u31:(,
5:u32:(,
5:u33:(,
5:u91:1,
15:uC0:OPENBRACKET,
14:uC4:ENDBRACKET,
5:u03:(,
5:u05:),
5:u12:(,
5:u14:),
5:u30:n,
6:u31:on,
15:uC1:OPENBRACKET,
14:uC3:ENDBRACKET,
5:u02:(,
5:u04:),
5:u11:(,
5:u13:),
5:u20:),
5:u21:),
5:u22:),
5:u23:),
5:u30:),
5:u31:),
5:u32:),
5:u33:),
14:uC0:ENDBRACKET,
15:uC2:OPENBRACKET,
5:u01:(,
5:u03:),
5:u10:(,
5:u12:),
14:uC1:ENDBRACKET,
5:u00:(,
5:u02:),
5:u11:),
14:uC2:ENDBRACKET,
5:u01:),
5:u10:),
5:u00:),
5:u20:6,
5:u30:8,
5:u30:2,
5:u06:J,
5:u15:j,
5:u08:6,
5:u17:6,
5:u07:6,
5:u16:6,
5:u06:6,
5:u15:6,
5:u30:m,
5:u05:6,
7:u0A:./6,
7:u0E:./6,
5:u14:6,
5:u04:6,
7:u09:./6,
7:u0D:6/.,
5:u13:6,
5:u21:6,
5:u22:6,
5:u23:6,
5:u30:6,
5:u31:6,
5:u32:6,
5:u33:6,
6:u31:78,
5:u30:3,
5:u20:M,
5:u30:M,
5:u20:S,
5:u8S:1,
5:u88:1,
5:u02:D,
5:u11:d,
5:u01:D,
5:u08:-,
5:u10:d,
5:u17:-,
5:u00:D,
5:u07:-,
5:u16:-,
5:u06:-,
5:u15:-,
10:uC4:HYPHEN,
5:u05:-,
5:u14:-,
10:uC3:HYPHEN,
5:u04:-,
5:u13:-,
5:u20:-,
5:u21:-,
5:u22:-,
5:u23:-,
5:u30:-,
5:u31:-,
5:u32:-,
5:u33:-,
10:uC0:HYPHEN,
5:u03:-,
6:u08:of,
5:u12:-,
10:uC1:HYPHEN,
5:u02:-,
6:u07:of,
5:u11:-,
6:u16:of,
10:uC2:HYPHEN,
5:u01:-,
6:u06:of,
7:u08:and,
5:u10:-,
6:u15:of,
7:u17:and,
5:u20:s,
17:u53:NOCAPS/NOCAPS,
5:u00:-,
6:u05:of,
7:u07:and,
6:u14:of,
7:u16:and,
17:u54:NOCAPS/NOCAPS,
6:u04:of,
6:u13:of,
5:u20:o,
6:u21:of,
6:u22:of,
6:u23:of,
5:u30:f,
6:u31:of,
6:u32:of,
6:u33:of,
6:u03:of,
6:u12:of,
6:u02:of,
6:u11:of,
5:u30:d,
6:u01:of,
6:u10:of,
6:u00:of,
5:u20:F,
6:u11:de,
6:u10:de,
5:u30:o,
5:u30:y,
6:u31:ry,
7:u32:978,
5:u08:S,
5:u17:s,
5:u07:S,
5:u16:s,
5:u06:S,
5:u15:s,
5:u30:O,
5:u20:2,
5:u30:N,
6:u21:Te,
7:u0A:./(,
7:u0E:./(,
7:u09:./(,
7:u0D:(/.,
5:u30:g,
5:u30:0,
6:u31:in,
5:u20:4,
6:u31:10,
7:u0A:,/J,
7:u0E:,/J,
7:u09:,/J,
7:u0D:J/,,
5:u06:',
5:u15:',
9:uC4:QUOTE,
5:u04:',
5:u13:',
5:u20:',
5:u21:',
5:u22:',
5:u23:',
5:u30:',
5:u31:',
5:u32:',
5:u33:',
9:uC0:QUOTE,
5:u03:',
5:u12:',
9:uC1:QUOTE,
5:u02:',
5:u11:',
9:uC2:QUOTE,
5:u01:',
5:u10:',
6:u21:Me,
7:u22:Med,
6:u31:ed,
6:u21:20,
6:u31:is,
5:u20:U,
6:u21:Co,
7:u22:Com,
6:u31:al,
6:u31:rd,
6:u31:er,
7:u16:the,
7:u13:the,
6:u31:he,
7:u12:the,
7:u11:the,
7:u10:the,
7:u32:ion,
8:u33:tion,
6:u31:ng,
7:u32:ing,
6:u31:ce,
6:u31:72,
6:u21:Re,
7:u22:Pro,
6:u06:10,
6:u15:10,
5:u30:h,
5:u20:n,
5:u30:4,
5:u00:3,
6:u21:As,
6:u21:Un,
7:u22:Uni,
8:u23:Univ,
14:u00:University,
18:u53:NOCAPS/INITCAP,
18:u54:NOCAPS/INITCAP,
6:u21:In,
7:u0A:./),
7:u0E:./),
7:u09:./),
7:u0D:)/.,
6:u01:on,
6:u10:on,
7:u22:Ins,
8:u23:Inst,
6:u31:11,
5:u20:8,
5:u30:u,
5:u07:1,
5:u16:1,
5:u06:1,
5:u15:1,
5:u05:1,
5:u14:1,
5:u04:1,
5:u13:1,
5:u21:1,
5:u22:1,
5:u23:1,
5:u31:1,
5:u32:1,
5:u33:1,
5:u03:1,
5:u12:1,
5:u02:1,
5:u11:1,
5:u01:1,
5:u10:1,
5:u00:1,
6:u02:de,
6:u01:de,
6:u00:de,
8:u23:Proc,
7:u32:nce,
8:u33:ence,
6:u21:su,
6:u31:22,
7:u32:nal,
5:u01:N,
5:u10:n,
6:u17:in,
6:u16:in,
5:u20:w,
6:u04:in,
6:u13:in,
5:u20:i,
6:u21:in,
6:u22:in,
6:u23:in,
6:u32:in,
6:u33:in,
6:u12:in,
6:u11:in,
6:u10:in,
6:u00:in,
5:u20:v,
7:u22:199,
7:u22:200,
6:u21:th,
7:u22:the,
7:u07:the,
7:u04:the,
7:u23:the,
7:u32:the,
7:u33:the,
7:u03:the,
7:u02:the,
7:u01:the,
7:u00:the,
5:u20:0,
7:u22:201,
8:u08:2001,
8:u17:2001,
8:u07:2001,
8:u16:2001,
8:u06:2001,
8:u15:2001,
8:u05:2001,
8:u14:2001,
6:u21:Fe,
6:u31:ch,
7:u0A:./,,
7:u0E:./,,
8:u08:2002,
8:u17:2002,
8:u07:2002,
8:u16:2002,
8:u05:2002,
8:u14:2002,
7:u0A:./-,
7:u0E:./-,
5:u08:8,
5:u17:8,
5:u07:8,
5:u16:8,
5:u06:8,
5:u15:8,
5:u05:8,
5:u14:8,
5:u04:8,
7:u0A:8/,,
7:u0E:8/,,
5:u13:8,
5:u21:8,
5:u22:8,
5:u23:8,
5:u31:8,
5:u32:8,
5:u33:8,
6:u21:at,
5:u20:9,
8:u07:2006,
8:u16:2006,
7:u32:tic,
5:u86:1,
7:u32:ger,
8:u01:2006,
8:u10:2006,
7:u0A:-/8,
7:u0E:-/8,
7:u09:-/8,
7:u0D:8/-,
6:u31:at,
8:u06:2014,
8:u15:2014,
8:u02:2014,
8:u11:2014,
6:u08:at,
6:u17:at,
6:u07:at,
6:u16:at,
6:u06:at,
6:u15:at,
6:u05:at,
6:u14:at,
6:u04:at,
6:u13:at,
6:u22:at,
6:u23:at,
6:u32:at,
6:u33:at,
8:u33:onal,
6:u21:Ge,
7:u22:Gen,
6:u21:ni,
6:u21:Sp,
7:u09:./:,
7:u0D::/.,
12:u05:Springer,
14:u0A:./Springer,
14:u0E:./Springer,
12:u14:springer,
12:u04:Springer,
12:u13:springer,
7:u22:Spr,
8:u23:Spri,
8:u33:nger,
6:u21:60,
6:u31:rt,
8:u08:2010,
8:u17:2010,
8:u04:2010,
8:u13:2010,
8:u23:2010,
7:u32:010,
8:u33:2010,
8:u03:2010,
8:u12:2010,
8:u23:2011,
7:u32:ort,
7:u32:ard,
5:u08:0,
5:u17:0,
5:u07:0,
5:u16:0,
5:u06:0,
5:u15:0,
5:u05:0,
5:u14:0,
5:u04:0,
7:u0A:0/.,
7:u0E:0/.,
5:u13:0,
5:u21:0,
5:u22:0,
5:u23:0,
5:u31:0,
5:u32:0,
5:u33:0,
5:u03:0,
7:u09:0/.,
7:u0D:./0,
5:u12:0,
5:u02:0,
5:u11:0,
8:u08:2011,
8:u17:2011,
8:u07:2011,
8:u16:2011,
7:u22:Tec,
8:u23:Tech,
8:u06:2011,
8:u15:2011,
14:u01:Technology,
8:u04:2011,
14:u10:technology,
8:u13:2011,
7:u32:011,
8:u33:2011,
14:u00:Technology,
8:u03:2011,
8:u12:2011,
8:u02:2011,
8:u11:2011,
8:u01:2011,
8:u10:2011,
15:u53:NOCAPS/_x+1,
6:u07:No,
6:u16:no,
6:u31:03,
6:u07:11,
6:u16:11,
6:u00:11,
6:u21:00,
8:u01:2014,
8:u10:2014,
8:u00:2014,
6:u21:Hy,
8:u33:port,
7:u32:503,
7:u0A:./0,
7:u0E:./0,
7:u09:./0,
7:u0D:0/.,
10:u11:manual,
10:u10:manual,
10:u02:Manual,
10:u01:Manual,
8:u23:Gene,
10:u09:,/2011,
10:u0D:2011/,,
6:u21:97,
7:u12:pub,
7:u0A:6/.,
7:u0E:6/.,
6:u31:gs,
7:u32:ary,
8:u02:2010,
8:u11:2010,
8:u01:2010,
8:u10:2010,
8:u00:2010,
7:u32:ech,
7:u05:978,
7:u14:978,
7:u04:978,
9:u0A:978/-,
9:u0E:978/-,
7:u13:978,
7:u22:978,
7:u23:978,
7:u33:978,
7:u03:978,
9:u09:978/-,
7:u0A:-/1,
9:u0D:-/978,
7:u0E:-/1,
7:u12:978,
7:u02:978,
7:u09:-/1,
7:u0A:1/-,
7:u0D:1/-,
7:u0E:1/-,
7:u11:978,
7:u01:978,
7:u09:1/-,
7:u0D:-/1,
7:u10:978,
7:u00:978,
6:u21:45,
7:u32:ngs,
8:u33:ings,
12:u00:Computer,
6:u08:ed,
6:u17:ed,
6:u07:ed,
6:u16:ed,
6:u06:ed,
6:u15:ed,
6:u12:ed,
10:u0A:2011/,,
10:u0E:2011/,,
10:u09:2011/,,
10:u0D:,/2011,
6:u31:CO,
6:u02:97,
6:u11:97,
10:u09:,/2010,
10:u0D:2010/,,
7:u22:Feb,
9:u00:Lucas,
7:u02:USA,
7:u11:usa,
7:u0A:5/,,
7:u0E:5/,,
6:u21:GE,
8:u08:Text,
8:u17:text,
6:u31:xt,
7:u32:ext,
7:u22:Pra,
7:u32:zed,
8:u33:ized,
13:u13:journalof,
7:u0A:)/:,
7:u0E:)/:,
7:u09:)/:,
7:u0D::/),
12:u04:February,
14:u09:,/February,
14:u0D:February/,,
12:u13:february,
8:u23:Febr,
8:u33:uary,
6:u21:IS,
7:u22:ISB,
8:u23:ISBN,
7:u08:www,
7:u17:www,
7:u04:www,
9:u0A:www/.,
9:u0E:www/.,
7:u13:www,
6:u21:ww,
7:u22:www,
7:u23:www,
6:u31:ww,
7:u32:www,
7:u33:www,
7:u03:www,
9:u09:www/.,
9:u0D:./www,
7:u12:www,
7:u02:www,
7:u11:www,
7:u01:www,
7:u10:www,
7:u00:www,
7:u32:022,
14:u01:evaluation,
14:u10:evaluation,
7:u22:450,
6:u08:In,
6:u04:In,
8:u09:./In,
8:u0D:In/.,
6:u22:In,
6:u23:In,
6:u31:In,
6:u32:In,
6:u33:In,
6:u02:In,
6:u01:In,
7:u0A:1/.,
7:u0E:1/.,
7:u09:1/.,
7:u0D:./1,
15:u04:Generalized,
15:u13:generalized,
6:u31:CM,
15:u05:Proceedings,
15:u14:proceedings,
15:u02:Proceedings,
15:u11:proceedings,
15:u01:Proceedings,
15:u10:proceedings,
15:u00:Proceedings,
7:u08:217,
7:u17:217,
7:u22:007,
6:u13:su,
6:u31:fo,
7:u32:nfo,
7:u08:256,
7:u17:256,
7:u07:256,
7:u16:256,
8:u33:4503,
7:u06:ACM,
7:u15:acm,
7:u04:ACM,
7:u13:acm,
7:u22:ACM,
7:u23:ACM,
7:u32:ACM,
7:u33:ACM,
7:u03:Pub,
9:u09:Pub/.,
9:u0D:./Pub,
6:u31:su,
8:u13:tech,
8:u12:tech,
8:u11:tech,
7:u22:nic,
8:u23:nica,
8:u10:tech,
18:u09:Proceedings/of,
18:u0D:of/Proceedings,
6:u04:su,
8:u0A:su/-,
8:u0E:su/-,
6:u22:su,
6:u23:su,
6:u32:su,
6:u33:su,
11:u00:Problem,
13:u10:reference,
8:u04:Tech,
10:u09:./Tech,
10:u0D:Tech/.,
8:u33:Tech,
8:u03:Tech,
8:u02:Tech,
8:u01:Tech,
8:u00:Tech,
7:u32:NCS,
8:u33:LNCS,
7:u02:ACM,
7:u11:acm,
8:u33:aard,
8:u33:text,
8:u33:6022,
11:u00:Medical,
13:u01:Reference,
7:u32:ece,
8:u33:eece,
6:u07:TR,
6:u16:tr,
6:u06:TR,
6:u15:tr,
7:u32:072,
8:u33:0072,
14:u17:strategies,
14:u16:strategies,
14:u15:strategies,
18:u0A:in/Proceedings,
18:u0E:in/Proceedings,
10:u02:Twente,
10:u11:twente,
17:u13:instructional,
17:u12:instructional,
17:u11:instructional,
7:u22:Hyp,
8:u23:Hype,
14:u00:Universite,
15:u00:qualitative,
14:u08:Strategies,
14:u07:Strategies,
14:u06:Strategies,
8:u04:ISBN,
8:u13:isbn,
6:u31:BN,
7:u32:SBN,
8:u33:ISBN,
8:u03:ISBN,
8:u12:isbn,
8:u02:ISBN,
8:u11:isbn,
8:u01:ISBN,
8:u10:isbn,
8:u00:ISBN,
7:u32:Vis,
13:u11:component,
13:u10:component,
7:u32:vis,
7:u22:602,
9:u02:Spain,
9:u11:spain,
13:u14:hypertext,
13:u13:hypertext,
13:u12:hypertext,
13:u05:Hypertext,
13:u04:Hypertext,
13:u03:Hypertext,
6:u11:bd,
6:u08:ED,
6:u21:Hr,
8:u33:rvis,
13:u00:Reference,
15:u0A:Hypertext/:,
15:u0E:Hypertext/:,
15:u09:Hypertext/:,
15:u0D::/Hypertext,
10:u04:Preece,
15:u09:_x-1/Preece,
12:u0A:Preece/,,
15:u0D:Preece/_x-1,
12:u0E:Preece/,,
10:u13:preece,
8:u23:Pree,
10:u03:Preece,
12:u09:Preece/,,
12:u0D:,/Preece,
10:u12:preece,
10:u02:Preece,
10:u11:preece,
10:u01:Preece,
10:u10:preece,
25:u03:educationaltechnology,
28:u09:educationaltechnology/in,
28:u0D:in/educationaltechnology,
25:u12:educationaltechnology,
17:u04:Instructional,
15:u07:Attentional,
19:u09:./Instructional,
27:u0A:Instructional/Hypertext,
19:u0D:Instructional/.,
27:u0E:Instructional/Hypertext,
15:u16:attentional,
17:u03:Instructional,
15:u06:Attentional,
27:u09:Instructional/Hypertext,
27:u0D:Hypertext/Instructional,
15:u15:attentional,
17:u02:Instructional,
15:u05:Attentional,
17:u0A::/Attentional,
17:u0E::/Attentional,
15:u14:attentional,
10:u00:JGraph,
9:u01:Swing,
13:u02:Component,
15:u06:nicalReport,
10:u0A:Tech/-,
10:u0E:Tech/-,
9:u10:swing,
15:u15:nicalreport,
9:u00:Swing,
13:u01:Component,
15:u05:nicalReport,
10:u09:Tech/-,
17:u0A:-/nicalReport,
10:u0D:-/Tech,
17:u0E:-/nicalReport,
15:u14:nicalreport,
13:u00:Component,
15:u04:nicalReport,
17:u09:-/nicalReport,
17:u0A:nicalReport/1,
17:u0D:nicalReport/-,
17:u0E:nicalReport/1,
15:u13:nicalreport,
15:u03:nicalReport,
17:u09:nicalReport/1,
17:u0D:1/nicalReport,
15:u12:nicalreport,
15:u02:nicalReport,
15:u11:nicalreport,
15:u01:nicalReport,
15:u10:nicalreport,
15:u00:nicalReport,
27:u00:MethodologyPerspectives,
9:u02:AHCPR,
9:u11:ahcpr,
7:u00:ECP,
19:u04:TechnicalReport,
11:u05:Asgaard,
21:u09:./TechnicalReport,
27:u0A:TechnicalReport/Asgaard,
21:u0D:TechnicalReport/.,
27:u0E:TechnicalReport/Asgaard,
19:u13:technicalreport,
11:u14:asgaard,
19:u03:TechnicalReport,
11:u04:Asgaard,
27:u09:TechnicalReport/Asgaard,
13:u0A:Asgaard/-,
27:u0D:Asgaard/TechnicalReport,
13:u0E:Asgaard/-,
19:u12:technicalreport,
11:u13:asgaard,
7:u22:Asg,
8:u23:Asga,
24:u02:BasedImplementations,
11:u04:MedInfo,
7:u08:Pt1,
13:u09:./MedInfo,
13:u0A:MedInfo/,,
13:u0D:MedInfo/.,
13:u0E:MedInfo/,,
24:u11:basedimplementations,
11:u13:medinfo,
7:u17:pt1,
8:u23:MedI,
8:u33:Info,
17:u09::/Generalized,
17:u0D:Generalized/:,
9:u01:Libre,
13:u03:Bruxelles,
15:u09:Bruxelles/,,
15:u0D:,/Bruxelles,
9:u10:libre,
13:u12:bruxelles,
9:u00:Libre,
13:u02:Bruxelles,
13:u11:bruxelles,
13:u01:Bruxelles,
13:u10:bruxelles,
8:u07:Hrsg,
8:u16:hrsg,
8:u06:Hrsg,
8:u15:hrsg,
8:u05:Hrsg,
10:u0A:(/Hrsg,
10:u0E:(/Hrsg,
8:u14:hrsg,
8:u04:Hrsg,
10:u09:(/Hrsg,
10:u0A:Hrsg/.,
10:u0D:Hrsg/(,
10:u0E:Hrsg/.,
8:u13:hrsg,
7:u22:Hrs,
8:u23:Hrsg,
6:u31:sg,
7:u32:rsg,
8:u33:Hrsg,
8:u03:Hrsg,
10:u09:Hrsg/.,
10:u0D:./Hrsg,
8:u12:hrsg,
8:u02:Hrsg,
8:u11:hrsg,
8:u01:Hrsg,
8:u10:hrsg,
8:u00:Hrsg,
11:u00:Canaria,
14:u0A:February/6,
14:u0E:February/6,
9:u04:GECCO,
11:u09::/GECCO,
11:u0D:GECCO/:,
9:u13:gecco,
7:u22:GEC,
8:u23:GECC,
7:u32:CCO,
8:u33:ECCO,
10:u09:-/ISBN,
12:u0A:ISBN/978,
10:u0D:ISBN/-,
12:u0E:ISBN/978,
8:u08:4503,
12:u09:ISBN/978,
12:u0D:978/ISBN,
8:u17:4503,
8:u07:4503,
8:u16:4503,
8:u06:4503,
8:u08:0072,
8:u15:4503,
8:u17:0072,
8:u05:4503,
8:u07:0072,
10:u0A:-/4503,
10:u0E:-/4503,
8:u14:4503,
8:u16:0072,
8:u04:4503,
8:u06:0072,
10:u09:-/4503,
10:u0A:4503/-,
10:u0D:4503/-,
10:u0E:4503/-,
8:u13:4503,
8:u15:0072,
8:u23:4503,
8:u03:4503,
8:u05:0072,
10:u09:4503/-,
10:u0A:-/0072,
10:u0D:-/4503,
10:u0E:-/0072,
8:u12:4503,
8:u14:0072,
8:u02:4503,
8:u04:0072,
10:u09:-/0072,
10:u0A:0072/-,
10:u0D:0072/-,
10:u0E:0072/-,
8:u11:4503,
8:u13:0072,
8:u23:0072,
8:u01:4503,
8:u03:0072,
10:u09:0072/-,
10:u0D:-/0072,
8:u10:4503,
8:u12:0072,
8:u00:4503,
8:u02:0072,
8:u11:0072,
14:u06:pervisedby,
8:u09:-/su,
8:u0D:su/-,
14:u15:pervisedby,
11:u0A:GECCO/,,
11:u0E:GECCO/,,
10:u00:EvoCOP,
6:u02:Bd,
8:u04:6022,
10:u09:./6022,
10:u0A:6022/,,
10:u0D:6022/.,
10:u0E:6022/,,
8:u13:6022,
8:u23:6022,
9:u04:VRVis,
14:u09:_x-1/VRVis,
11:u0A:VRVis/,,
14:u0D:VRVis/_x-1,
11:u0E:VRVis/,,
9:u13:vrvis,
6:u21:VR,
7:u22:VRV,
8:u23:VRVi,
8:u33:RVis,
9:u12:vrvis,
9:u11:vrvis,
9:u00:VRVis,
9:u06:vrvis,
9:u09:./www,
9:u0D:www/.,
9:u15:vrvis,
9:u05:vrvis,
11:u0A:./vrvis,
11:u0E:./vrvis,
9:u14:vrvis,
9:u04:vrvis,
11:u09:./vrvis,
11:u0A:vrvis/.,
11:u0D:vrvis/.,
11:u0E:vrvis/.,
6:u21:vr,
7:u22:vrv,
8:u23:vrvi,
9:u03:vrvis,
11:u09:vrvis/.,
8:u0A:./at,
11:u0D:./vrvis,
8:u0E:./at,
9:u02:vrvis,
8:u09:./at,
11:u0A:at/_x+1,
8:u0D:at/.,
11:u0E:at/_x+1,
1=0xd.f9616fad3744p-9
2=-0xe.d403c9478482p-7
4=0xd.98f3d8bdb8d2p-5
5=0xd.ada3d059ca87p-6
7=0xd.3ee86b791c258p-10
10=-0xc.70d46199da098p-11
14=-0xb.20529d0c1d6p-29
15=0xf.0f22b18edb6cp-19
18=-0xa.0143124c22388p-11
23=-0xc.1006e624051ep-18
27=0x8.b7d656e5f10dp-7
28=-0xb.e09edd712ab1p-14
33=0x9.ada6029d2e208p-11
37=-0x8.e52bc21f8534p-10
40=0xb.23074891d28cp-13
41=-0x9.ecd3bb882b538p-10
43=0xd.cbe5150fedbap-14
45=0xc.56e8e375e29p-5
46=0xb.4aa250a09d3d8p-6
50=-0xb.d24d6b0224328p-18
57=0xb.340516c1e3fdp-13
61=-0xe.d4431ce690b7p-18
62=0x9.fc4456b570fep-17
63=0xc.77ca27859a4e8p-22
64=-0xa.35296a7edc87p-14
69=0x8.ff85e2c7fc0e8p-11
70=-0xb.075422cb2154p-7
73=0xd.f9616fad3744p-9
74=-0xe.d403c94783d8p-7
76=0xd.98f3d8bdb8d2p-5
77=0xd.ada3d059ca87p-6
79=0xd.3ee86b791c258p-10
82=-0xc.70d46199da098p-11
86=-0xb.20529d0c1d6p-29
87=0xf.0f22b18edb6cp-19
90=-0xa.0143124c22388p-11
95=-0xc.1006e624051ep-18
99=0x8.b7d656e5f10dp-7
100=-0xb.e09edd712ab1p-14
105=0x9.ada6029d2e208p-11
109=-0x8.e52bc21f853p-10
112=0xb.23074891d295p-13
113=-0x9.ecd3bb882b538p-10
115=0xd.cbe5150fedbap-14
117=0xc.56e8e375e29p-5
118=0xb.4aa250a09d3d8p-6
122=-0xb.d24d6b0224328p-18
129=0xb.340516c1e3fdp-13
133=-0xe.d4431ce690b7p-18
134=0x9.fc4456b570fep-17
135=0xc.77ca27859a4e8p-22
136=-0xa.35296a7edc87p-14
141=0x8.ff85e2c7fc0e8p-11
142=-0xb.075422cb2154p-7
146=0x8.4dbb9fb710748p-7
149=0xa.d915276312b18p-9
151=-0xa.41a4a5e199f48p-6
169=-0xa.c94e42666cccp-20
181=0xd.4ffddbe1cd69p-11
182=0xc.3099b0408d3c8p-7
183=0x9.b2d924dd9cc5p-11
184=0xe.c64515978e558p-7
185=0xe.5006ad6cac1d8p-13
186=0xb.70a683f17394p-8
187=0xe.73eeca5559488p-5
189=0xc.7cc4da9800dep-19
190=-0xe.a9f2e5e8d43p-9
192=0xb.f146ec174706p-15
193=-0x8.92f57578daf2p-19
194=-0xd.1bbc38fad4bfp-5
195=0xa.052fe2407a01p-16
196=0x8.4c8b5a38489ap-8
197=0x9.8add5edb008d8p-6
198=0x8.b7222b4c8e58p-8
200=0xb.250520ae3dbdp-5
201=0xa.cb9d47dc16a08p-12
202=0xc.3ccd243d3a87p-14
203=-0xa.34a9784e68f8p-13
204=-0x9.dc3cb2ed1db68p-10
205=-0x8.91e018d1fc0a8p-10
206=-0xc.f81c8fe30d6d8p-10
207=0xa.07240d65962b8p-14
208=-0xa.aeaccdc54c04p-12
214=-0x8.80a7dc6183398p-6
217=0xe.4b3ef1a0272bp-10
218=0x8.8c7aea9d3befp-4
219=0xa.22f61f9e6766p-17
220=-0xe.98bf3587dff38p-9
221=-0xa.5b8adaf3a01fp-12
222=0xd.bf7fa05b59ef8p-10
223=-0xa.03b979808ce98p-9
226=0x9.33d506a9f5bcp-13
230=0xa.635cd01dbb0b8p-8
234=-0xb.cc6a72103136p-17
237=0x9.c1379df54dap-20
239=0xa.0422b0be2761p-14
241=-0xb.657f7a193d418p-11
244=0xd.501618ab9b0dp-10
250=0xf.4f7f9edf35a6p-17
253=-0xd.4defce1a5f078p-7
254=-0xc.ef9074305166p-7
256=-0x8.14960f1b44098p-7
257=0x9.89eb3278ba03p-10
258=0x9.d552be09bd5p-6
261=0xd.6ac0ac48d282p-19
262=0x8.86c0580c90acp-10
263=0xb.5ede7872898ep-10
264=0xe.a0f8fa3c9039p-19
268=-0xb.4e7590d19ceb8p-14
270=-0xc.10db58795ffep-18
271=0x8.83d950e99146p-11
275=0xc.132c97f6208cp-12
277=-0x8.b0eb74ca6b5e8p-11
278=-0xb.d76027695408p-14
279=0xb.e3b1fae7dbc5p-13
280=-0xa.e267f4e4f6b1p-12
289=0x9.044eaa54c7468p-7
290=-0xd.a82aaedef185p-8
292=-0x8.02261b4b0686p-5
294=0x9.d9b9965dc23cp-12
295=-0xe.0160c7f90ab2p-14
298=0x9.4b3180df784bp-5
302=0x8.eaba0c31d47c8p-8
306=0x8.edaa80fd69ce8p-7
311=-0x8.ba21b5b421778p-17
313=-0x8.6768856f48e18p-13
316=0x9.78be61f337c98p-5
324=0xa.ea7f9901ddeep-12
325=-0xb.1b43eb588a1b8p-14
326=0xe.3cbc4f1c82p-6
327=0xa.bb1fb04ebcb38p-10
328=-0xf.a9c27aa239fep-7
329=0xc.2dc45b1a1761p-6
330=0xf.1b13cab6b54d8p-9
331=-0xb.485fa0d0f0d9p-7
334=-0xc.6dc4a020867d8p-8
335=0xd.378ecedac26ap-3
336=0xc.614d767fbf5fp-4
338=0x8.4ef5bf45581cp-18
340=0x9.63b7fc8cec218p-6
342=0xd.6e8bce0e7979p-7
344=0x8.4f4f2fd201f1p-4
345=0xf.8ffc71084b878p-12
346=0x8.2b574e336ee08p-7
347=0x8.936719972a058p-5
349=-0x9.72f8c2133f4fp-1
350=0xe.41c11e3bb5b7p-17
352=-0xe.c3c5b6e7f2028p-4
358=-0xa.a7a5644ec1c18p-5
361=0xd.6ffd935d7bcc8p-8
362=0xf.b35c3db7aba68p-6
363=0xa.058d1fce3e97p-11
364=-0xc.5fd69b2b4fddp-8
365=-0xa.182771c80ce18p-9
366=0xd.6d37efb303428p-8
367=-0x9.1a669dbf08d2p-6
369=0xc.85a365ea3be7p-19
370=-0xb.5263b08fd902p-8
373=-0xf.45b6e64d71d6p-20
374=-0xa.b1d1a5f7ce278p-16
376=0xc.3576bcc20c4fp-19
378=-0x9.517935ebcc598p-6
380=0xa.c4a865fe953e8p-16
381=0xa.b2a2c60960258p-7
382=0xc.366fc71c9a188p-14
383=0xf.9564283be134p-5
385=-0xb.affc8130e0e4p-11
386=-0xb.51783a1c523e8p-10
387=0x8.6aeb9ff81109p-13
388=-0xb.ef10160095ad8p-11
394=-0xf.2e201848d79ap-13
397=0x9.81315e41932ap-8
398=0x8.344dc959d1f7p-3
399=0xc.9838c1c3e288p-16
400=-0xd.6ed31a423d4f8p-9
401=0xa.14099d73ab3ep-5
403=-0x8.0843b28a039cp-6
406=0xf.17a9999242ap-7
410=-0x9.b5d2e97015c1p-12
414=-0xa.731fd168f4458p-11
417=0x8.1e9adfeb819bp-20
419=0xe.002151d087e28p-16
421=-0x8.8b9e1ce5c1488p-10
422=0x9.012a2b38583e8p-6
423=0xd.b0d571fd26c5p-23
424=0x8.acdb8db590cep-10
425=0x8.19da40781418p-3
433=-0xc.63777d2f45ddp-11
434=-0xc.5440032a16ecp-7
436=0xb.7cbfc3e8a2e3p-6
437=0x8.a665985328cap-5
438=0x9.65ca4b9a95afp-12
439=-0x9.a60c3e04cf4e8p-9
441=0xb.624c2b4a75318p-6
442=0xf.7e4762b96c2b8p-14
443=0x9.d207cb65882b8p-9
444=0xa.1da6c383cf36p-18
446=0x8.b60e644f181p-7
448=-0xa.7d3ac43a4549p-14
449=0xd.74e11ca24ecdp-4
450=-0xf.58d586d555afp-10
451=0x9.6363aa28276p-20
452=-0xa.7f0fe6b29ef8p-21
453=0xf.75cd5e8ac1858p-21
455=0xb.1e754bb2fe048p-11
457=-0xa.077a7d27c2888p-10
458=-0xf.467c61b1a368p-17
459=0xb.d0d62fe325c38p-14
460=-0xd.794711b370e98p-6
465=0xf.ac4c360ba1ecp-20
466=-0xe.8d244884c4a2p-13
468=0x9.aba76ec050708p-9
469=-0x9.7f815595865ep-7
470=0x8.0c19f6546e2c8p-7
471=0xb.ba187a0a79f5p-10
472=-0xb.b7d7cef15c02p-6
473=-0x9.b2c188ae3fe8p-9
474=0xb.f3b8edc0e732p-7
475=-0xc.37aed7c6c8ae8p-8
478=0xb.13c250f68e8dp-11
481=0xf.7c14e66bf0198p-6
482=-0xb.0427d3766458p-14
483=0xc.1ff26e5e76e2p-12
486=-0xb.dba2b4784dcd8p-10
488=0xa.3f0a98cc0ffep-7
489=0xb.0ee73855cdbcp-12
490=0xc.a5e02a788c2ep-14
491=-0xa.daa5c12f60c7p-10
492=0xe.a2a65c86dbff8p-8
493=-0x8.138fca438af08p-9
494=-0x8.82b4e73826478p-11
495=0xa.172a080f9b4ap-14
496=-0x9.9c55a19a96ecp-13
502=0xa.21f25a2552c1p-15
505=0xa.765fef1428eap-7
506=0xd.c49ba992c9bcp-5
507=-0x9.bef4c486f78c8p-13
508=-0xb.238e6bf71323p-6
509=-0xd.5bc3f328863bp-11
510=0xe.a809c14bd60b8p-5
511=-0xc.55aa91640182p-6
513=0xf.c80aa62d79388p-5
514=-0xf.e4c4cb08b378p-9
515=0x8.657bf7dea0afp-4
517=0xf.1ed21dc3b798p-4
518=0xe.840f15e2140ap-15
519=0x9.18499de0ce498p-6
522=-0xb.082bd6c82e098p-9
524=0xc.39bfe147e23b8p-7
525=0xe.a4ceb3fd62128p-4
526=0xa.77f1d8a53331p-6
527=0x8.27d3d0dde788p-9
528=0xc.29708ee4c12ep-9
529=-0x8.17c2547ca3d3p-9
530=-0xd.1f09cddc2471p-16
531=0xa.d7e934df3cc68p-14
532=-0xc.21331b3865368p-13
538=-0xf.7df24eadb483p-14
541=-0xc.69477c823405p-8
542=0xa.252be716491f8p-12
543=0xb.b48f283645178p-11
544=-0xf.f396c1309572p-7
545=-0xd.7bbee207a2bb8p-8
546=0xe.8c9eec42d19p-8
547=-0xa.87b5b0e85f2cp-6
549=0xe.d35da10ce6d88p-12
550=-0x9.3535ffe1b3fcp-15
551=0xd.1a1f5b3a47d58p-12
552=-0xa.869f77351f5ep-12
553=-0x9.ef04b10afa2bp-19
554=-0xf.5afb55dbd275p-14
555=0xb.b4b90530c3018p-13
558=-0xb.52776328d2bdp-10
560=0xd.bd01549d2be3p-8
561=0xb.7fbf3ff219ccp-12
562=0xc.67c2ce9eeeebp-14
563=-0xa.17f76f5612c38p-13
564=0xe.9d4c74d9c9748p-8
565=-0xe.cf8c3072eae4p-10
566=-0xf.daf7e75031068p-12
567=0x9.75349ef756d78p-9
568=-0xa.324a383bdfb3p-13
574=-0x9.0c22dea005338p-14
576=0x8.668b0b9620888p-10
577=-0xb.6acff216c7928p-6
578=0xe.7dd482137ba88p-5
579=0xf.59263f19b9808p-9
580=0xc.acca2ee519d98p-6
581=0xc.f1494573fd4dp-15
582=0x8.6c5f2150ca358p-7
583=-0x9.411927b7217a8p-6
585=-0xe.d143b83e09af8p-14
586=-0xf.cb155a01f909p-8
587=-0xd.4b2fbc24bd6fp-9
588=-0x9.a7647862d4ad8p-5
589=-0xf.33b1f8fa219b8p-11
590=-0x8.32456339bf25p-16
591=0xd.7595bba468c8p-13
592=0x8.4fa99a0042bbp-9
594=-0xe.402f98f494da8p-9
596=0xa.137fa2f774a9p-7
597=0xb.0ee01aa54be3p-12
598=0xc.9758505bc617p-14
600=0xe.a28c2da659b1p-8
601=-0x8.139217d087eb8p-9
602=-0xd.ec4e261fdbc48p-11
603=0xa.0c3e28a8135p-14
604=-0x8.10f72944a9b6p-11
610=0x9.962bfc71245cp-15
613=-0xe.995bd84d18a3p-18
614=0x8.df5cf2d975628p-20
616=-0x8.b1c2b9aa418f8p-9
619=-0xc.360be5b265008p-7
622=-0xf.1ff3620710fe8p-12
624=0xa.19a808040cf88p-9
625=0xc.56c1f0fe7cc08p-4
626=0x9.91b61663d84d8p-5
630=-0x9.4b8ef0fd1e9ap-10
634=0x8.d1d5369800cb8p-18
635=0x9.a57e1d657f6dp-10
637=-0x9.46ba34336f2a8p-16
639=0xa.79dbdc645659p-25
640=0x8.08b063e7fd78p-7
649=-0x9.c9e16727f369p-12
650=0xa.6e61258b64fcp-4
651=0xb.c99dc21d2c8p-11
652=0xf.a7cdbd0f71e9p-7
653=-0xd.578e9bf1e37bp-11
654=0xc.016fc446ac06p-9
655=-0x8.40eac4dc16ap-5
656=0xb.74ab052a264dp-3
657=0xc.7dadcfe5b537p-19
658=-0xc.33a6b7c798af8p-11
660=0xd.17b8e4db51abp-13
661=-0x8.8a513249f712p-19
662=-0x8.be1b022311f2p-13
664=0xb.9f166778995a8p-9
666=0x9.f00282f0e15b8p-9
668=0xd.af689163f9bdp-8
669=0x9.238625514909p-12
670=0xb.ac396206263bp-11
671=-0x8.d527a8b5766p-13
672=0xe.91c14e69bb92p-8
673=-0x9.880e211b259e8p-3
674=-0x8.e3ee60acc1d2p-13
675=0xa.f5076ca5d7498p-14
676=-0xa.7c3b86e9df82p-13
677=0x8.ccd0092eac258p-2
682=-0xc.320f0a547ae08p-15
685=-0xc.99226c186679p-8
686=0xf.8ace72e286cf8p-8
687=0xb.c767c451eaac8p-11
688=-0x9.e6ea5f97dcb38p-6
689=0xe.c14f3798ed378p-12
690=0x9.623209d684098p-8
691=0xd.3db2eb9ee91fp-5
693=0xc.7967aed9126ap-19
694=-0xe.304bcbf521a2p-9
696=0xf.5c104beddfp-14
697=-0xa.8da423e95d788p-19
698=-0x8.a61d676d21678p-15
700=0x8.c9572ced40a18p-8
702=0x9.2269ea0883c8p-13
704=0xd.a9d31139f86c8p-8
705=0xa.fe83451db784p-12
706=0xc.2e50a739410a8p-14
707=-0xa.27955c4068df8p-13
708=0xb.fe6eaa29b76c8p-9
709=-0xa.8e432650875ep-4
710=-0x9.80d547e55b7e8p-11
711=0x9.f213a88c3817p-14
712=-0x8.844d688d4cc4p-11
718=-0xd.41db55b654698p-15
721=0x8.7fe5834229578p-9
722=0xb.ec08e6b7ea67p-6
723=0xb.cd010825c4408p-11
724=0xf.384b8f3858cdp-6
725=-0xf.71ba711057c1p-10
726=0x9.0a5dfd2ee948p-8
727=0xe.57c06400d8658p-5
729=0xc.c05868f755d88p-19
730=-0x9.a6fff3f88594p-9
731=0x9.4564cc8cb314p-9
732=0xe.abc067b6bc9a8p-14
733=-0xa.cfb099155693p-19
734=-0xf.ebb9ba5d14e5p-13
735=0xe.0525e5fc885fp-14
736=0xf.74bfb4f327a1p-10
738=-0x8.61c70059b5e18p-14
740=0xe.12995366ca7cp-8
741=0xa.fe8e58a665698p-12
742=0xc.46b9a85821d6p-14
743=-0xa.0bc4dce0b7058p-13
744=0xb.feb5e991728f8p-9
745=-0xb.42944e54bbdc8p-9
746=-0x8.7109d3a02ac9p-11
747=0xa.06f47907dd378p-14
754=-0xc.695d58d050788p-6
757=-0xc.35202cde21acp-8
758=0xa.32ccaabd236a8p-4
759=0xf.7e8c1618608d8p-12
760=0xf.fbe89a844f9ap-7
761=-0xe.f6dccfbfe3508p-9
762=0xc.e0130b50cad48p-8
763=-0x9.981a454ac6698p-6
765=0x8.d599ef849ed8p-5
766=0x8.16bdb56d64a2p-12
767=0xa.07fceaf1e3928p-12
768=0xd.d68efa5a9558p-13
769=-0xa.642298e440acp-19
770=-0x8.1ce991fa40708p-9
771=0xa.00ec582e01c78p-14
772=0xc.c73e7c6e83098p-7
773=0x8.50f26ff58108p-7
774=-0x9.51bfee035237p-10
776=0xd.a9c17004c55p-8
777=0xa.fe9446d3593a8p-12
779=0xc.d309f233980c8p-17
780=0xb.9b8711ae70008p-9
781=-0xf.0c1989236c0b8p-10
782=-0xf.919cca6cf7cep-12
783=0xa.4161ddbaa8598p-14
790=-0xe.2a40f05f79568p-15
793=-0xc.81a1182307888p-6
794=-0xa.e296f8ed38088p-9
795=0xb.0958180fe9f5p-11
796=0xd.a4861d80558ap-6
797=0x8.268e36d606f88p-12
798=0xb.813b47c927168p-8
799=-0xb.5ac3e760660d8p-6
801=0xc.880fceb4ab3c8p-19
802=-0xd.164a7df08ab88p-9
803=0x8.1a23dd3f6e938p-8
804=0x8.648f4e877062p-14
805=-0x8.fde51f9e6497p-19
806=-0xa.e54f2f7ebf44p-13
810=0x8.92fe3da693b3p-8
812=0xe.aab9d31bda51p-15
813=0x9.695d8c1c39b58p-10
814=0xc.561c70f13fcbp-14
815=-0xe.ff55a6298ce2p-11
816=0xc.d6790c44af5b8p-10
817=-0xe.fa72d9f0138e8p-10
818=-0x9.efdeaf84c035p-10
819=0xa.088886d819c88p-14
820=-0xa.cad5fddfe693p-13
826=-0xa.ccfb4ae614dfp-12
829=-0xb.0b96978266348p-8
830=0xa.9c14952f1a608p-11
832=-0xe.40168d6bc42f8p-9
833=-0xb.26ac3261cd6fp-11
834=0xa.69ab6d4255fap-12
835=-0xe.189f0a8df1e28p-8
837=0xa.3fe3e653b365p-14
838=0xa.0b37b5b151ec8p-12
840=0xf.3f02f298e7dc8p-9
841=-0xc.331e11cbaa11p-20
842=-0xb.2eac8e1573bd8p-15
848=0xd.e5fd1073e573p-15
849=0x8.5dfa73493433p-11
851=0xf.4db597fe128cp-11
852=0xc.57d3815f745cp-10
853=-0xe.fafca5d3b399p-10
854=-0x9.2df4be0fc30d8p-11
855=0xa.0ed5c473c147p-14
856=-0xc.822da702ef16p-13
862=-0xe.1096d62ffca88p-10
865=-0xb.a57a04017382p-8
866=-0x8.db36f4eaf9dd8p-8
867=0xb.5e2a01618298p-11
868=-0xc.e0b418b85fb08p-7
869=-0xd.0969fb3f7a938p-8
870=0xf.4b0ad6fe133fp-10
871=-0xb.79f883a6eb94p-6
873=0xc.8199262cacffp-19
874=0xa.2bbdcee9583bp-13
876=0x8.c6cbea9b7b2ap-15
877=-0xb.c98d77d58cb28p-19
878=-0x8.4c7a64803cd08p-14
880=0xe.8d62b96dddbb8p-8
882=0x8.b7822b0367fcp-18
884=0xf.2fc4ec339f6a8p-15
885=0xa.27520ffa3907p-12
886=0xc.4175a0eb4879p-14
887=0xa.ecfb71083dba8p-11
888=0xb.4e492e623fd78p-10
889=-0xe.fb01447ee599p-10
890=-0xf.401808f052688p-11
891=0xa.087f5b123d4e8p-14
892=-0xa.f5dcd236ab2ep-13
898=-0xc.3bacf06720838p-11
901=-0xd.2133e1ff80938p-6
902=0xa.fdef1cfc23598p-9
903=0xc.e05fdbcebf46p-11
904=0xf.ae41f08d556ap-7
905=-0xd.381e2738a468p-8
906=0xf.fcb12f199b36p-8
907=-0xa.c71a0f6a2df3p-6
909=0xc.861fe4cf7369p-19
910=-0xb.771cee7de0478p-9
911=0xf.83b6092f3afd8p-9
912=0x9.9251de127eb58p-15
913=-0x8.ffadd088c2df8p-19
914=-0x9.8d9da13f36bc8p-13
918=0xe.78f31107c6418p-11
920=0xe.aab977235baap-15
921=0x9.5b5d47e58c9p-12
922=0xc.553fbd6dbbff8p-14
924=0xc.d44513ba352bp-10
925=-0xe.fa77749c9b478p-10
926=-0xa.4bb12f456c16p-10
927=0xa.071a60e73f4bp-14
928=-0x8.9d0c256a189cp-13
934=-0xa.ddf83d7deb67p-12
937=-0xd.6ec3ae9272ca8p-6
938=-0xf.df9ab9757f768p-12
939=0xd.f9a5754f2a3ep-9
940=0xb.a2710afac986p-9
941=0xc.a39f1d1b9096p-8
942=0xb.b5f7d4908a828p-7
943=0xe.76635085a32b8p-10
945=0xc.b0bb14ce7702p-19
946=0x9.9291c421c929p-9
947=0x9.3d2da95159ba8p-7
948=-0x8.e646bedff717p-14
949=-0x9.6499510f9a6ep-22
950=-0xb.51c042d7cb62p-11
952=0x9.2f1db2bdf86bp-10
954=-0xc.a2d039b0abd1p-12
956=0xe.a466fd995619p-15
957=0x9.a10e5f92c432p-21
959=-0xa.4fd475e00afp-6
960=0xe.7083bf5598a78p-10
961=-0xb.9bcf76042e28p-13
962=-0x9.cc531bdfca588p-9
963=0x8.47992955610fp-12
964=-0xd.8ce04bc397cep-8
970=-0x9.825676fe7553p-12
973=-0xb.9ec6488186018p-13
974=-0x9.1205fe31eb9ap-7
975=0x9.6db0072c9054p-10
976=-0xb.c235ecbe2ede8p-6
977=-0xa.f31abe5eeb2bp-9
978=0x8.5c5aa1241f1dp-9
979=-0xb.a91e52291375p-6
981=0xc.7ce671d6b206p-19
982=-0x8.f08d81f99146p-8
984=0x8.4a033486508dp-15
985=-0x9.b2df43ea9bfa8p-19
986=-0x8.dfb0711efc03p-14
987=0xe.bd887f5fd9aep-17
988=0x8.bd8c7940d727p-8
990=-0x9.8d36d7c00ac48p-10
992=0xf.33706392176ep-15
993=0x8.566b76e5d6a9p-12
994=0xc.36138a7bcb05p-14
995=0xc.1ad238658f0cp-12
996=0xc.9d098166c538p-10
997=-0xa.b233a834c22d8p-9
998=-0xb.958249320a47p-11
999=0xa.0a460b29476ep-14
1000=-0xf.daaca369c89dp-12
1006=-0x8.249fde082ab18p-11
1010=0xc.883fbfdc6d0bp-8
1011=0xb.ce8e50a4a49d8p-11
1012=-0xb.adb4b7ab5492p-6
1013=-0xa.9fd332ac29ff8p-8
1014=0xa.324b9cac82048p-8
1015=0xd.34d5df8025cd8p-5
1017=0xc.797994fdf9bfp-19
1018=-0x9.6e5a8e36c7408p-8
1020=0x8.54b2a2055579p-12
1021=-0x9.e66ab3d4e088p-19
1024=0xc.3b1d1e4d17e8p-9
1026=-0xa.2b2ad9feb929p-16
1028=0xf.0da104c36851p-15
1029=0xf.f14cd00565018p-12
1030=0xc.3413abab2d72p-14
1031=0xb.8931de9b81c68p-12
1032=0xc.cc9af6faa23ap-10
1033=-0xe.f389208699c2p-10
1034=-0xa.2afb9f7a153ap-11
1035=0xa.0712d33eea5ep-14
1036=-0x8.a17025605944p-13
1042=-0xc.54378291dfe28p-11
1045=-0xc.65875529d37dp-9
1046=0xd.a242f78e5bdc8p-13
1047=0xb.d62560a70b518p-11
1048=-0x8.b51c8a211cd48p-7
1049=-0xb.38dd749dcb138p-11
1050=0x9.d43903fca537p-8
1051=0xe.5bdc538ee6188p-5
1053=0xc.c12111026f44p-19
1054=-0x9.594d5e128596p-8
1055=0xc.075c644450b3p-8
1057=-0x9.e41cea5747e4p-19
1058=-0x8.e2054aa8fee6p-13
1060=0x9.dfb3c439add9p-10
1062=-0xc.6c6a0a2e82dap-17
1064=0xa.2b490f92586c8p-15
1065=0xf.f1541308100ap-12
1066=0xc.4c6a8af5cfdep-14
1067=0xb.a44d83dc29a8p-12
1068=0x9.e3ed2d266fdd8p-10
1069=-0xe.fb05df459d91p-10
1070=-0x8.02d41b24f0c6p-10
1071=0xa.070dd3df52d2p-14
1072=-0xf.af644fb96facp-16
1078=-0xa.bd06d77b52018p-6
1081=-0x8.195e5c6cc013p-9
1082=0xb.81eeab42ccd28p-7
1083=0x9.00308905cc118p-8
1084=0x9.4d44e108529c8p-5
1085=-0xe.e889ebfb55318p-8
1086=0xf.22b04866cc02p-8
1087=-0xa.b62ac7916e2ap-6
1089=0xc.7a1a44e3f2fdp-19
1090=-0xb.4fe830ebc413p-10
1092=0x9.47f1fee2aec88p-12
1093=-0x8.650e495715c6p-19
1096=0xc.0a5dfc5fae688p-9
1098=-0xc.624d7fc8f5388p-10
1100=0xf.0da73bfc87f8p-15
1101=0xf.f1631347979ep-12
1102=0xc.343224d1e9338p-14
1103=0xf.e833bbc63f7ep-14
1104=0x9.e3667a549f57p-10
1105=-0x8.baf505283abp-10
1106=-0xa.8c5ad7c3ef338p-11
1107=0xa.083374a8cde4p-14
1108=-0xc.2f3052a04138p-13
1114=-0xc.55326808ff9e8p-11
1117=0xc.ef97db0d37b88p-8
1118=0xa.1cf5d3f0c7cdp-4
1119=0xc.28eddcca04ad8p-10
1120=0xb.4085789ff3ed8p-6
1121=0x8.702069b318dap-10
1122=0xd.5bfd4c8525eb8p-9
1123=-0x9.5cc58f50cbdfp-5
1125=0xc.7ad5668fbad2p-19
1126=-0x8.3f649a7f02498p-8
1127=0xd.7e153258d0188p-5
1128=0x8.7568a844e6d6p-14
1129=-0x9.dae9cd2bf79a8p-22
1130=-0x8.1547a4ccf27a8p-13
1131=0xf.f7d2a21bc66a8p-14
1132=-0x8.0bc07c6aa9488p-6
1134=-0xc.29ca5f83c313p-4
1136=0x9.97abe7c23ea68p-7
1137=0xb.0fb3dd0225358p-12
1138=0xc.491c2fb41e89p-14
1139=-0xd.9bf67160505p-12
1140=0xc.0131e9c90e98p-9
1141=-0xf.85d94249e0818p-10
1142=-0xd.8dac2f926c86p-12
1143=0xa.07aef5016141p-14
1144=-0x8.87e64ecd47068p-11
1150=-0xd.3bf6ff79dc61p-14
1153=-0xa.234cb2c011a6p-10
1154=-0xb.1b6ec421b3acp-9
1155=0xa.10a00462780cp-10
1156=-0x8.11ffe2baac54p-7
1157=-0xa.417e955c73aa8p-12
1158=0xf.440644957d728p-14
1159=-0xc.a10069c6100d8p-6
1161=0xc.7b3df9f7be668p-19
1162=-0xc.46e4a17f4a7a8p-8
1163=0xf.80323e5c7bc1p-9
1164=0x8.909e489c7f07p-12
1165=-0x9.da7c325307fc8p-19
1166=-0x8.39414daab8f78p-13
1170=-0xb.f202983794b2p-16
1172=0xe.69b4f2b37329p-15
1173=0x8.bfea148f98518p-12
1174=0xc.3ad04d2f2ea2p-14
1175=-0xa.10a63cb5ec89p-7
1176=0x9.ea6d22bffa38p-10
1177=-0xe.fb05ded4e8d3p-10
1178=-0xd.5bb0764b8227p-11
1179=0xa.072686d6a51bp-14
1180=-0x8.9c3ad34ae7a48p-13
1186=-0xc.40f2ddb8feae8p-11
1190=0xa.31a08f4a346e8p-7
1191=0xb.c7075696efcb8p-11
1192=0xd.94a9bc40fc79p-7
1193=-0xd.47a334900757p-12
1194=0xf.89168e5351fc8p-10
1195=0xf.d824567185c98p-8
1197=0xd.7f10da3d2da4p-19
1198=-0xd.d74d714f18f7p-9
1200=0xf.54aa7b78415p-14
1201=-0xa.d2f6cee2173dp-19
1202=-0xf.eacc989e0e208p-13
1203=0xd.e1f82fb403b4p-14
1204=0xa.dd7d40d8ff018p-9
1206=-0xb.edd85994d78cp-10
1208=0xd.ac48c61867008p-8
1209=0xa.fe81fd70ec118p-12
1210=0xc.3228decc71d1p-14
1211=-0xa.2884c1cbf814p-13
1212=0xb.fe8ccb14ede68p-9
1213=-0x8.17c7446d1f718p-9
1214=-0x9.a2396be2b59ap-11
1215=0xa.08855a5f3c3a8p-14
1216=-0xd.6edc2fbda06p-12
1222=-0xa.81849a0a70ffp-14
1225=-0xc.6090ae224809p-9
1226=0xe.fbd47231dc7cp-9
1227=0xb.d2ea8f7bd2568p-11
1228=0xc.573da114e71fp-7
1229=-0xa.9b4f095b0b848p-9
1230=0xb.3ef6c233a5e2p-11
1231=0x9.2956349888cbp-9
1233=0xc.9b81f5831c7c8p-19
1234=-0x9.248437302a778p-8
1236=0x8.54c36a8904ff8p-12
1237=-0x9.e66917f9b31f8p-19
1238=-0x8.e20e03aff2dbp-13
1240=0xf.b125eb9081bf8p-9
1242=0xd.9a1ffc107737p-9
1244=0xf.0da2c0e86c4p-15
1245=0xf.f14cfdee404a8p-12
1246=0xc.3515255926e7p-14
1247=-0xa.354e2c3583f68p-13
1248=0x9.e36e725ac907p-10
1249=-0xe.fb05df45694cp-10
1250=-0xa.4015be01d6858p-11
1251=0xa.090168a30d7p-14
1252=-0x8.ca1f69d5baf98p-13
1258=-0xc.53808437f9ed8p-11
1260=0x8.76dbd12c7473p-11
1261=-0x8.b5adba3f5ee8p-5
1262=0xc.5c5a8ece44a9p-3
1263=0xf.3335bb0a76bfp-9
1264=-0xc.a88e23bacec7p-5
1265=-0xc.18ef930d2e95p-9
1266=0xa.ae5e91abcffe8p-6
1267=0xe.ad0779e6e77cp-4
1268=0xf.a15fbf86823d8p-7
1269=0xb.9f9cccc217b4p-14
1270=-0x9.4541860ab089p-8
1271=-0xa.00c065c19ce6p-9
1272=-0xa.8ab59e4da1978p-9
1273=0x9.5b989da76141p-5
1274=0x8.c9021a1bd34bp-8
1275=0xb.a5e98ecb21fa8p-3
1276=0xe.bf05439e97998p-7
1277=0x8.844d13d05e64p-4
1278=-0x8.c81d65840dc58p-9
1279=0x9.0d43a9f5a00e8p-5
1280=0xe.d195f85c50acp-5
1281=0xb.530d6dad870a8p-7
1282=0xd.d90049a9498e8p-9
1284=0x8.802b3981600ep-6
1285=-0xb.0c92e96bff0c8p-10
1286=-0xc.ced1c695fbep-7
1287=0xf.2b22cdaef721p-12
1288=-0xb.ef6858be3e478p-6
1289=-0x8.4a118c89ff6ep-11
1293=0x9.8ff1f3e753db8p-11
1294=-0xb.d4432ec14b4e8p-7
1296=0xc.1d6a729304798p-9
1302=0x8.0d37698e80b9p-4
1305=0xb.4eee0662da968p-11
1307=-0xd.675a946d95ecp-12
1332=0x8.765a8dfe2ebbp-11
1333=0xc.7dc5109df43p-8
1334=0xc.a690c3c94fe7p-7
1335=0x9.b09f081392c18p-8
1336=0xa.227e1b5aff0b8p-4
1337=-0x8.dc66faacd62p-10
1338=0xb.13f897dc79928p-6
1339=0xe.d7c0054e4cba8p-4
1340=0xa.68df764e8913p-7
1341=0xb.99da29084debp-14
1342=-0xe.7c694f608f15p-9
1343=0xd.06fc607ac4558p-7
1344=0x8.7b8565814c448p-6
1345=0xf.0e8f63576344p-10
1346=-0xd.2963c953752c8p-14
1347=0xd.26342c6820dfp-9
1348=0x9.b1f37bcec6998p-7
1349=0xc.74b4b74ae8c88p-8
1350=0x8.1502159a61ff8p-7
1351=0x8.fde60a2f4242p-6
1352=0xc.1be7a2c3bc948p-7
1353=0xf.90319a417fc18p-9
1354=0xd.d511ce2c91ccp-9
1355=0x8.d72901716056p-9
1356=0xb.9aeaf6ed0849p-7
1357=0xe.b2748ce7b0c08p-5
1358=-0x9.9e25eab1e0abp-7
1359=0xf.2a7381c62856p-12
1361=0xd.5d565572a18ap-8
1365=0x9.37920e37195c8p-11
1366=0xd.ea835598e1c5p-10
1368=0xd.afb648cbdee08p-4
1369=-0xb.d4873ad4c8p-9
1370=-0xa.a49f7c1cdb67p-2
1371=0xa.b5ec56ce5f56p-3
1372=0xb.d707814209bf8p-7
1373=-0xb.418881c17fbe8p-1
1374=0xa.45cc6696d7d68p-6
1375=-0x8.9ff089e7275dp-5
1377=0xe.c2046dc8f8d7p-5
1378=-0x8.f8583240d3ab8p-6
1380=-0xd.0226d105b7148p-10
1381=-0xa.516b50b0b64d8p-18
1382=-0x9.a78e7f3e95acp-6
1383=0xd.f11df3394868p-14
1384=0xb.9971279e4a0dp-2
1386=0xa.595ed6db2fap-14
1388=0xa.431058186d388p-7
1389=0xc.6b58046bac748p-18
1390=0xc.46e0a7ee6a83p-14
1391=-0x8.7b774d5335ac8p-4
1393=-0xa.b6f7497b8927p-3
1394=0xc.7637af9e24b58p-6
1395=0x8.e5e3198278eep-10
1396=-0x8.419bb60edafa8p-3
1402=-0xe.b8797eeb4b0fp-11
1404=0xc.1d6a729304798p-9
1410=0x8.0d37698e80b9p-4
1413=0xb.4eee0662da968p-11
1415=-0xd.675a946d95ecp-12
1441=0xd.f9616fad3744p-9
1442=-0xe.d403c947843cp-7
1444=0xd.98f3d8bdb8d2p-5
1445=0xd.ada3d059ca87p-6
1447=0xd.3ee86b791c258p-10
1450=-0xc.70d46199da098p-11
1454=-0xb.20529d0c1d6p-29
1455=0xf.0f22b18edb6cp-19
1458=-0xa.0143124c22388p-11
1463=-0xc.1006e624051ep-18
1467=0x8.b7d656e5f10cp-7
1468=-0xb.e09edd712ab1p-14
1473=0x9.ada6029d2e208p-11
1476=0xa.a969b527ca24p-13
1478=0x8.9498fc7116d6p-9
1479=0xa.72fc8674b4cfp-5
1480=-0x8.c42a7dc8e9e38p-7
1481=0x9.7abd5f93f34ep-10
1482=0x9.7b14a9d3d2cp-5
1483=-0xe.823d8aece075p-13
1484=0xa.3b56f4eed7bp-9
1485=0xc.d95220a768a38p-18
1486=-0xd.b516495e2db5p-9
1487=0xb.93ccbb9201c5p-7
1488=-0xa.3db8765b4a9ap-7
1490=-0xa.3af37b6b81d28p-13
1491=-0xf.ffb5fd3d164cp-5
1494=0x9.0ddb18e63165p-16
1495=0xf.2e0ec11603778p-19
1497=0xb.4b6ce3fb04bcp-20
1498=0xe.6c72287628828p-5
1499=-0xa.012a8ba5074cp-4
1501=-0xa.22aadb6389fd8p-6
1502=-0x9.3c92b54a46138p-11
1503=0xe.fe559852c4f78p-11
1504=-0xb.fee8aef1c5578p-6
1510=-0x8.118b006622cfp-9
1512=0x9.9fb6df67601cp-3
1513=0x8.e75e07f6b89dp-11
1514=-0x8.165a14463eb78p-6
1519=-0xd.deb54defd6618p-11
1522=0xb.5b5299fdc4dd8p-9
1524=0xb.a3774bf0e20b8p-10
1549=0xb.f277250b1eeep+0
1585=0xc.6c1d18d127b98p+0
1586=-0x8.3482eb29e5ap-11
1587=0xf.7f9de27bb61cp-4
1622=-0xe.6ba27709dfe08p-2
1624=-0xf.81134fa423dp-12
1625=0x9.6bf3333f45448p+0
1626=0x8.c2b091dcb4438p-4
1627=-0xa.b492ac35f4c4p-6
1631=0xc.b67ac0cefac5p-14
1633=0x8.cab808b668cbp-8
1635=0x8.de72ddc2baa5p-4
1636=0xd.99d0938992368p-5
1640=-0xc.1d013ad2b8588p-14
1642=0xb.5ca5482b83808p-12
1645=-0x9.3e5e2640d6368p-11
1647=-0xc.06bedad23b9p-17
1653=0xa.7c5f30aa12dfp-15
1660=0x9.12cd0797c4398p+0
1694=0xb.a6fa6a4d5e798p-8
1696=0x8.e407a0ebb398p+0
1730=-0xd.18e27cc972258p-3
1733=0xa.f9da11491b74p+0
1734=0x8.9c306c1cf0b58p-3
1735=-0xd.18211faa91f8p-13
1743=-0x9.ac52c88316668p-6
1744=0x9.d5862d82f17a8p-4
1745=0xc.cea5c60309dcp-3
1755=0xc.d331b94b8919p-22
1766=0x8.c080fb3173298p-5
1771=0xc.d73a660102e9p-1
1802=-0x8.46e659352b5dp-2
1807=0x9.0ab081d4f1328p-1
1838=0xa.256bd9c52d38p-4
1882=0xc.cb28b2ffc59bp+0
1910=0xc.804adc7e12a6p-18
1918=0xb.f5b5ba430fb2p+0
1946=0x9.d1510fe70d2ep-8
1956=0x9.e609394ded75p+0
1982=-0xb.6dd82746c1da8p-9
1992=0x9.b9069aa26c6ep+0
1995=0x8.7c245b8fb3a7p-13
2030=0xc.8960481df64cp+0
2054=0xd.4cf09263a3cf8p-5
2066=0xc.26c4bc4a014b8p+0
2113=0xd.e6c8cf43108ap-4
2132=0x9.da71f26cbc0fp-2
2142=0xa.7ed295ce206f8p+0
2184=0xb.5e505d7009388p+0
2198=-0xd.60c554da0056p-10
2204=0xd.09c87688f79f8p-3
2211=0xc.2c75150affe28p-5
2214=0xb.c317ca96706e8p+0
2258=0x9.a3c91ecac9dep+0
2270=-0xe.efae858d9614p-10
2289=0xf.bcc623cc715ep-2
2295=0x8.3b710d0e5001p-18
2325=0xf.3c17983c67c18p-1
2331=0xd.0346c7b85d7e8p-2
2363=0xb.bc9fc7f3d324p+0
2378=-0xf.7b7b6139ccc78p-5
2396=0xf.a3015f77ef9e8p-3
2399=0xa.dfa093f279c38p+0
2436=0xe.9d56527cf52dp-1
2450=-0x9.81a6e1a7c75f8p-13
2473=0x8.0031fad79b9bp+1
2510=0xb.9e4bb1bbd74d8p+0
2548=0xb.b03a9810a8998p+0
2558=0xc.4e085c207c18p-4
2584=0xc.d565b256a0658p+0
2770=0x8.a6145c2538c1p+0
2806=0xa.b8b79dc578e98p+0
2845=0xb.8059c6b9892dp-8
2846=0x8.40195d91f76cp-16
2848=-0x9.0544331c0af1p-6
2851=-0xe.37c44974ade88p-12
2854=-0xf.c9fe052e21228p-11
2856=0x9.7cf534dc98dcp-8
2862=-0xf.8ac9bd32124b8p-14
2867=-0xa.039eb3942ae48p-18
2869=-0xc.33aa0df0d3538p-19
2872=-0x8.af69d82df6ef8p-13
2878=0xf.5035f02d265b8p-11
2881=0x8.278b9948da35p-8
2884=0xd.19d4bc51f268p-18
2885=-0x9.4e81cc617833p-7
2887=-0xf.6bd1b1dc4b34p-13
2890=-0xc.703827e02a9ep-16
2895=0xa.4a31cafb87d8p-9
2901=0xb.a529014aaf79p-13
2908=-0xe.1e3593a87158p-14
2917=0xb.8059c6b98907p-8
2918=0x8.40195d91e954p-16
2920=-0x9.0544331c0af1p-6
2923=-0xe.37c44974ade88p-12
2926=-0xf.c9fe052e21228p-11
2928=0x9.7cf534dc98dcp-8
2934=-0xf.8ac9bd32124b8p-14
2939=-0xa.039eb3942ae48p-18
2941=-0xc.33aa0df0d3538p-19
2944=-0x8.af69d82df6ef8p-13
2950=0xf.5035f02d265b8p-11
2953=0x8.278b9948da35p-8
2956=0xd.19d4bc51f268p-18
2957=-0x9.4e81cc617833p-7
2959=-0xf.6bd1b1dc4b34p-13
2962=-0xc.703827e02a9ep-16
2967=0xa.4a31cafb87d8p-9
2973=0xb.a529014aaf79p-13
2980=-0xe.1e3593a87158p-14
2989=0xb.8059c6b98909p-8
2990=0x8.40195d91e954p-16
2992=-0x9.0544331c0af1p-6
2995=-0xe.37c44974ade88p-12
2998=-0xf.c9fe052e21228p-11
3000=0x9.7cf534dc98dcp-8
3006=-0xf.8ac9bd32124b8p-14
3011=-0xa.039eb3942ae48p-18
3013=-0xc.33aa0df0d3538p-19
3016=-0x8.af69d82df6ef8p-13
3022=0xf.5035f02d265b8p-11
3025=0xb.8059c6b9891cp-8
3026=0x8.40195d91eb8fp-16
3028=-0x9.0544331c0af1p-6
3031=-0xe.37c44974ade88p-12
3034=-0xf.c9fe052e21228p-11
3036=0x9.7cf534dc98dcp-8
3042=-0xf.8ac9bd32124b8p-14
3047=-0xa.039eb3942ae48p-18
3049=-0xc.33aa0df0d3538p-19
3052=-0x8.af69d82df6ef8p-13
3058=0xf.5035f02d265b8p-11
3061=0xb.8059c6b9891dp-8
3062=0x8.40195d91eb8fp-16
3064=-0x9.0544331c0af1p-6
3067=-0xe.37c44974ade88p-12
3070=-0xf.c9fe052e21228p-11
3072=0x9.7cf534dc98dcp-8
3078=-0xf.8ac9bd32124b8p-14
3083=-0xa.039eb3942ae48p-18
3085=-0xc.33aa0df0d3538p-19
3088=-0x8.af69d82df6ef8p-13
3094=0xf.5035f02d265b8p-11
3097=0xb.8059c6b98905p-8
3098=0x8.40195d91eb8fp-16
3100=-0x9.0544331c0af1p-6
3103=-0xe.37c44974ade88p-12
3106=-0xf.c9fe052e21228p-11
3108=0x9.7cf534dc98dcp-8
3114=-0xf.8ac9bd32124b8p-14
3119=-0xa.039eb3942ae48p-18
3121=-0xc.33aa0df0d3538p-19
3124=-0x8.af69d82df6ef8p-13
3130=0xf.5035f02d265b8p-11
3133=0xb.8059c6b98919p-8
3134=0x8.40195d91eb8fp-16
3136=-0x9.0544331c0af1p-6
3139=-0xe.37c44974ade88p-12
3142=-0xf.c9fe052e21228p-11
3144=0x9.7cf534dc98dcp-8
3150=-0xf.8ac9bd32124b8p-14
3155=-0xa.039eb3942ae48p-18
3157=-0xc.33aa0df0d3538p-19
3160=-0x8.af69d82df6ef8p-13
3166=0xf.5035f02d265b8p-11
3169=0xb.8059c6b98919p-8
3170=0x8.40195d91eb8fp-16
3172=-0x9.0544331c0af1p-6
3175=-0xe.37c44974ade88p-12
3178=-0xf.c9fe052e21228p-11
3180=0x9.7cf534dc98dcp-8
3186=-0xf.8ac9bd32124b8p-14
3191=-0xa.039eb3942ae48p-18
3193=-0xc.33aa0df0d3538p-19
3196=-0x8.af69d82df6ef8p-13
3202=0xf.5035f02d265b8p-11
3205=0xb.8059c6b98919p-8
3206=0x8.40195d91eb8fp-16
3208=-0x9.0544331c0af1p-6
3211=-0xe.37c44974ade88p-12
3214=-0xf.c9fe052e21228p-11
3216=0x9.7cf534dc98dcp-8
3222=-0xf.8ac9bd32124b8p-14
3227=-0xa.039eb3942ae48p-18
3229=-0xc.33aa0df0d3538p-19
3232=-0x8.af69d82df6ef8p-13
3238=0xf.5035f02d265b8p-11
3241=0xb.8059c6b98905p-8
3242=0x8.40195d91edc98p-16
3244=-0x9.0544331c0af1p-6
3247=-0xe.37c44974ade88p-12
3250=-0xf.c9fe052e21228p-11
3252=0x9.7cf534dc98dcp-8
3258=-0xf.8ac9bd32124b8p-14
3263=-0xa.039eb3942ae48p-18
3265=-0xc.33aa0df0d3538p-19
3268=-0x8.af69d82df6ef8p-13
3274=0xf.5035f02d265b8p-11
3277=0xd.ac47bb096682p-9
3278=0x8.0a0794f32298p-7
3279=0xb.d70238f2a515p-11
3280=-0xa.8e26ca51c0dcp-6
3281=-0x8.fe4c481b0533p-11
3282=0xb.e787877828c58p-12
3283=0xd.7567dc543726p-5
3286=-0x9.2727f5792eb8p-8
3287=0xc.b9c784ea53088p-10
3288=0x8.552395cf59e48p-12
3290=-0x8.e3405c316a76p-13
3292=0xe.82cab4df0e998p-11
3294=0xc.508d81f1985f8p-15
3296=0xa.53c0670bac65p-15
3297=0xf.f1ad10e6c0c78p-12
3298=0xd.6e8f16cd77518p-14
3299=-0xa.06a881eb3f818p-13
3300=0x9.e2a6349071ffp-10
3301=-0xe.fb05df1a84438p-10
3302=-0xa.8e556183bdcdp-11
3303=0xa.259792868256p-14
3304=-0x8.c8c5ae3e3f7ap-13
3310=-0xb.5da0374b04928p-15
3313=0x9.aabbb9cb1b778p-5
3314=0xe.cec3d67916d6p-6
3315=0x9.9d9de12c9e2f8p-6
3316=-0xf.e5b540f447038p-10
3317=-0x9.7de4787209b8p-6
3318=0xf.c88db5228499p-9
3319=-0x9.4492d9199773p-12
3322=0xb.e9e7675f88128p-8
3323=0x8.f17910c09bcdp-10
3324=0xe.1a3ab1fc34fa8p-17
3325=0x9.1b5ca3cfaad4p-6
3326=-0x8.3a6a3a50d5dap-13
3328=0x8.d8d9478d79078p-9
3330=0xf.779f994c864bp-11
3332=0xc.561717d475378p-7
3333=0x9.17a3a814889cp-20
3334=0xe.97b813cedf09p-14
3335=-0xe.a8ce80bca3288p-5
3336=0x8.beb4e7d63f488p-13
3337=-0xe.35bb746d3522p-4
3339=0xf.9fb467be6b14p-15
3340=0x8.fb4e0e9e7cfdp-8
3346=0x8.5d89a3e0bb1dp-16
3349=0xf.1d4971b6a1958p-6
3350=-0x9.6ac9577c177p-19
3351=0xa.58a62e7c1464p-17
3353=-0xe.081d7350ae7cp-12
3354=0xe.b5d1c17a46cp-18
3355=-0x8.d35259dc31908p-13
3358=0xf.f4932aaee347p-6
3359=0xc.622bc2b34381p-8
3360=-0x8.00fe12119d79p-20
3362=0xb.4460379653dp-14
3371=-0x9.23f42b8d1b0dp-20
3373=-0x9.54df6ccb3ba48p-13
3376=0xb.366780f6dabdp-12
3385=0xa.12b93cc51b18p-6
3386=-0x8.cae56dbb3f96p-8
3387=0xa.96b5c36b040d8p-8
3388=-0x9.681c865466858p-8
3389=0xc.b12cc1e7f4dap-6
3390=0xd.025177b0bec3p-10
3391=0xf.7169e22ef2a38p-6
3394=-0xb.42d69690c8dep-9
3395=0x8.f0f64973ffd8p-10
3396=0xe.cc2d8d1d3aba8p-14
3397=0xf.84e38af232ebp-17
3398=-0xa.13390c811555p-15
3399=0xe.2c581532e1eb8p-14
3400=0xc.c54b616f53ebp-10
3402=0xd.6c58629ae8168p-7
3404=0xd.dfbb74c0d8098p-8
3405=0x9.5714d346c3d7p-12
3406=0xd.6946fef425f6p-14
3407=0x9.c56aec3168cf8p-6
3409=0xd.27862c9a8fddp-3
3410=-0x9.3e7ad4a6f9e08p-11
3411=0xb.9407b4c8a7b8p-14
3412=0x8.9be39bfa9ba8p-4
3418=0xd.f7325bbf5bdp-4
3421=-0x9.0a3a61038322p-6
3422=0xc.65d2fdb9e272p-5
3423=0xb.0b3618e9a0588p-6
3424=-0xe.f1b5a1d035d6p-13
3425=-0xf.f0babcb642f3p-8
3426=0xd.82d862d0c9db8p-8
3427=-0xd.0c3f8282ef28p-8
3430=0x9.28a709a503188p-7
3431=0x8.f4c52aed8f28p-10
3433=0x9.1b558f901b07p-6
3436=0xb.739adb2bc1248p-9
3438=-0xf.70fd1ea420938p-17
3440=0x8.92007186e3ee8p-3
3441=0xb.5d00ce6d74b98p-20
3442=0xc.c1b93946f5f68p-6
3443=-0x8.bf77c12bb8a48p-5
3444=0x9.3a37d7421d0d8p-13
3445=-0xd.fa074f4e4b0b8p-10
3447=-0xa.ce9693e6cfcdp-11
3448=0x8.d6ab6a714e22p-7
3454=0x8.4369418bb532p-20
3457=-0xd.05a7feada5bap-7
3458=0xb.a37d99c3784fp-5
3459=0x8.10ce2dcf9698p-6
3460=-0xc.4a413227f1578p-8
3461=-0xa.ff7896f3574d8p-6
3462=0x8.384a53be4438p-5
3463=-0xf.b926a8e25cff8p-8
3466=-0x9.772be7959a968p-9
3467=-0xb.09d5092638fap-14
3468=0xa.6cee0b8c1c12p-17
3470=-0x8.3be8b7afe8f1p-14
3472=0xc.5e29783b09128p-5
3474=0xc.70ba908427808p-13
3476=0xc.52ee18eda2f88p-17
3477=0xa.e0b73686bc18p-19
3478=0xb.cc00f24ca0abp-6
3479=0x8.639e24976249p-17
3481=-0xa.6c245630b59bp-18
3482=-0x8.bc6142a21de6p-11
3484=-0xb.4c67b25845a18p-10
3490=0xe.5f112e9bec2f8p-15
3493=-0xc.544828e5f5ba8p-7
3494=0x8.edda7720db908p-4
3495=0x8.963f6a9e5cc38p-9
3496=-0x9.a1e2a29bd45p-9
3497=-0x8.f284f440aea8p-8
3498=0xd.1f018d66f80b8p-7
3499=-0xa.08ed1852b0a38p-7
3502=-0x9.dd3b932adb6bp-7
3503=0xf.8e8c7427560a8p-8
3504=-0xd.80049a298de98p-10
3505=-0x8.5a07419b3eb08p-10
3506=-0xe.6263371f78ff8p-3
3507=0x8.74acf5a5807ap-10
3508=0x8.d25bb4512d36p-6
3509=0xb.7e7ec70ff5338p-6
3510=-0xb.2c9794e32db3p-7
3512=0xe.d724fe44f047p-8
3513=0x9.664b21d3ae068p-12
3515=-0xd.4d1fcbecb387p-6
3516=0xe.834c5b5424ecp-8
3517=-0xa.fce33dfc1f838p-9
3518=-0xb.b71431adc603p-11
3519=0xe.c80d72c0e855p-17
3520=-0xb.12c9c6f1eb02p-9
3521=0xb.adff1cad697p-15
3526=0xe.dac217dfd329p-13
3530=0xa.d48a50f300bp-13
3532=0x8.f81f2114b4fep-11
3535=-0xe.48dd5ab669fcp-12
3556=-0x8.b1aeb54450eep-20
3568=0xf.015f344c94cdp-18
3571=0xa.0f946261552dp-12
3604=0x8.d7ff9d1ba1708p-5
3607=-0xc.682425d0e0dap-13
3637=-0xa.c475f658eceap-11
3638=0x9.ce409fccc67e8p-6
3639=0xa.9b3ef6398a5a8p-16
3640=0xf.8e55f72a55088p-9
3641=-0xe.319a5a8ebbb28p-6
3643=-0xd.17f687d19d958p-7
3646=-0xc.39ad49f3253cp-13
3648=0x9.7af3243f9017p-8
3650=0xf.cf32169b2273p-13
3651=0xb.bddf51795995p-10
3657=0x8.fefebad301d5p-18
3659=0xd.5ac9c944a971p-9
3661=-0x8.30f0d9d53af2p-10
3664=0xe.a77be7ae77e28p-17
3673=-0xa.73c3d3b7373b8p-9
3674=0xd.809dc77443abp-8
3675=0xb.e0bb8e7cf144p-11
3676=-0xd.7c8e670637fa8p-7
3677=-0x9.18a58ea6da0bp-12
3678=0xb.c73773857d35p-9
3679=0xc.842429b91d898p-7
3682=-0xb.0da2a97cac41p-8
3683=0x8.f01c20fbd9b78p-10
3684=0x8.aae3fea4c1eap-14
3685=0x8.3696c2c3768cp-13
3686=0xd.e2eec05333068p-14
3687=0xe.2adddfa0ebdbp-14
3688=0xe.6f3d3ac27d498p-9
3690=-0x9.e515a19debadp-4
3692=0xd.e001d82a3029p-8
3693=0xa.ff0d9bba9459p-12
3694=0xd.6e1fd1ae75768p-14
3695=0x9.3acbd7aae983p-14
3696=0xb.fec64969d886p-9
3697=-0x9.cd67e28561a5p-9
3698=-0x8.c5d308194fdb8p-11
3699=0xa.26a6fc24513ap-14
3700=-0x8.17fb4b271fdbp-11
3706=-0x8.dd797b11dcec8p-12
3709=-0xc.15fd05de88918p-13
3710=0xd.e8f07b0d62488p-7
3711=0xb.ddf8c7c6d5bap-11
3712=0xd.ae2399c33c828p-7
3713=-0xc.de3cf3769ec2p-12
3714=0x8.4e07f2c0b8bb8p-12
3715=0xa.3aaad91a7d78p-7
3718=-0x9.cfd7a7dde11dp-8
3719=0x8.e74a2cc1b1888p-11
3720=0xf.2f5109969dd78p-14
3721=0xa.bc8200f15a5ap-16
3722=-0xf.f78df32c9a58p-13
3723=0xe.2a153c2ec13ep-14
3724=0xc.0a65b9554ec5p-12
3726=-0xd.ff4d32489be78p-12
3728=0xd.dffda3b976718p-8
3729=0xa.ff02cf89ba5ep-12
3730=0xd.68dcd07d56eb8p-14
3731=-0x9.f8ea7eccb1f3p-13
3732=0xb.ff4ce90e6c8p-9
3733=-0x8.17c74469ea648p-9
3734=-0x9.77fbe0ccb595p-11
3735=0xa.26bc7cb345cep-14
3736=-0xd.b835379633c6p-12
3742=-0x9.29cd59daa0f58p-12
3745=0x8.6e81688532738p-6
3746=0xb.51f39643300b8p-5
3747=0xb.b874cc22b98bp-7
3748=0xe.988ec328d761p-5
3749=-0x8.aad13dfb77d08p-9
3750=0xe.cced177839518p-7
3751=0xe.6736025b26aap-4
3752=0xc.be83b3a4018e8p-6
3753=0xd.a1030aef4acd8p-17
3754=-0xf.3d27092cc146p-9
3755=0xa.04615f2092118p-5
3756=0xa.7f6e9022aeddp-15
3757=0xf.35d6847d74ab8p-5
3758=-0xc.4e64debae3adp-14
3759=0xc.cdd5a2a3a6adp-4
3760=0xd.ea2ca03f0a05p-6
3761=0xc.60897017e66ap-8
3762=0x9.948b8652ccaa8p-8
3763=0xa.7522457b8b5c8p-6
3764=0xd.944345f990b6p-5
3765=0xb.72a80152b18b8p-7
3766=0xc.d8b9f91c501cp-7
3767=0x9.3569a3036f0e8p-10
3768=0x8.a5c597ce81dbp-6
3769=-0xb.15bfe6586c72p-10
3770=-0xc.8818e1d2c41cp-7
3771=0xd.789e1f91fe9p-12
3772=-0xd.79e50f0bde248p-7
3773=-0x8.55e9b8b92813p-11
3777=0x8.39509c93b5ebp-2
3778=0xa.df101892ac91p-11
3781=0xb.8059c6b98903p-8
3782=0x8.40195d91ee0e8p-16
3784=-0x9.0544331c0af1p-6
3787=-0xe.37c44974ade88p-12
3790=-0xf.c9fe052e21228p-11
3792=0x9.7cf534dc98dcp-8
3798=-0xf.8ac9bd32124b8p-14
3803=-0xa.039eb3942ae48p-18
3805=-0xc.33aa0df0d3538p-19
3808=-0x8.af69d82df6ef8p-13
3814=0xf.5035f02d265b8p-11
3817=0x9.5794f852062dp-5
3818=0xf.5c9f5c7540edp-6
3820=-0xf.77d16bb923adp-6
3821=0xc.706dbbf38293p-13
3822=0xc.4ad62ddff1c48p-16
3823=0x8.894f054e6d398p-9
3824=0xf.2389ae385dc68p-7
3826=-0xf.a4242cde64fdp-10
3828=-0x8.62d3d5f40622p-9
3831=0xd.83942836119a8p-7
3834=0x9.06df0182e382p-13
3837=0x8.0b5019186a1ap-19
3839=0xd.f4bcdc36d1a6p-8
3841=-0x8.fcceebf8b1b3p-13
3842=-0xf.0e4f1769708dp-13
3843=0xe.22529daac771p-6
3844=-0xd.1c4dcfb7450b8p-12
3850=-0x8.693ae27da44ep-10
3853=-0x8.30410e200ae88p-10
3854=0x8.0a363d9679678p-3
3855=0xb.e60b5fa7360fp-10
3856=-0xd.a3bb181bd15d8p-6
3857=0xa.fc2f36ba9d3d8p-2
3858=0x8.fee9b3a20c198p-7
3859=-0xd.20c9c11b98fap-7
3862=-0xd.145a8f893ab88p-9
3863=-0xa.f0284deab8a4p-14
3866=0x8.9f9dc8b7f494p-16
3867=0xf.85c7c400b2728p-3
3868=0x8.7850f070be8a8p-4
3870=0xa.77494ea11e73p-8
3872=0xc.066a28e679a18p-17
3873=0xb.82715889dbdep-5
3874=0xb.7b2e9c638ba9p-10
3875=-0x8.1ce11eabe5dcp-5
3877=-0xb.b5eab3deefc7p-10
3878=-0x8.6274ed346325p-13
3880=-0xa.d9e9fac3fae5p-13
3886=-0x9.2882731c44b38p-12
3889=0x8.278b9948da39p-8
3892=0xd.19d4bc51f268p-18
3893=-0x9.4e81cc617833p-7
3895=-0xf.6bd1b1dc4b34p-13
3898=-0xc.703827e02a9ep-16
3903=0xa.4a31cafb87d8p-9
3909=0xb.a529014aaf79p-13
3916=-0xe.1e3593a87158p-14
3925=0xc.9e4858ac8487p-5
3929=-0xe.0a3afb22f8fcp-6
3931=-0xc.b27f4c1a39ee8p-7
3934=0xe.0a0406497f358p-11
3936=0xf.363aa3c0862f8p-6
3961=0xa.7986ad5154d1p-7
3997=0xa.7986ad5154d1p-7
4033=-0x9.e73277d525d78p-4
4034=0x9.a2a26c5800ccp-5
4035=0xe.3440f714a6368p-5
4036=-0xd.3c72b53383c38p-8
4037=-0xd.487399ba3c3f8p-8
4039=-0xa.80031ce4dff8p-11
4043=0xa.6853770106dbp-15
4048=0x8.f24db6f2c3abp-9
4052=0x9.230455dd74268p-16
4060=0x8.5a41862a2dep-6
4065=0xf.267a54e37b9ep-11
4066=0x8.8c863cb41696p-9
4069=0xc.0fadc9a2676fp-8
4070=-0x9.041129178a0b8p-15
4071=0xb.7b603ee850548p-14
4072=0xd.5b4e6da564488p-15
4073=-0x8.05d88240992d8p-9
4075=-0xe.92fe86c441a28p-17
4078=0xa.0516e54613c1p-14
4080=0xd.c3e43ad6be398p-12
4082=-0xb.c84478069b4bp-21
4087=0xa.da99bb4899468p-14
4088=0xd.80c58e94899bp-22
4089=0xa.ebdecaac1df5p-13
4091=0xf.08780ec6e45cp-4
4093=-0xd.a8d234bc7f2ep-18
4096=-0xf.4a6a574189958p-15
4105=0xa.7986ad5154d1p-7
4141=-0x9.e73277d525de8p-4
4142=0x9.a2a26c5800ccp-5
4143=0xe.3440f714a6368p-5
4144=-0xd.3c72b53383b78p-8
4145=-0xd.487399ba3c3f8p-8
4147=-0xa.80031ce4dff8p-11
4151=0xa.6853770106dbp-15
4156=0x8.f24db6f2c3abp-9
4160=0x9.230455dd74268p-16
4168=0x8.5a41862a2dep-6
4173=0xf.267a54e37b9ep-11
4174=0x8.8c863cb41696p-9
4177=0xc.0fadc9a2676fp-8
4178=-0x9.041129178a0b8p-15
4179=0xb.7b603ee850548p-14
4180=0xd.5b4e6da564488p-15
4181=-0x8.05d88240992d8p-9
4183=-0xe.92fe86c441a28p-17
4186=0xa.0516e54613c1p-14
4188=0xd.c3e43ad6be398p-12
4190=-0xb.c84478069b4bp-21
4195=0xa.da99bb4899468p-14
4196=0xd.80c58e94899bp-22
4197=0xa.ebdecaac1df5p-13
4199=0xf.08780ec6e45cp-4
4201=-0xd.a8d234bc7f2ep-18
4204=-0xf.4a6a574189958p-15
4213=-0xc.8c8cc547f889p-10
4214=0x8.2585109f519bp-7
4215=0xb.dfea9b564f69p-11
4216=-0xb.7a05046d0d568p-6
4217=-0xc.cbcb805322ec8p-13
4218=0xd.3638b7fa4925p-10
4219=0xe.bab6b99048338p-5
4220=0x9.56b94171d57bp-6
4222=-0xb.e372603b2b5f8p-8
4223=0x8.e7979dbb28ebp-11
4224=-0xe.803d0be97bfdp-11
4225=0xa.bda8b8df36c5p-16
4226=0xd.2b2e819d4dcfp-12
4227=0xe.22e81d9797018p-8
4228=0x8.c78415319aa18p-9
4230=-0xa.2d8f8bf9966dp-11
4232=0xd.dff974bbc1dbp-8
4233=0xa.ff262a5bafcep-12
4234=0xd.68bdaa7782e4p-14
4235=-0x9.9150c967d3d28p-13
4236=0xc.06860fd06c2fp-9
4237=-0x8.17c744a25e88p-9
4238=-0x9.c2b0023116cfp-11
4239=0xa.257e7a49a9868p-14
4240=-0xd.57379a7ddd7p-12
4241=0xa.94e169d95a9b8p-3
4246=0xe.ac7bfc4ec9468p-15
4248=0x8.92f499acc45d8p-6
4249=-0x9.0bf450368d32p-5
4250=0xb.847f03b9e515p-7
4251=0xf.87ef817ce59b8p-7
4252=0x9.4a73e7ec3dd88p-5
4253=-0xc.b7873699fb9p-5
4254=0xa.3b5a86c62d9e8p-6
4255=-0xa.cbc4b23f6001p-6
4256=0xa.ecbbf8c42ep-28
4257=0xa.708787d5bd8ep-19
4258=-0x8.720d5cf5bef1p-8
4259=0xa.61f7de02763ep-3
4260=-0x9.3d8e5af0c076p-6
4262=-0xe.848cd1ff5dd6p-15
4263=0xe.54bc3599b9008p-14
4264=0xc.d573a2e45eddp-7
4266=0xe.2c5cf99e89608p-12
4268=0xe.bc75424257d58p-5
4269=0xb.4eaac19ff734p-10
4270=0xe.4e6ad14caa12p-4
4271=0xb.5da026ac018f8p-11
4272=0x8.c9849636467d8p-12
4273=-0xc.28bdca56e42d8p-11
4274=-0xa.1e7ca51b18d98p-6
4275=0x8.3a512ab103dfp-17
4276=-0x9.4a6609ffba4dp-6
4282=0xc.648dc01363dc8p-14
4284=-0xb.2774026b8a378p-18
4286=0xa.39cad2f170b6p-19
4288=-0xd.7e9e6c7cf466p-19
4289=0xe.c44b994a75fp-8
4291=-0xa.28336a6309e28p-9
4295=0xd.39d5d2577bf3p-17
4303=0xa.f5e8ccb3b59a8p-14
4312=-0x9.3a54d0e8548fp-20
4322=0xe.927f732cc719p-5
4324=-0x8.94b83898fb988p-16
4325=0xa.4f369223f182p-8
4339=0xa.f8c3b076f589p-14
4356=-0xf.54a727fe1928p-19
4360=0xd.8907729253e8p-9
4363=-0xb.4397891ac3df8p-5
4365=0xe.6f7e0815b334p-15
4367=0x8.ec1f9b2720f08p-7
4375=0xb.afacda5982758p-14
4393=-0x9.e73277d525de8p-4
4394=0x9.a2a26c5800ccp-5
4395=0xe.3440f714a6368p-5
4396=-0xd.3c72b53383b78p-8
4397=-0xd.487399ba3c3f8p-8
4399=-0xa.80031ce4dff8p-11
4403=0xa.6853770106dbp-15
4408=0x8.f24db6f2c3abp-9
4412=0x9.230455dd74268p-16
4420=0x8.5a41862a2dep-6
4425=0xf.267a54e37b9ep-11
4426=0x8.8c863cb41696p-9
4429=-0x9.1b63839978dp-5
4430=0xb.3836883ac66ap-4
4431=-0xa.7e77bc62a79f8p-16
4432=-0xa.54ffee24728f8p-7
4433=0xb.dd45e352492e8p-4
4435=0xf.ad27be9c2a978p-11
4437=0xc.1fb2efe4d958p-9
4438=-0xd.dfd76a06c08b8p-9
4439=-0xb.e3c712fbfa4dp-8
4440=0xe.04dba222049bp-17
4441=0xe.3f976c73c4c9p-15
4442=0x8.760c5ae20272p-7
4444=0xa.0a11d5bfc04fp-5
4446=-0xe.677256ad423bp-7
4448=0x9.16d88b0df68d8p-18
4449=0xc.9489409a6484p-20
4450=0xb.d5cf64584a3ep-10
4451=-0x9.405ac1a527dc8p-6
4452=0xd.715e61e98be08p-10
4453=-0x8.b3a0b845a323p-10
4454=-0xd.54e98d28dd6bp-13
4455=-0xd.14a92aca206p-18
4456=0xb.0bdd3a724c6dp-12
4461=0x9.44b1c6433893p-14
4462=-0xe.1f1e930b26568p-12
4465=0x8.a653d45600dcp-4
4501=-0x9.cac3ec8867a2p-15
4502=0xc.7520f4f55bda8p-19
4503=0x8.c79d8bc584798p-6
4504=0x8.45f7658149f9p-8
4507=-0xa.e337407efbbp-11
4510=-0x9.3ad5ab3612bdp-6
4511=0x9.b9d820c4a6608p-10
4519=0x8.8fae02e1fcfap-13
4521=0xc.dd0174831fd2p-19
4523=-0xa.030b42e7a59e8p-18
4525=-0xa.399357336d61p-17
4526=-0x9.1d3d111b85a5p-20
4528=-0xa.4bb0eaa2c2bep-5
4534=0x8.a969037946188p-9
4537=-0x9.cac3ec8867a2p-15
4538=0xc.7520f4f55bda8p-19
4539=0x8.c79d8bc584798p-6
4540=0x8.45f7658149f9p-8
4543=-0xa.e337407efbbp-11
4546=-0x9.3ad5ab3612bdp-6
4547=0x9.b9d820c4a6608p-10
4555=0x8.8fae02e1fcfap-13
4557=0xc.dd0174831fd2p-19
4559=-0xa.030b42e7a59e8p-18
4561=-0xa.399357336d61p-17
4562=-0x9.1d3d111b85a5p-20
4564=-0xa.4bb0eaa2c2bep-5
4570=0x8.a969037946188p-9
4574=0xc.ad87bbad5c8p-8
4575=0x8.3303daf74ac18p-9
4576=-0xc.f22a54ff0d84p-8
4579=0xc.531af9bff4fep-10
4582=0xa.63f823759c48p-15
4586=0x8.542c1b162b72p-7
4588=0xc.f2fcfdde6cb8p-8
4590=-0xe.aca3f1309d208p-11
4592=0xd.3518432ae4e9p-17
4594=0x8.4063e1b64cfdp-8
4595=-0xa.eb76dced6a198p-15
4598=-0x8.fb7429cd38fap-12
4600=-0x8.9e19dde8c17fp-10
4606=-0xf.f185b7ee6b5ap-12
4610=0xd.de4d98925dc08p-18
4611=0xe.ab28a2a8ca1fp-17
4612=0xe.dca5b7faa95bp-14
4615=-0x8.2009181e7f33p-10
4618=0x8.b8bd0bc85888p-17
4619=0xe.ca20b149fc63p-20
4626=-0xa.dbdf02297d668p-19
4631=0x8.bb4f3d2bcc62p-11
4636=-0x9.bcf643a4657cp-13
4645=-0x9.4e9c0f7acb8c8p-7
4646=0x8.d7561beef7d08p-3
4648=0xa.06ad9857c205p-6
4649=0x9.a8e1c5963aecp-6
4650=0xc.938e6cb2f6f48p-16
4651=0x8.9edde6d2acf3p-8
4652=0xa.9ce8c7a62442p-8
4654=0x9.a2a8e8f4b98fp-14
4656=-0xd.9d4c483eed76p-6
4658=-0xb.b91186a2ad548p-4
4659=0xa.d04b170bcbd98p-16
4662=0xf.957f76a1fff88p-10
4665=0x9.d422e05b75a4p-20
4667=0x9.cda70f3957798p-7
4669=-0xf.6ee235b8a1ba8p-4
4670=-0xb.033af3936d908p-10
4671=0xe.66ddd8410c988p-3
4672=-0xc.45357c6ce2248p-10
4678=-0xb.7738b096aac28p-14
4681=-0x9.cac3ec88674ap-15
4682=0xc.7520f4f55bda8p-19
4683=0x8.c79d8bc584798p-6
4684=0x8.45f7658149f9p-8
4687=-0xa.e337407efbbp-11
4690=-0x9.3ad5ab3612bdp-6
4691=0x9.b9d820c4a6608p-10
4699=0x8.8fae02e1fcfap-13
4701=0xc.dd0174831fd2p-19
4703=-0xa.030b42e7a59e8p-18
4705=-0xa.399357336d61p-17
4706=-0x9.1d3d111b85a5p-20
4708=-0xa.4bb0eaa2c2bep-5
4714=0x8.a969037946188p-9
4717=0xa.d54bf056829p-5
4719=0xf.678b470d153b8p-6
4723=-0xa.157ef097efefp-7
4726=-0x8.8aff90516e328p-11
4728=0x8.519176bb0d618p-6
4753=-0xb.88ec2aa728098p-11
4754=-0xc.00940315c48ap-5
4755=0xb.26c54feaaf4p-12
4756=0xd.8f84daf4a3918p-12
4758=0xa.f1e8ee1ce548p-6
4759=-0xc.129ffce079ad8p-9
4762=-0x8.d1e191d34c3f8p-6
4764=0xf.2d2afca73f3f8p-9
4766=-0x9.18970a456e85p-20
4768=0x8.fe2a78a06d848p-11
4773=0x9.80e99f10bc83p-18
4775=-0xc.c4ba093c2128p-16
4777=-0x8.a6a73517d19e8p-18
4780=-0xf.69da6e3d8aff8p-14
4786=0xc.c91bcedebbe2p-10
4789=-0xb.88ec2aa728098p-11
4790=-0xc.00940315c496p-5
4791=0xb.26c54feaaf4p-12
4792=0xd.8f84daf4a3918p-12
4794=0xa.f1e8ee1ce548p-6
4795=-0xc.129ffce079ad8p-9
4798=-0x8.d1e191d34c3f8p-6
4800=0xf.2d2afca73f3f8p-9
4802=-0x9.18970a456e85p-20
4804=0x8.fe2a78a06d848p-11
4809=0x9.80e99f10bc83p-18
4811=-0xc.c4ba093c2128p-16
4813=-0x8.a6a73517d19e8p-18
4816=-0xf.69da6e3d8aff8p-14
4822=0xc.c91bcedebbe2p-10
4828=-0x9.dcc3c46a39d48p-10
4844=0xa.19bebb2ef786p-17
4880=0x8.a221792a572p-3
4896=-0xa.18ef6179c003p-21
4900=0xa.2c8ba48945bp-11
4905=0x8.9a7f390690c08p-19
4910=-0xc.e9cdd0fa9d2p-22
4924=-0xe.060a5efc633ep-18
4933=-0xc.69522d02dec4p-11
4935=0x8.f3d876158ec6p-5
4936=-0xd.a3784f574165p-11
4937=0x8.d08de46c1f208p-12
4938=0xd.732792f3ddp-6
4939=-0x8.34fe528d6f56p-12
4941=0x8.aa2952a501bap-13
4942=-0xa.016d7c747e998p-5
4945=0xa.6b7161a0f9648p-4
4946=0x8.e91242accd538p-11
4948=0xd.2d11ea99db11p-9
4950=0x8.4bf387e03702p-9
4952=0x9.bcb126a2f725p-6
4954=0xa.4867092e62698p-10
4955=-0xc.c6ceda5b5e3dp-13
4957=-0x8.9a91d8a2c34cp-11
4958=-0x9.8d1495b8479p-6
4960=-0x9.0aa188a568fb8p-10
4966=-0xa.eafaf809f2e28p-9
4969=-0xe.fa970876d8e98p-13
4970=0xe.690f663d00f8p-11
4972=0xd.ca4a6ccf761a8p-7
4973=-0xa.83a72837d177p-8
4975=0x9.efb4133996b1p-7
4978=-0x8.6b723f64ed08p-13
4980=0xc.33ba04f74631p-8
4982=-0xa.633cb41ae81bp-14
4983=0x9.df69bb13b5a3p-10
4989=0xd.42b8cb08bbc2p-3
4992=0x9.a11057151fafp-13
4993=-0x8.a030a6781f178p-10
4994=-0xb.978a6dc68634p-19
4996=0xc.f052f7ce404cp-12
5002=0x9.c47404cc0e19p-13
5007=-0x9.e32e8551792fp-10
5008=-0x8.575ccde5ec808p-11
5018=-0xc.1999336f9969p-20
5019=0xa.08bb4cc6e24cp-10
5022=0xc.228995ae92088p-10
5032=-0x9.934d85d3d9758p-19
5041=-0x9.09c78b66a26bp-13
5043=0x8.2a497e19ab028p-5
5044=0xe.b46b54e86f628p-11
5045=-0xc.0468a9c9e0b68p-4
5046=0xa.1b1a40191ad7p-6
5047=-0xb.43c6696a00f9p-8
5050=0x8.da10f887bb17p-17
5051=0x9.76ce75b86f13p-10
5052=0xc.d0531cc48ac58p-13
5053=0xc.10d794195b588p-4
5056=0xc.2a0e6df4820ap-12
5060=0xa.14938b9f3ebe8p-6
5062=0xa.8bdd7bdbbbf8p-10
5063=-0xb.f12cf530882f8p-10
5065=-0x8.9a4cab5079898p-11
5068=-0xa.144e6ff02f2d8p-13
5077=0x8.36f1007dfc3cp-9
5079=0x8.534a462d69bd8p-14
5081=0xe.9c2f0125c12cp-5
5083=-0x8.2a70e13b29828p-9
5086=-0x9.4a781c9898a1p-10
5113=-0xb.4e9bc31fc1958p-13
5115=0xa.e1ba47fff43bp-21
5116=0xe.0933beda6284p-5
5119=-0xa.1110e466586e8p-6
5122=-0xb.02e298cc6729p-10
5126=0xd.2f46ac40281e8p-17
5135=-0xc.b85c5883584d8p-19
5137=-0x8.95b42a546219p-18
5138=0x9.acd7a772323c8p-11
5139=0x9.d04e36930825p-15
5140=-0xa.0d15b9e8a624p-13
5150=-0xc.1737fc3edd7cp-19
5182=0xc.1feafd329c43p-11
5188=0xd.8d9dc212288c8p-7
5190=0xa.5d48faa3a1p-11
5191=0xa.b4833b4286cep-7
5195=-0xe.2fd787c4e3ddp-15
5196=-0x8.5b0ad06db4ac8p-8
5198=-0xa.4bf55b6ba9bp-18
5202=0x9.51b49de24087p-10
5218=0x9.a2672ab43ed4p-16
5221=-0xb.2206b600e2db8p-5
5222=0xa.ba441366762d8p-4
5224=0xe.c645d9738d7a8p-6
5225=0xb.ec1c0315511p-8
5227=-0xd.2c4417b102c58p-9
5230=-0x8.dbc6f8218147p-7
5234=-0xd.eb08909fed1dp-15
5235=0xc.f96332d924de8p-16
5237=0x8.8a053a4e8d95p-5
5238=-0xb.5baa99475d03p-10
5239=0x8.2086bdbfb2478p-13
5241=0x9.1b9991465b828p-20
5243=0xf.6471266c9ac4p-21
5244=0xa.d154019395098p-11
5245=0xc.2bf374145f1fp-4
5246=-0xb.1b17be2ae4118p-6
5247=0xb.c305cd41455a8p-16
5248=-0xa.980263b73f7ap-7
5249=0xb.8e972e0b74fp-5
5253=0xe.0b47b03a65278p-11
5254=0x8.eafaaebd28628p-5
5257=-0x9.8346c099be2d8p-3
5258=-0xe.e2fbbd7483618p-8
5260=0x9.f57644cb0145p-6
5261=0xe.0d018e068deap-4
5263=0xd.14f8c6b632f9p-10
5264=0xe.7600077f699c8p-5
5266=-0x8.d55291df95c8p-11
5268=-0xa.8081632f7f2a8p-10
5270=0xd.e4797918cc45p-17
5271=0xc.2598d4397f0bp-8
5274=-0xa.f59150e463dp-7
5277=0xb.26513f6cd0dc8p-19
5279=0xa.42822292e17ep-7
5282=-0xa.c2ca9457bb6a8p-10
5284=-0xb.ff323199ea1p-11
5290=-0xd.bb8a9c4305c08p-9
5293=-0xd.96a65bc62b6ep-13
5296=-0x8.79b6f4e25848p-8
5297=0xb.0340e1ee8e738p-4
5299=-0x9.75f9158b40388p-9
5302=-0x9.b9f57569d988p-9
5306=-0x8.d82897d41657p-16
5309=0xc.0a76062c4bdc8p-6
5311=0x8.cf6467e437168p-9
5317=-0xa.6139e4fb53ep-16
5318=-0x9.85c72c635d388p-20
5319=0xd.4468e54430f2p-6
5320=-0xf.85ebfb70d697p-6
5325=0xd.450d43997239p-6
5332=0xf.6fad4b470b49p-10
5335=0xb.5f41150b9cd28p-8
5342=-0x8.9fd8a6fe8107p-19
5343=0xb.872ffd2b79708p-6
5346=-0xf.65b97567bd0e8p-8
5351=0xf.bcdb7ae8f172p-19
5356=-0xc.8955eb440c628p-17
5367=0xe.b2ecb7e1e7e98p-5
5368=0xb.32f26585c84fp-8
5369=0x8.d4df36c91a36p-13
5371=-0xd.ececdf9cd4e1p-12
5401=-0x9.921309c93339p-14
5402=0xa.ffbbcba8c163p-7
5404=-0xa.695ed98d5509p-7
5405=-0x8.909e53a6ee618p-14
5407=0xe.79fa4ac91418p-9
5410=-0xd.d96e05313d02p-5
5414=-0xe.f325c5ab98968p-16
5418=-0xa.2550d7eea1fp-11
5423=0xc.50fd4630d03ap-21
5425=-0xd.73800b126585p-14
5427=0x8.25acdb3a8b6f8p-22
5428=0xb.00fb5e270dbe8p-14
5434=0x8.e81136cd791p-21
5437=-0xa.777eebbad8468p-14
5438=0xb.706383b92a1bp-4
5441=0xa.f257e9a8dep-9
5446=-0xf.87e92235b95fp-8
5450=-0xb.25894c9f870fp-18
5461=-0x8.9fb2b9347c71p-4
5464=0xb.7ee84e47e0cf8p-6
5470=0x8.4b666883f9c5p-9
5476=0xc.cde2b8d14881p-11
5479=-0xf.d3e5bea8335fp-12
5510=0x8.be1a8c4b9a0e8p-17
5511=0x8.4028fbaed2e08p-7
5512=0x8.ec40f8ae41ca8p-14
5515=-0x9.0e554917961ap-11
5522=0xe.8254f8b885448p-11
5524=0xd.5fb2d60051678p-14
5526=0x8.ce5b067d60dbp-17
5528=0xd.7902afb8e65fp-17
5530=0xe.618c76b880b28p-19
5531=-0xd.6505ac2d2e98p-14
5534=-0x8.8653f4667afdp-14
5536=-0xb.ed0847ae2f41p-14
5548=0xb.3d0b2c89ee7p-6
5572=-0xf.713b49b9a4cc8p-15
5584=-0xa.04b69f3dbec9p-5
5600=0xb.99436d8db4d18p-7
5620=0xa.af2dc14bc44fp-6
5621=0xd.d6b6576777a68p-18
5623=-0xf.ec9118ca181cp-11
5630=0xb.4fb2595e3bddp-8
5634=0x8.6a3c55da650ap-8
5639=-0x9.f20bd7d301ep-15
5642=-0xc.2d670c97fcd08p-14
5643=0xa.cdac13e66be9p-18
5644=-0xc.5ce903bf489bp-14
5655=0x8.b6b6ae1a678c8p-15
5656=0x9.f0712c67addb8p-5
5659=-0xf.489250ade99bp-16
5680=-0xb.6d3fa655391fp-14
5685=0xc.3c0639a26cd5p-11
5692=0xd.0948f71f41158p-11
5695=-0xc.7d498fc6ec928p-16
5698=0xa.9d5fbd2d16288p-15
5716=-0xf.003c9be3202ep-12
5721=0xe.4490419f897a8p-11
5726=-0x9.57463d60a678p-16
5728=0xe.26df0f7ad49e8p-6
5731=-0xc.88095fc36e09p-15
5734=0xd.3ed95363dec2p-14
5747=-0xb.59f992783acp-22
5752=-0x8.9dd344e5db188p-11
5762=0xe.65c9ae1b207a8p-10
5767=-0x9.ce48920aea65p-9
5798=-0xc.4aa59fd4b905p-18
5800=0x8.a0f6e5597beb8p-7
5801=0xa.0d93f30e77218p-6
5803=-0x8.a8213598b2f08p-11
5806=0xa.d7bb83fb2dfp-17
5819=-0x9.8dd212e8b506p-19
5822=-0xd.9335e775edf2p-21
5824=-0xc.90c9293a0d34p-13
5840=0xe.a5a759b57dc78p-6
5876=0xe.a5a759b57dc78p-6
5905=-0xf.deac4d454f94p-14
5906=-0xb.56006ccfb5988p-13
5908=-0xc.1634c357bc3p-12
5909=-0x9.99fe30ec4a948p-19
5918=-0xc.e5fc4c58e6c4p-17
5922=-0xe.a45023c8177dp-11
5925=0xd.327cc5671d0ep-19
5928=0xa.fcaada2305d4p-10
5929=-0x9.d9a4ed766a4c8p-8
5932=0xa.4e16491c61edp-12
5938=0x9.686acb2b5e01p-4
5942=0xa.b8bb4802df1f8p-5
5944=0xd.9a414b8fe9658p-10
5947=0x8.c755b9f02e34p-7
5950=0xa.98852db5c1fp-14
5952=0xb.499da07729bfp-17
5961=0xc.203aa081d61a8p-19
5963=0xb.f389ac4561dep-12
5968=-0xb.e88094d5fa978p-14
5980=-0x8.f982fd9ad7ap-10
5981=0xe.041dfec51377p-4
5983=-0xa.582bf30be4bcp-15
5990=-0x8.e3c7f592c63cp-16
5991=0xa.4196d12ae63bp-10
5997=0xc.9e048a0f0a498p-19
6000=0xe.58f36da36a2d8p-7
6001=-0x8.846ed951e4d78p-10
6004=0x9.ae5f3522bb378p-12
6016=0xa.d548e945961e8p-6
6017=-0x8.2261d7cce2a3p-4
6019=0x8.82de62ac09cc8p-12
6022=0x9.8dafc954ceb58p-10
6032=0xc.9d195cb42a96p-17
6038=-0xe.e5e1e29291898p-15
6039=0xc.d08679fd48008p-19
6040=-0xc.b6faa02a5573p-11
6050=-0xe.137911bb0d1fp-11
6052=0x9.120bac01bc93p-13
6053=0xb.03e87af313a18p-11
6062=0xe.c8c42884b4f58p-20
6086=-0xe.137911bb0d1fp-11
6088=0x9.120bac01bc93p-13
6089=0xb.03e87af313a18p-11
6098=0xe.c8c42884b4f58p-20
6135=-0xd.bdba79f3c03ep-11
6145=0xa.542ac64aad948p-4
6147=0xd.1609c56b7d138p-15
6148=0xa.daf7dc7978a28p-18
6160=-0xd.2a021775cd6f8p-12
6161=0xf.fb4f30bbeb628p-8
6166=-0x8.b0a0b982da64p-8
6167=-0x9.91bcbe53210ep-17
6170=-0xc.99e566d8dcb9p-17
6175=0x8.0162b3bf06ff8p-3
6177=0xe.047cf91352f8p-19
6180=0xb.35b0984c7db1p-10
6181=-0xc.7c6ccbf9a6138p-13
6182=-0x9.b4f24dcdf596p-19
6183=0xf.16395e83f7fcp-19
6184=0x8.e8fa1a8a4b3d8p-12
6189=0xa.29b5ac47aa2dp-6
6190=0xa.0fc993ec00df8p-11
6196=-0x8.9a70fdd57a288p-5
6197=-0x8.60dd3c9c5302p-23
6200=0x9.6c2a80464739p-2
6206=-0x9.14f1aae1dae5p-16
6207=0xb.a61482aa28eap-13
6209=0x8.c8053d9bf8a88p-4
6210=-0x9.229155ff56798p-3
6216=0x8.2354398c25128p-13
6217=-0xb.d9fe42d850eep-13
6219=0xa.4976f95e810f8p-14
6220=0x9.1c15d4d5b99fp-5
6221=0xd.9f09c941ef668p-3
6230=0x8.aa300e6239858p-16
6232=0xb.cf1b8c8a2a188p-8
6233=-0xf.ab278a2e4a708p-21
6235=0x8.490aaf4d3e03p-11
6238=0xc.89dfb15fa3c78p-10
6248=0xc.94091944457d8p-17
6254=-0xf.9718e67fa08b8p-15
6255=0xc.01be4e18bd66p-19
6256=-0x9.28d57a6962438p-11
6266=0x8.b2eca77acb5f8p-7
6293=0xd.29f572355f86p-5
6302=0x8.b2eca77acb5f8p-7
6329=0xd.29f572355f86p-5
6346=0xd.bcf823eefc8ep-20
6374=0x9.6258e2b3966ap-8
6376=0xd.abb20253faea8p-17
6377=-0xb.4122702220d1p-6
6379=0xe.96b38ff7d55cp-7
6386=-0xa.df0e45a0c0208p-18
6396=0xf.98136db7bd54p-12
6397=-0xd.5902e9033dbe8p-14
6400=0xd.7fc4e5f11144p-13
6418=0xa.a70f8131126p-20
6436=-0xb.2fd982f510988p-17
6437=0xd.29f571bd101d8p-5
6446=-0xa.9b615a4dc676p-15
6449=0x8.82b2cebbb09bp-9
6482=-0xa.9b615a4dc676p-15
6485=0x8.82b2cebbb09bp-9
6520=0x9.ddccb75dce6p-16
6527=0xa.7012a2b2e42b8p-11
6554=-0xb.0c6487fc9c228p-15
6557=0xa.acae606b79cd8p-8
6562=0xe.b0b63ea4e2ce8p-17
6580=-0xa.ed33590a64a68p-17
6590=-0x8.f50bfe0d6f0a8p-7
6592=0x9.b650eb1788dc8p-9
6593=0xe.bfe028dc282a8p-11
6595=-0xd.2c8273f0bbcb8p-8
6598=-0x9.ce959c7f87d68p-7
6611=-0xe.2e0d386293a5p-19
6616=0xe.7e0f22d659e5p-6
6628=0xc.9c6f630f9555p-15
6634=-0xc.89d306ad557a8p-13
6664=0xc.9c6f630f9555p-15
6670=-0xc.89d306ad557a8p-13
6700=0xc.9c6f630f9555p-15
6706=-0xc.89d306ad557a8p-13
6736=0xc.9c6f630f9555p-15
6742=-0xc.89d306ad557a8p-13
6772=0xc.9c6f630f9555p-15
6778=-0xc.89d306ad557a8p-13
6808=0xc.9c6f630f9555p-15
6814=-0xc.89d306ad557a8p-13
6844=0xc.9c6f630f9555p-15
6850=-0xc.89d306ad557a8p-13
6880=0xc.9c6f630f9555p-15
6886=-0xc.89d306ad557a8p-13
6916=0xc.9c6f630f9555p-15
6922=-0xc.89d306ad557a8p-13
6952=0xc.9c6f630f9555p-15
6958=-0xc.89d306ad557a8p-13
6986=-0xf.e38b2095721c8p-12
6987=0xd.283b687ccd0d8p-12
6988=0x9.a9faa8cec4c5p-7
6990=0xc.24104835f929p-5
6991=0xa.751a981f2154p-7
6994=-0xb.2a7b2d5375f58p-11
6995=0xc.29be4c34d4fep-22
6998=-0xd.4415278d6498p-21
7000=0xa.7319e1f4e40ap-15
7002=-0xc.9a1e96dd3a13p-6
7007=-0xe.578a82226648p-12
7010=-0xe.4db334cb19d5p-13
7012=-0x8.f605d33524e08p-13
7018=0xe.5fd04069e894p-22
7022=0xb.de71fc62febbp-11
7024=0xb.e45484359ad28p-5
7025=0xe.82382d765d54p-6
7058=0xe.3f996402c679p-9
7060=-0xf.67349cff42a08p-9
7061=-0xb.7a0bde9987ad8p-15
7063=-0xe.565720efe2a98p-14
7066=0xd.5dbd32423c7d8p-11
7070=-0xd.3b3ff3e85313p-19
7078=0x8.03c6a0b797b38p-6
7079=0x9.0a456d0ef0bcp-18
7084=-0xf.c67831f773afp-14
7096=0xb.6b672eb2efd2p-7
7097=0xd.d294d0b29f4p-13
7099=-0x8.699868672c1c8p-11
7120=0xf.283bc22347f4p-7
7131=0x8.6d8c376526cdp-8
7132=0xd.8f1613b264d48p-13
7134=0x8.707520a19e8a8p-6
7135=-0xf.af378cb2ffbbp-16
7138=-0xa.ab58b265d931p-12
7139=0xc.c825ec7251728p-7
7144=0xe.92a7739ec4448p-5
7167=0xa.16b4fb757f0a8p-13
7203=0x8.6d8c376526cdp-8
7204=0xd.8f1613b264d48p-13
7206=0x8.707520a19e8a8p-6
7207=-0xf.af378cb2ffbbp-16
7210=-0xa.ab58b265d931p-12
7211=0xc.c825ec7251728p-7
7216=0xe.92a7739ec4448p-5
7239=0xa.1212b4a29375p-13
7275=0x8.433408b082518p-12
7276=-0xe.76da07ad6049p-15
7283=0xb.1750d94352fc8p-4
7299=0xb.819ddd7c7e2p-21
7300=-0x8.b5d846833b3e8p-14
7311=0xa.16b4fb757f0a8p-13
7347=0xa.16b4fb757f0a8p-13
7383=0xa.16b4fb757f0a8p-13
7419=0xb.cad5bb6cbfd3p-5
7455=0xa.16b4fb757f0a8p-13
7491=0xa.16b4fb757f0a8p-13
7527=0xa.16b4fb757f0a8p-13
7561=-0xd.c5784598a905p-5
7562=0x8.3e7e176b66e78p-3
7563=0x9.8a19e66e0069p-5
7564=0x9.a5b5310869c3p-5
7565=0x9.71dbbf1c80b6p-4
7567=0xe.533ef7abbf36p-6
7570=-0xa.a28e278e6933p-13
7574=-0xb.994fb2d3c1118p-20
7578=0xf.a6c2418ba0f88p-11
7583=-0xf.f4c2b36cf13fp-13
7586=-0x8.5145a1667ba18p-11
7588=-0x8.ff8db5501e01p-13
7594=0x9.1dddadf46fd2p-21
7599=0xa.283c0c59bff5p-20
7600=0xd.d4b127bf9867p-13
7601=-0x9.ed5eefbb33b8p-18
7602=0x9.3c6cb0dabe84p-9
7603=-0xf.b0fa11814293p-16
7607=0xd.04992fa7c0ba8p-3
7612=0xb.89c693f4811b8p-11
7624=-0x9.f8e5d651ac68p-22
7636=-0x8.cfc27221cc97p-11
7639=-0x9.ee0860a74a9fp-12
7642=0xb.1fb235b6c9968p-11
7644=0xd.ea2c31ae406c8p-13
7646=-0xa.fa0943db4d3p-17
7650=0xf.905104b2bb55p-14
7654=0x9.96ba3c757da28p-9
7655=0xd.8bd1e87c5bd08p-19
7660=-0x8.5b5f129ef9a2p-13
7670=0x9.3b0b4addb2c1p-6
7672=0xb.929044ad7daa8p-19
7675=-0xd.469a072ec719p-14
7708=0xb.4001bd9f986d8p-14
7742=0x9.3b0b4addb2c1p-6
7744=0xb.929044ad7daa8p-19
7747=-0xd.469a072ec719p-14
7780=0x9.2f56d024e4ad8p-9
7814=0x9.0624906b558bp-5
7816=0x9.2ee130bc13068p-19
7822=0xf.d25c580530a8p-20
7840=-0xc.b0c7720cd30fp-18
7852=0xb.2a84b2f2ec6cp-14
7888=-0xc.9a313733298p-7
7891=0xf.11474c76263f8p-9
7892=0xd.1fa62b21b4148p-7
7894=0xe.3915b8c2b88p-25
7899=0xc.a1d64b6fc77ap-7
7902=-0xe.94a6757a25de8p-8
7906=0x8.3b2ff512607fp-16
7907=-0x9.81598aa20aafp-19
7912=-0xa.7b8a2df6634ep-17
7924=0xb.2a84b2f2ec6cp-14
7960=-0xc.9a313733298p-7
7963=0xf.11474c76263f8p-9
7964=0xd.1fa62b21b4148p-7
7966=0xe.3915b8c2b88p-25
7971=0xc.a1d64b6fc77ap-7
7974=-0xe.94a6757a25de8p-8
7978=0x8.3b2ff512607fp-16
7979=-0x9.81598aa20aafp-19
7984=-0xa.7b8a2df6634ep-17
7994=0xb.5740dc21885ap-10
7996=-0xb.6f6494df28d88p-11
7997=0xb.c07528cd7089p-10
7999=-0xa.4fc1079ed21c8p-7
8002=-0x9.5c25cf16957e8p-5
8006=-0xa.47d2f7f938c3p-13
8011=0xa.e1b358f7db5c8p-16
8013=0x9.b4e7b78974d4p-6
8018=-0xb.3b79e22e39a3p-15
8020=-0xc.8078ba52e52dp-14
8030=0xf.231522d6b967p-19
8032=0xe.ab78a22cd81cp-15
8035=0xa.d78c1d762085p-12
8038=0xe.587b39e597d28p-9
8051=-0xd.7eacd9eae6b8p-18
8056=-0xa.ded087745b67p-18
8068=0xb.92d90f0c33ffp-9
8071=0xd.548232649577p-9
8074=0xb.606d9e584a2ep-20
8078=0x9.b56c9b41407a8p-8
8079=-0x8.a2630c5e4c7bp-9
8082=-0x8.8bc05aa8ad82p-11
8086=0xb.6b46bb170dba8p-6
8087=0xc.7e4a1772eeep-22
8089=0xe.cbad3e2007928p-6
8092=-0xb.64d6471ac6c28p-17
8104=0xb.92d90f0c33ffp-9
8107=0xd.548232649573p-9
8110=0xb.606d9e584a2ep-20
8114=0x9.b56c9b41407a8p-8
8115=-0x8.a2630c5e4c7bp-9
8118=-0x8.8bc05aa8ad82p-11
8122=0xb.6b46bb170dba8p-6
8123=0xc.7e4a1772eeep-22
8125=0xe.cbad3e2007928p-6
8128=-0xb.64d6471ac6c28p-17
8138=0x9.aeb5a1a63dd88p-6
8174=-0xb.17fb9860a5a38p-13
8176=-0xd.76481823591fp-13
8177=0xb.a4f9f52799b9p-7
8179=-0xe.69626cfb99a78p-8
8186=0xd.0626e6c15b298p-10
8190=-0xf.dfca4647d7278p-15
8191=0x8.c46bbfb230bep-17
8193=0xd.9252da6c9eeap-5
8198=-0x8.58cc24c017bb8p-18
8200=-0xb.af33ade783498p-14
8213=-0xe.c5c47183943ap-9
8215=-0x8.b94e59119e358p-9
8219=-0xb.f6116b48b41f8p-9
8224=0xe.dd943f6b59c88p-9
8231=0xc.ac29d5532b81p-7
8236=-0xb.97dd189132dp-20
8249=-0xe.c5c47183943ap-9
8251=-0x8.b94e59119e358p-9
8255=-0xb.f6116b48b41f8p-9
8260=0xe.dd943f6b59c88p-9
8267=0xc.ac29d5532b81p-7
8272=-0xb.97dd189132dp-20
8284=0xc.09c41936efd1p-13
8320=0xc.09c41936efd1p-13
8363=0xd.7116d3350009p-3
8393=-0xe.c5c47183943ap-9
8395=-0x8.b94e59119e358p-9
8399=-0xb.f6116b48b41f8p-9
8404=0xe.dd943f6b59c88p-9
8411=0xc.ac29d5532b81p-7
8416=-0xb.97dd189132dp-20
8424=0xb.3facab89f50d8p-14
8426=0x8.a18bd19ad9ad8p-11
8430=0xd.34083a4ef8968p-7
8431=-0x8.a4e9171a7028p-12
8437=0xf.bea8f5d83f53p-18
8438=-0xa.2aab9c7c46968p-7
8439=-0xa.a3df4d89c148p-8
8444=-0x8.162df9ecf911p-14
8447=0xf.5d2c81f6684d8p-6
8449=0xf.9a1316aeb27bp-9
8452=-0x8.dd19a34ffc7dp-18
8460=0xb.3facab89f50d8p-14
8462=0x8.a18bd19ad9ad8p-11
8466=0xd.34083a4ef8968p-7
8467=-0x8.a4e9171a7028p-12
8473=0xf.bea8f5d83f53p-18
8474=-0xa.2aab9c7c46968p-7
8475=-0xa.a3df4d89c148p-8
8480=-0x8.162df9ecf911p-14
8483=0xf.5d2c81f6684d8p-6
8485=0xf.9a1316aeb27bp-9
8488=-0x8.dd19a34ffc7dp-18
8496=-0xb.004a014005668p-18
8500=0xc.f26fbe2a4a938p-12
8508=0xe.567c1e5886508p-15
8524=-0xc.020a8005f332p-20
8532=-0xd.871bbc19b871p-18
8536=0x9.a162589849p-11
8538=0xa.0d131219cea6p-6
8541=0xa.f67fb0d64de48p-15
8568=-0xd.86ebeb07876fp-18
8577=0xa.f3e5c2ca6e4d8p-15
8606=0xd.02aab388d69d8p-4
8616=-0x8.2512070f6e5ep-7
8640=0xb.3facab89f50d8p-14
8642=0x8.a18bd19ad9ad8p-11
8646=0xd.34083a4ef8968p-7
8647=-0x8.a4e9171a6fd78p-12
8653=0xf.bea8f5d83f53p-18
8654=-0xa.2aab9c7c488ap-7
8655=-0xa.a3df4d89c148p-8
8660=-0x8.162df9ecf911p-14
8663=0xf.5d2c81f6684d8p-6
8665=0xf.9a1316aeb27bp-9
8668=-0x8.dd19a34ffc7dp-18
8677=-0x8.6ee4cba6883f8p-14
8678=0xd.c5264a36088b8p-10
8680=-0xb.085bbacb28ebp-12
8681=-0xa.be61238f74028p-8
8682=0xb.8b06bb2a683dp-21
8683=0xb.aae2fe93e6728p-9
8684=0x8.c5ce062289df8p-6
8686=0xb.ebeb14a0df108p-16
8688=-0xf.58a797da986p-8
8690=0xb.562128a21a3ep-13
8692=0x8.4cb47b00254p-24
8694=-0x9.5dcf026c29bbp-11
8696=-0xe.374510edd2e3p-10
8697=0x8.098055cf2af4p-14
8699=0x8.bcb3846a60478p-7
8701=-0xa.922cf53e9aacp-13
8702=0xb.fc306f39e73e8p-5
8703=0x9.3b77b01066628p-14
8704=-0xf.9a76979b95cep-10
8713=0x8.0aa8d3554ff28p-19
8714=0x8.f39b279ac0c3p-6
8717=-0xc.414b74ece6448p-15
8722=0x9.f25ac8d6e96cp-18
8726=0xa.1f5057a0f1b88p-10
8735=0x9.71fe3972688bp-15
8740=-0x9.cd9e823eba2p-15
8749=0x8.0aa8d3554ff28p-19
8750=0x8.f39b279ac0c3p-6
8753=-0xc.414b74ece6448p-15
8758=0x9.f25ac8d6e96cp-18
8762=0xa.1f5057a0f1b88p-10
8771=0x9.71fe3972688bp-15
8776=-0x9.cd9e823eba2p-15
8785=0x8.0aa8d3554ff28p-19
8786=0x8.f39b279ac0c3p-6
8789=-0xc.414b74ece6448p-15
8794=0x9.f25ac8d6e96cp-18
8798=0xa.1f5057a0f1b88p-10
8807=0x9.71fe3972688bp-15
8812=-0x9.cd9e823eba2p-15
8821=0x8.0aa8d3554ff28p-19
8822=0x8.f39b279ac0c3p-6
8825=-0xc.414b74ece6448p-15
8830=0x9.f25ac8d6e96cp-18
8834=0xa.1f5057a0f1b88p-10
8843=0x9.71fe3972688bp-15
8848=-0x9.cd9e823eba2p-15
8857=0x8.0aa8d3554ff28p-19
8858=0x8.f39b279ac0c3p-6
8861=-0xc.414b74ece6448p-15
8866=0x9.f25ac8d6e96cp-18
8870=0xa.1f5057a0f1b88p-10
8879=0x9.71fe3972688bp-15
8884=-0x9.cd9e823eba2p-15
8893=0x8.0aa8d3554ff28p-19
8894=0x8.f39b279ac0c3p-6
8897=-0xc.414b74ece6448p-15
8902=0x9.f25ac8d6e96cp-18
8906=0xa.1f5057a0f1b88p-10
8915=0x9.71fe3972688bp-15
8920=-0x9.cd9e823eba2p-15
8929=0x8.0aa8d3554ff28p-19
8930=0x8.f39b279ac0c3p-6
8933=-0xc.414b74ece6448p-15
8938=0x9.f25ac8d6e96cp-18
8942=0xa.1f5057a0f1b88p-10
8951=0x9.71fe3972688bp-15
8956=-0x9.cd9e823eba2p-15
8965=0x8.0aa8d3554ff28p-19
8966=0x8.f39b279ac0c3p-6
8969=-0xc.414b74ece6448p-15
8974=0x9.f25ac8d6e96cp-18
8978=0xa.1f5057a0f1b88p-10
8987=0x9.71fe3972688bp-15
8992=-0x9.cd9e823eba2p-15
9001=0x8.0aa8d3554ff28p-19
9002=0x8.f39b279ac0c3p-6
9005=-0xc.414b74ece6448p-15
9010=0x9.f25ac8d6e96cp-18
9014=0xa.1f5057a0f1b88p-10
9023=0x9.71fe3972688bp-15
9028=-0x9.cd9e823eba2p-15
9037=0x8.0aa8d3554ff28p-19
9038=0x8.f39b279ac0c3p-6
9041=-0xc.414b74ece6448p-15
9046=0x9.f25ac8d6e96cp-18
9050=0xa.1f5057a0f1b88p-10
9059=0x9.71fe3972688bp-15
9064=-0x9.cd9e823eba2p-15
9073=0x8.0aa8d3554ff28p-19
9074=0x8.f39b279ac0c3p-6
9077=-0xc.414b74ece6448p-15
9082=0x9.f25ac8d6e96cp-18
9086=0xa.1f5057a0f1b88p-10
9095=0x9.71fe3972688bp-15
9100=-0x9.cd9e823eba2p-15
9109=-0xb.246ccb41096c8p-16
9110=0xd.f74dfb48c6e38p-5
9112=-0x8.df8762bdf6a38p-10
9113=-0x8.6bec2c3cd496p-8
9114=0xd.14b5768992e2p-20
9115=0x8.5163f0b3321ap-6
9118=0x9.bce30e6abb64p-17
9120=-0xb.fa641f2698a3p-8
9122=-0x8.aaaec19121628p-16
9123=0xb.e736be3fd4cap-11
9126=-0xf.31ec49014e5cp-7
9128=-0xf.62fb066ce373p-17
9131=0xe.5b12eab97a44p-9
9133=-0xf.92f92990fd35p-10
9134=0x9.8537e9bea36d8p-6
9135=0xe.5eaa20b4322f8p-9
9136=-0xc.c1e72ebfdb5dp-9
9145=0xb.9160c1bafb34p-8
9149=0x8.f2231f9bf611p-5
9154=0x9.e32b1d9712c38p-18
9158=0xc.6ce6a12b0c198p-4
9160=-0xa.5dd94c9faf9f8p-7
9166=0xe.6ca3cca1021f8p-8
9167=-0xb.b277b38803638p-7
9169=-0x8.60db51a98da58p-12
9172=-0xa.3c542d723ada8p-15
9181=0xb.9160c1bafb34p-8
9185=0x8.f2231f9bf611p-5
9190=0x9.e32b1d9712c38p-18
9194=0xc.6ce6a12b0c198p-4
9196=-0xa.5dd94c9faf9f8p-7
9202=0xe.6ca3cca1021f8p-8
9203=-0xb.b277b38803638p-7
9205=-0x8.60db51a98da58p-12
9208=-0xa.3c542d723ada8p-15
9249=0xe.820c5f0caefe8p-11
9253=0xb.9160c1bafb34p-8
9257=0x8.f2231f9bf611p-5
9262=0x9.e32b1d9712c38p-18
9266=0xc.6ce6a12b0c198p-4
9268=-0xa.5dd94c9faf9f8p-7
9274=0xe.6ca3cca1021f8p-8
9275=-0xb.b277b38803638p-7
9277=-0x8.60db51a98da58p-12
9280=-0xa.3c542d723ada8p-15
9290=-0xc.373f235ed05ep-13
9292=-0xd.1feb6d06f7a18p-12
9293=-0xd.2fd4462929f88p-5
9295=-0xd.48b74f4c6e79p-13
9298=-0xc.e847c1a5ea93p-7
9300=-0xa.f051adf180798p-10
9302=-0xf.1978ce8bc0eep-21
9306=0xe.f22fdc27d7acp-9
9311=-0xd.92f5a6f7da2ap-17
9313=0xe.9311634aee878p-9
9316=0xa.0a1c1f656fcap-12
9317=0x9.90bbe32c942bp-7
9325=0x8.2f4e67ae05efp-5
9326=0x9.761c9d07f4388p-8
9329=0xb.3e9060a842c18p-10
9331=-0x8.d0d89abc10008p-13
9334=0x9.da3c9a5ba3aep-13
9338=-0xf.ec27633c95fcp-12
9347=0xe.9cf4974392878p-9
9349=-0xa.278c54056524p-13
9352=-0xf.9fb104a70eafp-15
9362=-0x8.4956fc17fe48p-9
9367=0xf.7e681e39b80cp-7
9374=-0xc.74720be7fadcp-22
9388=0xc.2994b11804bap-19
9397=0x8.2f4e67ae05efp-5
9398=0x9.761c9d07f4388p-8
9401=0xb.3e9060a842c18p-10
9403=-0x8.d0d89abc10008p-13
9406=0x9.da3c9a5ba3aep-13
9410=-0xf.ec27633c95fcp-12
9419=0xe.9cf4974392878p-9
9421=-0xa.278c54056524p-13
9424=-0xf.9fb104a70eafp-15
9434=-0x8.4956fc17fe48p-9
9439=0xf.7e681e39b80cp-7
9446=-0xc.74720be7fadcp-22
9460=0xc.2994b11804bap-19
9469=0x8.2f4e67ae05efp-5
9470=0x9.761c9d07f4388p-8
9473=0xb.3e9060a842c18p-10
9475=-0x8.d0d89abc10008p-13
9478=0x9.da3c9a5ba3aep-13
9482=-0xf.ec27633c95fcp-12
9491=0xe.9cf4974392878p-9
9493=-0xa.278c54056524p-13
9496=-0xf.9fb104a70eafp-15
9506=0xe.b874372abdba8p-5
9508=-0xf.d3ffb5f9ac63p-12
9511=-0xe.d8678c8b36388p-14
9514=-0xc.c30b3c5d5ef3p-7
9515=0x9.27ad5911fff08p-4
9518=0xa.61d6dc7e6cd38p-14
9519=-0x9.e449dcd6f74c8p-7
9522=0xd.af6fd7e4f66ep-5
9527=-0xf.1b2792be753f8p-10
9529=0xb.5f6bae3a140bp-9
9532=0xf.f1cd2a1e59b48p-7
9533=0x9.7530633072868p-9
9538=-0xa.64f167bf65cap-15
9545=0x8.09177d237bb88p-6
9550=0xf.62a140cf9216p-19
9555=0x9.2bb1152302b98p-11
9563=0x8.a4d138dbe104p-16
9565=-0xc.4da9dc5c3ba58p-11
9568=-0x8.40a9f59663bep-14
9569=0x9.9865f31a1fa28p-4
9573=0xd.5eebcb54855ep-11
9581=-0xf.b38be082b31cp-6
9604=0xd.60f9c58b8db78p-19
9610=0xa.44865680bbf68p-19
9617=-0xf.b38be082b31cp-6
9640=0xd.60f9c58b8db78p-19
9646=0xa.44865680bbf68p-19
9653=0x8.09177d237bb88p-6
9658=0xf.62a140cf9216p-19
9663=0x9.2bb1152302b98p-11
9671=0x8.a4d138dbe104p-16
9673=-0xc.4da9dc5c3ba58p-11
9676=-0x8.40a9f59663bep-14
9677=0x9.9865f31a1fa28p-4
9681=0xd.5eebcb54855ep-11
9689=-0xf.b38be082b31cp-6
9712=0xd.60f9c58b8db78p-19
9718=0xa.44865680bbf68p-19
9725=-0xf.b38be082b31cp-6
9748=0xd.60f9c58b8db78p-19
9754=0xa.44865680bbf68p-19
9758=0xe.813b55f5dbe8p-13
9761=-0xb.80cf14e080bdp-12
9797=0xa.2b2a648310708p-5
9799=0xf.02708d14db568p-7
9803=0xa.783086b309e7p-8
9804=0x9.f2e8920164868p-19
9809=0x8.afee5e48786c8p-10
9816=0xb.8944b7a59ab2p-4
9817=-0xc.e324ec1e0c528p-7
9818=0xc.e2ed862244c6p-13
9820=-0x9.7ff9e7c00c2cp-6
9829=0x9.b438c98f1c8dp-6
9830=-0xc.8befdde73853p-12
9833=0xa.5d05366847ea8p-7
9835=-0x8.e4313576efee8p-14
9847=0x8.d52245c30fba8p-13
9851=0xa.029e1212efc4p-17
9852=0xd.347d7868f71fp-11
9853=0xf.f55e9a07736fp-4
9854=-0xd.38cf182ccf6p-22
9856=-0x8.5cd1ab9db68bp-14
9862=0x8.e6412b5563b4p-12
9888=0xa.09a0a474dfb1p-7
9892=0xd.7b309d712f158p-19
9898=0x9.b5dcfc311357p-15
9924=0xa.09a0a474dfb1p-7
9928=0xd.7b309d712f158p-19
9934=0x9.b5dcfc311357p-15
9960=0xa.09a0a474dfb1p-7
9964=0xd.7b309d712f158p-19
9970=0x9.b5dcfc311357p-15
9996=0xa.09a0a474e2278p-7
10000=0xd.7b309d712f158p-19
10006=0x9.b5dcfc311357p-15
10032=0xa.09a0a474e2278p-7
10036=0xd.7b309d712f158p-19
10042=0x9.b5dcfc311357p-15
10068=0xa.09a0a474e2278p-7
10072=0xd.7b309d712f158p-19
10078=0x9.b5dcfc311357p-15
10084=-0x8.e55a0a2cf9d48p-16
10088=0xd.7c6b9a9ba6c98p-9
10094=-0xd.60995ed3a30ep-26
10107=0xe.d5e748378438p-7
10108=0xb.afd806a5e999p-18
10131=0x9.350fe66137c4p-2
10176=0xa.09a0a474e2278p-7
10180=0xd.7b309d712f158p-19
10186=0x9.b5dcfc311357p-15
10203=0x9.50dafb98494f8p-2
10248=0xa.09a0a474e2278p-7
10252=0xd.7b309d712f158p-19
10258=0x9.b5dcfc311357p-15
10262=0x9.540d3676820ap-12
10265=0xe.92a6da0c0bcfp-10
10267=0xc.452ae4d9188a8p-6
10277=0x9.880cac17ecb28p-5
10284=0xc.658ad03ebff9p-5
10285=-0x9.e36660f5cee48p-7
10288=-0xa.e13ea56cfa038p-5
10298=0xf.1bbe03273e89p-6
10334=0xf.1bbe03273e89p-6
10370=0xb.71eb35e3b657p-9
10406=0xe.6345f5407694p-6
10416=-0x9.36d54ecc16e1p-7
10419=0xa.103de4c630c3p-13
10428=0xa.0d9628e2d2ep-13
10429=-0x8.efba45476f3bp-14
10430=0x9.7a1c4a566277p-5
10438=0xf.362312d8f2988p-10
10450=0x9.042d67ff77bap-19
10486=0x8.7d9da964d415p-19
10531=0xb.bcb1b0bef38b8p-14
10558=0xd.890a42179d24p-21
10594=0xd.890a42179d24p-21
10630=0x8.7d9da964d415p-19
10675=0xb.bcb1b0bef38b8p-14
10694=0xd.62a47942ffbdp-10
10730=0xd.62a47942ffbdp-10
10770=0x8.b3254472767ep-4
10801=-0xc.b27266e7dad48p-17
10805=0xe.ece08d8fe712p-20
10807=-0xb.dea3dd7dd293p-11
10810=0x8.5344e9a20dc4p-17
10828=-0xd.e93a7f099e21p-18
10840=0x9.db62c81a34338p-18
10876=0xc.36084c236b6fp-17
10879=-0xd.d0723601b7af8p-6
10912=-0xe.f88362f676cep-12
10913=0xa.a1f176872fac8p-18
10928=0xc.820cf6ee9ac68p-3
10929=0xc.a29cc0d39b808p-4
10942=0x9.80cc3651ceb78p-12
10951=-0xe.57ba72d0d7cd8p-16
10962=0xd.3284acb14162p-8
10982=0x9.86b3da580bdep-16
10984=-0xc.4954c13d05a98p-10
10989=0x8.2f6ce8fbf6338p-10
11018=0x9.86b3da580bdep-16
11020=-0xc.4954c13d05a98p-10
11025=0x8.2f6ce8fbf6338p-10
11054=-0xe.65c2224e7ec4p-7
11056=-0xf.6b12d45d9034p-9
11062=0xe.c5f04c96c23ep-12
11068=0x8.ff8c4aef3f3dp-6
11070=0xd.ab6be7bfda1ep-5
11090=-0xe.65c2224e7ec4p-7
11092=-0xf.6b12d45d9034p-9
11098=0xe.c5f04c96c23ep-12
11104=0x8.ff8c4aef3f3dp-6
11106=0xd.ab6be7bfda1ep-5
11135=0xc.ee1e6a13cc788p-3
11163=0xf.038e04849327p-22
11201=-0xd.f3266287aa0cp-16
11206=0xa.498da8808c5cp-12
11208=0x8.05620d0de9bc8p-7
11224=-0xf.68fda24374cp-24
11242=0x9.031c398b6b1e8p-13
11250=0x8.14c077b70aa38p-10
11260=-0xd.3eb98d0da742p-21
11271=0xf.038e04849327p-22
11309=-0xd.f3266287aa0cp-16
11314=0xa.498da8808c5cp-12
11316=0x8.05620d0de9bc8p-7
11332=-0xf.68fda24374cp-24
11350=0x9.031c398b6b1e8p-13
11358=0x8.14c077b70aa38p-10
11368=-0xd.3eb98d0da742p-21
11380=-0x8.e3c778577d5bp-10
11382=0xb.f2c0d70801e58p-6
11383=0xb.859dd6247a0ep-11
11394=0x8.39156a3b50c08p-18
11417=-0x9.713543348896p-4
11422=0x8.b66313173dcd8p-11
11424=0x8.05620d0de9bc8p-7
11440=-0xf.68fda24374cp-24
11456=0xc.6170bb6c0b4c8p-6
11458=0x9.a0271b87e10f8p-12
11476=-0x9.988be4abccbfp-20
11485=0xa.0666b905ce26p-20
11489=-0xd.f21d2fbf9ac48p-10
11492=0x8.623d32695a9cp-3
11494=-0x9.91088ce5667d8p-7
11512=-0xa.3aec65e4eb2fp-17
11528=0xc.6170bb6c0b4c8p-6
11530=0x9.a0271b87e10f8p-12
11548=-0x9.988be4abccbfp-20
11557=0xa.0666b905ce26p-20
11561=-0xd.f21d2fbf9ac48p-10
11564=0x8.623d32695a9cp-3
11566=-0x9.91088ce5667d8p-7
11584=-0xa.3aec65e4eb2fp-17
11596=0xf.84248e3c9f66p-7
11599=0xb.661055b7f4758p-6
11608=0xf.29d8861b4fc7p-4
11610=0xd.b2a120316a84p-12
11636=0xd.eb010606e403p-7
11638=0xd.5bfe7cf58af58p-5
11656=-0x9.988be4abccbfp-20
11666=0xc.1f7b3ff71e95p-19
11674=0xe.e0b01f6785418p-13
11692=-0xa.297b5037e767p-17
11710=0xd.d1f8bf4fd74bp-13
11728=-0xa.2eba1b75210ap-17
11738=0xc.1f7b3ff71e95p-19
11746=0xe.e0b01f6785418p-13
11764=-0xa.297b5037e767p-17
11782=0xd.d1f8bf4fd74bp-13
11800=-0xa.2eba1b75210ap-17
11810=0xc.1f7b3ff71e95p-19
11818=0xe.e0b01f6785418p-13
11836=-0xa.297b5037e767p-17
11846=0xc.1f7b3ff71e95p-19
11854=0xe.e0b01f6785418p-13
11872=-0xa.297b5037e767p-17
11882=0xc.1f7b3ff71e95p-19
11890=0xe.e0b01f6785418p-13
11908=-0xa.297b5037e767p-17
11918=0xc.1f7b3ff71e95p-19
11926=0xe.e0b01f6785418p-13
11944=-0xa.297b5037e767p-17
11954=0xc.1f7b3ff71e95p-19
11962=0xe.e0b01f6785418p-13
11980=-0xa.297b5037e767p-17
11990=0xc.1f7b3ff71e95p-19
11998=0xe.e0b01f6785418p-13
12016=-0xa.297b5037e767p-17
12026=0xc.1f7b3ff71e95p-19
12034=0xe.e0b01f6785418p-13
12052=-0xa.297b5037e767p-17
12062=0xc.1f7b3ff71e95p-19
12070=0xe.e0b01f6785418p-13
12088=-0xa.297b5037e767p-17
12098=0x8.56cdfaa4c8208p-6
12100=-0xe.26c9fe665b8fp-12
12103=0x9.bb89d43e38b98p-8
12114=0x9.3d36c44d8448p-16
12134=0xb.52ec91af05a08p-4
12142=0xe.e0b01f6785418p-13
12160=-0xa.297b5037e767p-17
12178=0xd.d1f8bf4fd74bp-13
12196=-0xa.2eba1b75210ap-17
12214=0xe.e7e9f8e44babp-13
12232=-0xa.2bfcc69f03c7p-17
12250=0xa.a79ded0c9c9d8p-12
12268=-0xa.66bd42343e32p-17
12269=0xa.d7bfe86c69318p-6
12286=0xe.e7e9f8e44babp-13
12304=-0xa.2bfcc69f03c7p-17
12322=0xa.a79ded0c9c9d8p-12
12340=-0xa.66bd42343e32p-17
12341=0xa.d7bfe86c69318p-6
12350=0x8.0a8517df5ba4p-18
12352=-0x9.f276a8ee02acp-10
12355=0xf.75f96eb228bep-9
12362=0xf.d6e6f81280e1p-11
12366=0xd.b8991992bae4p-12
12391=0xc.359920eaddbdp-13
12402=0x9.0a8fb5d8c1f9p-18
12430=0xe.e7e9f8e44babp-13
12448=-0xa.2bfcc69f03c7p-17
12466=0xa.a79ded0c9c9d8p-12
12484=-0xa.66bd42343e32p-17
12494=-0x9.2061106d507b8p-9
12502=0xa.ab06c09630128p-12
12506=0xe.68cab6e483178p-9
12520=-0x9.f735661441f1p-17
12535=0xc.4a06c58450668p-15
12538=0x9.2bb6cce92fbdp-13
12542=-0xc.0be12b9fb335p-16
12556=-0x9.bdbcaec8b6798p-17
12566=-0x9.2061106d507b8p-9
12574=0xa.ab06c09630128p-12
12578=0xe.68cab6e483178p-9
12592=-0x9.f735661441f1p-17
12607=0xc.4a06c58450668p-15
12610=0x9.2bb6cce92fbdp-13
12614=-0xc.0be12b9fb335p-16
12628=-0x9.bdbcaec8b6798p-17
12643=0xc.4a06c58450668p-15
12646=0x9.2bb6cce92fbdp-13
12650=-0xc.0be12b9fb335p-16
12664=-0x9.bdbcaec8b6798p-17
12679=0xc.4a06c58450668p-15
12682=0x9.2bb6cce92fbdp-13
12686=-0xc.0be12b9fb335p-16
12700=-0x9.bdbcaec8b6798p-17
12715=0xc.4a06c58450668p-15
12718=0x9.2bb6cce92fbdp-13
12722=-0xc.0be12b9fb335p-16
12736=-0x9.bdbcaec8b6798p-17
12751=0xc.4a06c58450668p-15
12754=0x9.2bb6cce92fbdp-13
12758=-0xc.0be12b9fb335p-16
12772=-0x9.bdbcaec8b6798p-17
12787=0xc.4a06c58450668p-15
12790=0x9.2bb6cce92fbdp-13
12794=-0xc.0be12b9fb335p-16
12808=-0x9.bdbcaec8b6798p-17
12823=0xc.4a06c58450668p-15
12826=0x9.2bb6cce92fbdp-13
12830=-0xc.0be12b9fb335p-16
12844=-0x9.bdbcaec8b6798p-17
12859=0xc.4a06c58450668p-15
12862=0x9.2bb6cce92fbdp-13
12866=-0xc.0be12b9fb335p-16
12880=-0x9.bdbcaec8b6798p-17
12895=0xc.4a06c58450668p-15
12898=0x9.2bb6cce92fbdp-13
12902=-0xc.0be12b9fb335p-16
12916=-0x9.bdbcaec8b6798p-17
12934=0xc.9ff9323e219c8p-12
12938=-0xc.0be12b9fb335p-16
12952=-0x9.bdbcaec8b6798p-17
12962=-0x9.2061106d507b8p-9
12970=0xa.ab06c09630128p-12
12988=-0x9.f735661441f1p-17
13006=0x8.6668c27e4bc3p-12
13024=-0xa.d2928b06d3fep-16
13034=0xe.0fda790d73bc8p-5
13060=-0xd.a442f3115842p-20
13078=0x8.6668c27e4bc3p-12
13096=-0xa.d2928b06d3fep-16
13106=0xe.0fda790d73bc8p-5
13132=-0xd.a442f3115842p-20
13142=0xe.453156dafd0ap-13
13145=0xb.6088e0a0cacfp-4
13168=-0xd.a442f3115842p-20
13178=0xa.9a59daa7ea118p-5
13179=0xa.b6f0403c75ca8p-3
13204=-0xe.9eee704227bd8p-19
13215=0xc.de53fa61f509p-17
13218=0xd.624448c4a6d7p-6
13240=-0xe.954dd8b3f32ep-19
13251=0xc.de53fa61f509p-17
13254=0xd.624448c4a6d7p-6
13276=-0xe.954dd8b3f32ep-19
13287=0xc.de53fa61f509p-17
13290=0x9.1e131c6c46b08p-5
13312=-0xe.954dd8b3f32ep-19
13324=0xd.8e182b5a8c488p-8
13348=-0xe.98d4f58f3165p-17
13360=0xd.8e182b5a8c488p-8
13384=-0xe.98d4f58f3165p-17
13396=0xc.3d42ef384d5ep-14
13420=-0x8.85e684d2966ap-16
13430=0xa.b3a08cdaf275p-7
13456=0x8.6a40f0ef065bp-19
13489=-0xc.66be57c09ce7p-16
13491=0x8.4be6e6d94b3bp-17
13502=0xa.14cc1054eaef8p-6
13525=-0x8.f0fba3e87b548p-19
13545=0x8.151ecd385cc2p-18
13581=0x8.151ecd385cc2p-18
13635=0xd.83697836870fp-15
13671=0xd.83697836870fp-15
13708=0xe.5795c26fd2e28p-20
13744=0xe.5795c26fd2e28p-20
13780=0xe.c7c70c3b0d8a8p-20
13816=0xe.c7c70c3b0d8a8p-20
13828=0xa.82d6aee8006dp-5
13831=-0xa.584273deff43p-17
13875=0x8.70f0179bdf538p-9
13885=-0x8.a0768d0288e2p-11
13888=0x8.a74de2643ba4p-19
13924=0x9.973da73851ep-18
13960=0x9.973da73851ep-18
13983=0x8.70f0179bdf538p-9
13993=-0x8.a0768d0288e2p-11
13996=0x8.a74de2643ba4p-19
14032=0x8.90cf7e7aad7f8p-19
14068=0x9.978ecb6930c4p-18
14104=0x9.978ecb6930c4p-18
14140=0x8.90cf7e7aad7f8p-19
14176=0x8.90cf7e7aad7f8p-19
14212=0x8.90cf7e7aad7f8p-19
14248=0x8.90cf7e7aad7f8p-19
14284=0x8.90d2b9975b65p-19
14320=0x8.90cf7e7aad7f8p-19
14356=0x8.90cf7e7aad7f8p-19
14392=0x8.90cf7e7aad7f8p-19
14425=-0x8.306dccf09f55p-19
14427=0x8.4be82e4186a3p-17
14461=-0x8.effb92dbbcefp-19
14488=0x9.ea768fd8c0908p-17
14490=0x8.5f70d4211b73p-20
14519=0xd.951f4f8ef7f08p-17
14545=0xa.e36d7d943f818p-20
14548=0x8.2e0c64a74dap-13
14555=0x9.da21f1e6d8c5p-11
14581=0xd.f46d3ad8fedp-22
14617=0xe.06583bf13677p-17
14654=0xc.8322f5eab09c8p-8
14690=0xc.8322f5eab09c8p-8
14729=0xa.c7ad09cec01dp-16
14762=0x8.34313fb82b238p-17
14764=0xb.b3fa88c5856cp-21
14766=0x9.20f4aadedcf58p-6
14780=0x9.ee09dcb2e231p-16
14785=-0xa.fb621eababb1p-14
14788=-0xd.8bee331b0699p-16
14789=0xe.614d4bcee9b88p-6
14801=0xa.c7ad09cec01dp-16
14834=0x8.34313fb82b238p-17
14836=0xb.b3fa88c5856cp-21
14838=0x9.20f4aadedcf58p-6
14852=0x9.ee09dcb2e231p-16
14857=-0xa.fb621eababb1p-14
14860=-0xd.8bee331b0699p-16
14861=0xe.614d4bcee9b88p-6
14873=0xc.6efc602f97f78p-18
14906=0xb.684375f54d468p-14
14909=0x9.f3956bf44d66p-11
14911=-0xf.ad7ee3d1a6ffp-8
14929=-0xa.8678d0e129eb8p-14
14931=0x8.aebe287260b4p-7
14932=-0xd.ed4e2dd7dab9p-16
14942=0xb.684375f54d468p-14
14945=0x9.f3956bf44d66p-11
14947=-0xf.ad7ee3d1a6ffp-8
14965=-0xa.8678d0e129eb8p-14
14967=0x8.aebe287260b4p-7
14968=-0xd.ed4e2dd7dab9p-16
14981=0xf.42e90c5f2189p-5
14991=0xa.d1cca49e83cdp-9
14996=0xd.6c78481678398p-17
15001=-0xe.d7367b0509fbp-8
15004=-0xc.7bbcac9703c6p-14
15017=0xf.42e90c5f2189p-5
15027=0xa.d1cca49e83cdp-9
15032=0xd.6c78481678398p-17
15037=-0xe.d7367b0509fbp-8
15040=-0xc.7bbcac9703c6p-14
15053=0xf.42e90c5f2189p-5
15063=0xa.d1cca49e83cdp-9
15068=0xd.6c78481678398p-17
15073=-0xe.d7367b0509fbp-8
15076=-0xc.7bbcac9703c6p-14
15089=-0x8.73c94b6cdeeap-20
15103=0xd.0e971c0cd1e58p-17
15104=0x8.f3a7a384a8198p-17
15109=-0xe.62a091884c2bp-14
15111=0x8.eef610eba1c5p-13
15112=0xc.4efb70285d108p-16
15125=-0x8.73c94b6cdeeap-20
15139=0xd.0e971c0cd1e58p-17
15140=0x8.f3a7a384a8198p-17
15145=-0xe.62a091884c2bp-14
15147=0x8.eef610eba1c5p-13
15148=0xc.4efb70285d108p-16
15161=-0x8.73c94b6cdeeap-20
15175=0xd.0e971c0cd1e58p-17
15176=0x8.f3a7a384a8198p-17
15181=-0xe.62a091884c2bp-14
15183=0x8.eef610eba1c5p-13
15184=0xc.4efb70285d108p-16
15194=-0xb.7705bc7dd5fd8p-7
15197=-0xa.bda390b817698p-7
15213=0x9.5f656ae6c51b8p-18
15216=0x9.53356d4cf17p-9
15217=-0xe.87d617ef47ffp-14
15220=0xa.77885e7ffe16p-14
15230=-0xb.7705bc7dd5fd8p-7
15233=-0xa.bda390b817698p-7
15249=0x9.5f656ae6c51b8p-18
15252=0x9.53356d4cf17p-9
15253=-0xe.87d617ef47ffp-14
15256=0xa.77885e7ffe16p-14
15266=-0xb.7705bc7dd5fd8p-7
15269=-0xa.bda390b817698p-7
15285=0x9.5f656ae6c51b8p-18
15288=0x9.53356d4cf17p-9
15289=-0xe.87d617ef47ffp-14
15292=0xa.77885e7ffe16p-14
15302=-0xb.7705bc7dd5fd8p-7
15305=-0xa.bda390b817698p-7
15321=0x9.5f656ae6c51b8p-18
15324=0x9.53356d4cf17p-9
15325=-0xe.87d617ef47ffp-14
15328=0xa.77885e7ffe16p-14
15338=-0xb.7705bc7dd5fd8p-7
15341=-0xa.bda390b817698p-7
15357=0x9.5f656ae6c51b8p-18
15360=0x9.53356d4cf17p-9
15361=-0xe.87d617ef47ffp-14
15364=0xa.77885e7ffe16p-14
15374=-0xb.7705bc7dd5fd8p-7
15377=-0xa.bda390b817698p-7
15393=0x9.5f656ae6c51b8p-18
15396=0x9.53356d4cf17p-9
15397=-0xe.87d617ef47ffp-14
15400=0xa.77885e7ffe16p-14
15410=-0xb.7705bc7dd5fd8p-7
15413=-0xa.bda390b817698p-7
15429=0x9.5f656ae6c51b8p-18
15432=0x9.53356d4cf17p-9
15433=-0xe.87d617ef47ffp-14
15436=0xa.77885e7ffe16p-14
15446=-0xb.7705bc7dd5fd8p-7
15449=-0xa.bda390b817698p-7
15465=0x9.5f656ae6c51b8p-18
15468=0x9.53356d4cf17p-9
15469=-0xe.87d617ef47ffp-14
15472=0xa.77885e7ffe16p-14
15482=-0xb.7705bc7dd5fd8p-7
15485=-0xa.bda390b817698p-7
15501=0x9.5f656ae6c51b8p-18
15504=0x9.53356d4cf17p-9
15505=-0xe.87d617ef47ffp-14
15508=0xa.77885e7ffe16p-14
15518=-0xb.7705bc7dd5fd8p-7
15521=-0xa.bda390b817698p-7
15537=0x9.5f656ae6c51b8p-18
15540=0x9.53356d4cf17p-9
15541=-0xe.87d617ef47ffp-14
15544=0xa.77885e7ffe16p-14
15554=-0xb.7705bc7dd5fd8p-7
15557=-0xa.bda390b817698p-7
15573=0x9.5f656ae6c51b8p-18
15576=0x9.53356d4cf17p-9
15577=-0xe.87d617ef47ffp-14
15580=0xa.77885e7ffe16p-14
15607=0x8.b84f587c6ede8p-13
15609=0xe.6db0c6a6ece8p-7
15612=0xd.a9c3af82a4678p-15
15613=-0xa.34b7e922f4e8p-13
15616=0xf.b2f52d06e3b3p-14
15628=0x9.759cd30b8886p-20
15679=0x8.b84f587c6ede8p-13
15681=0xe.6db0c6a6ece8p-7
15684=0xd.a9c3af82a4678p-15
15685=-0xa.34b7e922f4e8p-13
15688=0xf.b2f52d06e3b3p-14
15715=0x8.b84f587c6ede8p-13
15717=0xe.6db0c6a6ece8p-7
15720=0xd.a9c3af82a4678p-15
15721=-0xa.34b7e922f4e8p-13
15724=0xf.b2f52d06e3b3p-14
15747=0x9.e4a146e62494p-15
15750=-0x9.681a7da54e39p-14
15757=-0xe.098585640f078p-15
15758=0xc.5e39b0566dc4p-11
15759=0xd.d3f06de9f5518p-5
15760=0xe.434daebca717p-15
15772=0xc.c276fd0aa8298p-15
15819=0x9.e4a146e62494p-15
15822=-0x9.681a7da54e39p-14
15829=-0xe.098585640f078p-15
15830=0xc.5e39b0566dc4p-11
15831=0xd.d3f06de9f5518p-5
15832=0xe.434daebca717p-15
15844=0xc.c276fd0aa8298p-15
15891=0x9.e4a146e62494p-15
15894=-0x9.681a7da54e39p-14
15901=-0xe.098585640f078p-15
15902=0xc.5e39b0566dc4p-11
15903=0xd.d3f06de9f5518p-5
15904=0xe.434daebca717p-15
15927=-0xc.8b45bca426a58p-13
15928=0x8.5cfc6022ae53p-9
15937=-0xa.c2c43143e574p-14
15940=0xd.cdafe19d8dfdp-9
15950=0x8.d5823a1a524dp-7
15951=0xd.520a127d9423p-14
15952=-0xb.79561bdaef3ap-11
15955=0xd.6f7cf4d10e18p-13
15989=0xc.ec42cfc70e948p-7
16035=-0xc.8b45bca426a58p-13
16036=0x8.5cfc6022ae53p-9
16045=-0xa.c2c43143e574p-14
16048=0xd.cdafe19d8dfdp-9
16058=0x8.d5823a1a524dp-7
16059=0xd.520a127d9423p-14
16060=-0xb.4c914078b051p-11
16063=0xa.dde2889cfc1ap-12
16097=0xa.d65f10d2df628p-7
16147=0xe.60a48532dafbp-14
16168=0xa.13246bd12b168p-8
16171=0xa.40a6b77c3cb4p-6
16185=0xd.6ca216cbf69d8p-13
16202=0xc.96de45cb86efp-9
16205=0xd.fdd6eb6e4b418p-10
16214=-0xf.7a2f3557558cp-19
16225=-0x8.2f209aec4de5p-13
16228=0x9.b427c9c5e884p-13
16243=0xa.efe5a84ff91fp-12
16277=0xc.ac992109337f8p-18
16315=0xb.071666c1c4fd8p-12
16349=0xc.ac992109337f8p-18
16382=0xf.dd7a29ebef5ap-19
16384=0xc.0aa7c253b88b8p-6
16387=-0xf.a206dbd9fb6cp-9
16407=0x9.3c1dabeccd8c8p-15
16420=-0xe.eff3d586e4d5p-18
16423=0xc.adb25acde60b8p-12
16456=-0xe.eff3d586e4d5p-18
16459=0xc.adb25acde60b8p-12
16492=-0x8.67213918f40fp-12
16495=0x8.57bc514745598p-11
16500=0xc.94a4ebe851f68p-9
16528=-0xc.632fd9da62cb8p-17
16531=0xb.331380d88ea8p-12
16564=-0xe.eff3d586e4d5p-18
16567=0xc.adb25acde60b8p-12
16600=-0xe.eff3d586e4d5p-18
16603=0xc.adb25acde60b8p-12
16636=-0xf.561ffaaca5698p-18
16639=0x8.19e4dc99866bp-11
16672=-0xf.561ffaaca5698p-18
16675=0x8.19e4dc99866bp-11
16708=-0xe.eff3d586e4d5p-18
16711=0xc.adb25acde60b8p-12
