#mdl#2#4058
#rdr#172/29/0
12:u00:%x[-4,0],
12:u01:%x[-3,0],
12:u02:%x[-2,0],
12:u03:%x[-1,0],
11:u04:%x[0,0],
11:u05:%x[1,0],
11:u06:%x[2,0],
11:u07:%x[3,0],
11:u08:%x[4,0],
20:u09:%x[-1,0]/%x[0,0],
19:u0A:%x[0,0]/%x[1,0],
19:u0B:%x[1,0]/%x[2,0],
21:u0C:%x[-2,0]/%x[-1,0],
21:u0D:%x[0,0]/%x[-1,28],
12:u10:%x[-2,1],
12:u11:%x[-1,1],
11:u12:%x[0,1],
11:u13:%x[1,1],
11:u14:%x[2,1],
11:u20:%x[0,2],
11:u21:%x[0,3],
11:u22:%x[0,4],
11:u23:%x[0,5],
11:u30:%x[0,6],
11:u31:%x[0,7],
11:u32:%x[0,8],
11:u33:%x[0,9],
13:u40:%x[-1,10],
12:u41:%x[0,10],
12:u42:%x[1,10],
13:u50:%x[-1,11],
12:u51:%x[0,11],
12:u52:%x[1,11],
13:u60:%x[-1,12],
12:u61:%x[0,12],
12:u62:%x[1,12],
13:u60:%x[-1,13],
12:u61:%x[0,13],
12:u62:%x[1,13],
13:u70:%x[-1,14],
12:u71:%x[0,14],
12:u72:%x[1,14],
13:u80:%x[-1,15],
12:u81:%x[0,15],
12:u82:%x[1,15],
13:u90:%x[-1,16],
12:u91:%x[0,16],
12:u92:%x[1,16],
12:uA0:%x[0,17],
12:uA1:%x[1,17],
13:uA2:%x[-1,17],
21:uA3:%x[0,17]/%x[1,17],
22:uA4:%x[-1,17]/%x[0,17],
12:uB0:%x[0,18],
13:uB1:%x[-1,18],
12:uB2:%x[1,18],
12:uC0:%x[0,19],
13:uC1:%x[-1,19],
12:uC2:%x[1,19],
12:uD0:%x[0,19],
12:uD1:%x[0,20],
12:uD2:%x[0,21],
12:uD3:%x[0,22],
12:uD4:%x[0,23],
12:uD5:%x[0,24],
12:uD6:%x[0,25],
12:uD7:%x[0,26],
12:uD8:%x[0,27],
12:uDI:%x[1,19],
12:uDJ:%x[1,20],
12:uDK:%x[1,21],
12:uDL:%x[1,22],
12:uDM:%x[1,23],
12:uDN:%x[1,24],
12:uDO:%x[1,25],
12:uDP:%x[1,26],
12:uDQ:%x[1,27],
12:uE0:%x[0,28],
13:uE1:%x[-1,28],
13:uE2:%x[-2,28],
12:uE3:%x[1,28],
12:uE4:%x[2,28],
13:uF0:%x[-1,29],
12:uF1:%x[0,29],
12:uF2:%x[1,29],
1:b,
12:u00:%x[-4,0],
12:u01:%x[-3,0],
12:u02:%x[-2,0],
12:u03:%x[-1,0],
11:u04:%x[0,0],
11:u05:%x[1,0],
11:u06:%x[2,0],
11:u07:%x[3,0],
11:u08:%x[4,0],
20:u09:%x[-1,0]/%x[0,0],
19:u0A:%x[0,0]/%x[1,0],
19:u0B:%x[1,0]/%x[2,0],
21:u0C:%x[-2,0]/%x[-1,0],
21:u0D:%x[0,0]/%x[-1,28],
12:u10:%x[-2,1],
12:u11:%x[-1,1],
11:u12:%x[0,1],
11:u13:%x[1,1],
11:u14:%x[2,1],
11:u20:%x[0,2],
11:u21:%x[0,3],
11:u22:%x[0,4],
11:u23:%x[0,5],
11:u30:%x[0,6],
11:u31:%x[0,7],
11:u32:%x[0,8],
11:u33:%x[0,9],
13:u40:%x[-1,10],
12:u41:%x[0,10],
12:u42:%x[1,10],
13:u50:%x[-1,11],
12:u51:%x[0,11],
12:u52:%x[1,11],
13:u60:%x[-1,12],
12:u61:%x[0,12],
12:u62:%x[1,12],
13:u60:%x[-1,13],
12:u61:%x[0,13],
12:u62:%x[1,13],
13:u70:%x[-1,14],
12:u71:%x[0,14],
12:u72:%x[1,14],
13:u80:%x[-1,15],
12:u81:%x[0,15],
12:u82:%x[1,15],
13:u90:%x[-1,16],
12:u91:%x[0,16],
12:u92:%x[1,16],
12:uA0:%x[0,17],
12:uA1:%x[1,17],
13:uA2:%x[-1,17],
21:uA3:%x[0,17]/%x[1,17],
22:uA4:%x[-1,17]/%x[0,17],
12:uB0:%x[0,18],
13:uB1:%x[-1,18],
12:uB2:%x[1,18],
12:uC0:%x[0,19],
13:uC1:%x[-1,19],
12:uC2:%x[1,19],
12:uD0:%x[0,19],
12:uD1:%x[0,20],
12:uD2:%x[0,21],
12:uD3:%x[0,22],
12:uD4:%x[0,23],
12:uD5:%x[0,24],
12:uD6:%x[0,25],
12:uD7:%x[0,26],
12:uD8:%x[0,27],
12:uDI:%x[1,19],
12:uDJ:%x[1,20],
12:uDK:%x[1,21],
12:uDL:%x[1,22],
12:uDM:%x[1,23],
12:uDN:%x[1,24],
12:uDO:%x[1,25],
12:uDP:%x[1,26],
12:uDQ:%x[1,27],
12:uE0:%x[0,28],
13:uE1:%x[-1,28],
13:uE2:%x[-2,28],
12:uE3:%x[1,28],
12:uE4:%x[2,28],
13:uF0:%x[-1,29],
12:uF1:%x[0,29],
12:uF2:%x[1,29],
1:b,
#qrk#42
9:I-<title>,
7:<title>,
8:I-<date>,
6:<date>,
8:I-<note>,
6:<note>,
11:<reference>,
8:<pubnum>,
15:I-<affiliation>,
13:<affiliation>,
10:I-<author>,
8:<author>,
11:<copyright>,
13:I-<reference>,
10:I-<pubnum>,
11:I-<address>,
9:<address>,
14:I-<submission>,
12:<submission>,
12:I-<abstract>,
10:<abstract>,
9:I-<intro>,
7:<intro>,
9:I-<email>,
7:<email>,
13:I-<copyright>,
7:I-<web>,
5:<web>,
11:I-<keyword>,
9:<keyword>,
9:I-<grant>,
7:<grant>,
9:I-<phone>,
7:<phone>,
14:I-<dedication>,
12:<dedication>,
10:I-<degree>,
8:<degree>,
19:I-<date-submission>,
11:I-<entitle>,
9:<entitle>,
17:<date-submission>,
#qrk#1780
5:u20:A,
5:u30:d,
14:u41:BLOCKSTART,
11:u42:BLOCKIN,
13:u51:LINESTART,
10:u52:LINEIN,
8:u60:_x-1,
11:u61:NEWFONT,
12:u62:SAMEFONT,
14:u61:HIGHERFONT,
16:u62:SAMEFONTSIZE,
5:u71:0,
5:u72:0,
5:u81:0,
5:u82:0,
5:u91:0,
5:u92:0,
11:uA0:INITCAP,
10:uA1:NOCAPS,
18:uA3:INITCAP/NOCAPS,
16:uA4:_x-1/INITCAP,
11:uB0:NODIGIT,
11:uB2:NODIGIT,
5:uC0:0,
5:uC2:0,
5:uD0:0,
5:uD1:0,
5:uD2:1,
5:uD3:0,
5:uD4:0,
5:uD5:0,
5:uD6:0,
5:uD7:0,
5:uD8:0,
5:uDI:0,
5:uDJ:0,
5:uDK:1,
5:uDL:0,
5:uDM:0,
5:uDN:0,
5:uDO:0,
5:uDP:0,
5:uDQ:0,
5:uE0:0,
5:uE3:0,
5:uE4:0,
11:uF1:NOPUNCT,
11:uF2:NOPUNCT,
1:b,
5:u30:r,
6:u31:ur,
14:u40:BLOCKSTART,
11:u41:BLOCKIN,
13:u50:LINESTART,
10:u51:LINEIN,
11:u60:NEWFONT,
12:u61:SAMEFONT,
14:u60:HIGHERFONT,
16:u61:SAMEFONTSIZE,
5:u70:0,
5:u80:0,
5:u90:0,
10:uA0:NOCAPS,
11:uA2:INITCAP,
17:uA3:NOCAPS/NOCAPS,
18:uA4:INITCAP/NOCAPS,
11:uB1:NODIGIT,
5:uC1:0,
5:uE1:0,
11:uF0:NOPUNCT,
5:u30:s,
11:u40:BLOCKIN,
10:u50:LINEIN,
12:u60:SAMEFONT,
16:u60:SAMEFONTSIZE,
10:uA2:NOCAPS,
17:uA4:NOCAPS/NOCAPS,
5:uE2:0,
6:u31:es,
5:u08:,,
5:u20:o,
5:u30:n,
6:u31:on,
11:uA1:INITCAP,
18:uA3:NOCAPS/INITCAP,
5:uDK:0,
5:u07:,,
5:u20:G,
5:u30:e,
6:u31:le,
11:u52:LINEEND,
19:uA3:INITCAP/INITCAP,
18:uA4:NOCAPS/INITCAP,
5:uD2:0,
5:u06:,,
5:u14:,,
5:u20:M,
6:u21:Ma,
14:u42:BLOCKSTART,
11:u51:LINEEND,
13:u52:LINESTART,
13:u62:LOWERFONT,
19:uA4:INITCAP/INITCAP,
5:uDJ:1,
5:u05:,,
5:u13:,,
5:u20:T,
5:u30:y,
11:u50:LINEEND,
13:u61:LOWERFONT,
10:uA1:ALLCAP,
18:uA3:INITCAP/ALLCAP,
5:uC2:1,
5:uD1:1,
5:uDI:1,
9:uF2:COMMA,
5:u04:,,
7:u0D:,/0,
5:u12:,,
5:u20:,,
5:u21:,,
5:u22:,,
5:u23:,,
5:u30:,,
5:u31:,,
5:u32:,,
5:u33:,,
13:u60:LOWERFONT,
10:uA0:ALLCAP,
18:uA3:ALLCAP/INITCAP,
18:uA4:INITCAP/ALLCAP,
5:uC0:1,
5:uD0:1,
9:uF1:COMMA,
5:u03:,,
5:u11:,,
10:uA2:ALLCAP,
18:uA4:ALLCAP/INITCAP,
12:uB2:ALLDIGIT,
5:uC1:1,
9:uF0:COMMA,
5:u02:,,
5:u10:,,
5:u20:1,
5:u30:9,
17:uA3:NOCAPS/ALLCAP,
12:uB0:ALLDIGIT,
5:u01:,,
5:u08::,
17:uA3:ALLCAP/NOCAPS,
17:uA4:NOCAPS/ALLCAP,
12:uB1:ALLDIGIT,
5:uDN:1,
5:u00:,,
5:u07::,
5:u20:2,
6:u21:20,
17:uA4:ALLCAP/NOCAPS,
5:uD5:1,
5:u06::,
5:u14::,
5:u20:a,
5:u30:t,
6:u03:at,
5:u05::,
8:u08:_x+1,
6:u11:at,
5:u13::,
5:u30:0,
9:uF2:PUNCT,
6:u02:at,
5:u04::,
8:u07:_x+1,
8:u08:_x+2,
7:u0D::/0,
6:u10:at,
5:u12::,
5:u20::,
5:u21::,
5:u22::,
5:u23::,
5:u30::,
5:u31::,
5:u32::,
5:u33::,
9:uF1:PUNCT,
6:u01:at,
5:u03::,
8:u06:_x+1,
8:u07:_x+2,
8:u08:_x+3,
5:u11::,
8:u14:_x+1,
5:u20:5,
8:uE4:_x+1,
9:uF0:PUNCT,
6:u00:at,
5:u02::,
8:u05:_x+1,
8:u06:_x+2,
8:u07:_x+3,
8:u08:_x+4,
13:u0B:_x+1/_x+2,
5:u10::,
8:u13:_x+1,
8:u14:_x+2,
8:u42:_x+1,
8:u52:_x+1,
8:u62:_x+1,
8:u72:_x+1,
8:u82:_x+1,
8:u92:_x+1,
8:uA1:_x+1,
8:uB2:_x+1,
8:uC2:_x+1,
8:uDI:_x+1,
8:uDJ:_x+1,
8:uDK:_x+1,
8:uDL:_x+1,
8:uDM:_x+1,
8:uDN:_x+1,
8:uDO:_x+1,
8:uDP:_x+1,
8:uDQ:_x+1,
8:uE3:_x+1,
8:uE4:_x+2,
8:uF2:_x+1,
5:u07:.,
5:u20:F,
6:u31:rd,
5:u71:1,
5:u72:1,
5:u06:.,
5:u14:.,
5:u70:1,
5:u05:.,
5:u13:.,
7:uF2:DOT,
5:u04:.,
7:u0D:./0,
5:u12:.,
5:u20:.,
5:u21:.,
5:u22:.,
5:u23:.,
5:u30:.,
5:u31:.,
5:u32:.,
5:u33:.,
7:uF1:DOT,
5:u03:.,
5:u11:.,
7:uF0:DOT,
5:u02:.,
5:u10:.,
5:u01:.,
5:u30:m,
5:u20:I,
6:u21:In,
7:u32:ion,
8:u33:tion,
5:u07:),
6:u21:an,
6:u31:nd,
5:u06:),
5:u14:),
5:u20:B,
6:u31:ss,
5:u04:(,
5:u05:),
7:u0D:(/0,
5:u12:(,
5:u13:),
5:u20:(,
5:u21:(,
5:u22:(,
5:u23:(,
5:u30:(,
5:u31:(,
5:u32:(,
5:u33:(,
17:uA3:ALLCAP/ALLCAP,
15:uF1:OPENBRACKET,
14:uF2:ENDBRACKET,
7:u01:and,
5:u03:(,
7:u0D:)/0,
5:u11:(,
17:uA4:ALLCAP/ALLCAP,
15:uF0:OPENBRACKET,
14:uF1:ENDBRACKET,
7:u00:and,
5:u02:(,
5:u10:(,
5:u01:(,
5:u00:(,
15:uA3:NOCAPS/_x+1,
5:u08:(,
5:u00:.,
5:u20:C,
5:u08:-,
5:u82:1,
5:u07:-,
5:u81:1,
5:u06:-,
5:u08:.,
5:u14:-,
5:u20:H,
5:u80:1,
5:uE4:1,
5:u05:-,
5:u13:-,
5:uE3:1,
10:uF2:HYPHEN,
5:u04:-,
7:u0D:-/0,
5:u12:-,
5:u20:-,
5:u21:-,
5:u22:-,
5:u23:-,
5:u30:-,
5:u31:-,
5:u32:-,
5:u33:-,
5:uE0:1,
10:uF1:HYPHEN,
5:u03:-,
7:u09:-/,,
7:u0D:,/1,
5:u11:-,
5:uE1:1,
10:uF0:HYPHEN,
5:u02:-,
6:u08:of,
5:u10:-,
5:uE2:1,
5:u01:-,
5:u00:-,
5:u30:f,
5:u20:f,
6:u01:of,
5:u30:S,
6:u00:of,
5:u20:P,
6:u31:el,
5:u20:R,
5:u30:1,
11:u62:NEWFONT,
5:u30:a,
5:u13:e,
5:u20:d,
5:u12:e,
5:u20:e,
5:u20:h,
5:u30:h,
6:u21:TH,
5:u30:E,
5:u30:T,
5:u20:E,
5:u20:S,
5:u01::,
5:u00::,
6:u21:Re,
6:u31:is,
6:u21:Au,
6:u31:in,
6:u21:Ch,
6:u31:en,
6:u21:An,
6:u21:Pu,
5:u20:W,
6:u21:We,
6:u31:an,
6:u31:al,
6:u31:ty,
5:u30:5,
6:u31:er,
7:u32:nal,
6:u21:Co,
6:u21:Se,
5:u20:V,
7:u32:ian,
7:u32:der,
6:u31:ch,
7:u32:ach,
6:u21:Pr,
6:u31:nn,
6:u21:Wi,
5:u20:u,
6:u21:us,
6:u31:us,
6:u31:na,
7:u32:ten,
5:u20:K,
14:u07:University,
7:u32:ich,
14:u13:university,
5:u20:U,
6:u21:Un,
7:u22:Uni,
8:u23:Univ,
7:u32:ity,
14:u00:University,
5:u20:3,
12:u05:Research,
12:u13:research,
12:u04:Research,
14:u0D:Research/0,
12:u12:research,
7:u22:Res,
8:u23:Rese,
7:u32:rch,
8:u33:arch,
12:u02:Research,
12:u10:research,
12:u01:Research,
6:u21:de,
7:u22:Com,
8:u23:Comp,
6:u31:82,
6:u21:au,
5:u07:5,
5:u06:5,
5:u14:5,
5:u05:5,
7:u0B:5/,,
5:u13:5,
5:u04:5,
7:u0A:5/,,
7:u0D:5/0,
5:u12:5,
5:u21:5,
5:u22:5,
5:u23:5,
5:u31:5,
5:u32:5,
5:u33:5,
5:u03:5,
7:u09:5/,,
5:u11:5,
12:u14:abstract,
5:u02:5,
7:u0C:5/,,
5:u10:5,
5:u01:5,
12:u12:abstract,
5:u20:s,
6:u21:ha,
6:u21:di,
6:u13:in,
6:u12:in,
5:u20:i,
6:u21:in,
6:u11:in,
6:u10:in,
6:u31:ia,
5:u20:m,
6:u21:da,
8:u11:data,
8:u10:data,
7:u00:are,
7:u32:ein,
7:u22:int,
8:u23:inte,
5:u20:k,
5:u30:g,
6:u31:ng,
7:u32:ing,
5:u20:w,
6:u21:wi,
6:u31:rt,
6:u31:ll,
6:u21:im,
5:u20:n,
6:u21:si,
7:u32:zed,
6:u12:an,
6:u01:an,
6:u00:an,
7:u32:und,
6:u31:be,
5:u20:v,
8:u33:onal,
6:u31:ut,
6:u31:it,
8:u33:lity,
8:u33:ning,
6:u31:ce,
7:u32:nce,
8:u33:ence,
6:u31:11,
7:u22:dem,
6:u07:In,
6:u05:In,
6:u00:13,
6:u21:un,
6:u21:ma,
6:u31:em,
7:u22:Pro,
8:u33:eden,
6:u31:15,
7:u32:all,
6:u31:ie,
16:u05:Intelligence,
16:u13:intelligence,
16:u04:Intelligence,
18:u0D:Intelligence/0,
16:u12:intelligence,
7:u22:Int,
8:u23:Inte,
6:u31:ft,
7:u32:ift,
5:u30:Y,
6:u31:RY,
7:u22:THE,
6:u31:20,
6:u21:Fa,
5:u05:E,
8:u07:mail,
7:u0B:E/-,
5:u04:E,
8:u06:mail,
7:u0A:E/-,
10:u0B:-/mail,
7:u0D:E/0,
8:u14:mail,
5:u21:E,
5:u22:E,
5:u23:E,
5:u31:E,
5:u32:E,
5:u33:E,
8:u04:mail,
10:u0A:mail/:,
7:u22:mai,
6:u31:29,
6:u21:na,
8:u23:Prob,
6:u21:ei,
5:u03:&,
5:u11:&,
13:u06:September,
13:u14:september,
13:u05:September,
13:u13:september,
13:u04:September,
15:u0D:September/0,
13:u12:september,
7:u22:Sep,
8:u23:Sept,
7:u32:ber,
8:u33:mber,
13:u03:September,
13:u11:september,
13:u02:September,
13:u10:september,
13:u01:September,
7:u22:201,
6:u21:Ab,
6:u21:ap,
7:u22:app,
7:u22:und,
6:u21:Or,
6:u21:Be,
7:u22:Wer,
6:u21:Si,
7:u22:Sin,
6:u21:hy,
7:u32:ung,
6:u21:12,
8:u23:appl,
8:u07:wird,
7:u08:der,
7:u22:ein,
7:u06:der,
7:u14:der,
7:u05:der,
7:u13:der,
8:u33:nung,
7:u04:der,
7:u06:des,
9:u0D:der/0,
7:u12:der,
7:u14:des,
7:u22:der,
7:u23:der,
7:u33:der,
7:u03:der,
7:u05:des,
7:u11:der,
7:u13:des,
7:u02:der,
7:u04:des,
7:u08:und,
9:u0D:des/0,
7:u10:der,
7:u12:des,
7:u22:des,
7:u23:des,
7:u32:des,
7:u33:des,
7:u01:der,
7:u03:des,
7:u07:und,
7:u11:des,
7:u00:der,
7:u02:des,
7:u06:und,
7:u10:des,
7:u14:und,
7:u01:des,
7:u05:und,
7:u13:und,
7:u32:len,
7:u04:und,
9:u0D:und/0,
7:u12:und,
7:u23:und,
7:u33:und,
7:u03:und,
7:u11:und,
7:u02:und,
7:u10:und,
7:u32:lle,
7:u01:und,
7:u00:und,
7:u08:auf,
7:u07:auf,
7:u06:auf,
7:u14:auf,
7:u05:auf,
7:u13:auf,
7:u04:auf,
9:u0D:auf/0,
7:u12:auf,
7:u22:auf,
7:u23:auf,
6:u31:uf,
7:u32:auf,
7:u33:auf,
7:u03:auf,
7:u08:die,
7:u11:auf,
7:u02:auf,
7:u07:die,
7:u10:auf,
7:u01:auf,
7:u06:die,
7:u14:die,
7:u00:auf,
7:u05:die,
7:u13:die,
7:u04:die,
9:u0D:die/0,
7:u12:die,
7:u22:die,
7:u23:die,
7:u32:die,
7:u33:die,
7:u03:die,
7:u11:die,
7:u02:die,
7:u10:die,
7:u01:die,
7:u00:die,
6:u21:Gr,
7:u32:ner,
6:u21:Wo,
7:u32:men,
7:u22:122,
13:u00:September,
7:u32:ken,
6:u01:ac,
6:u00:ac,
10:u06:Center,
19:u0B:Research/Center,
10:u14:center,
10:u05:Center,
19:u0A:Research/Center,
10:u13:center,
10:u02:Center,
10:u10:center,
6:u21:Wa,
6:u21:En,
14:u02:Technology,
16:u0C:Technology/,,
14:u10:technology,
14:u01:Technology,
6:u21:ke,
7:u22:ken,
15:u07:application,
15:u06:application,
15:u14:application,
15:u05:application,
15:u13:application,
15:u04:application,
17:u0D:application/0,
15:u12:application,
15:u03:application,
15:u11:application,
15:u02:application,
15:u10:application,
15:u01:application,
15:u00:application,
12:u12:keywords,
12:u11:keywords,
12:u10:keywords,
6:u31:DS,
6:u21:33,
7:u32:fer,
8:u03:Data,
8:u02:Data,
5:u02:&,
5:u10:&,
6:u00:Dr,
7:u22:Aus,
8:u23:Aust,
7:u32:ass,
6:u21:Ta,
6:u08:im,
6:u07:im,
6:u06:im,
6:u14:im,
6:u05:im,
6:u13:im,
6:u04:im,
8:u0D:im/0,
6:u12:im,
6:u22:im,
6:u23:im,
6:u32:im,
6:u33:im,
6:u03:im,
6:u11:im,
6:u02:im,
6:u10:im,
6:u01:im,
6:u00:im,
7:u31:ät,
8:u32:tät,
16:u03:Universität,
16:u11:universität,
16:u02:Universität,
16:u10:universität,
8:u08:2011,
8:u07:2011,
8:u06:2011,
8:u14:2011,
8:u05:2011,
8:u13:2011,
8:u04:2011,
8:u12:2011,
8:u23:2011,
7:u32:011,
8:u33:2011,
8:u03:2011,
8:u11:2011,
7:u32:382,
7:u06:von,
7:u14:von,
8:u33:uung,
6:u21:vo,
8:u06:für,
8:u14:für,
8:u05:für,
8:u13:für,
8:u04:für,
10:u0D:für/0,
8:u12:für,
7:u21:fü,
8:u22:für,
8:u23:für,
7:u31:ür,
8:u32:für,
8:u33:für,
8:u03:für,
8:u11:für,
8:u02:für,
8:u10:für,
8:u01:für,
8:u00:für,
7:u08:dem,
7:u07:dem,
7:u06:dem,
7:u14:dem,
7:u05:dem,
7:u13:dem,
7:u04:dem,
9:u0D:dem/0,
7:u12:dem,
7:u23:dem,
7:u32:dem,
7:u33:dem,
7:u03:dem,
7:u11:dem,
7:u02:dem,
7:u10:dem,
7:u01:dem,
7:u00:dem,
7:u07:von,
7:u32:ien,
6:u21:Er,
7:u22:gem,
7:u22:Unt,
8:u23:Unte,
11:u14:problem,
11:u13:problem,
11:u12:problem,
7:u32:lem,
8:u33:blem,
11:u11:problem,
11:u10:problem,
6:u21:29,
8:u33:vity,
6:u21:Hi,
7:u22:Wor,
5:u20:Q,
6:u21:Qu,
7:u22:unt,
17:u14:interactivity,
7:u32:dia,
8:u33:edia,
6:u08:15,
17:u13:interactivity,
17:u12:interactivity,
17:u11:interactivity,
17:u10:interactivity,
12:u0B:Center/,,
12:u0C:Center/,,
10:u0D:2011/0,
11:u10:patient,
8:u01:very,
8:u00:very,
7:u22:hyp,
17:u12:computational,
17:u11:computational,
8:u33:rift,
7:u32:eit,
8:u33:llen,
9:u0B:,/die,
9:u0A:,/die,
9:u09:,/die,
9:u0C:,/die,
7:u32:net,
7:u32:inn,
9:u08:March,
9:u07:March,
7:u32:ARY,
6:u21:SU,
7:u22:usa,
8:u33:rnet,
6:u11:hu,
6:u10:hu,
12:u08:Internet,
12:u07:Internet,
12:u06:Internet,
12:u14:internet,
12:u05:Internet,
12:u13:internet,
12:u04:Internet,
14:u0D:Internet/0,
12:u12:internet,
12:u03:Internet,
12:u11:internet,
12:u02:Internet,
12:u10:internet,
12:u01:Internet,
12:u00:Internet,
8:u08:dass,
8:u07:dass,
8:u06:dass,
10:u0B:,/dass,
8:u14:dass,
8:u05:dass,
10:u0A:,/dass,
8:u13:dass,
8:u04:dass,
8:u08:nach,
10:u09:,/dass,
10:u0D:dass/0,
8:u12:dass,
7:u22:das,
8:u23:dass,
8:u33:dass,
8:u03:dass,
8:u07:nach,
10:u0C:,/dass,
8:u11:dass,
8:u02:dass,
8:u06:nach,
8:u10:dass,
8:u14:nach,
8:u01:dass,
8:u05:nach,
8:u13:nach,
8:u00:dass,
8:u04:nach,
10:u0D:nach/0,
8:u12:nach,
7:u22:nac,
8:u23:nach,
8:u33:nach,
8:u03:nach,
8:u11:nach,
8:u02:nach,
8:u10:nach,
8:u01:nach,
8:u00:nach,
8:u33:mmen,
8:u33:rner,
9:u08:unter,
9:u07:unter,
9:u06:unter,
9:u14:unter,
9:u05:unter,
9:u13:unter,
9:u04:unter,
11:u0D:unter/0,
9:u12:unter,
8:u23:unte,
9:u03:unter,
9:u11:unter,
9:u02:unter,
9:u10:unter,
9:u01:unter,
9:u00:unter,
6:u31:IS,
7:u32:SIS,
17:u04:Computational,
19:u0D:Computational/0,
17:u03:Computational,
11:u08:Problem,
11:u07:Problem,
11:u06:Problem,
11:u05:Problem,
11:u04:Problem,
11:u03:Problem,
11:u02:Problem,
11:u01:Problem,
11:u00:Problem,
7:u32:ria,
7:u22:Pur,
7:u22:Wac,
7:u22:Que,
12:u01:Oriented,
12:u00:Oriented,
6:u31:ST,
6:u08:29,
6:u07:29,
6:u06:29,
6:u14:29,
6:u05:29,
6:u13:29,
6:u04:29,
6:u12:29,
6:u22:29,
6:u23:29,
6:u32:29,
6:u33:29,
6:u03:29,
6:u11:29,
8:u23:hype,
15:u00:Application,
7:u32:220,
17:u08:interactivity,
17:u07:interactivity,
17:u06:interactivity,
17:u05:interactivity,
17:u04:interactivity,
19:u0D:interactivity/0,
17:u03:interactivity,
17:u02:interactivity,
7:u22:Ent,
8:u33:rung,
7:u22:Bet,
8:u23:Betr,
8:u33:beit,
10:u01:Rahmen,
10:u00:Rahmen,
14:u00:Informatik,
7:u22:Chr,
8:u23:Chri,
6:u21:KE,
7:u22:KEY,
7:u32:RDS,
8:u33:ORDS,
8:u14:fall,
8:u13:fall,
8:u12:fall,
8:u11:fall,
8:u10:fall,
6:u21:ic,
11:u13:summary,
11:u12:summary,
8:u08:Univ,
8:u07:Univ,
10:u12:thesis,
10:u11:thesis,
10:u0B:,/2011,
10:u0A:,/2011,
10:u09:,/2011,
10:u0C:,/2011,
14:u10:motivating,
10:u04:Werner,
12:u0D:Werner/0,
10:u12:werner,
8:u23:Wern,
10:u03:Werner,
10:u11:werner,
7:u22:Gru,
10:u08:Arbeit,
10:u07:Arbeit,
10:u04:Arbeit,
12:u0D:Arbeit/0,
10:u12:arbeit,
7:u22:Arb,
8:u23:Arbe,
10:u03:Arbeit,
10:u11:arbeit,
10:u02:Arbeit,
10:u10:arbeit,
10:u01:Arbeit,
10:u00:Arbeit,
8:u33:elle,
7:u08:ein,
7:u07:ein,
7:u06:ein,
7:u14:ein,
7:u05:ein,
7:u13:ein,
7:u04:ein,
9:u0D:ein/0,
7:u12:ein,
7:u23:ein,
7:u33:ein,
7:u03:ein,
7:u11:ein,
7:u02:ein,
7:u10:ein,
7:u01:ein,
7:u00:ein,
7:u31:ße,
8:u0D:29/0,
12:u06:Wolfgang,
12:u14:wolfgang,
12:u05:Wolfgang,
12:u13:wolfgang,
12:u04:KEYWORDS,
14:u0D:KEYWORDS/0,
8:u23:KEYW,
12:u03:KEYWORDS,
12:u02:KEYWORDS,
12:u01:KEYWORDS,
12:u00:KEYWORDS,
7:u32:Vis,
7:u22:Fal,
7:u32:abe,
8:u33:gabe,
8:u33:rken,
7:u22:Erk,
8:u23:Erkl,
8:u32:aße,
9:u33:raße,
7:u22:hab,
8:u23:habe,
8:u33:ofer,
7:u22:Wie,
10:u06:Vienna,
10:u14:vienna,
14:u14:hypermedia,
14:u13:hypermedia,
14:u12:hypermedia,
14:u11:hypermedia,
14:u10:hypermedia,
11:u04:Austria,
13:u09:,/Austria,
13:u0D:Austria/0,
11:u12:austria,
8:u33:tria,
11:u03:Austria,
13:u0C:,/Austria,
11:u11:austria,
11:u02:Austria,
11:u10:austria,
11:u01:Austria,
14:u06:hypermedia,
14:u05:hypermedia,
14:u04:hypermedia,
16:u0D:hypermedia/0,
14:u03:hypermedia,
14:u02:hypermedia,
14:u01:hypermedia,
14:u00:hypermedia,
7:u32:uer,
14:u08:navigation,
14:u07:navigation,
14:u06:navigation,
14:u14:navigation,
14:u05:navigation,
14:u13:navigation,
14:u04:navigation,
16:u0D:navigation/0,
14:u12:navigation,
7:u22:nav,
8:u23:navi,
16:u0B:,/navigation,
16:u0A:,/navigation,
16:u09:,/navigation,
6:u03:Hu,
6:u02:Hu,
6:u01:Hu,
6:u00:Hu,
8:u33:uber,
6:u21:VR,
14:u09:./KEYWORDS,
14:u0A:KEYWORDS/:,
14:u09:KEYWORDS/:,
14:u0C:./KEYWORDS,
14:u0C:KEYWORDS/:,
10:u0B:2011/(,
10:u0A:2011/(,
10:u09:2011/(,
8:u0C:an/-,
13:u08:Christian,
13:u07:Christian,
13:u05:Christian,
13:u13:christian,
13:u04:Christian,
15:u0D:Christian/0,
13:u12:christian,
8:u33:tian,
13:u03:Christian,
13:u11:christian,
13:u02:Christian,
13:u10:christian,
11:u05:SUMMARY,
11:u04:SUMMARY,
13:u0D:SUMMARY/0,
7:u22:SUM,
8:u23:SUMM,
8:u33:MARY,
14:u02:motivating,
14:u01:motivating,
14:u00:motivating,
15:u0B:,/September,
15:u0A:,/September,
15:u09:,/September,
15:u0C:,/September,
8:u0C:./at,
6:u21:GM,
8:u33:acht,
7:u22:ich,
8:u08:Wien,
8:u07:Wien,
8:u06:Wien,
8:u14:wien,
8:u05:Wien,
8:u13:wien,
8:u04:Wien,
21:u09:Universität/Wien,
10:u0D:Wien/0,
8:u12:wien,
8:u23:Wien,
8:u33:Wien,
8:u03:Wien,
21:u0C:Universität/Wien,
8:u11:wien,
8:u02:Wien,
8:u10:wien,
8:u01:Wien,
8:u00:Wien,
7:u22:Ang,
16:u11:organization,
16:u10:organization,
8:u23:Werk,
11:u08:gemacht,
11:u07:gemacht,
11:u06:gemacht,
11:u14:gemacht,
11:u05:gemacht,
11:u13:gemacht,
11:u04:gemacht,
13:u0D:gemacht/0,
11:u12:gemacht,
8:u23:gema,
11:u03:gemacht,
11:u11:gemacht,
11:u02:gemacht,
11:u10:gemacht,
15:u02:Technischen,
15:u10:technischen,
15:u01:Technischen,
11:u02:Patient,
11:u01:Patient,
30:u0A:Computational/Intelligence,
30:u09:Computational/Intelligence,
17:u0B:application/,,
17:u0A:application/,,
17:u09:application/,,
17:u0C:application/,,
7:u10:bin,
9:u0B:,/auf,
9:u0A:,/auf,
9:u09:,/auf,
9:u0C:,/auf,
9:u04:deren,
9:u12:deren,
8:u23:dere,
9:u03:deren,
9:u11:deren,
9:u02:deren,
9:u10:deren,
9:u01:deren,
9:u00:deren,
10:u08:Gruber,
10:u06:Gruber,
10:u14:gruber,
10:u05:Gruber,
10:u13:gruber,
10:u04:Gruber,
12:u0D:Gruber/0,
10:u12:gruber,
8:u23:Grub,
10:u03:Gruber,
10:u11:gruber,
8:u23:kenn,
16:u03:Organization,
16:u02:Organization,
13:u08:usability,
13:u07:usability,
13:u06:usability,
15:u0B:,/usability,
13:u14:usability,
13:u05:usability,
15:u0A:,/usability,
15:u0B:usability/,,
13:u13:usability,
13:u04:usability,
15:u09:,/usability,
15:u0A:usability/,,
15:u0D:usability/0,
13:u12:usability,
8:u23:usab,
13:u03:usability,
15:u09:usability/,,
15:u0C:,/usability,
13:u11:usability,
13:u02:usability,
15:u0C:usability/,,
13:u10:usability,
13:u01:usability,
13:u00:usability,
7:u32:aut,
10:u08:Quelle,
10:u07:Quelle,
10:u06:Quelle,
10:u14:quelle,
10:u05:Quelle,
10:u13:quelle,
10:u04:Quelle,
12:u0D:Quelle/0,
10:u12:quelle,
8:u23:Quel,
10:u03:Quelle,
10:u11:quelle,
10:u02:Quelle,
10:u10:quelle,
10:u01:Quelle,
10:u00:Quelle,
14:u04:Erklärung,
16:u0D:Erklärung/0,
14:u12:erklärung,
14:u03:Erklärung,
14:u11:erklärung,
14:u02:Erklärung,
14:u10:erklärung,
14:u01:Erklärung,
14:u00:Erklärung,
8:u23:Anga,
8:u33:euer,
10:u0B:Wien/,,
10:u0A:Wien/,,
10:u09:Wien/,,
10:u0C:Wien/,,
8:u23:Sinn,
8:u08:Fall,
8:u07:Fall,
8:u06:Fall,
8:u05:Fall,
8:u04:Fall,
10:u0D:Fall/0,
8:u23:Fall,
8:u33:Fall,
8:u03:Fall,
8:u02:Fall,
8:u01:Fall,
8:u00:Fall,
10:u0B:sind/,,
10:u0A:sind/,,
10:u09:sind/,,
10:u0C:sind/,,
8:u23:1220,
28:u0C:Technischen/Universität,
15:u06:eingereicht,
15:u14:eingereicht,
15:u05:eingereicht,
15:u13:eingereicht,
8:u33:ESIS,
7:u02:Bin,
7:u01:Bin,
7:u00:Bin,
8:u23:Wort,
7:u32:MST,
8:u23:Wach,
7:u14:ich,
7:u13:ich,
7:u12:ich,
7:u11:ich,
7:u10:ich,
10:u0C:Bin/Hu,
8:u33:laut,
10:u08:Angabe,
10:u07:Angabe,
10:u06:Angabe,
10:u14:angabe,
10:u05:Angabe,
10:u13:angabe,
10:u04:Angabe,
12:u0D:Angabe/0,
10:u12:angabe,
10:u03:Angabe,
10:u11:angabe,
10:u02:Angabe,
10:u10:angabe,
10:u01:Angabe,
10:u00:Angabe,
10:u04:THESIS,
12:u0D:THESIS/0,
8:u23:THES,
10:u03:THESIS,
19:u0B:eingereicht/von,
13:u0A:Austria/E,
13:u09:Austria/E,
16:u0B::/hypermedia,
16:u0C:motivating/.,
16:u0A::/hypermedia,
26:u0B:hypermedia/application,
16:u09::/hypermedia,
26:u0A:hypermedia/application,
26:u09:hypermedia/application,
16:u0C::/hypermedia,
26:u0C:hypermedia/application,
19:u0B:,/interactivity,
19:u0A:,/interactivity,
19:u0B:interactivity/,,
19:u09:,/interactivity,
19:u0A:interactivity/,,
19:u09:interactivity/,,
19:u0B:navigation/_x+1,
19:u0C:,/interactivity,
19:u0A:navigation/_x+1,
19:u0C:interactivity/,,
9:u00:Plans,
10:u07:Aigner,
15:u09:Data/THESIS,
18:u0A:THESIS/SUMMARY,
20:u0B:SUMMARY/Wolfgang,
16:u0C:Patient/Data,
10:u06:Aigner,
18:u09:THESIS/SUMMARY,
20:u0A:SUMMARY/Wolfgang,
19:u0B:Wolfgang/Aigner,
15:u0C:Data/THESIS,
10:u14:aigner,
12:u03:Studiums,
26:u09:Studiums/Computational,
28:u0B:Intelligence/eingereicht,
16:u0C:des/Studiums,
12:u11:studiums,
12:u02:Studiums,
28:u0A:Intelligence/eingereicht,
26:u0C:Studiums/Computational,
12:u10:studiums,
20:u0B:Christian/Gruber,
20:u0A:Christian/Gruber,
20:u09:Christian/Gruber,
20:u0C:Christian/Gruber,
13:u05:Betreuung,
12:u06:Betreuer,
18:u0A:Wien/Betreuung,
22:u0B:Betreuung/Betreuer,
13:u13:betreuung,
12:u14:betreuer,
13:u04:Betreuung,
12:u05:Betreuer,
18:u09:Wien/Betreuung,
22:u0A:Betreuung/Betreuer,
14:u0B:Betreuer/:,
15:u0D:Betreuung/0,
13:u12:betreuung,
12:u13:betreuer,
12:u04:Betreuer,
14:u0D:Betreuer/0,
12:u12:betreuer,
12:u03:Betreuer,
12:u11:betreuer,
11:u09:Hu/Wien,
15:u0B:September/5,
11:u0C:Hu/Wien,
15:u0A:September/5,
15:u09:September/5,
13:u08:Verfasser,
15:u0C:September/5,
13:u07:Verfasser,
16:u05:Unterschrift,
13:u06:Verfasser,
18:u0A:(/Unterschrift,
26:u0B:Unterschrift/Verfasser,
16:u13:unterschrift,
13:u14:verfasser,
16:u04:Unterschrift,
18:u09:(/Unterschrift,
18:u0D:Unterschrift/0,
16:u12:unterschrift,
16:u03:Unterschrift,
18:u0C:(/Unterschrift,
16:u11:unterschrift,
16:u02:Unterschrift,
16:u10:unterschrift,
18:u07:Wachbergsraße,
17:u09:at/Erklärung,
24:u0A:Erklärung/Christian,
18:u06:Wachbergsraße,
8:u08:3382,
24:u09:Erklärung/Christian,
25:u0B:Gruber/Wachbergsraße,
17:u0C:at/Erklärung,
18:u14:wachbergsraße,
18:u05:Wachbergsraße,
8:u07:3382,
13:u08:Schollach,
25:u0A:Gruber/Wachbergsraße,
21:u0B:Wachbergsraße/29,
24:u0C:Erklärung/Christian,
18:u13:wachbergsraße,
18:u04:Wachbergsraße,
8:u06:3382,
13:u07:Schollach,
11:u08:Hiermit,
25:u09:Gruber/Wachbergsraße,
21:u0A:Wachbergsraße/29,
11:u0B:29/3382,
20:u0D:Wachbergsraße/0,
18:u12:wachbergsraße,
8:u14:3382,
18:u03:Wachbergsraße,
8:u05:3382,
13:u06:Schollach,
11:u07:Hiermit,
12:u08:erkläre,
21:u09:Wachbergsraße/29,
11:u0A:29/3382,
18:u0B:3382/Schollach,
25:u0C:Gruber/Wachbergsraße,
18:u11:wachbergsraße,
8:u13:3382,
13:u14:schollach,
18:u02:Wachbergsraße,
8:u04:3382,
13:u05:Schollach,
11:u06:Hiermit,
12:u07:erkläre,
7:u08:ich,
11:u09:29/3382,
18:u0A:3382/Schollach,
21:u0B:Schollach/Hiermit,
21:u0C:Wachbergsraße/29,
10:u0D:3382/0,
18:u10:wachbergsraße,
8:u12:3382,
13:u13:schollach,
11:u14:hiermit,
7:u22:338,
8:u23:3382,
8:u33:3382,
7:u07:ich,
7:u06:ich,
7:u05:ich,
7:u04:ich,
9:u0D:ich/0,
7:u23:ich,
7:u33:ich,
7:u03:ich,
12:u0B:dass/ich,
7:u02:ich,
12:u0A:dass/ich,
7:u01:ich,
12:u09:dass/ich,
7:u00:ich,
8:u08:habe,
12:u0C:dass/ich,
8:u07:habe,
8:u06:habe,
8:u14:habe,
8:u05:habe,
8:u13:habe,
8:u04:habe,
10:u0D:habe/0,
8:u12:habe,
8:u33:habe,
8:u03:habe,
8:u11:habe,
8:u02:habe,
8:u10:habe,
8:u01:habe,
11:u0A:ich/die,
8:u00:habe,
11:u09:ich/die,
11:u0C:ich/die,
10:u05:Werken,
11:u09:-/deren,
16:u0A:deren/Werken,
15:u0B:Werken/oder,
11:u0D:deren/1,
10:u13:werken,
10:u04:Werken,
16:u09:deren/Werken,
15:u0A:Werken/oder,
11:u0C:-/deren,
12:u0D:Werken/0,
10:u12:werken,
10:u03:Werken,
12:u08:Wortlaut,
15:u09:Werken/oder,
16:u0B:dem/Internet,
16:u0C:deren/Werken,
10:u11:werken,
10:u02:Werken,
12:u07:Wortlaut,
16:u0A:dem/Internet,
15:u0B:Internet/im,
15:u0C:Werken/oder,
10:u10:werken,
10:u01:Werken,
12:u06:Wortlaut,
16:u09:dem/Internet,
15:u0A:Internet/im,
15:u0B:im/Wortlaut,
12:u14:wortlaut,
10:u00:Werken,
12:u05:Wortlaut,
8:u08:Sinn,
15:u09:Internet/im,
15:u0A:im/Wortlaut,
17:u0B:Wortlaut/oder,
16:u0C:dem/Internet,
12:u13:wortlaut,
12:u04:Wortlaut,
8:u07:Sinn,
15:u09:im/Wortlaut,
17:u0A:Wortlaut/oder,
15:u0C:Internet/im,
14:u0D:Wortlaut/0,
12:u12:wortlaut,
12:u03:Wortlaut,
8:u06:Sinn,
13:u08:entnommen,
17:u09:Wortlaut/oder,
12:u0B:dem/Sinn,
15:u0C:im/Wortlaut,
12:u11:wortlaut,
8:u14:sinn,
12:u02:Wortlaut,
8:u05:Sinn,
13:u07:entnommen,
12:u0A:dem/Sinn,
13:u0B:Sinn/nach,
17:u0C:Wortlaut/oder,
12:u10:wortlaut,
8:u13:sinn,
12:u01:Wortlaut,
8:u04:Sinn,
13:u06:entnommen,
12:u09:dem/Sinn,
13:u0A:Sinn/nach,
18:u0B:nach/entnommen,
10:u0D:Sinn/0,
8:u12:sinn,
13:u14:entnommen,
8:u33:Sinn,
12:u00:Wortlaut,
8:u03:Sinn,
13:u05:entnommen,
13:u09:Sinn/nach,
18:u0A:nach/entnommen,
18:u0B:entnommen/sind,
12:u0C:dem/Sinn,
8:u11:sinn,
13:u13:entnommen,
8:u02:Sinn,
13:u04:entnommen,
9:u08:jeden,
18:u09:nach/entnommen,
18:u0A:entnommen/sind,
13:u0C:Sinn/nach,
15:u0D:entnommen/0,
8:u10:sinn,
13:u12:entnommen,
8:u23:entn,
8:u01:Sinn,
13:u03:entnommen,
9:u07:jeden,
18:u09:entnommen/sind,
18:u0C:nach/entnommen,
13:u11:entnommen,
8:u00:Sinn,
13:u02:entnommen,
9:u06:jeden,
13:u0B:auf/jeden,
18:u0C:entnommen/sind,
13:u10:entnommen,
9:u14:jeden,
13:u01:entnommen,
9:u05:jeden,
13:u0A:auf/jeden,
14:u0B:jeden/Fall,
9:u13:jeden,
13:u00:entnommen,
9:u04:jeden,
13:u09:auf/jeden,
14:u0A:jeden/Fall,
14:u0B:Fall/unter,
11:u0D:jeden/0,
9:u12:jeden,
9:u03:jeden,
14:u09:jeden/Fall,
14:u0A:Fall/unter,
16:u0B:unter/Angabe,
13:u0C:auf/jeden,
9:u11:jeden,
9:u02:jeden,
14:u09:Fall/unter,
16:u0A:unter/Angabe,
14:u0B:Angabe/der,
14:u0C:jeden/Fall,
9:u10:jeden,
9:u01:jeden,
14:u08:Entlehnung,
16:u09:unter/Angabe,
14:u0A:Angabe/der,
14:u0B:der/Quelle,
14:u0C:Fall/unter,
9:u00:jeden,
14:u07:Entlehnung,
13:u08:kenntlich,
14:u09:Angabe/der,
14:u0A:der/Quelle,
14:u0B:Quelle/als,
16:u0C:unter/Angabe,
14:u06:Entlehnung,
13:u07:kenntlich,
14:u09:der/Quelle,
14:u0A:Quelle/als,
18:u0B:als/Entlehnung,
14:u0C:Angabe/der,
14:u14:entlehnung,
14:u05:Entlehnung,
13:u06:kenntlich,
14:u09:Quelle/als,
18:u0A:als/Entlehnung,
24:u0B:Entlehnung/kenntlich,
14:u0C:der/Quelle,
14:u13:entlehnung,
13:u14:kenntlich,
14:u04:Entlehnung,
13:u05:kenntlich,
18:u09:als/Entlehnung,
24:u0A:Entlehnung/kenntlich,
21:u0B:kenntlich/gemacht,
14:u0C:Quelle/als,
16:u0D:Entlehnung/0,
14:u12:entlehnung,
13:u13:kenntlich,
8:u23:Entl,
14:u03:Entlehnung,
13:u04:kenntlich,
15:u08:Kurzfassung,
24:u09:Entlehnung/kenntlich,
21:u0A:kenntlich/gemacht,
16:u0B:gemacht/habe,
18:u0C:als/Entlehnung,
15:u0D:kenntlich/0,
14:u11:entlehnung,
13:u12:kenntlich,
14:u02:Entlehnung,
13:u03:kenntlich,
15:u07:Kurzfassung,
21:u09:kenntlich/gemacht,
16:u0A:gemacht/habe,
10:u0B:habe/.,
24:u0C:Entlehnung/kenntlich,
14:u10:entlehnung,
13:u11:kenntlich,
14:u01:Entlehnung,
13:u02:kenntlich,
15:u06:Kurzfassung,
16:u09:gemacht/habe,
10:u0A:habe/.,
17:u0B:./Kurzfassung,
21:u0C:kenntlich/gemacht,
13:u10:kenntlich,
15:u14:kurzfassung,
14:u00:Entlehnung,
13:u01:kenntlich,
15:u05:Kurzfassung,
10:u09:habe/.,
17:u0A:./Kurzfassung,
18:u0B:Kurzfassung/In,
16:u0C:gemacht/habe,
15:u13:kurzfassung,
8:u08:GMST,
13:u0B:-/Problem,
8:u07:GMST,
13:u0A:-/Problem,
8:u06:GMST,
13:u09:-/Problem,
13:u0D:Problem/1,
8:u14:gmst,
8:u05:GMST,
13:u0C:-/Problem,
8:u13:gmst,
8:u04:GMST,
10:u0D:GMST/0,
8:u12:gmst,
7:u22:GMS,
8:u23:GMST,
8:u33:GMST,
8:u03:GMST,
8:u11:gmst,
8:u02:GMST,
8:u10:gmst,
8:u01:GMST,
8:u00:GMST,
15:u05:Purgathofer,
23:u09:Organization/Werner,
22:u0A:Werner/Purgathofer,
22:u0B:Purgathofer/Vienna,
25:u0C:Research/Organization,
15:u13:purgathofer,
15:u04:Purgathofer,
22:u09:Werner/Purgathofer,
22:u0A:Purgathofer/Vienna,
23:u0C:Organization/Werner,
17:u0D:Purgathofer/0,
15:u12:purgathofer,
8:u23:Purg,
9:u04:VRVis,
8:u08:1220,
11:u09:&/VRVis,
18:u0A:VRVis/Research,
13:u0C:Austria/&,
11:u0D:VRVis/0,
9:u12:vrvis,
7:u22:VRV,
8:u23:VRVi,
8:u33:RVis,
9:u03:VRVis,
8:u07:1220,
18:u09:VRVis/Research,
11:u0C:&/VRVis,
9:u11:vrvis,
9:u00:VRVis,
8:u04:1220,
9:u07:Donau,
10:u09:,/1220,
13:u0A:1220/Wien,
10:u0D:1220/0,
8:u12:1220,
8:u33:1220,
5=0xd.c367e374e8ea8p-9
15=0xc.0512d4d2bb4e8p-15
19=0xd.9c06ad257d5bp-9
20=-0xd.7999209813f18p-19
43=0x8.657327c72a5cp-16
47=0xb.9759c184d8618p-20
51=-0xb.ce167816c507p-22
62=-0xc.69d1ac0424278p-14
84=0xa.7d7acdeb803p-9
85=-0xa.8fe875d6f8c5p-7
86=0x8.a04a84978f818p-9
88=0x9.c4af04cb506f8p-5
89=-0xe.9a71c80f79588p-5
92=0xa.87db32f04cabp-8
93=-0xa.580b99ef61efp-14
94=0xa.4f1a941d5db38p-7
103=0x8.774d2f5c41ep-4
104=-0xe.3133867712efp-8
112=0xc.972482216487p-18
113=-0xb.dc2ecca6a2fbp-17
120=0xc.c9dc8c74ab58p-10
121=-0xb.0a423b5540cep-7
127=0xc.0dcf075cd909p-9
129=-0xe.5d3a6cfd3f09p-13
130=-0xc.0bbcd351fddbp-12
131=0x8.9fab242880278p-8
134=0xf.c9dcf0f3c835p-8
135=0xc.6658634e908cp-8
136=0xc.25b2e31f7494p-15
137=-0xb.c7f04c65abe3p-23
141=0xe.fb27ef9606f08p-9
142=0xf.ad8c736d5606p-12
145=-0xf.32c289df54b7p-18
146=0x9.cee88d71d8898p-5
149=0xa.0c969046ac0ap-16
150=0xe.e6b652bc96acp-9
154=0xd.429712b88656p-19
155=0xc.ee9d2cbe4fb78p-11
163=-0xe.fc908a2bfe6bp-9
168=0xa.3f04a58d8671p-9
169=-0xd.9e7902720bdbp-5
170=0xa.414bdc5869178p-4
171=-0xa.f4338f8cc2d2p-6
172=0xa.dbd9703590748p-5
173=-0xa.703c5672a3b1p-4
176=0xa.3ef070446e0d8p-6
177=-0x9.08033a8a62478p-9
178=0x9.f09875218c6cp-19
187=0xe.b1e905625bd98p-5
188=-0xb.7f675a4b5fd2p-14
191=0xe.595e72570261p-10
192=-0xe.d07cc99ddc7b8p-11
196=0xc.65bfbe6fa2668p-18
197=-0xe.664474186bap-16
204=0xf.ece3b174ef888p-9
205=-0x8.730d52b0667b8p-5
211=0xc.6b56d5f050abp-11
212=0x9.d9f551963401p-12
213=-0xf.aab0817f92798p-13
214=-0xf.12d8872fdfe98p-6
215=0xb.a00de26f96a68p-8
218=0xd.02a384111aecp-17
219=-0x9.a1d1de3a84838p-9
225=0xe.c4c24b87b3d5p-8
226=0x8.6d8d64771d318p-11
230=0xf.bd8925b046888p-6
233=0x9.6aa1241cd252p-17
234=0x8.35453fc6b2a08p-8
238=0xa.36930a5ff1fap-18
239=0xc.408df60ca85bp-11
247=0x8.d94a1d728b038p-11
252=0x9.88042e7d23b8p-4
295=-0xa.ee2960f902e9p-10
298=0xa.8020d97fc64fp-5
299=0xd.9702e5f6ecap-9
303=-0xf.62818d53a004p-16
304=0x8.6b0c6816b82ap-22
313=0x8.257f061c2039p-6
314=-0xa.9124e9e639318p-9
322=0xc.aea65a090aecp-18
323=0x9.3c5ad518cbd6p-20
337=0xb.bbd803a774da8p-8
339=-0x8.700370a6d06c8p-11
340=-0x8.46be017fdabep-9
341=0xc.fc3cd7a173d6p-9
344=0x9.4445926b4515p-17
345=-0x9.95bdbe6f9233p-9
346=0x9.23ba8fe7ab888p-14
347=0xb.13f04b2bb6f9p-22
351=0x8.a8a9f39db27dp-8
352=-0x9.65f11aa77418p-18
355=-0xe.e2dd571d417p-16
356=0xa.a4caedafef56p-11
359=0x8.9208f42adbb28p-8
360=0xc.f4235d565cep-9
364=0xd.8085ac5a03e9p-19
365=0x8.6fc8924c2fb3p-11
372=0xf.9cd4f8b85f8b8p-9
373=0xc.6a659bd95b6a8p-8
378=0xa.582a59af9aec8p-5
415=0x8.02523c71266e8p-12
421=0xe.beb65bf8c931p-9
423=-0x9.02d5eab2cec8p-11
424=0xa.14159c19dae68p-9
425=0xc.f21e6b48f3d38p-8
429=0x8.c4616dd5ae008p-7
430=0x8.7fceb86b16e38p-18
431=-0xa.550aae6d1784p-17
435=0x8.a0fb341910d68p-14
439=0x9.75714906ecd6p-13
440=-0xa.4e0d6601bcdc8p-11
443=0x8.3b76bf1d176dp-15
444=0xb.691726e5b7af8p-10
448=0xf.7e6e36543c808p-20
449=0xc.0ffe20edbee2p-8
457=0xf.0738946071dep-8
463=-0xe.d55cfb60d41f8p-10
465=-0xc.867c6ce79be2p-14
466=0x9.9b944dcc7893p-8
467=0x9.2e64a2ddde14p-8
471=0xf.ed63c0d889dc8p-8
472=0xc.c901425b109fp-22
473=0xe.18e5e7043d8b8p-8
478=-0x8.a13e17f064c5p-14
481=0xc.a8046a5304e1p-6
485=0xb.e84a674210dc8p-16
486=0x9.c70ad1384262p-8
491=0xc.5b74c80531f5p-11
498=0xc.bf6408e32c848p-5
499=-0xc.a6f4fa34b71e8p-10
505=-0xb.f349c57ded9d8p-5
507=-0xd.ed5217c4418e8p-12
508=0x9.da6e7cc67fcep-9
509=0xa.0df6e79eca5d8p-8
512=-0xf.c1f0334e87858p-14
513=0x8.4667ae650246p-7
514=0xc.bc887caaa72p-22
515=0xe.126e90b354988p-8
519=0x8.321ce11bd8da8p-14
523=0x9.aa474ada67278p-7
524=0xe.03310f11a102p-10
527=0xd.a95566459a82p-17
528=0xd.c97cd232f4368p-10
533=0x9.123239987516p-14
540=0xa.9de2f87b5b59p-6
547=0x9.7a41415ef26b8p-7
548=0x9.4b48593d163ep-14
549=0xb.589fbe8496cb8p-13
550=0xa.6f7611b598c98p-8
551=0xd.402c2bb06c4f8p-8
554=-0x9.4a6dd96411d98p-8
555=-0xd.901f3830387fp-9
556=0xb.c6df1dc02c4p-21
557=0xb.c0c2bcf5b2fep-17
562=-0xf.078d4e244e828p-13
565=0x8.d5c2a475c10e8p-21
566=0xf.25bd18dc7f82p-11
569=0xf.cc275e3b5f12p-15
570=-0x9.85e204742803p-11
574=0xf.acb596598bf5p-20
575=0xe.db375741a34p-11
582=0x8.a6f5fd8d8297p-15
583=0xd.957ee68091b2p-9
589=0x8.fe48f887f3e88p-7
590=0x9.4d727d67a32e8p-14
591=0xe.97b1e1194cd28p-13
592=0xc.992dc893f123p-9
593=0x9.62576ca9a94dp-7
596=-0xa.04167ac86c818p-9
597=-0x8.ad66d99186a3p-9
598=0xb.caca9d4d7698p-21
599=0x8.c607fda2250cp-19
604=-0xb.04b30013385bp-13
608=0xb.6ba0a15e7ba38p-13
611=0xf.cb1d578e09918p-15
612=-0xd.250c14f86faap-13
616=0xf.a9f671c2aec3p-20
617=0xc.0899fd7f15fp-11
624=0x8.9cad180485c5p-15
625=0xc.eefc0fcd90b38p-8
631=0xb.09435ac31e0c8p-8
633=-0x8.10e22d5b313a8p-11
634=0xf.11f9477ea177p-9
635=0xe.366245fadd4c8p-9
638=0xb.1865708fc44a8p-16
639=-0xd.422b7bd56106p-8
640=0xb.90565ce6594b8p-21
641=0xa.e7b06e0dc0a9p-9
646=-0xb.45adbcd7b6ecp-16
649=0xd.7a3a2f35d3dcp-12
650=0x8.9fcf2c2142298p-10
653=0x8.ddf23f99617bp-14
658=0xf.9ee59544e511p-20
659=0xa.a712b64712a9p-11
666=0xd.db90568215db8p-13
667=0xb.c84d5c780406p-9
673=0xb.0ac34f3074f78p-8
675=-0x8.07e0928e7d418p-11
676=0x8.cb5ec2970dd68p-9
677=0x9.033055f85b38p-7
680=0xb.178a30e6de888p-16
681=-0xb.781f75116fbfp-12
682=0xc.2e32805498fep-21
683=0xc.113f1dfc6f788p-9
687=0xa.24e1f4d98bc98p-16
688=-0xf.8c46a19ade36p-18
691=0x8.847c451c3197p-21
692=-0x9.2cf60a4d783bp-12
695=0x8.de318fa5ed54p-14
696=0xc.d47823208956p-11
700=0xf.9c112af0f6b38p-20
701=0xb.fa3c6201c9878p-11
708=0x8.417cec2771ap-15
709=0xc.5f15fe1480c1p-9
714=0xb.bcdcf902a3bp-10
715=0xf.b56ad320a3ebp-8
716=0xe.3fc5bac89badp-14
717=-0x9.481969cd0f8bp-10
719=-0xe.fee3ed5cf87ep-9
722=0xd.11188ef02c208p-16
723=0xe.022ab639579c8p-6
724=0xf.6ed6953611808p-22
725=0x9.52363d0c2062p-5
730=0xb.a24b3de30b678p-7
733=0x8.46f68f909ab5p-13
734=0xf.95301bee972b8p-13
738=-0xa.2209edd986d98p-5
743=-0xd.02301377168ep-14
751=-0xa.a6f535a718538p-11
759=0xb.dccd28a5b74e8p-13
760=-0x8.50d63d76be908p-8
761=-0xf.2c8deb1a8f5ep-9
765=0xf.41313ea64da98p-6
767=0x9.a0d71b49a0fd8p-23
775=-0x9.600beb1b6ee78p-17
776=0x9.27b7a826dc9bp-5
780=0xa.8bba2a3f3a2c8p-10
785=0xb.b147ba0142b78p-11
792=0x9.6c26a212125cp-9
793=0xe.89edfa1725498p-8
802=-0x9.9e9ba73c87098p-13
803=-0x8.e8b3d3e3f46fp-5
818=-0xf.0727189e30418p-18
827=-0xf.756d74cc29c3p-19
835=-0x8.ee82f09d35d4p-6
840=0xf.3f0d22951d3d8p-7
883=0x9.68fd44a81e158p-7
885=-0xd.fb1c2a67f68p-11
886=0x8.84646a1946e2p-14
887=0x9.418add1fa3c5p-7
891=0xf.1aa95d79f7818p-11
892=0x9.09859b8bfcf98p-22
893=0x8.64f94fc517c38p-10
898=0xa.99dd80605bfb8p-11
901=0x8.9fce9be0dcfep-21
902=0x9.3c7a91f173e28p-11
905=0xf.b06817284fcbp-15
906=-0x8.8770a50ee3488p-7
910=0xf.94e8d40cd395p-20
911=0xc.f64ad20069bp-10
918=0xd.f0010bad3f248p-13
919=0x9.4e870d57b5b68p-7
925=0x9.48b986ab3e638p-7
927=-0xb.4a6bac2097f88p-11
928=0xa.7acf5791090dp-8
929=0x8.be2d000668fc8p-7
933=0xa.827eb1550b55p-12
934=0x9.2922e03e45938p-18
935=0xf.c0cb42c22babp-12
939=0x8.83b53160b0798p-15
940=0xc.2c5959d5591bp-13
943=0xe.7ec38121be0e8p-7
944=0x8.59b2e32b4f8ep-11
947=0x8.c49dccdb4cdf8p-14
948=0xd.ae64e6ede3b6p-12
952=0xf.8aac406d7d1b8p-20
953=0xc.5a1838c320998p-14
960=0xa.6ff1f348d5e28p-5
961=0x9.b31342869ec5p-7
967=0xa.836c96df2b188p-9
969=-0xd.01752c0f8cb2p-12
970=0x9.7f0d16b706008p-8
971=-0xe.7a02fe2eff0cp-10
975=0xf.2ecc60ca93d8p-11
976=0xb.81902b54ae068p-7
977=0xe.2f8291d5d2d1p-10
981=0xb.abb0d080c0568p-15
982=0xf.16e7e48e0047p-11
985=0x8.d90960df2108p-21
986=0xc.bf6fcbbf6cdp-9
990=-0x9.428e019680768p-9
994=0xd.817b0cd47958p-19
995=0xc.5173ff69a5918p-12
1002=0x8.d3590e5ea7c28p-12
1003=0xc.57c1594b9ea98p-8
1009=0xb.f9cb405f6298p-9
1011=-0xe.a55945e2c576p-10
1012=0xb.99f95915e2f38p-8
1013=0xa.f8048c1dbd578p-8
1016=0x9.860d6b7346ba8p-16
1017=0x9.65ebe05f8aa4p-9
1018=0x9.00c7d41517438p-22
1019=0xa.c95661617013p-12
1024=-0xe.feebdd01620f8p-9
1028=0x8.1c5920ec16498p-9
1032=-0x8.856d124f3fb6p-9
1037=0xc.51e0219fd74a8p-12
1044=0xe.4f6089756dd8p-15
1045=0xc.7f1ef20d16dc8p-8
1051=0xa.836c96df2afd8p-9
1053=-0xd.01752c0f8cb2p-12
1054=0x9.7f0d16b706008p-8
1055=-0xe.7a02fe2eff0cp-10
1059=0xf.2ecc60ca93d8p-11
1060=0xb.81902b54ae068p-7
1061=0xe.2f8291d5d2d1p-10
1065=0xb.abb0d080c0568p-15
1066=0xf.16e7e48e0047p-11
1069=0x8.d90960df2108p-21
1070=0xc.bf6fcbbf6cdp-9
1074=-0x9.428e019680768p-9
1078=0xd.817b0cd47958p-19
1079=0xc.5173ff69a5918p-12
1086=0x8.d3590e5ea7c28p-12
1087=0xc.57c1594b9ea98p-8
1093=0x9.f8286fa441a08p-8
1095=-0xf.8b0bac9a9b2fp-12
1096=0xd.69c0e8b611048p-8
1097=0x8.3c56b4ddacb58p-8
1100=0x8.34d6c74147b3p-15
1101=-0x8.d1816c1b4ad48p-8
1103=0x9.95dec2c301228p-10
1107=0xf.432508dec88ep-14
1108=0x9.ba799efc1a4a8p-11
1111=0xa.3d6542bbf8d5p-21
1115=0xa.37aee32dc97cp-15
1116=-0xe.c0f21feb77598p-14
1120=0xf.864593fe6f18p-20
1121=0xc.9f1e2e0be0cp-11
1129=0xb.028cc5dd42abp-10
1135=0xd.561a1a1832e1p-8
1137=-0xc.cca4aa9bc7398p-7
1138=-0xd.7a82615648cb8p-11
1139=-0xb.39989fb6bd81p-6
1142=-0xe.25f07b82d71b8p-13
1143=0xb.23045b15f1fc8p-6
1144=0xb.d75f313f3cdcp-6
1145=-0x9.bf3c7d01181ep-5
1150=-0xe.4516f61230c6p-13
1153=0x9.fcd5ce80ba088p-23
1154=0x8.fa582657406b8p-6
1158=-0xe.d90d78a28f488p-11
1162=0x8.ed299822911cp-18
1163=0x8.4221a3c49p-27
1177=0xb.039ccfba3a73p-8
1179=-0xe.c2fe9b3b8eb08p-11
1180=0xb.632b0598f9558p-8
1181=0xf.1a30fb0e4dd2p-9
1184=0xb.186895a1b9738p-16
1185=-0xa.47e84e1608b7p-13
1186=0x9.29aaa779ed95p-22
1187=0x8.d9008b8d23cap-10
1195=0xb.6d1e5ec7252p-20
1196=0xe.a836c7f9cc278p-12
1199=0x8.ddf23f99617bp-14
1200=-0x9.65500dc1a376p-17
1204=0xf.9ee59544e511p-20
1205=0xf.b73a0bcd73d4p-12
1212=0xf.aa473f4deb4cp-9
1213=0x9.e66178f8d0e18p-9
1219=0xb.039ccfba3a73p-8
1221=-0xe.c2fe9b3b8eb08p-11
1222=0xb.632b0598f9558p-8
1223=0xf.1a30fb0e4dd2p-9
1226=0xb.186895a1b9738p-16
1227=-0xa.47e84e1608b7p-13
1228=0x9.29aaa779ed95p-22
1229=0x8.d9008b8d23cap-10
1237=0xb.6d1e5ec7252p-20
1238=0xe.a836c7f9cc278p-12
1241=0x8.ddf23f99617bp-14
1242=-0x9.65500dc1a376p-17
1246=0xf.9ee59544e511p-20
1247=0xf.b73a0bcd73d4p-12
1254=0xf.aa473f4deb4cp-9
1255=0x9.e66178f8d0e18p-9
1261=0xb.dd678b789a158p-8
1263=-0xd.124881c1baaf8p-9
1264=0xc.300f8ffe0e938p-8
1265=0x9.d86c353e138p-7
1268=0xa.f995badcc75fp-16
1269=-0x8.cee79a9f646fp-11
1270=0xc.5f4519c087c38p-21
1271=0x8.9855699c0f7cp-14
1275=-0xb.f646a3d2c029p-20
1276=0xe.0af7d1dc7327p-10
1279=0x8.880cb7f5f7c6p-21
1280=-0xc.b162c55675168p-10
1283=0x8.3be0933db89c8p-14
1284=0xe.8167303eba91p-11
1288=0xf.99a38c75da278p-20
1289=0xf.194540ec8b21p-11
1296=0xd.a395e109ae7cp-13
1297=0xf.c7c79c553b0a8p-10
1303=0xb.617e9008d8598p-8
1305=-0x9.75ef93a9fe428p-10
1306=0xc.28634a0383818p-8
1307=0x9.845b470bd2438p-7
1311=0x9.819d5d5d635c8p-9
1312=0xc.2d78e1e0f3268p-21
1313=0xb.31a36299309e8p-9
1322=-0xd.461844a66af2p-9
1325=0x8.c909058440b18p-14
1326=-0x8.a26e691708ff8p-16
1330=0xf.9c3d223147aa8p-20
1331=0x8.f87c9a63d7a18p-11
1338=0x8.4cfa30200939p-15
1339=0x8.5cfcf23814a88p-9
1345=0xb.039ccfba3a73p-8
1347=-0xe.c2fe9b3b8eb08p-11
1348=0xb.632b0598f9558p-8
1349=0xf.1a30fb0e4dd2p-9
1352=0xb.186895a1b9738p-16
1353=-0xa.47e84e1608a9p-13
1354=0x9.29aaa779ed95p-22
1355=0x8.d9008b8d23cap-10
1363=0xb.6d1e5ec7252p-20
1364=0xe.a836c7f9cc278p-12
1367=0x8.ddf23f99617bp-14
1368=-0x9.65500dc1a376p-17
1372=0xf.9ee59544e511p-20
1373=0xf.b73a0bcd73d4p-12
1380=0xf.aa473f4deb4cp-9
1381=0x9.e66178f8d0e18p-9
1387=0xb.0ae09009cac8p-8
1389=-0xe.c1bfdcb19aaap-11
1390=0xb.e817d97adecd8p-9
1391=0xf.5e23d278ccdb8p-9
1394=0xb.1867c37bb2f7p-16
1395=-0xa.8c65e7c1c497p-13
1396=0xb.3d01f55911a6p-9
1397=0xa.2c1fecb1c40d8p-9
1406=0xf.8fe6dd8a87658p-12
1409=0x8.f4c9a0c0e8c78p-3
1414=0xf.9ee59544e511p-20
1415=0x8.21c12f15ef7b8p-11
1422=0xf.a491e7409e8d8p-9
1423=0x9.da74be0dae1cp-9
1429=0xb.f9cb405f6298p-9
1431=-0xe.a55945e2c576p-10
1432=0xb.99f95915e2f38p-8
1433=0xa.f8048c1dbd578p-8
1436=0x9.860d6b7346ba8p-16
1437=0x9.65ebe05f8aa4p-9
1438=0x9.00c7d41517438p-22
1439=0xa.c95661617013p-12
1444=-0xe.feebdd01620f8p-9
1448=0x8.1c5920ec16498p-9
1452=-0x8.856d124f3fb6p-9
1457=0xc.51e0219fd74a8p-12
1464=0xe.4f6089756dd8p-15
1465=0xc.7f1ef20d16dc8p-8
1471=0x9.8efb8f8966ebp-9
1473=-0xf.5b69893d9a4bp-12
1474=-0xc.79eed2c23426p-6
1475=0xe.8847c62a4dc7p-8
1478=-0xc.08a779e1d9eap-12
1479=-0xe.0622f33e72f28p-9
1480=0xf.f88d528dbf6e8p-8
1481=-0xb.89ea3277ad128p-17
1485=0xc.c5a478db8b55p-11
1486=0xc.2cfb948536878p-10
1489=-0x8.1f8c84758cd6p-16
1490=0xd.43e731b6e3be8p-8
1493=0xf.67de93bcd32b8p-15
1494=0x8.bf4c00c3f3c5p-11
1498=0xf.8360ce7d4acfp-20
1499=0xb.be6d09d79078p-11
1506=0x9.e2ee6710e8438p-6
1507=0xd.4ac24e3f8c1ep-9
1513=0xa.053d633c1928p-6
1516=0xa.eaabc70387808p-6
1517=-0xa.3783d980f9f18p-8
1520=0xf.8dc6446aad7d8p-7
1521=0x9.b195ed0c65f28p-9
1523=0x9.c3976d0efed98p-5
1528=-0xe.9f7afd8572afp-15
1531=0xb.b32bf9521c578p-12
1532=0x9.60c7cdaff63f8p-6
1541=0xa.266ff67812c68p-9
1549=-0x8.9540feae9c448p-9
1555=0xa.e8ae2ba7f6dbp-8
1557=-0x8.07e0928e7d418p-11
1558=0xa.9e0509ac769e8p-10
1559=0x9.27fca97911a3p-7
1562=0xb.178a30e6de888p-16
1563=-0xb.781f75116fbfp-12
1564=0xd.4d0e0be76b868p-9
1565=0xb.ceb528bc3162p-10
1569=0xa.24e1f4d98bc98p-16
1573=0x9.561cec74e3bc8p-19
1574=0xd.16da8b95b5268p-12
1577=0x8.de318fa5ed54p-14
1578=0xd.64d71f808988p-11
1582=0xf.9c112af0f6b38p-20
1583=0xb.fa3c6201c9878p-11
1590=0x8.417cec2771ap-15
1591=0xc.3ca8aecb1e878p-9
1597=0xa.e8ae2ba7f6dbp-8
1599=-0x8.07e0928e7d418p-11
1600=0xa.9e0509ac769e8p-10
1601=0x9.27fca97911a3p-7
1604=0xb.178a30e6de888p-16
1605=-0xb.781f75116fbfp-12
1606=0xd.4d0e0be76b868p-9
1607=0xb.ceb528bc3162p-10
1611=0xa.24e1f4d98bc98p-16
1615=0x9.561cec74e3bc8p-19
1616=0xd.16da8b95b5268p-12
1619=0x8.de318fa5ed54p-14
1620=0xd.64d71f808988p-11
1624=0xf.9c112af0f6b38p-20
1625=0xb.fa3c6201c9878p-11
1632=0x8.417cec2771ap-15
1633=0xc.3ca8aecb1e878p-9
1639=0xb.9d65ff3afa7p-8
1641=-0xa.0130d67d86288p-10
1642=0xc.f6264e105b5b8p-8
1643=0x8.4b7113aa5808p-8
1646=0xa.4519e311c23bp-16
1647=-0x8.7e93b111457cp-10
1648=0x9.1c914f627db58p-18
1649=0xf.873c6c4cc0d58p-18
1653=0xa.23d83f106e41p-16
1657=0x8.88ab6defdb2dp-21
1658=-0x9.8c81ba46588ep-10
1661=0x8.d5b338fb5873p-14
1662=-0x8.de5a573cdf52p-11
1666=0xf.908dc559768a8p-20
1667=0xc.3d9b88acc3d3p-11
1674=0x8.be76ab26c857p-5
1675=-0xb.e4872cb2dc73p-17
1681=0xb.35dbd9d96578p-8
1683=-0xa.6eb82fcfa83c8p-11
1684=-0x8.822d1d0d3ef1p-14
1685=0x8.20678f8be8e18p-8
1688=-0xe.6624e327707b8p-11
1689=0x9.bb4b0f99a4978p-9
1690=0xc.2cd0d5abd8fb8p-21
1691=0xf.45fb3c34e8f58p-17
1695=0xa.7209876dd42a8p-10
1696=-0xc.e8b092ae4dfp-17
1699=0x8.847dddf6cf17p-21
1703=0x8.ddf1833f73fep-14
1704=0xe.261043debffep-11
1708=0xf.9b4c3205dc4c8p-20
1709=0x9.bb7376630fdp-13
1716=0x8.4234217af5fd8p-15
1717=0xb.eb54cc1674c08p-9
1723=0xa.e8ae2ba7f6dbp-8
1725=-0x8.07e0928e7d418p-11
1726=0xa.9e0509ac769e8p-10
1727=0x9.27fca97911a3p-7
1730=0xb.178a30e6de888p-16
1731=-0xb.781f75116fbfp-12
1732=0xd.4d0e0be76b868p-9
1733=0xb.ceb528bc3162p-10
1737=0xa.24e1f4d98bc98p-16
1741=0x9.561cec74e3bc8p-19
1742=0xd.16da8b95b4f28p-12
1745=0x8.de318fa5ed54p-14
1746=0xd.64d71f808988p-11
1750=0xf.9c112af0f6b38p-20
1751=0xb.fa3c6201c9878p-11
1758=0x8.417cec2771ap-15
1759=0xc.3ca8aecb1e878p-9
1765=0xa.fea7ffd218c68p-8
1767=-0x8.07e0928e7d418p-11
1768=0xf.0079a32a2ac88p-11
1769=0x9.00fd42302f85p-7
1772=0xb.178a30e6de888p-16
1773=-0xb.781f75116fbfp-12
1774=0x9.29a4507852a6p-22
1775=0xb.8c803b67fc02p-10
1779=0xa.24e1f4d98bc98p-16
1784=0x8.1458c232d9048p-14
1787=0x8.de318fa5ed54p-14
1788=0xd.2abb091226818p-11
1792=0xf.9c112af0f6b38p-20
1793=0xb.fa3c6201c9878p-11
1800=0x8.417cec2771ap-15
1801=0xc.c7be65cd32c4p-9
1807=0x8.e302ba5456698p-11
1809=-0xc.da89d876092dp-12
1810=0xb.61952ffabb948p-8
1811=0xc.e060d9898139p-8
1814=0xb.16d831552fc6p-16
1815=0xc.cf046f7a0402p-16
1816=0xc.489cf7a23e25p-21
1817=0x9.8bc1c1f14928p-7
1822=-0xe.9ba009b2b50c8p-13
1825=0x8.9c355eaf720fp-21
1826=0xb.1268afa7f1adp-12
1829=0xf.f3c728ee4719p-15
1830=-0x8.4fdb179f74cap-14
1834=0xf.950532aacf558p-20
1835=0xb.c46c09e28f3f8p-12
1842=0x9.5d803e2592bfp-15
1843=0xa.d3a65822b1088p-10
1849=0xe.51c66da3a42e8p-11
1850=0xf.226379a6c12d8p-6
1851=-0xc.f2623bf56929p-12
1852=0x8.6d0efd599cc4p-9
1853=0xd.351e86e0cafd8p-8
1856=0xa.7b18be2713ba8p-12
1857=-0x9.c899d17fdb39p-16
1858=0xc.2cd959b32647p-21
1859=0xf.b62ec1ea12cfp-9
1863=0xe.06314ec10ddbp-10
1864=0x8.b797a6cd950a8p-11
1868=-0xc.4bc313f83344p-9
1872=0xf.013e8c0fdb9bp-10
1876=0xf.92452c6b3cc18p-20
1877=0xb.bf9bedec93adp-11
1884=0xc.c41d90cc21d78p-8
1885=0xe.67254b8eabc58p-8
1891=0xa.9ebe0d70c8018p-10
1893=-0xb.c6dc65ea08fb8p-10
1894=0xc.163cf8795d0bp-8
1895=0xc.7025df8709a3p-8
1898=0xf.25cd53859de2p-17
1899=-0xf.1e103ef09426p-12
1900=0x9.23aad0a2212e8p-22
1901=0x8.75f2588bc7e7p-8
1909=0xa.b9c9fa54aef08p-10
1910=-0xa.36ace856a54cp-10
1913=0x8.56941fe720578p-16
1914=0x8.bdec2519b286p-9
1918=0xf.769a9cfd7d46p-20
1919=0x9.128da20f04e48p-11
1926=0xb.906ed9b5e9068p-15
1927=0xe.96323ebc53068p-8
1932=0xe.292e87f36d11p-8
1933=0xf.69fb111c31a08p-11
1936=0xf.873e581956cap-8
1937=0xc.3733e9e103f9p-8
1940=0xa.aba059768c1p-3
1941=0xb.8b57780d0eb8p-7
1942=0x9.1d8c008dc0fa8p-22
1943=0x9.9252f6a792be8p-7
1947=0xc.470dc0f1637cp-3
1948=0xa.14c87c30e2ee8p-7
1951=-0xb.b891a8a6d2448p-12
1952=0x8.8e913f4d5396p-9
1955=0xa.1eeeb54983728p-7
1956=-0xe.e3d7fc63303bp-9
1960=0xd.7dbb48025663p-19
1961=0xb.bf65f0f03d97p-12
1968=0x8.c04cc74a9b4ap-12
1969=-0xd.a59540713ecdp-10
1975=0x8.7a782112eddc8p-7
1977=-0xf.3be86e026fe78p-11
1978=0xd.f383b35742f08p-8
1979=0xd.bcd41a327a5ep-8
1982=0x8.7c85d8422efp-5
1983=0xc.64141e9c8c2ep-9
1984=0x9.01b395de73688p-22
1985=0xb.4e621f2eb4d18p-9
1989=0xf.64c24fd7e6f08p-14
1994=0x8.fe84ccfeea3ap-9
1998=-0x9.944667504b9a8p-9
2003=0xb.b79a303658828p-12
2010=0xe.428c4ae5fca1p-15
2011=-0xe.85e21bdcaa4b8p-10
2017=0xc.ac45e4a76f1dp-1
2059=0x9.df6f238f1f4ap-1
2103=0x9.8c957322d77p+0
2145=0xc.f0452a32fda98p-1
2146=0xf.cb84310ed876p-13
2189=0xb.bd16ee4d6845p-1
2230=-0xb.586e61ef334ap-6
2231=0x8.c3c072703dbe8p-1
2236=0xf.45329dc508cc8p-5
2245=0xc.2f6f5d9ddb3p-23
2361=0xd.f847a824d31ep-1
2398=0xb.6a7a870a29a7p-14
2403=0xa.8743ffbd82f68p-1
2409=0xd.51e0f9fda28ap-2
2447=0xb.7017e1eb45d8p-1
2482=-0xe.750257851386p-15
2486=0xd.7b2f76cd212dp-24
2489=0x8.b7436c3feb838p-1
2662=0xc.5b0bfb085693p-3
2669=0x9.13331079d9ea8p-2
2703=-0x9.0495d96d5058p-11
2704=0xb.1957643b6ea98p-1
2834=0xb.0675f4b14857p-1
2875=-0x8.6b37159f55548p-14
2876=0x8.0ec9a9dd515p-1
2884=0xc.3113fb0717c48p-5
3006=0x9.bd79cfa95b998p-1
3032=0xc.d062c20355088p-9
3048=0xc.f3b2953806ef8p-1
3221=0xc.94c5b572bf4dp-1
3263=0xc.773ea2932a64p-1
3565=0xb.bfeb94b7989c8p-1
3574=0x9.dd6197138ed28p-4
3607=0xa.eee21829d6ad8p-1
3781=-0xb.8c7407d326188p-9
3785=0xb.4eea362c4e7d8p-10
3790=0xd.562d0a2e33728p-23
3791=0xa.144bded670d6p-8
3796=-0xe.64078eee4ab48p-16
3800=0xd.20ddbcfb534a8p-15
3809=-0xa.a9c4bee1c2e5p-17
3817=0xd.258c88ce58428p-5
3859=0x8.af095c59126cp-12
3865=-0xb.10dc29e135a08p-12
3867=0xf.c6a2a4d640f2p-9
3869=0xa.6c42a9345d2e8p-8
3875=0x8.76dbf21b40b6p-7
3884=0xb.ad95c4364c708p-4
3893=-0xc.00b324f107c78p-18
3901=0xb.74da0b223d9ep-8
3907=0xe.fda6afc5da858p-8
3909=-0xa.92d01b08dfcd8p-12
3910=-0x8.91e7de0d9b4d8p-11
3911=0x8.ca3a264a1928p-7
3915=-0xb.d0a54c06b513p-12
3916=-0xa.8cf343b886a8p-10
3917=0xf.055b64b11fdc8p-12
3921=0xf.21d70e11efb58p-13
3925=-0x8.0075d85769a4p-17
3926=0x8.8291ca10eba28p-5
3929=0xc.6578b8dfea58p-17
3930=0xa.cd106fbe9dfcp-10
3935=0xf.825f42f8f462p-10
3943=-0x9.b79deece4e82p-10
3949=-0xe.e3b610725c55p-10
3953=0xd.937e9033c1e78p-13
3957=-0x9.e71a13f86f468p-9
3958=0xa.3769cdfd94efp-23
3959=0x9.1ee5f331011e8p-4
3964=-0xb.92c3ba73ca96p-14
3968=-0x8.87a85e98344b8p-13
3977=-0x9.3d9f92f777b2p-16
3985=0x8.e27b1a22759e8p-13
3991=0xc.f960834c91348p-9
3993=0x9.b4881a6694b48p-13
3995=0x8.de95444ec0d9p-7
3999=0x9.67b927c7775ep-7
4006=0xa.76b30f1072cp-11
4010=0xe.bbaa3d8e4b88p-6
4014=0xb.b7c730f6c94a8p-9
4019=0xa.ddcd80711012p-10
4027=-0xe.7b948e480e0cp-12
4037=-0x8.beec6167619dp-11
4041=-0xd.e638d41f68ad8p-21
4043=0x9.90a8ce782bb4p-14
4052=-0xc.af977c66fee38p-18
4061=0xf.ba9f15ac27a18p-15
4069=0x9.5a829d43773a8p-9
4075=0xa.d505079b7a8ep-7
4076=0xc.0800ba1f70af8p-15
4077=-0xf.765723e19b51p-11
4079=0xb.389d5916cd7cp-8
4083=-0xb.700738f8a6dfp-13
4085=0x8.8f930a677c04p-14
4089=0x8.dd2a35cfc8bp-11
4090=-0x8.f9b67ecf94dap-15
4093=-0xe.d77cb31088488p-5
4094=0xd.f02bed92cf498p-9
4097=0xe.55f0907c45eap-17
4098=0xb.7248eb1a7976p-15
4103=0xf.c473eb16438ep-10
4111=0xd.09910208c49dp-8
4153=0xf.94dcb53c3e218p-13
4159=0xa.ed55da9b6d5dp-7
4160=0xc.00363933e3a4p-15
4161=-0x8.2afc40b725228p-9
4162=0xd.e8b8b4d10481p-18
4163=0xa.e98aee05833e8p-7
4167=-0xa.a14a51928c61p-12
4168=-0xb.58c88f289bcfp-4
4169=0xc.4980599b45f2p-11
4178=-0x8.e10f258a83acp-12
4181=0x8.1e80853b60e18p-16
4182=0xf.46525929c93d8p-12
4186=0xf.84e7efe5a8ec8p-20
4187=0xd.5e964409761fp-11
4195=0xe.1ddfd4444adap-8
4201=-0x9.52b453c18cb6p-10
4203=-0xd.f779e5472527p-12
4204=0xa.6eabc12f6394p-12
4205=0x9.3e7d5c6093b7p-8
4209=-0xf.f5e9b6b264e4p-13
4210=0xf.1fd0a9001abcp-22
4211=0xc.45a6910e39cdp-21
4215=0xa.802ffdd22c278p-22
4216=0xd.715b76b53302p-11
4219=0x8.d4014d79d6988p-9
4220=-0xa.cb4eccbaa8c28p-15
4223=0xb.c3a1ba7c49848p-16
4224=0xa.00fc348176e48p-8
4228=0xf.a43b395cfd08p-20
4229=0xb.36876fdc5859p-16
4237=0xa.679fc83c1ae6p-9
4243=0x9.6e1a043b4982p-7
4244=0xb.31cafb6ee8acp-17
4245=0xa.f79311d6934p-12
4246=0xb.def3f3a720fa8p-7
4247=0xd.c3914df92bce8p-8
4250=-0x8.8d7872ab8cb3p-10
4251=-0xb.d5fdfe252f0fp-9
4252=0xf.a4149974b6f4p-18
4253=0xa.214a94c3189c8p-15
4258=-0xb.55fb275a403fp-13
4261=0xb.65c580f37c7b8p-8
4262=-0xa.41027d233f78p-10
4265=0x8.4c43baa9eb13p-16
4266=-0xf.e8e5011e0d2ep-13
4270=0xf.b93e0276456f8p-20
4271=0x8.4c391df8c59e8p-12
4278=0x9.b3c8ab703cef8p-15
4279=0xd.1ebe64904429p-8
4285=0xb.be403fad8c108p-8
4287=-0x8.10e19992ae3cp-11
4289=0xf.23ff5a7845bap-9
4292=-0xa.206adf3ba75f8p-11
4293=-0xa.c6cfaac6b7d7p-12
4294=0xd.3ec82f95105b8p-22
4295=0x8.a1362303dd018p-8
4303=0x8.95e28c2b9be7p-21
4304=-0x9.edcd15760332p-10
4307=0x9.6dcfbc1c8438p-16
4308=0x8.eeebb04123aa8p-12
4312=0xf.abda89acf8018p-20
4313=0xd.091f312290fp-11
4320=0x9.4f6cb2ed6396p-15
4321=0xe.20337451a1948p-9
4329=0xa.322507e8bd068p-10
4331=0xa.37423be73d67p-9
4335=-0xc.c47d5cdc97908p-8
4341=0xe.ece6652c4ab98p-12
4346=0xf.e9ec51a32a0fp-7
4350=0x8.98b9e644b23bp-12
4355=0xb.b7857fd14b678p-11
4363=-0xb.abd4700c1b3ep-13
4369=0xa.6ba4cf82e998p-12
4370=0x8.b1188ca044ebp-11
4371=-0xa.57d0c922cd2ap-13
4373=0xa.212338221e16p-10
4377=0xb.3f9f68e6783f8p-6
4378=0xf.54852dd93c51p-29
4379=0x8.8a3df70651b2p-7
4384=-0xe.e49b02ba7fe4p-15
4388=0xd.a5a5af18b0dap-8
4391=0xa.dae796f702bap-13
4392=-0xe.e355b87ad66fp-5
4397=-0xd.024f4350be7fp-14
4405=0x8.25c34c2a92088p-10
4415=0xf.7ce356e174548p-16
4430=0xa.80d9685a64d88p-6
4439=0xb.d33013a38826p-20
4447=-0x9.074cb61c9187p-6
4453=0xf.ececaa34df2cp-13
4457=-0xb.9a4b1cd74952p-7
4472=-0xd.f54fe4cdbc978p-13
4481=-0xe.bd1afdf84bfa8p-19
4495=0x9.40ada947c62fp-7
4497=-0x8.66a13dd4c22b8p-11
4498=0xd.f18ae1e0f625p-13
4499=0x9.e82533efe22b8p-7
4503=-0x9.15253007edd1p-11
4504=0xc.e0b622c06d988p-9
4505=0x9.785bdcd6ba38p-8
4509=0xa.600a9f8c8bd28p-14
4510=-0xc.269c3f4f11e3p-14
4513=0x8.14e20c353312p-15
4514=0xe.4130229730bd8p-11
4517=0x8.fe4d7872d2fb8p-15
4518=-0xa.74f2bdf2026a8p-7
4522=0xf.a4024a52ca488p-20
4523=0xf.330100f92eeep-10
4531=0x9.1a85d87295f3p-7
4537=0xa.8bb536e60f85p-7
4538=0xc.e6e1424a66f78p-16
4539=-0xf.838b90ce2c748p-11
4540=0xc.ed41268799bb8p-5
4541=0xc.9db39007c85a8p-8
4545=-0xa.07f0854e9616p-7
4546=0xc.5e85a4a1b1c9p-19
4547=0xb.8b2944633f0a8p-10
4552=-0xd.7e12c7ed76128p-7
4555=-0xe.b1bdb391d17a8p-11
4556=0xf.ddabe9228c1e8p-8
4559=0x9.104489e8717c8p-15
4560=-0xa.c256c6c6fd6ap-9
4565=0xc.634db9f30d38p-12
4572=0x8.5136aef6ddb5p-14
4573=-0x8.c13e0645716dp-10
4579=0xf.0386c588170e8p-11
4581=-0xc.d8665d3b444fp-12
4582=0xb.b44109afd1c2p-7
4583=0x9.7204195129118p-7
4586=0x9.c69a342d0b85p-16
4587=-0x9.798f2a6efd848p-12
4588=0xd.4022f19b3c2dp-22
4589=0x9.9a6a03cca094p-7
4593=0xd.ed129f9f80b3p-16
4594=-0xa.1fa353ac4dc8p-13
4597=0x9.5d1e8f2508098p-21
4598=-0xd.650cbb8b2bc58p-10
4601=0xe.127afa3badcfp-17
4602=-0xc.fce0d34f618p-23
4606=0xf.9d34ec9a1626p-20
4607=0xd.0cdfbb4094738p-13
4614=0xa.e73ed744d71bp-15
4615=0xf.3d2aef4341fep-8
4621=0x8.158765cb2d768p-6
4622=0xf.1521bbbf3ef6p-10
4623=-0xc.8b0649f77e47p-12
4624=0xa.b5673a22b61b8p-6
4625=0xb.20fa59a7cfe68p-7
4628=-0xa.fc539c0c48f48p-11
4629=0xf.7b18790e7f52p-7
4630=0xf.93ae98cd8022p-9
4631=0xf.4f9ee9afaa2fp-11
4636=-0xa.81452769ef0b8p-15
4639=-0xd.76cb11f29c778p-10
4640=0xe.ddefbd1baf4bp-8
4643=0xc.2cf7dd84df67p-16
4644=-0xb.8f490525cf65p-12
4649=0xb.c57ae882e0eep-12
4656=0x8.0b4ca12f14e28p-14
4657=-0xc.e28c3db36f62p-5
4667=-0xb.2ae406ce7b95p-17
4670=0xc.2998df3a1c4f8p-15
4682=0x8.d83269e87b98p-8
4699=0xa.ad7e8941e03fp-10
4705=0xa.fce520102a3ap-8
4707=-0x9.e755eba1aeea8p-11
4708=-0xd.e66b1842f6b2p-12
4709=0x8.345b659fb9288p-7
4713=-0xa.c1ad29fe5f738p-11
4714=0xf.20e0e1723a49p-15
4719=0xd.4adead6856ffp-7
4720=0x8.4314a9264fa18p-8
4723=0x9.effd2599e21p-10
4724=0x8.2bc7689609fdp-5
4727=0xc.3f9a40ffca808p-17
4728=0xc.1e2b4853de91p-8
4732=0xf.afccb172163c8p-20
4733=0xc.dc93bdf236c78p-11
4740=0xb.41e9cbb302cfp-4
4741=-0xa.0058bf5b37198p-12
4747=0xa.4bbb684b37aap-7
4749=0xa.3c2e10757edbp-7
4751=0x9.3cc75a1fc50f8p-7
4754=-0x9.d3c791f57f2e8p-12
4755=0xe.a0a358981aa8p-8
4761=0xf.d3fae8161638p-11
4762=0xa.f63342309e168p-9
4766=0xf.602abb16d414p-6
4770=0xf.cf9c336abd928p-9
4775=0xe.086d7ffb74048p-11
4783=-0xc.05f195184bc98p-16
4789=0xa.303b9923c82f8p-9
4791=-0xd.42755d173e258p-12
4792=0x8.6684cc07394e8p-12
4793=0xe.e3de76ba4056p-9
4796=-0x8.e86e6672563ap-5
4797=0xb.1e47e58c8c58p-7
4798=0xd.279dd1f14062p-15
4799=0xf.75c0b4ddf1708p-24
4803=0xa.64616fc315598p-15
4807=0xa.3be930514abep-13
4808=-0x9.bd695cbabcb6p-11
4811=0x8.bfe96930b727p-16
4812=0x9.d3d874ad43908p-9
4816=0xf.b50bda98bca38p-20
4817=0x9.07db7b5137eap-11
4824=0xf.aa5dd881217e8p-13
4825=0xc.9ee803e3744a8p-8
4831=0xa.433a2ed7cb1e8p-9
4833=-0xd.a2fe90077a3d8p-12
4834=0xf.009038773ffe8p-9
4835=0x8.95b108ba44f48p-7
4838=0x9.76bee408ea32p-22
4839=-0xe.c47106c027588p-9
4840=0x8.0bc52ee899f8p-21
4841=-0x9.c4756546d9ep-15
4846=0xa.26a4d559219c8p-9
4849=0x8.ac57ac463639p-21
4850=-0xa.3855af255af5p-13
4853=0x8.b4867ba8f38e8p-16
4854=-0xb.9ce38551f6968p-11
4858=0xf.a4e5257a25978p-20
4859=0xb.46e55573819ap-11
4866=0xf.aedcaa7af7b48p-13
4867=0xf.cb2cedc54ec9p-11
4876=0x8.5ca5d9c274adp-13
4877=-0xf.aca681bb21cep-14
4881=-0x9.3082e147af9bp-5
4888=0x9.482779b3199ap-14
4892=0x9.b4fa6a6166ca8p-5
4896=0xa.f7bc080594bdp-8
4901=0xe.d1e87f5628cc8p-12
4909=0xf.1ed19e2f2adap-7
4919=-0x8.49b78852be56p-8
4934=0xb.307f8a1a8a888p-6
4943=0xa.92c17840cd24p-20
4957=0xf.7526f8464ec48p-9
4959=-0xc.bda7d340e07p-12
4960=-0xa.5c341b49047a8p-11
4961=0x8.09afa92226758p-7
4964=-0x9.1f2673fb48f3p-9
4965=0x8.6d735bc67e6bp-10
4966=0xd.6047f7e28a908p-22
4967=0x8.e504d67dfb478p-8
4971=0xa.ef5c0e4eb3648p-22
4972=-0x8.fb807db03e848p-13
4975=0x9.6e844cc0352fp-13
4976=-0x8.6004b683b4db8p-10
4979=0x8.5e6fa9288e898p-16
4980=-0xb.458ef4e0bda78p-13
4984=0xf.a0bc1a5f26658p-20
4985=0xe.a5e5411f4aa5p-12
4992=0x8.6cbd12d6ba97p-5
4993=0x8.6c7be3fcc937p-7
5035=0x8.4a74079bd8ccp-11
5042=0x9.59dc85203d43p-17
5045=0xe.0061f3c3246fp-18
5060=-0x8.a830d27ce4f9p-12
5068=0xc.94268d7655b2p-18
5069=0x9.d8f19b5c82238p-16
5087=0xd.ed257118fc17p-20
5126=0xa.e3a441473d9d8p-15
5128=-0x8.afb048ecb29dp-13
5129=-0xb.ea5dd01b5a008p-12
5133=0xb.c3a7732bd4dcp-10
5144=0x8.a54def7b9e8cp-9
5153=0x9.6a5cc66e7e968p-17
5161=-0xc.e560360eea8a8p-10
5167=0xb.1c30f3631b828p-8
5186=-0xd.779965ed94708p-19
5195=0xa.d4dd78d0aa91p-13
5209=0xd.ab1f4cc822b08p-8
5211=0x8.888f7923558ep-5
5213=0xc.8739ed659d7cp-11
5216=0x8.1b516f96116d8p-19
5218=0xd.e40e9ee85931p-20
5219=0x8.f63179a010ddp-16
5223=0xb.dd3b2ea36a728p-9
5224=-0x9.6bacb54956f78p-7
5227=0xb.11dfa98f3aca8p-10
5228=-0xc.9c6681f5ce5d8p-10
5232=-0x9.621674bcf6678p-7
5237=-0xd.173334c235d2p-14
5245=0x8.2958cc243ecfp-9
5255=0x8.b00e655b20918p-13
5259=0x9.b7554e8df9c8p-4
5265=0x9.33b6c43cae7cp-16
5270=-0xa.7dbabe3e314ep-12
5274=-0xb.8147fc411cf4p-5
5279=-0xd.82285ba0160c8p-18
5287=-0xc.10f001ef2fe18p-6
5293=-0xc.9e285e036fc08p-8
5294=0xd.16c21afc3e55p-17
5296=-0xd.0bcc466456008p-10
5297=0x9.873e802774cap-7
5300=-0xe.89dcd714f9dep-5
5301=0xe.a673c6140eb38p-13
5302=0xa.9cfabafb76e5p-15
5303=0xb.800320e0cc018p-7
5307=0xa.a0fcb40de82ap-12
5308=0xe.981d6312726cp-6
5312=0xd.17ba11913a21p-6
5315=0xa.ef24c60b92b58p-16
5316=-0xd.643d85c71478p-10
5320=0xe.4ea24bf86b06p-19
5321=0xf.894c6d98ebab8p-12
5328=0xc.3691aa5dddb7p-10
5329=0xa.bb85f220aeca8p-17
5339=0xe.906f336b720d8p-14
5342=0xc.70a7c0b944078p-16
5343=0xa.98ca9c09c923p-15
5350=-0x8.bb7e0d8162d4p-7
5354=-0xb.df6bcd02f342p-13
5363=0xb.5a5e2b92fc22p-11
5381=-0xd.e44333e5b4308p-7
5396=0xe.94a7945c10318p-15
5419=-0xa.88acbd0002de8p-10
5423=0xf.3a0300de664f8p-13
5438=0xf.432eb8b2b0c98p-9
5455=0xc.3e1912fc80bf8p-8
5465=0xd.c69873329cc9p-23
5480=-0x9.d5cd14704d49p-23
5503=-0xb.bce0f3b243178p-6
5506=0x9.5d39a9d45efbp-11
5507=0xe.d2494a1b3af4p-14
5512=0xe.c61970e67922p-9
5518=0xe.bf4fdb156a64p-11
5522=-0x8.9da57088db3ap-14
5531=-0x8.c382ad9c5a8dp-16
5539=-0xb.74972bc236a7p-15
5545=0xf.93c1fc449761p-6
5547=-0xc.f65e34bb4da18p-5
5548=0x8.a15fb2fd707dp-14
5549=0xf.23f4716d09a68p-8
5552=0xa.13dc75264e918p-3
5553=0xa.3f86bab2fce38p-11
5554=0xe.a1dc53ec19f98p-4
5555=0xd.8bc721d385fd8p-6
5560=-0xd.e3f8d9292cf98p-12
5563=0xe.ea7c9ee217378p-11
5564=0xb.7e35e019e4ap-5
5568=-0xe.18bdd4615cb2p-12
5573=-0xc.87b1d545d99c8p-16
5581=0xf.61b61aa631d9p-11
5590=0xd.dd39e0ba76a4p-16
5591=-0x8.99edf8b1be068p-4
5595=0xc.e73f2dcc5b2dp-9
5606=-0xd.b73710ea7d7f8p-10
5610=-0xc.4bd9130fd524p-11
5615=-0xd.0aeb694fc32ap-18
5623=0x9.d8232a935133p-4
5629=-0x9.1460fdb3e987p-6
5631=0xc.ab81cf2ccc1ep-10
5632=0x9.ff40f985a793p-15
5633=0x9.61852b5c4ae3p-11
5636=0xb.a3c674c03ec08p-12
5637=-0x9.2c3b237f6508p-13
5638=0xb.56e334ddb2358p-14
5639=0xc.72689d01b58c8p-6
5643=0xa.75f3b69befe38p-14
5644=0xc.ed26ad2250b28p-6
5648=0xf.6bc9be1cff7d8p-6
5651=0xa.cbd95e69796dp-16
5652=0x9.4618efd7952f8p-7
5657=0xa.2f392430cdebp-11
5665=-0xd.13b2ac093796p-9
5675=0xa.b7a8b84d44198p-13
5685=0xe.666d3301ba43p-12
5686=-0x8.1c390f5b121bp-13
5690=-0xf.d23a5043c9e7p-11
5699=0xd.eaba1916f20ap-13
5717=0xa.b7a8b84d44198p-13
5727=0xe.666d3301ba43p-12
5728=-0x8.1c390f5b121bp-13
5732=-0xf.d23a5043c9e7p-11
5741=0xd.eaba1916f20ap-13
5765=0xc.cc939684def78p-16
5774=0x8.733874fd987fp-13
5807=0x8.88d6db1a499cp-15
5839=-0x8.649433b5678fp-10
5842=0x9.630686ec23258p-14
5843=0xe.4bbaadac0e018p-6
5847=-0x8.79af4ef5a383p-16
5849=0xb.7de4da7b5285p-9
5857=0xd.b7a840006c62p-11
5858=-0xe.25a0daa976308p-6
5867=-0xc.25afe1e9c873p-17
5875=0xe.78688d52282ep-9
5881=-0x9.ab9eae7888b08p-12
5885=0xd.5a436fc11dedp-9
5889=-0xe.4378dcf88468p-13
5891=0xd.83406f4346738p-7
5900=0x9.b164c721d28bp-6
5904=-0x9.ab7b3181ffefp-11
5909=-0xf.67f42917d1d1p-17
5917=0xd.d2aaa2c6f3d7p-13
5923=-0xf.677d5052944d8p-10
5925=0xe.9553d82d5d36p-11
5926=0xf.da13a3dff52ap-10
5927=0x9.e9ae1df38bda8p-7
5931=-0x8.f8bf6e0483108p-15
5933=0x8.5f6bcb09bf7ep-5
5941=0xe.226b83e47ab28p-7
5942=-0xd.6bbb595e919dp-9
5946=-0xb.935699c785bd8p-7
5951=-0xe.817ed3f9ed93p-16
5959=0xb.0feb633ab04bp-13
5965=-0x9.109c7347a8ef8p-9
5975=0xf.252b8a0c7f57p-9
6007=0x9.09e24d70b85e8p-7
6008=0x9.53782df255e78p-9
6009=-0x9.211d3a2027ap-12
6011=0xa.513c069a64078p-5
6015=0xb.e9ce709e6429p-5
6016=0x9.4b82c3e0bbf5p-28
6017=0xe.df60b1e9a6fa8p-5
6022=-0xb.4ba0187b5a258p-13
6026=0x8.147778364db28p-7
6030=-0xc.c08372fa93a4p-12
6035=-0xc.46f369b6cc508p-16
6043=0xf.6db10647285c8p-11
6052=0xb.1f833c7b97718p-10
6053=-0xf.a2d0e48d6dacp-17
6059=0xb.95b4bd9ae3268p-7
6064=-0xb.ca95506cdf64p-13
6067=0xf.424d45160b47p-11
6068=-0x9.c5d8a50214dfp-8
6077=-0xd.c27cb91b8aa38p-18
6085=-0xc.b87c5b7a7a99p-6
6092=0xb.c55b00b648f6p-14
6095=-0xc.f439dbc3b4e68p-13
6110=-0x8.2af99b3459bf8p-11
6119=0xb.872b7caadef7p-11
6134=0xb.c55b00b648f6p-14
6137=-0xc.f439dbc3b4e68p-13
6152=-0x8.2af99b3459bf8p-11
6161=0xb.872b7caadef7p-11
6178=0x9.4b03f87a9fe68p-23
6179=-0xc.36e43b63bb0f8p-7
6183=0xd.68ebb58a7ce88p-6
6194=0xa.b802c1f50fe88p-16
6225=0x9.4e1f525e802f8p-14
6236=-0x8.9c630f3a41b58p-18
6240=-0xb.04b6b47537ac8p-14
6245=0x9.2f1b452170d5p-7
6260=0x9.220709039a0a8p-10
6261=-0xb.fe305d0b975c8p-7
6262=0xf.d99f6c4fca5dp-5
6263=-0xb.ff1eeb17ff838p-7
6266=0x8.4bb2730d2e0ap-16
6267=-0x8.4784b9874c458p-5
6268=0xe.5959c64f168ep-24
6277=0xa.7a05bf2b777bp-6
6278=-0xb.13d376e1123bp-13
6281=0xb.21fccd76e1938p-13
6282=-0xc.1a832edcc829p-11
6286=0xb.a2ed9a6e9bd7p-17
6287=-0xc.6228976cf24f8p-16
6294=0xa.b32e7da8d7688p-8
6295=0x8.d4c5f6e593c68p-8
6301=-0xc.6ce7c3efb9288p-11
6304=0xa.bd13576105ea8p-6
6310=0xf.77fadcfe7e098p-5
6336=0xb.f431745ae4528p-4
6345=-0xb.4d97c066b7acp-18
6347=-0xa.edb4f87f60378p-11
6351=-0x9.e5bbde5037c4p-10
6357=0xf.a20414a5dcc98p-25
6358=0xe.303bed9f74348p-16
6362=0xc.3193442523948p-8
6365=0xe.860dc515465p-16
6366=0xa.bbaa7637cc5ap-9
6370=0xc.89b454c33985p-19
6379=-0xd.278a370077fdp-13
6386=0x9.dc28c6e6b89e8p-16
6387=-0x9.08c07cf1eba2p-6
6389=0xa.084238d77e14p-9
6393=0xe.d15473617bd88p-12
6399=0xa.03a8a6d9e06b8p-24
6400=0x8.2b0dbb62bad2p-15
6404=0x8.e5e1be5327968p-7
6408=-0x8.edf5477a0dfd8p-11
6413=-0xe.c6d478dcbf9cp-17
6421=-0xb.1de40f2d8e28p-8
6429=0xc.b94857abae6b8p-15
6430=-0xc.70675671f37cp-16
6431=-0xa.aa22c8e38c82p-11
6435=0x9.18f23ecf6a358p-6
6441=0x8.df3af13eaaf48p-24
6442=0xf.0e9437e0feb2p-14
6446=-0xf.8dbed612217b8p-18
6449=0x8.d51942c298e9p-16
6450=0xa.7dae6ad250c48p-11
6454=0x9.ca7aaa67cb4a8p-18
6455=0x8.9424eb7b63688p-14
6463=-0xb.52159d488a5d8p-15
6472=-0x8.a2679044254d8p-17
6473=0xa.9e6342dcc231p-8
6477=0xb.ee8798a3c92p-13
6478=0x9.555ac9e578adp-2
6484=-0x8.6628206fd7d2p-13
6488=0xa.c96d67d4d213p-10
6497=-0xd.b81ca655ccc8p-18
6504=0xd.c0d92515ca948p-7
6505=-0x8.024a4c6987698p-5
6513=0xc.b94857abae6b8p-15
6514=-0xc.70675671f37cp-16
6515=-0xa.aa22c8e38c82p-11
6519=0x9.18f23ecf6a358p-6
6525=0x8.df3af13eaaf48p-24
6526=0xf.0e9437e0feb2p-14
6530=-0xf.8dbed612217b8p-18
6533=0x8.d51942c298e9p-16
6534=0xa.7dae6ad250c48p-11
6538=0x9.ca7aaa67cb4a8p-18
6539=0x8.9424eb7b63688p-14
6547=-0xb.52159d488a5d8p-15
6554=0xb.c55b00b648f6p-14
6557=-0xc.f439dbc3b4e68p-13
6572=-0x8.2af99b3459bf8p-11
6581=0xb.872b7caadef7p-11
6597=0xb.96b2f34260e2p-11
6599=-0xb.a5c51ee02c87p-13
6614=-0xf.c93de2609011p-13
6623=0xb.f8dc5fa9393a8p-10
6639=0xb.96dae6ca6bba8p-11
6641=-0x8.1cd6839e856ep-11
6645=-0x8.afe381da07d3p-11
6656=-0xb.2641e28451a58p-13
6665=0xb.777cb96ceccfp-10
6681=0xb.96b2f34260e2p-11
6683=-0xb.a5c51ee02c87p-13
6698=-0xf.c93de2609011p-13
6707=0xb.f8dc5fa9393a8p-10
6723=0xb.96b2f34260e2p-11
6725=-0xb.a5c51ee02c87p-13
6740=-0xf.c93de2609011p-13
6749=0xb.f8dc5fa9393a8p-10
6765=0xb.96b2f34260e2p-11
6767=-0xb.a5c51ee02c87p-13
6782=-0xf.c93de2609011p-13
6791=0xb.f8dc5fa9393a8p-10
6807=0xb.96b2f34260e2p-11
6809=-0xb.a5c51ee02c87p-13
6824=-0xf.c93de2609011p-13
6833=0xb.f8dc5fa9393a8p-10
6849=0xb.96b2f34260e2p-11
6851=-0xb.a5c51ee02c87p-13
6866=-0xf.c93de2609011p-13
6875=0xb.f8dc5fa9393a8p-10
6891=0xb.96b2f34260e2p-11
6893=-0xb.a5c51ee02c87p-13
6908=-0xf.c93de2609011p-13
6917=0xb.f8dc5fa9393a8p-10
6933=0xb.96b2f34260e2p-11
6935=-0xb.a5c51ee02c87p-13
6950=-0xf.c93de2609011p-13
6959=0xb.f8dc5fa9393a8p-10
6975=0xb.96b2f34260e2p-11
6977=-0xb.a5c51ee02c87p-13
6992=-0xf.c93de2609011p-13
7001=0xb.f8dc5fa9393a8p-10
7017=0xb.96b2f34260e2p-11
7019=-0xb.a5c51ee02c87p-13
7034=-0xf.c93de2609011p-13
7043=0xb.f8dc5fa9393a8p-10
7057=-0xa.310094b080f1p-12
7067=0x9.135208a73e69p-8
7093=0xf.c87768045729p-10
7099=-0x8.e12620894001p-18
7101=-0xa.33b851c5e135p-16
7102=0xd.8846b8d9ab5c8p-5
7103=-0xc.2a289f7ecb7cp-13
7107=0xb.7b9cd1e2721p-6
7114=-0xb.5812f4fb9c7ep-10
7118=0x8.61de2fcb742cp-7
7121=0xb.201b6838be72p-14
7122=0xa.9bbc68fa2c58p-10
7126=0xa.17adcb12dd578p-18
7127=0xb.e82cf386f568p-12
7135=-0xa.8c85c2f9903cp-13
7143=-0xf.1b2936ac86598p-15
7144=0xe.0f2029969733p-16
7145=-0x8.32543fd735918p-11
7149=-0xd.dc4650e6755b8p-13
7156=0xa.5c6ce7422dbp-3
7160=0xd.8919dfc0e4a3p-14
7164=-0x8.d7711b6f3974p-17
7169=-0xc.eb5cdfb7d229p-17
7177=0xa.4b8bbaa97af9p-7
7183=-0xe.87f9e24a9bf4p-5
7187=-0xd.4b0f2cbce2518p-8
7202=0x9.193789df08e2p-6
7205=0xd.d8d875f54326p-13
7206=-0x9.cf67bc4a308d8p-11
7211=-0xf.738c1d557c88p-17
7219=-0x8.ba235522b8798p-8
7227=0x9.d1bf4e2a4d0b8p-15
7229=-0x9.9fec8a1fecf58p-11
7233=0xe.6df6de1163288p-5
7240=0xa.3617ff9b25dbp-6
7244=0xa.2b1e3d4179e28p-7
7247=0xb.e09a0036564c8p-14
7248=0xb.095e84bbe7478p-10
7253=0xb.d369c4f107cep-12
7261=-0x9.efd3125a74128p-15
7269=0x9.d1bf4e2a4d0b8p-15
7271=-0x9.9fec8a1fecf58p-11
7275=0xe.6df6de1163288p-5
7282=0xa.3617ff9b25dbp-6
7286=0xa.2b1e3d4179e28p-7
7289=0xb.e09a0036564c8p-14
7290=0xb.095e84bbe7478p-10
7295=0xb.d369c4f107cep-12
7303=-0x9.efd3125a74128p-15
7311=0xb.96b2f34260e2p-11
7313=-0xb.a5c51ee02c87p-13
7328=-0xf.c93de2609011p-13
7337=0xb.f8dc5fa9393a8p-10
7353=0xb.4fec4546e8f48p-11
7355=-0xe.b5aa66ead89ap-15
7359=-0xd.fab1b982bbf98p-12
7365=0xb.0815393445518p-4
7370=-0x9.009c8e390bb1p-11
7379=0xa.21cd4b45446dp-9
7395=0xb.4fec4546e8f48p-11
7397=-0xe.b5aa66ead89ap-15
7401=-0xd.fab1b982bbf98p-12
7407=0xb.0815393445518p-4
7412=-0x9.009c8e390bb1p-11
7421=0xa.21cd4b45446dp-9
7439=-0xf.47b767106ddep-11
7442=0xc.def2d9465e988p-14
7443=0xd.2e06478bbdf48p-7
7449=0xa.907fd8715a1a8p-10
7450=-0x8.fe228a66c16a8p-13
7453=0xd.c4193988ad0ep-12
7454=0xe.dd12069eb183p-14
7458=0xb.8181e072e6dap-9
7462=0xc.33b4cf641b2fp-18
7463=0x9.6f74f859c65e8p-11
7471=-0xf.c006f46bd4e98p-15
7479=-0x9.6d6917f844p-15
7481=-0x9.3a0103f44fb9p-5
7484=0xd.66ada8d03c638p-12
7485=-0x9.b48b58a29d57p-4
7491=0xd.7528461726b08p-10
7495=0xc.0dae8e1bd88bp-12
7496=0xe.ae1999f8a99cp-14
7505=-0xd.47bb85b63b1bp-17
7513=0xc.ab82909f6f2f8p-8
7521=0xa.d074543ce8cd8p-12
7523=-0xa.7bae13a05acp-6
7527=0xc.8d592d456dc3p-15
7538=-0xd.e5e303c9acbap-19
7547=-0xf.d20d16f710f28p-17
7565=-0x8.d4cfd50507f18p-9
7568=0xd.bc02badfda85p-18
7569=0x9.da3a9e48e3aa8p-7
7575=0xa.69cdcd5baab48p-10
7579=0xb.185946f0f3b68p-12
7580=0xd.2e154c308fd1p-16
7584=0x9.7cf2444d1d098p-9
7588=0xc.57de8624a5a6p-18
7589=0xb.ba3cc24395b2p-12
7597=-0x9.e6eb67104429p-13
7605=0xb.4fec4546e8f48p-11
7607=-0xe.b5aa66ead89ap-15
7611=-0xd.fab1b982bbf98p-12
7617=0xb.0815393445518p-4
7622=-0x9.009c8e390bb1p-11
7631=0xa.21cd4b45446dp-9
7649=-0x8.bc5cd333854fp-17
7653=-0xb.4cc35015dd92p-13
7664=-0xd.df2c6ef05f6fp-9
7667=0xe.a0b06fdc55128p-13
7673=0xf.4640901b7d698p-8
7691=-0x8.bc5cd333854fp-17
7695=-0xb.4cc35015dd92p-13
7706=-0xd.df2c6ef05f6fp-9
7709=0xe.a0b06fdc55128p-13
7715=0xf.4640901b7d698p-8
7731=0xb.547c8f5220c38p-12
7743=0xf.42c85bca227dp-12
7775=0xd.662c1905bba1p-21
7815=0x8.289d491bca998p-6
7817=-0x8.cbd8e4049db4p-9
7821=-0x9.ae6167160e0a8p-7
7832=0xe.b83bd1fda17bp-9
7836=0x9.4c14e958bf648p-8
7841=0x8.c6609611d1f4p-6
7857=0xc.e2b7e1b09d55p-7
7859=0xd.950ed9c8ed2dp-16
7863=-0xb.598fd162cb738p-7
7869=0xc.eebb46c41ccp-17
7874=-0x9.10bcdf2866508p-18
7883=-0xf.a1917996a04f8p-17
7901=0xa.49294eeb79c8p-13
7904=0x9.bd39d850c9d08p-15
7905=-0xc.6fab1eadee558p-5
7916=-0x8.cace76bcc9a7p-12
7925=0x9.a1ceea02a70ap-16
7953=0x8.d852b5c60417p-12
7983=0x8.5079ed38da3f8p-15
7985=-0xd.f38fef62b439p-18
7989=0xb.e5ab9f5ab91cp-4
8004=0xd.bbfdc825989cp-7
8009=0x9.8ae93c0dc102p-11
8026=0x8.d9c3f0c3fe168p-14
8027=-0x8.8c3f86f88601p-12
8031=-0xe.62ea4af4631p-8
8042=0x9.26f8e6041c55p-6
8046=0xb.29968ed5e049p-9
8051=0x9.9b07aac6de11p-13
8069=-0x8.cd85c838b874p-27
8073=0x9.3c2f3489d726p-16
8080=0xe.5867b5a98a3f8p-6
8084=-0xe.94250b6baa048p-18
8088=-0xa.bd6e0cf6d968p-24
8093=-0xf.69c80e98e3dep-17
8109=0xa.f33d18f28faap-14
8153=0x8.12523a2020e4p-13
8157=0xc.6ac1c5ee416fp-9
8168=-0x9.ccaca2060a88p-14
8177=0xb.5e471b77ee43p-20
8199=-0xd.ec5c86492596p-23
8213=0xc.92229f0388de8p-6
8227=0x8.f229342e8d9e8p-12
8235=0xe.de0944c0c0aep-6
8277=0xd.9f5a1d505a818p-4
8319=0xe.b41a434f97f5p-16
8321=-0xb.89fe81727d3e8p-12
8325=0xf.96ce087e9bfap-15
8331=0x8.c033fbea06b3p-15
8336=-0xf.c998bc562fe1p-11
8340=0x8.bd4dbe7f9a058p-7
8345=0x9.2bfb680f4f98p-5
8361=0x8.2dacc8255e56p-6
8363=-0xb.7da44944b8abp-15
8373=0xa.093ed8e564dbp-15
8404=0xa.3a45ec327f508p-8
8446=0xa.3a45ec327f508p-8
8489=0xd.1f19fa14498b8p-6
8493=0x9.d1aec1e3e8048p-8
8504=-0x9.3d879d41b961p-8
8508=0x9.d43445cd045f8p-13
8513=0xc.30be4ea859aap-20
8531=0xf.d28e7a77e6948p-15
8535=0xb.be7bf91ba258p-8
8546=-0x8.c67e5807253d8p-14
8555=-0xc.e8c3f8d12fd78p-18
8563=-0xd.4987dc98eedep-9
8572=0xf.1db8498f3876p-6
8577=-0xd.0abcb80915b6p-18
8619=-0x9.840a0852609b8p-13
8638=0xd.108d79e3d4d5p-18
8681=0xb.26954589ee798p-20
8698=0xe.d726cc853aa88p-13
8703=-0xd.0abcb80915b6p-18
8745=-0x9.840a0852609b8p-13
8764=0xd.108d79e3d4d5p-18
8793=0xb.b6645cc34994p-14
8848=0xc.ffccfa810989p-17
8867=0xf.f494a5c69eccp-13
8933=0xb.e7c9139f62fd8p-20
8975=0x8.70b31f1bf3a38p-19
9017=0x8.70b31f1bf3a38p-19
9059=0xb.e7c9139f62fd8p-20
9077=0xf.f494a5c69eccp-13
9143=0xb.e7c9139f62fd8p-20
9185=0xb.e7c9139f62fd8p-20
9227=0xb.e7c9139f62fd8p-20
9269=0xb.e7c9139f62fd8p-20
9311=0xb.e7c9139f62fd8p-20
9353=0xb.e7c9139f62fd8p-20
9395=0xb.e7c9139f62fd8p-20
9437=0xb.e7c9139f62fd8p-20
9479=0xb.e7c9139f62fd8p-20
9521=0xb.e7c9139f62fd8p-20
9539=0xc.8c80a64ffffdp-15
9605=0xb.bf2fd9c349c4p-20
9647=0x8.6ff4928a08418p-19
9689=0x8.6ff4928a08418p-19
9731=0x8.6ff4928a08418p-19
9773=0xb.bf2fd9c349c4p-20
9815=0x8.6ff4928a08418p-19
9831=0xa.45e8b6b7d40e8p-17
9899=0x8.6ff4928a08418p-19
9941=0x9.4ffebe4c66c68p-19
9959=0xd.b7203e354c47p-15
10025=0xb.9d0103c4f997p-20
10067=0xa.d93ffae92c48p-20
10109=0xa.d93ffae92c48p-20
10151=0xa.d93ffae92c48p-20
10193=0xa.d93ffae92c48p-20
10235=0xa.d93ffae92c48p-20
10277=0xb.9d0103c4f997p-20
10319=0xa.d93ffae92c48p-20
10361=0xa.d93ffae92c48p-20
10403=0xa.d93ffae92c48p-20
10445=0xa.d93ffae92c48p-20
10487=0xe.b87434ddc3e6p-15
10529=0xa.d93ffae92c48p-20
10571=0xa.d93ffae92c48p-20
10613=0xa.d93ffae92c48p-20
10655=0xa.d93ffae92c48p-20
10697=0xa.d93ffae92c48p-20
10739=0xa.d93ffae92c48p-20
10781=0xa.d93ffae92c48p-20
10823=0xa.d93ffae92c48p-20
10865=0xa.d93ffae92c48p-20
10907=0xa.d93ffae92c48p-20
10949=0xa.d93ffae92c48p-20
10991=0xa.d93ffae92c48p-20
11033=0xa.d93ffae92c48p-20
11075=0xa.d93ffae92c48p-20
11117=0xa.d93ffae92c48p-20
11159=0xa.d93ffae92c48p-20
11201=0xa.d93ffae92c48p-20
11243=0xa.d93ffae92c48p-20
11261=0x9.4ae7b4a2238dp-18
11265=-0xa.7bcf93a094eb8p-11
11276=0x8.8ed38e5512148p-20
11280=0xf.396065aab3adp-11
11285=-0xa.4f23cc5b02678p-17
11318=-0x8.bf5ef3ad78c7p-23
11360=0x8.03464a6215e78p-7
11383=0x8.3dedd003391f8p-9
11387=-0xb.3907ea8130d1p-10
11402=-0xb.3f831bca481ap-8
11410=0xc.ea7744a47c248p-18
11411=0x8.d9f8810fc7c68p-20
11419=0x8.fbf6ae706d438p-9
11425=0xa.0f4e0ce6dfcap-10
11429=-0xd.fd01ac6ba6448p-12
11452=0xa.c7bdc1b2c9b6p-18
11461=0xf.1755a7fb0aea8p-11
11471=-0xe.20e30d015d6cp-12
11475=-0x8.4a37f1bd7cdap-10
11486=0xb.2455d5f1fa61p-12
11490=0x9.86f98fc1b9ad8p-10
11495=-0xa.c1b9070737b68p-17
11513=-0xe.20e30d015d6cp-12
11517=-0x8.4a37f1bd7cdap-10
11528=0xb.2455d5f1fa61p-12
11532=0x9.86f98fc1b9ad8p-10
11537=-0xa.c1b9070737b68p-17
11551=0x8.06c6c46370848p-8
11555=-0xf.e81a5cea208fp-10
11561=0xb.cc4bce57675bp-10
11570=-0xc.ca94497b0dbp-11
11579=0xa.7dc9fbdaa955p-13
11587=0x9.ead28aa64d3a8p-11
11597=0xd.f05253151b978p-16
11601=-0xe.cdaa6048d7568p-20
11612=0xa.d80c5c540dacp-9
11616=0xa.663399fc76fd8p-8
11621=-0xb.75b0c554bc748p-17
11639=0xd.f05253151b978p-16
11643=-0xe.cdaa6048d7568p-20
11654=0xa.d80c5c540dacp-9
11658=0xa.663399fc76fd8p-8
11663=-0xb.75b0c554bc748p-17
11681=0xd.f05253151b978p-16
11685=-0xe.cdaa6048d7568p-20
11696=0xa.d80c5c540dacp-9
11700=0xa.663399fc76fd8p-8
11705=-0xb.75b0c554bc748p-17
11723=0xb.831cc6d8c68dp-15
11727=-0xa.e3de9497c38p-11
11738=0xd.074627eb48808p-8
11742=0x9.2afbbf5c46e2p-10
11747=-0xc.5a732ba4e744p-17
11765=0x8.4b858d6b5d35p-14
11780=0xd.dcf1d775c7c7p-8
11784=0x9.2afbbf5c46e2p-10
11789=-0xc.5a732ba4e744p-17
11807=0xb.831cc6d8c68dp-15
11811=-0xa.e3de9497c38p-11
11822=0xd.074627eb48808p-8
11826=0x9.2afbbf5c46e2p-10
11831=-0xc.5a732ba4e744p-17
11849=0xb.831cc6d8c68dp-15
11853=-0xa.e3de9497c38p-11
11864=0xd.074627eb48808p-8
11868=0x9.2afbbf5c46e2p-10
11873=-0xc.5a732ba4e744p-17
11891=0xb.831cc6d8c68dp-15
11895=-0xa.e3de9497c38p-11
11906=0xd.074627eb48808p-8
11910=0x9.2afbbf5c46e2p-10
11915=-0xc.5a732ba4e744p-17
11933=0xb.831cc6d8c68dp-15
11937=-0xa.e3de9497c38p-11
11948=0xd.074627eb48808p-8
11952=0x9.2afbbf5c46e2p-10
11957=-0xc.5a732ba4e744p-17
11975=0xb.831cc6d8c68dp-15
11979=-0xa.e3de9497c38p-11
11990=0xd.074627eb48808p-8
11994=0x9.2afbbf5c46e2p-10
11999=-0xc.5a732ba4e744p-17
12017=0xb.831cc6d8c68dp-15
12021=-0xa.e3de9497c38p-11
12032=0xd.074627eb48808p-8
12036=0x9.2afbbf5c46e2p-10
12041=-0xc.5a732ba4e744p-17
12059=0xb.831cc6d8c68dp-15
12063=-0xa.e3de9497c38p-11
12074=0xd.074627eb48808p-8
12078=0x9.2afbbf5c46e2p-10
12083=-0xc.5a732ba4e744p-17
12101=0xb.831cc6d8c68dp-15
12105=-0xa.e3de9497c38p-11
12116=0xd.074627eb48808p-8
12120=0x9.2afbbf5c46e2p-10
12125=-0xc.5a732ba4e744p-17
12143=0xb.831cc6d8c68dp-15
12147=-0xa.e3de9497c38p-11
12158=0xd.074627eb48808p-8
12162=0x9.2afbbf5c46e2p-10
12167=-0xc.5a732ba4e744p-17
12185=0xb.831cc6d8c68dp-15
12189=-0xa.e3de9497c38p-11
12200=0xd.074627eb48808p-8
12204=0x9.2afbbf5c46e2p-10
12209=-0xc.5a732ba4e744p-17
12231=0xb.40fbf202e4d8p-13
12241=0xd.35ed6d6dd35ap-12
12242=-0xf.804d18d8502e8p-8
12246=0xd.1bcc5041ea858p-6
12250=0xc.c86639ea3a32p-17
12251=-0xd.4f73faed968f8p-17
12273=0xb.40fbf202e4d8p-13
12283=0xd.35ed6d6dd35ap-12
12284=-0xf.804d18d8502e8p-8
12288=0xd.1bcc5041ea858p-6
12292=0xc.c86639ea3a32p-17
12293=-0xd.4f73faed968f8p-17
12315=0xb.40fbf202e4d8p-13
12325=0xd.35ed6d6dd35ap-12
12326=-0xf.804d18d8502e8p-8
12330=0xd.1bcc5041ea858p-6
12334=0xc.c86639ea3a32p-17
12335=-0xd.4f73faed968f8p-17
12352=0xb.44c9d617badbp-13
12357=0xf.5dec28b1e0488p-7
12368=0x9.31baa2f13a4dp-14
12372=0x9.436252f97ee1p-14
12394=0xb.44c9d617badbp-13
12399=0xf.5dec28b1e0488p-7
12410=0x9.31baa2f13a54p-14
12414=0x9.436252f97ee1p-14
12434=0xc.421ecc47f3318p-15
12437=-0x8.207488e980878p-7
12441=0x8.d80a88daa8f3p-12
12452=0xf.091013bf7c2bp-19
12456=0xc.88763507477f8p-11
12461=-0x8.9031cbe150b5p-17
12479=-0xe.5b89bc45635fp-7
12494=0x9.c05a6050ec15p-15
12521=-0xb.3dad18c9bec7p-17
12536=-0xc.539c2b1dd0e5p-19
12553=0x8.3d29bfce11288p-7
12563=-0xb.3da52805ab0ep-17
12578=-0xc.5f978c9a6616p-18
12595=0xa.9e86d0d4990f8p-13
12601=0xb.2ae403512adfp-7
12620=-0xd.b95929fb3087p-18
12629=0xa.bab9c95c0c9c8p-6
12662=-0xd.bfc9289da4b8p-18
12671=0x8.029f9154c788p-4
12688=0x8.88a069cfb43c8p-14
12731=0xc.102c0a6bf2e4p-19
12773=0xd.6b7e7ec6056p-15
12788=-0xf.0b75670c65788p-16
12815=0x9.5e8c1c9b1cac8p-16
12857=0x9.5e8c1c9b1cac8p-16
12898=0x9.4dfd144e68c58p-18
12899=0x8.fd1f9ec4a218p-20
12941=0x8.f678b4c9aa81p-15
12956=-0xb.da606e259b25p-16
12982=0x8.3047bb5e32e9p-14
13025=0x8.ac536c151634p-19
13066=0x8.3047bb5e32e9p-14
13108=0x8.3047bb5e32e9p-14
13151=0x8.ac536c151634p-19
13192=0x8.3047bb5e32e9p-14
13234=0x8.3047bb5e32e9p-14
13276=0x8.3047bb5e32e9p-14
13318=0x8.3047bb5e32e9p-14
13360=0x8.3047bb5e32e9p-14
13402=0x8.3047bb5e32e9p-14
13444=0x8.3047bb5e32e9p-14
13486=0x8.3047bb5e32e9p-14
13529=-0xb.f1b5c0774fab8p-14
13544=0xf.18a5d84f941ap-8
13547=0xf.9403ed6d1a14p-13
13548=-0xa.60d519f1c2aep-24
13552=0xa.b55b7990e9048p-18
13553=-0xa.43a6505492fb8p-17
13570=0xe.5b40c8e6a617p-5
13613=0x8.ac536c151634p-19
13654=0xc.5aa96340f1a08p-9
13697=0x9.823fa9411cfdp-19
13739=0x8.a1ec950b267p-19
13781=0x9.823fa9411cfdp-19
13823=0xb.2ad2e3b407bc8p-10
13838=0xc.db7b1aa42543p-16
13846=0xc.ea3aecafafecp-18
13847=-0xb.e2627b209f87p-18
13865=0x9.823fa9411cfdp-19
13907=0x8.a1ec950b267p-19
13949=0x8.8ccf91b14c228p-25
13991=0x8.aa47d9779ddb8p-16
14033=0x8.aa47d9779ddb8p-16
14075=0x9.06df792d030f8p-19
14117=-0x9.b24f63aaccaap-8
14183=0xa.d76dda304ce1p-20
14200=0xb.1d61060323df8p-14
14201=-0xd.3d434103757b8p-12
14242=0xb.74fbc4803dcd8p-13
14243=-0xa.06da512196608p-7
14247=-0xf.3f201456d1bbp-19
14262=-0xe.65a7fbad7b0c8p-14
14267=-0xf.8f8f7d6e8a44p-20
14285=0xa.46cf093703e68p-17
14323=-0xc.690c4566456ap-9
14327=-0xa.cc60e60ddaap-17
14337=0xd.67117302dc86p-14
14342=0xf.7dc9e646b6c2p-16
14346=-0x9.cba10fff071dp-23
14351=-0xd.1fd437112e648p-18
14367=-0xa.817cea7718e6p-12
14373=0xd.0ce4f7c9caf3p-7
14375=0x8.5b5e46816cccp-14
14379=0xe.ec97d94410af8p-9
14380=0xd.3c99cf29f9bcp-10
14393=-0xa.30a2dac69b09p-21
14411=-0x9.6147c61778538p-17
14415=0xd.7ef7e238c5adp-15
14422=0x9.c36d5c8042af8p-16
14426=0xd.fac38c4587p-16
14430=-0xb.66c0cbccd4e6p-22
14435=-0xd.8e65e83f8fe5p-18
14451=-0xb.5a3bafa12a4b8p-12
14457=-0xe.f5485a7935f7p-6
14464=0xe.a3a8b04d7fcc8p-10
14477=-0xa.a3f44faada0ep-21
14495=-0xb.dad2d81d8393p-16
14499=-0xb.f27a84140c8e8p-15
14505=0xa.26215e40d6268p-7
14510=0xe.85dc9b501fa48p-16
14514=-0xb.a9456c1e77d38p-16
14519=-0xd.c49e464066dcp-18
14536=0xe.68f6e9de3a5p-16
14537=0x9.3e787af1e8f8p-17
14541=0xe.f90eb99897c38p-6
14552=0xd.d8a51725b4288p-15
14556=0x9.897d126fcac18p-10
14561=-0x9.f57f83d6eaa4p-17
14579=-0xb.dad2d81d8393p-16
14583=-0xb.f27a84140c8e8p-15
14589=0xa.26215e40d6268p-7
14594=0xe.85dc9b501fa48p-16
14598=-0xb.a9456c1e77d38p-16
14603=-0xd.c49e464066dcp-18
14621=0x8.c158e4221ae98p-15
14661=-0xb.5db24411d983p-12
14667=-0x9.7b0c89a229d8p-18
14674=0xd.e0db3c27d42a8p-11
14687=-0xa.ac18ac1642ap-21
14705=-0xb.dad2d81d8393p-16
14709=-0xb.f27a84140c8e8p-15
14715=0xa.26215e40d6268p-7
14720=0xe.85dc9b501fa48p-16
14724=-0xb.a9456c1e77d38p-16
14729=-0xd.c49e464066dcp-18
14747=0x9.47be02acc8498p-8
14762=0xf.c0f2d0688696p-18
14765=0xe.7f630f5c86348p-13
14771=-0xe.0d7ef1e33f708p-18
14789=0x9.47be02acc8498p-8
14804=0xf.c0f2d0688696p-18
14807=0xe.7f630f5c86348p-13
14813=-0xe.0d7ef1e33f708p-18
14831=0x9.47be02acc8498p-8
14846=0xf.c0f2d0688696p-18
14849=0xe.7f630f5c86348p-13
14855=-0xe.0d7ef1e33f708p-18
14873=0x9.47be02acc8498p-8
14888=0xf.c0f2d0688696p-18
14891=0xe.7f630f5c86348p-13
14897=-0xe.0d7ef1e33f708p-18
14915=-0xc.f657e8362dbe8p-17
14930=-0x9.20b81031c818p-15
14939=-0xe.56c20bdd52d48p-18
14957=-0xd.16bdb62de6fcp-17
14972=-0xb.0976c7c4f2b6p-12
14981=-0xe.56c20bdd52d48p-18
14999=-0xc.f657e8362dbe8p-17
15014=-0x9.20b81031c818p-15
15023=-0xe.56c20bdd52d48p-18
15041=-0xc.f657e8362dbe8p-17
15056=-0x9.20b81031c818p-15
15065=-0xe.56c20bdd52d48p-18
15083=-0xc.f657e8362dbe8p-17
15098=-0x9.20b81031c818p-15
15107=-0xe.56c20bdd52d48p-18
15125=-0xc.f657e8362dbe8p-17
15140=-0x9.20b81031c818p-15
15149=-0xe.56c20bdd52d48p-18
15167=-0xc.f657e8362dbe8p-17
15182=-0x9.20b81031c818p-15
15191=-0xe.56c20bdd52d48p-18
15209=-0xc.f657e8362dbe8p-17
15224=-0x9.20b81031c818p-15
15233=-0xe.56c20bdd52d48p-18
15251=-0xc.f657e8362dbe8p-17
15266=-0x9.20b81031c818p-15
15275=-0xe.56c20bdd52d48p-18
15293=-0xc.f657e8362dbe8p-17
15308=-0x9.20b81031c818p-15
15317=-0xe.56c20bdd52d48p-18
15335=-0xc.f657e8362dbe8p-17
15350=-0x9.20b81031c818p-15
15359=-0xe.56c20bdd52d48p-18
15377=-0xc.f657e8362dbe8p-17
15392=-0x9.20b81031c818p-15
15401=-0xe.56c20bdd52d48p-18
15419=-0xc.f657e8362dbe8p-17
15434=-0x9.20b81031c818p-15
15443=-0xe.56c20bdd52d48p-18
15461=-0x8.a3214e1ca07ap-21
15465=0x8.932aaf5f843bp-16
15476=-0x8.5b64efe96de5p-14
15485=-0xe.a75a8971665p-18
15503=0xd.7daa11131c27p-12
15545=0xd.7daa11131c27p-12
15587=-0x8.a3214e1ca07ap-21
15591=0x8.932aaf5f843bp-16
15602=-0x8.5b64efe96de5p-14
15611=-0xe.a75a8971665p-18
15629=-0x8.a3214e1ca07ap-21
15633=0x8.932aaf5f843bp-16
15644=-0x8.5b64efe96de5p-14
15653=-0xe.a75a8971665p-18
15671=-0x8.a3214e1ca07ap-21
15675=0x8.932aaf5f843bp-16
15686=-0x8.5b64efe96de5p-14
15695=-0xe.a75a8971665p-18
15709=-0x8.04d082fa63cfp-10
15713=-0xe.cb76a44ec9108p-18
15728=0x8.05a9bdfd804cp-16
15737=-0xe.e7c5ec39e63ep-18
15760=0xa.ef25760f4e358p-23
15793=-0x8.04d082fa63cfp-10
15797=-0xe.cb76a44ec9108p-18
15812=0x8.05a9bdfd804cp-16
15821=-0xe.e7c5ec39e63ep-18
15835=-0x8.04d082fa63cfp-10
15839=-0xe.cb76a44ec9108p-18
15854=0x8.05a9bdfd804cp-16
15863=-0xe.e7c5ec39e63ep-18
15881=-0xf.f7c8237efafbp-17
15885=0x8.1c3bb5aa80228p-16
15896=0xa.6b5a482ad23dp-15
15905=-0xf.1a5edac50c92p-18
15923=0xf.15f6d9a12c64p-12
15927=0x9.73355b8dfaf28p-14
15938=0xd.ed431a4dee27p-16
15947=-0xf.523e075bc197p-18
15980=-0xc.954e78dd7fe1p-24
16007=-0x9.b0cc97af309e8p-17
16059=0xb.6aa8def604168p-5
16090=0xe.09eacf5518ep-25
16114=0xc.aefee67e210ep-4
16151=0xf.320ddd0c9fe18p-13
16175=-0xb.4cf7d044ec348p-7
16190=0x9.20066372d4fep-15
16232=-0xa.3291eb4c4c17p-23
16263=0xa.0a324cef06588p-14
16299=0xe.5c288762da04p-22
16339=-0x8.1ab13ae89408p-9
16341=0xd.f9c92dece5808p-8
16342=0x8.85f8598086d88p-5
16343=0xc.77bf94f825c68p-6
16349=0x9.c73706bfc5c18p-13
16357=0x9.d202d979fb4dp-4
16358=-0x9.3ab693a50ec78p-7
16367=0xa.88bee7f8aa7cp-20
16375=0xb.1503500b25838p-12
16388=0xc.d4f342db4352p-16
16389=-0x9.4aed00d783c2p-18
16395=0x9.295e1ef2414p-6
16404=-0xb.f743fe8c57d78p-14
16409=0x8.7649f170188a8p-19
16437=0x8.b024318a52428p-12
16469=0x9.073dc870e4f88p-12
16484=0xa.2d1fef1e7efb8p-10
16501=0x9.025a5dc9077p-4
16529=0xb.1735686705b1p-5
16553=-0xb.f28a0b9c4dd9p-11
16568=0x9.efab00e0ecc78p-15
16595=0xd.332a6707e8ac8p-17
16610=-0xe.1decf29bcee6p-15
16619=0xb.9313857f56c58p-20
16637=0xb.380c75d3581f8p-12
16641=0x9.f086526520cp-14
16652=-0xe.2f0c5d97323d8p-13
16678=0xc.5c1a44b7b4ad8p-9
16739=0xf.bc9bb2c8abbbp-13
16763=-0xb.58bd0ab407058p-7
16778=0xe.2fcbee07fbc78p-18
16804=0xe.9620371035148p-14
16809=-0xf.d713a1903dcfp-17
16823=0x9.e8d7c93c9fc6p-20
16847=0xe.eac3780a7ff28p-9
16862=-0xa.3fa78ebe454c8p-19
16913=0xb.83b20c708dda8p-20
16955=0x9.dc449dae1d1b8p-20
16977=0xa.14083080d7728p-14
17018=0xc.7dc6fe743d918p-15
17067=0xd.5846a9649ddc8p-15
17099=-0x9.fee7722c38c9p-16
17114=0xd.95867cfb205cp-15
17141=0x8.b76c3de19ef4p-13
17180=0x9.82062ce182e88p-13
17183=0xf.aca64737dfad8p-13
17198=-0x8.f6965033edcbp-12
17207=-0xb.13b4511f4ad9p-18
17215=0xb.5b43de55c37f8p-13
17225=0xb.62b41a2c9046p-23
17240=-0xe.67b57c993d58p-24
17273=0xc.c70a6d1d5ec08p-26
17309=0x9.cb3defcb404dp-18
17313=0xa.a37fa192f0438p-12
17314=0xa.c306ee36d7d9p-12
17324=-0x8.f0b34b26773ap-10
17333=-0xf.08588daeef8cp-19
17351=0xf.cbf4c72a3524p-25
17356=0xd.9af3a42c9ab5p-8
17393=0xa.280c0872f8bb8p-17
17425=-0xe.ffd546c3c9a3p-13
17467=0x9.770ebaca9fff8p-14
17492=-0x8.b990fa165ae6p-17
17501=0xa.ea5ebcadf90cp-13
17517=0xa.3e3188a4fdb08p-3
17557=-0xf.dc4a38a1d189p-16
17561=0xd.0b6e221fccfep-15
17567=0xc.024f19a1ed578p-9
17572=-0xb.ef9ab014b5fdp-18
17576=-0x9.06ea74016952p-18
17585=-0xe.70c16867bddb8p-18
17593=-0xc.a0deaa7215088p-13
17635=0x9.92c6e1671a2d8p-14
17677=0x9.928cbe48241dp-14
17685=0xf.d8928ceedb18p-17
17732=0xb.0c4f018fb497p-3
17744=0x9.d3475d9be2008p-16
17771=0xb.854ce9a9dddb8p-13
17813=0xe.1dd423e5f9438p-14
17828=-0xd.71ed95e2d635p-16
17855=0xb.0d6e4801e76dp-13
17859=0x9.f0a1e2d640b28p-14
17870=-0xc.2625e2cfb9b28p-13
17897=0x9.b146a16bd16ap-16
17939=-0xa.fb5b785e1fe38p-7
17954=0x9.2bb074153f2e8p-17
17981=0xf.b0f65dd7b8208p-21
17996=-0x8.b9bdc6b8a28f8p-23
18020=0x9.a651ff130217p-13
18023=-0xb.a2d1ed640ad2p-13
18065=0xc.7e99952e393ep-11
18080=-0x8.ba6ee7221ac58p-14
18089=0xb.2dc754cad7f98p-20
18131=0xb.2dac2b354a318p-20
18149=-0xa.4964ed3b7f3c8p-11
18194=0xc.781de5318dbc8p-22
18248=-0xa.38254247c19cp-13
18290=-0x8.ec841bb8774bp-18
18298=0xa.708c8d264602p-4
18322=0xa.ef2bda3865688p-23
18359=0xd.3b50a05d72eap-14
18374=-0x9.872af4ebea16p-15
18404=0xc.7d7b7e349393p-22
18443=0xf.d5e229f107418p-18
18447=0xb.3140e9653392p-15
18467=-0xf.8ffc9587c94a8p-19
18485=0xf.d62e8499874fp-18
18509=-0xf.8f7c7c76add2p-19
18531=0xb.d6096b9338518p-7
18573=0xc.10b10db09da78p-15
18626=-0x8.b990fa165ae6p-17
18635=0xa.ea5ebcadf90cp-13
18663=0xf.7d642c93633b8p-8
18695=0xf.32c1ab4c9eb6p-20
18740=0xc.6cbef855db0dp-15
18782=0xc.6cbedd7d48bp-15
18825=0xa.141257c817a3p-14
18867=0xa.141257c817a3p-14
18909=0xa.14124ca86b2dp-14
18951=0xa.141257c817a3p-14
18993=0xa.141257c817a3p-14
19035=0x9.fbf8ae3db49a8p-14
19077=0x9.fbf8bd5231d2p-14
19120=0xd.98ff085e4f488p-23
19162=0xd.98feee1f872d8p-23
19205=0xc.bdd505f410e7p-26
19209=0xe.02930d96bc958p-15
19241=0xe.4baec15a7b2bp-14
19256=-0x8.d580a84326258p-17
19273=0xb.29fa65d572aep-8
19315=0x9.928cbe48241dp-14
19357=0x9.928cbe48241dp-14
19367=0xf.32d77fd10a038p-20
19409=0xd.a92d2db11d828p-16
19424=-0xb.fc19144544b9p-24
19448=0x9.63d750de0c5ep-12
19491=0x8.02b35b9093908p-16
19533=0x8.02b35b9093908p-16
19575=0xf.d8928ceedb18p-17
19617=0xf.d8928ceedb18p-17
19659=0xf.d8928ceedb18p-17
19701=0xa.474655b383c1p-17
19743=0xa.474655b383c1p-17
19785=0xa.474655b383c1p-17
19827=0xa.474655b383c1p-17
19869=0xa.474655b383c1p-17
19911=0xa.474655b383c1p-17
19953=0xa.474655b383c1p-17
19995=0xa.474655b383c1p-17
20037=0xa.474655b383c1p-17
20079=0xa.474655b383c1p-17
20121=0xf.4d0d73c0e1418p-17
20163=0xf.4d0d73c0e1418p-17
20205=0xf.4d0d73c0e1418p-17
20253=-0xe.35b56f7b6d3p-6
20289=0xf.2ed9cad733f08p-17
20331=0xf.2ed9cad733f08p-17
20373=0xf.2ed9cad733f08p-17
20416=0xb.8f3d0101bf6cp-7
20473=0x8.00160f5d77b88p-3
20516=-0x9.0ca2c05b018cp-11
20543=0x8.f875054611a78p-17
20558=-0xe.6a7b2393883bp-15
20585=0x8.6b8666e6a11a8p-16
20627=-0x9.74b71766e12ap-17
20641=0x8.e33e7699696fp-8
20684=0xe.566de9f6910e8p-16
20726=-0xf.accbdc45f6f98p-16
20735=0xa.ed959512f5aap-20
20777=0xa.e187392f09cp-20
20795=-0x8.957d3dcad258p-18
20810=0x8.c977392bfd48p-16
20852=0xd.fdcb26379b5dp-17
20889=0xd.56e5f907539bp-15
20903=0xb.7a051e343842p-20
20925=-0x9.2a41dac8a6648p-12
20940=0xe.ce1533395d99p-11
20963=0xf.f012fb7ae0ap-23
21004=0xc.5be89251eed1p-9
21047=0x9.a3612bd36e018p-25
21112=0xd.24080d1cfffbp-18
21131=-0xe.f78d3f479247p-18
21146=0xf.a1cb5b4ea89ep-18
21197=0xa.e30002b68fe18p-20
21239=0xa.e2fe109e62288p-20
21257=0xc.f8386326f42b8p-23
21272=-0x9.b6fb0eff3f0dp-23
21298=0xf.e7be51a2f2c4p-10
21299=-0xe.08a743bdd65p-16
21340=0xf.f696552a3489p-10
21341=-0xa.21404bf04e4dp-13
21356=-0xd.7af3cf89ba45p-17
21398=0xd.30497b7d1ab28p-18
21440=0x9.65f2b67c981bp-9
21482=0x8.f540811bd6dp-25
21524=0xc.75c5b62678aep-16
21551=0xc.d57dfe884c1a8p-23
21566=-0x9.0c15142be70b8p-23
21593=0x9.eec8adda6434p-23
21608=-0xb.d8e29d859f9p-24
21659=0xa.d82aa08c154cp-20
21677=0xa.d1fe58cc2bf8p-19
21734=0xa.74eb48cbb94ap-17
21761=0xc.04b9356be7b58p-6
21818=-0xd.9117f52bd9cp-29
21860=-0xa.aadd746325a8p-26
21887=0xb.896265d5c2de8p-14
21902=-0xb.c8be534fb4aap-17
21929=0xc.c9910cc93be18p-15
21944=-0xb.811bf728fe628p-15
21971=0x9.0264bbc024148p-6
22045=0x9.92c6e1671a2d8p-14
22055=0x8.5902f03d0458p-20
22070=-0xe.9d03b46bed23p-24
22097=0xe.2520c425191f8p-17
22163=0xb.2dac25add8bfp-20
22196=0xa.d998c2a605c48p-14
22255=0x9.8485b86f6101p-14
22297=0x9.84e9d37653578p-14
22339=0x9.84e9d37653578p-14
22347=0xf.2ed9cad733f08p-17
22406=-0xa.38ae687751408p-8
22433=-0x9.541643b907e18p-11
22489=0xb.99526a352b6fp-8
22520=0xc.df8e5c7004cep-15
22559=0x9.f3196e2fe9b28p-12
22574=-0x8.22ce4bb47e0f8p-15
22620=0xa.fda3c3492c538p-11
22643=0xb.840d725da2478p-20
22658=0xc.ee23cc551633p-19
22685=-0xe.5f71dc9ab075p-19
22700=0x8.b8d593d1d9338p-17
22727=0xc.843e253398468p-23
22742=-0x8.edb53665bf16p-23
22767=0xa.99ae07f5b783p-11
22811=0xc.d643139bc91fp-23
22826=-0x9.19067327e7afp-23
22853=0xe.b7a74cffb7adp-17
22927=0x9.92f50b09e1df8p-14
22969=0x9.92f50b09e1df8p-14
23011=0x9.84ed509dd703p-14
23053=0x9.84ed509dd703p-14
23095=0x9.84ed509dd703p-14
23120=-0xb.46d5c1dbc8b5p-24
23162=-0xb.46d5c1dbc8b5p-24
23189=0xb.15ef643b75728p-17
23231=0xb.1713f1dc03e3p-17
23273=0xa.fdf2102ba0858p-6
23315=0x9.a3f0d485ec53p-25
23356=0xc.5c1a44b7b4ad8p-9
23409=0xd.8ed7330e4818p-14
23456=-0x9.263ae8952edb8p-23
23493=0x8.b024318a52428p-12
23535=0xf.a691c0957c32p-6
23577=0x8.b024318a52428p-12
23627=0xf.bc9bb2c8abbbp-13
23669=0xa.5dc335b750b4p-8
23711=0xa.33bdd2837951p-8
23753=0xa.650738a956538p-8
23795=0xf.bc9bb2c8abbbp-13
23837=0xd.fe6f528ced2fp-13
23879=0xf.bc9bb2c8abbbp-13
23921=0xf.bc9bb2c8abbbp-13
23963=0xf.bc9bb2c8abbbp-13
24005=0xf.bc9bb2c8abbbp-13
24047=0xf.bc9bb2c8abbbp-13
24089=0xf.bc9bb2c8abbbp-13
24132=0xd.7ad45c4064b18p-15
24174=0xb.8d876a2671d7p-8
24216=0x9.7052ef391d618p-7
24239=0xd.662c1905bba1p-21
24305=0xa.d77067b76627p-20
24323=-0xe.15fbcd5602d48p-18
24338=0x9.2c9a0ecf7026p-17
24365=-0xc.cedd89e9ffa9p-17
24380=0xa.760551f6658e8p-16
24410=0xc.dfaa8328bd7c8p-15
24452=0xc.dfaa8328bd7c8p-15
24488=0x9.63d750de0c5ep-12
24530=0x9.63d750de0c5ep-12
24573=0x8.02b35b9093908p-16
24615=0x8.02b35b9093908p-16
24657=0xf.d8928ceedb18p-17
24699=0xf.d8928ceedb18p-17
24741=0xf.d8928ceedb18p-17
24783=0xf.d8928ceedb18p-17
24825=0xf.d8928ceedb18p-17
24867=0x9.e2b8f90f02fc8p-17
24909=0xf.d8928ceedb18p-17
24951=0xa.474655b383c1p-17
24993=0xa.474655b383c1p-17
25035=0xf.4d0d73c0e1418p-17
25077=0xf.4d0d73c0e1418p-17
25119=0xf.2ed9cad733f08p-17
25161=0xb.13de69a1e3188p-6
25220=-0xa.0497bb683e0ep-14
25271=0xb.64507280e4808p-20
25313=0xb.64507280e4808p-20
25331=0x9.ceaffa85bef7p-16
25346=-0xb.ec22b9d3eb0f8p-17
25369=0x9.ceb85383e9f2p-5
25414=0xc.2baa54d4c0548p-18
25457=0xf.e89eecaf648cp-25
25462=0xd.9a40b0cf81e4p-23
25472=-0xd.310bfa7e3958p-26
25499=0xc.73abf5fcf5038p-23
25514=-0x8.b9bdc6b8a28f8p-23
25541=0xf.b0f65dd7b8208p-21
25556=-0x8.b9bdc6b8a28f8p-23
25607=0xb.929aeb64cd098p-20
25624=0xb.8c1a970c82a88p-9
25625=-0xc.df4ff42966ep-6
25640=-0xd.b86ba26bd761p-18
25677=0xd.8ed7330e4818p-14
25733=0xb.64501543ff388p-20
25766=0x9.275c9278b7fcp-18
25793=0x8.d38d1a4644598p-21
25835=-0xc.d968ede763f48p-17
25850=0xb.f726f0c35fae8p-7
25877=0xd.acf26615b62dp-21
25892=-0x8.a30b9cdc2a798p-19
25934=-0xe.f11d3bc755adp-20
25961=0xe.6cc94d2a8ea08p-22
25976=-0xa.049045326d78p-20
26003=0x8.2949dd797e26p-22
26018=-0x8.0a1fe74307d98p-20
26045=0xe.21c1affbdd0e8p-23
26060=-0xa.726c25ca87dep-23
26087=0xa.902a07e188e6p-19
26102=-0xa.3e9e4762c2a68p-20
26119=0x8.2d1b0afaf9078p-19
26161=0x9.5ed4b3e4963f8p-12
26171=0xa.902a07e188e6p-19
26186=-0xa.3e9e4762c2a68p-20
26203=0x8.2d1b0afaf9078p-19
26213=0xb.75cbbdb19a16p-19
26228=-0x8.3df6ce0aaea4p-20
26287=0x9.5ed4b3e4963f8p-12
26297=0x8.09eb53d105bdp-19
26339=0xa.902a07e188e6p-19
26354=-0xa.3e9e4762c2a68p-20
26371=0x8.2d1b0afaf9078p-19
26381=0xa.902a07e188e6p-19
26396=-0xa.3e9e4762c2a68p-20
26413=0x8.2d1b0afaf9078p-19
26423=0xf.9981c2c04d1dp-23
26438=-0xb.655c8f3002d3p-20
26455=0x9.4118673abe54p-17
26497=0x8.196fa6ec54d5p-12
26507=0x9.26e88b0af35ep-20
26522=-0x8.55cff6ab9d46p-20
26539=0xe.64d954ef24ff8p-18
26581=0x8.196fa6ec54d5p-12
26606=-0xa.74019d8af44fp-20
26623=-0x8.b3fba98fb681p-13
26665=0x8.22814da78cf88p-12
26675=0xe.3c77f7c15be28p-13
26690=-0x8.c1c56c5ca81c8p-15
26749=0x8.22814da78cf88p-12
26759=0x9.a906961b8268p-21
26774=-0x8.6f418e576483p-20
26791=-0x9.1931c96c3f16p-13
26833=0x8.22814da78cf88p-12
26875=0x8.225bcead309fp-12
26917=0x8.22814da78cf88p-12
26959=0x8.4d7766f14e5ap-11
27001=0x8.22814da78cf88p-12
27026=-0xa.a936b445978p-20
27043=-0x8.0074de97acc08p-14
27085=0x8.2d23dc3dc3608p-12
27095=0xf.a92e1c8472518p-14
27110=-0xe.6d8be40aeda7p-17
27169=0x8.2d23dc3dc3608p-12
27178=0xd.46d3fd29bfc48p-15
27194=-0xa.b71d9349bc69p-20
27253=0xa.27102acde61c8p-11
27263=0xf.95073f8f5c828p-14
27278=-0xc.e9c152fb70928p-17
27337=0xa.27102acde61c8p-11
27347=0xf.95073f8f5c828p-14
27362=-0xc.e9c152fb70928p-17
27421=0xa.4c34dda96275p-11
27431=0xe.dd81de6986ccp-14
27446=-0xc.7dd1025fbb5ap-17
27473=0xe.dd81de6986ccp-14
27488=-0xc.7dd1025fbb5ap-17
27515=0x9.2a2c4cde87ec8p-16
27530=-0xf.fc63527f2615p-18
27557=0xf.d5f58e6cff5ap-18
27572=-0xb.f195bc00ba7e8p-17
27599=0xd.f0b386710017p-13
27614=-0xb.f195bc00ba7e8p-17
27641=0xf.d5f58e6cff5ap-18
27656=-0xb.f195bc00ba7e8p-17
27683=0xf.d5f58e6cff5ap-18
27698=-0xb.f195bc00ba7e8p-17
27725=0xf.d5f58e6cff5ap-18
27740=-0xb.f195bc00ba7e8p-17
27767=0xd.a1807b88c0768p-6
27782=-0xb.81e651ed0ca8p-17
27809=0xd.a1807b88c0768p-6
27824=-0xb.81e651ed0ca8p-17
27851=0xd.b25bf350f84d8p-16
27866=-0xa.4e9f92363081p-17
27893=0xd.b25bf350f84d8p-16
27908=-0xa.4e9f92363081p-17
27935=0x9.4779ea8e53a98p-7
27950=-0x9.ea2a8133b545p-23
27977=0xb.45eef4770a68p-13
27992=-0x9.5aa32370238ep-17
28019=0xa.825ba75781ce8p-12
28034=-0xc.2cf6613a1f2e8p-18
28061=0xb.473e469bf3c9p-23
28076=-0xf.e1b654a8d7ddp-24
28103=0xb.2df68b43cd738p-23
28118=-0x8.20013fcd4d7a8p-23
28145=0xb.4a8662ddc4908p-23
28160=-0xf.f66607b7feb5p-24
28187=0xb.4a8662ddc4908p-23
28202=-0xf.f66607b7feb5p-24
28229=0xb.63f2104e5a35p-23
28244=-0x8.12b0a697ea99p-23
28271=0xb.63f2104e5a35p-23
28286=-0x8.12b0a697ea99p-23
28313=0xc.0a04bf657375p-23
28328=-0xf.c261d381d552p-24
28355=0xc.0a04bf657375p-23
28370=-0xf.c261d381d552p-24
28397=0xc.0a04bf657375p-23
28412=-0xf.c261d381d552p-24
28439=0xc.0a04bf657375p-23
28454=-0xf.c261d381d552p-24
28481=0xc.0a04bf657375p-23
28496=-0xf.c261d381d552p-24
28523=0xc.06038d67905cp-23
28538=-0xf.af4367445b0cp-24
28565=0xc.06038d67905cp-23
28580=-0xf.af4367445b0cp-24
28607=0xc.0a04bf657375p-23
28622=-0xf.c261d381d552p-24
28649=0xb.ba723f4b9affp-23
28664=-0x8.016cbc675c3f8p-23
28691=0xc.ee8d675a2614p-17
28733=0xb.ba723f4b9affp-23
28748=-0x8.016cbc675c3f8p-23
28775=0xd.e6958a916404p-5
28790=-0x8.29883ab6621ep-23
28817=0xd.d89df2a1c9abp-17
28859=0xc.101165e94aaf8p-23
28874=-0x8.29883ab6621ep-23
28901=0xd.69b2ee768597p-11
28916=-0x8.2b2da6baf429p-23
28943=0xe.74837380b1f38p-17
28958=-0xf.709e0c388d728p-11
28985=0xd.38d661e76d7b8p-17
29000=-0x8.c2b54ddc6fe5p-10
29027=0xc.ca2284802b858p-23
29042=-0x8.8940642595ca8p-23
29069=0xf.7c59e4dd7082p-17
29111=0xe.41820b303c4ap-17
29153=0xc.7aeab8bed8548p-17
29195=0xc.7aeab8bed8548p-17
29237=0xf.21408ad7c324p-7
29279=0xf.2c4df1541514p-17
29294=0xe.90ab0c214936p-19
29321=0xc.7aeab8bed8548p-17
29363=0xc.7aeab8bed8548p-17
29405=0xc.7aeab8bed8548p-17
29447=0x9.c2f6b3972db7p-15
29489=0x9.5681f79ce041p-15
29504=-0xd.ef3ab330eb7c8p-12
29531=0xf.64653dac7aa58p-17
29546=-0x9.b06e9aa2296bp-16
29573=0xd.74a2d209e14f8p-17
29588=-0x8.1ab87d0601128p-11
29615=0x8.14982e3bb13d8p-16
29657=0xe.e1b2e982e0c9p-17
29699=0x9.9e51d569a4398p-7
29746=0xd.9a3dade759b08p-23
29798=-0xe.e06932e2cb57p-24
29825=0x9.def4f39902d4p-23
29840=-0x9.11bb118e276ap-23
29877=0xd.8ed7330e4818p-14
29908=0xb.59901f2577aa8p-14
29951=0x8.589d0a48dfeep-20
29966=-0xd.243bedb2d8ap-26
29992=0xe.b0fcac996569p-13
29997=-0xd.0abbaee4f4f7p-18
30035=0xf.f555e13ec49c8p-13
30080=0xc.7ecdb028ac2dp-15
30122=0xc.7ecdb028ac2dp-15
30164=0xc.7ecdb028ac2dp-15
30207=0xe.6e6a0cb25ead8p-7
30249=0xa.225e5432a2d38p-14
30291=0x9.d7ce6f5827488p-5
30339=0x8.ca11ac94a7e1p-14
30381=0x8.ca11ac94a7e1p-14
30413=0xd.cc97002660858p-15
30455=0x8.d09e8529fc018p-7
30470=-0xe.d4d24bfae041p-24
30507=0xb.ce84a64318d3p-12
30549=0xb.ce84a64318d3p-12
30591=0xb.ce849ae4a58f8p-12
30641=0xf.35439c7bd7158p-13
30665=0xd.9a7f56990306p-23
30680=-0xa.8b644281db5fp-23
30707=0xd.9a7f56990306p-23
30722=-0xa.8b644281db5fp-23
30772=0xd.240a573d9e52p-18
30815=0xb.bdd04d2ef5e9p-20
30857=0xb.bc3748771132p-20
30899=0xb.929ae9634f308p-20
30941=0xb.90fe8ac3247c8p-20
30983=0xb.64501543ff388p-20
31025=0xb.64501543ff388p-20
31067=0xb.62ff95a0ec21p-20
31109=0xb.476b7a881df9p-20
31151=0xb.461897200feep-20
31193=0xb.2dab7a90754e8p-20
31235=0xb.2c548e7fef6ep-20
31277=0xb.268ea7f732a28p-20
31319=0xa.e53eecd163f2p-20
31360=0x9.7385cd29f3748p-4
31403=0x8.e43e491ce0f3p-19
31445=0x8.b77739c0e2058p-19
31486=0xd.240a573d9e52p-18
31505=0xf.32d77fd10a038p-20
31553=0xc.c709414523c1p-26
31588=0xc.5c1a44b7b4ad8p-9
31631=0x9.a3f0d485ec53p-25
31677=0xa.61206f5235808p-14
31719=0xa.61206f5235808p-14
31754=0xd.a9a0661c3046p-14
31809=0xd.5846a9649ddc8p-15
31851=0xd.5846d9dff49cp-15
31883=0xd.bb841df06801p-15
31898=-0xb.da212bcbf9688p-16
31925=0xe.93d556835cdf8p-5
31967=0x9.f279250a88abp-22
31982=-0xc.3dd2812ee758p-26
32009=0xc.f6379a9f731ep-24
32024=-0xb.31da869226ap-25
32051=0xe.8d5ceca22502p-24
32066=-0x8.062c345b81fap-24
32093=0xe.8d5ceca22502p-24
32108=-0x8.062c345b81fap-24
32135=0x8.cef3326ee1e4p-23
32150=-0xa.b914fee5e46p-24
32177=0x8.cef3326ee1e4p-23
32192=-0xa.b914fee5e46p-24
32219=0x9.f4e296e517d9p-23
32234=-0xc.1f28b656056cp-24
32261=0x9.f4e296e517d9p-23
32276=-0xc.1f28b656056cp-24
32303=0x9.f4e296e517d9p-23
32318=-0xc.1f28b656056cp-24
32345=0x9.f4e296e517d9p-23
32360=-0xc.1f28b656056cp-24
32387=0x9.f4e296e517d9p-23
32402=-0xc.1f28b656056cp-24
32429=0x9.f4e296e517d9p-23
32444=-0xc.1f28b656056cp-24
32471=0x9.f4e296e517d9p-23
32486=-0xc.1f28b656056cp-24
32513=0x9.65c42cd3b6bbp-23
32528=-0xe.8fc678a7244fp-24
32555=0x9.65c42cd3b6bbp-23
32570=-0xe.8fc678a7244fp-24
32597=0x9.59b36efbfb9ep-23
32612=-0xf.6a2065dc0abp-24
32639=0x9.59b36efbfb9ep-23
32654=-0xf.6a2065dc0abp-24
32681=0x9.972f6c6a2226p-23
32696=-0x8.051286c8a9188p-23
32723=0xa.5bacb9db3138p-23
32738=-0x8.9b828f3bb087p-23
32765=-0xa.015cb291c3abp-16
32797=0xf.f4e2d4e34d96p-17
32807=-0xa.015cb291c3abp-16
32839=0xf.f4e2d4e34d96p-17
32881=0x8.64722a8a682a8p-12
32923=0x8.64722a8a682a8p-12
32932=0xc.8cd6c054d95dp-14
32974=0xc.8cd6c054d95dp-14
33015=0x8.02b35b9093908p-16
33057=0xf.d8928ceedb18p-17
33099=0xa.474655b383c1p-17
33141=0xa.474655b383c1p-17
33183=0xf.4d0d73c0e1418p-17
33225=0xf.4d0d73c0e1418p-17
33267=0xf.2ed9cad733f08p-17
33309=0xf.2ed9cad733f08p-17
33351=0xf.2ed9cad733f08p-17
33393=0xf.2ed9cad733f08p-17
33435=0xf.2ed9cad733f08p-17
33478=0xb.59901f2577aa8p-14
33520=0xb.59901f2577aa8p-14
33563=0xf.32d77fd10a038p-20
33637=0x8.95c56cf90b09p-4
33679=0x9.82b38547700ep-14
33688=0xd.50975bd488eap-14
33731=0x9.edc98e6fd67a8p-4
33773=-0xe.49010eddbb18p-18
33815=-0xd.498e60da2449p-14
33857=-0xd.730d419da4d5p-18
33899=-0xd.730d419da4d5p-18
33941=-0x8.f9161bd01514p-17
33983=-0x8.f9161bd01514p-17
34025=-0x8.f9161bd01514p-17
34067=-0x9.9637ea64dbfe8p-17
34109=-0x8.f9161bd01514p-17
34151=-0x8.f9161bd01514p-17
34193=-0x8.f9161bd01514p-17
34235=-0x8.f9161bd01514p-17
34277=-0x8.f9161bd01514p-17
34319=-0x9.394b34a0a86ep-17
34361=-0x9.394b34a0a86ep-17
34403=-0x8.c4ddfb68b65ap-17
34445=-0x8.c4ddfb68b65ap-17
34487=-0x9.2f381310f613p-17
34529=-0x9.d134be7e30dcp-16
34586=-0x8.0e8279d6a811p-20
34628=-0xa.8dfd33a704828p-20
34670=-0xa.a2d8d080f31e8p-19
34712=-0xa.a2d8d080f31e8p-19
34754=-0xc.8dbf10258a078p-20
34796=-0xc.8dbf10258a078p-20
34838=-0xc.bc10d4b196bp-20
34880=-0xc.bc10d4b196bp-20
34922=-0xc.bc10d4b196bp-20
34964=-0xc.bc10d4b196bp-20
34991=0x8.9d7ebe9eeeb78p-22
35006=-0xa.aa8f0735cbce8p-20
35048=-0xc.bc10d4b196bp-20
35090=-0xc.ef1b0ee0624dp-20
35132=-0xc.ef1b0ee0624dp-20
35174=-0xd.12ec47a14e728p-20
35216=-0xd.12ec47a14e728p-20
35258=-0xd.301e849a110fp-20
35300=-0xb.d64a3f10c124p-19
35359=0x9.909f56776cd38p-14
35366=0x9.a3cc9bce38578p-13
35369=-0xa.1a8b8dba92fa8p-3
35393=-0x8.8e20514adacc8p-18
35401=0x8.4823931a3d4a8p-12
35410=0x8.12cff71e1ca4p-12
35453=0xd.7b857929553cp-23
35468=-0xa.963d1f2d2dc38p-23
35495=0x9.47bf5e0122a58p-6
35537=0xb.1713f1dc03e3p-17
35579=-0x9.a7bccb53ade68p-17
35594=0xc.f0bb2ea96123p-17
35621=-0x8.0454bbb9d80b8p-17
35636=0xf.cc220d02e069p-16
35663=-0xe.071e6e75469ep-18
35678=0xa.65e111f4996f8p-16
35705=-0xe.071e6e75469ep-18
35720=0xa.65e111f4996f8p-16
35747=-0xe.071e6e75469ep-18
35762=0xa.65e111f4996f8p-16
35789=-0xd.b147fa99eaa1p-18
35804=0xb.534938f66a4cp-16
35831=-0xd.1439776006678p-18
35846=0xb.ae10e8dd926ep-16
35873=0xd.662c1905bba1p-21
35939=0xa.e53eecd163f2p-20
35957=0x8.026b3bd428318p-16
35999=0x8.663b4238e5dfp-20
36014=-0xe.df5fb7c7dcfep-24
36041=0xc.3c69a50f352e8p-18
36083=0xc.3c69a50f352e8p-18
36125=0xa.0a9f240d233ap-23
36140=-0xc.34488f5ffd74p-24
36191=0xb.2dab7a90754e8p-20
36233=0xb.929af34d9918p-20
36275=0xb.929af34d9918p-20
36293=0x9.a3f0d485ec53p-25
36359=0xb.268ea7f732a28p-20
36401=0xa.e53eecd163f2p-20
36443=0xa.dfe2ea386d908p-20
36485=0xa.d76dda304ce1p-20
36507=0xa.61206f5235808p-14
36555=0xd.8ed7330e4818p-14
36585=0xf.2ed9cad733f08p-17
36628=0xc.5c1897649dac8p-9
36694=0xd.240a573d9e52p-18
36737=0xb.bdd04d2ef5e9p-20
36779=0xb.929aeb64cd098p-20
36829=0x9.92f50b09e1df8p-14
36871=0x9.84ed509dd703p-14
36881=0xb.1713f1dc03e3p-17
36938=-0xf.30e0850ed55cp-11
36965=0x9.2a2c4cde87ec8p-16
